57.974875325135940329 53.563441309014251601 57.241979655656848536 62.19363372716524907 64.880786505268915221 69.99164627390044302 58.716472132551231766 54.89011739810411683 59.7137320209283331 59.936313237848779067 57.100329687299193893 63.079489857140337961 60.733939562039772397 58.884387174673989307 62.107416444981900838 60.288889974656726167 58.02760511492146378 59.220428773433397396 55.835525137822891395 61.267197874903907007 58.586904056832857179 63.12764621259847786 60.530533498609187859 63.575258527284695731 66.826742799353951341 67.479227163370936182 61.667284767655829114 59.144217767474295044 66.654494017677819784 67.329256688909325135 57.911984891678599752 51.040846449736562818 57.545679022274967451 65.539088729694100266 54.348803961358449044 62.275892159971142803 60.826725070351855607 62.391580524984469491 59.559886843760260433 64.857824395494759528 62.037037935767273211 62.281291247685906853 62.593274248101550938 60.641215915932988878 57.033908224359350925 66.683451156967294082 74.767406462953786672 65.456780689125395156 57.253233486720183976 60.969095665581782839 66.935598886855885326 70.276582495236340264 62.773994008573289705 64.607005610052880229 61.620810788441104933 63.318131488815907915 56.727681787779410172 62.945125903546873758 62.225577744159487281 60.961868836082736323 65.376958061058360272 66.450157281737361359 61.800235709431568409 63.997395191171257522 69.352045491916214814 60.153783387689351514 59.38396387489013506 64.343752078026909658 55.78096984061764374 59.402404664667550094 65.511333631799331556 63.315537845354597835 63.020739171702551573 58.014916323873961801 58.589261816319449849 55.389977436334675076 68.766344490378486398 68.003344837429878567 64.814955798710201407 58.503772606754758101 54.433840290980953114 57.619110898062814385 59.80901815446816272 54.345640928851580043 60.812303048835403274 58.47545244548650345 59.734835075505053226 59.598948249228939744 59.98628355016988678 70.845499750451153886 62.023791815109468928 68.011460934134291278 71.002038231581806826 57.730974337538938812 61.840239418100914293 64.492728242295527252 55.556476353637293641 62.81849479462371022 65.938029971005065022 64.781859762427984606 52.795200417707803808 59.834304928691395276 67.948248097644906807 62.633641204581046225 62.403786921772585572 65.02239794616004076 47.803228960966762884 60.533243092816036324 61.50369457335202128 53.864176065127189474 67.947672930175755823 64.41588527505292916 70.823679935738752533 66.481580488158684261 59.297058579236825437 68.367311197748705354 63.059083153507103248 66.290406046286534547 63.03319298713054053 56.783957626353384285 64.392779860077368426 67.117684329271114052 73.096838567877497894 51.989572709914519066 55.004791877964841262 66.012786434766269394 56.042453434611104512 59.416326634374875937 66.131632910980840734 66.30448275376799927 59.962402745534987503 64.833081258544424941 63.219027618591923101 49.465168131808979979 56.198853531850936349 55.107524322332665179 55.842825835528600464 65.331616136995307897 53.40274006929767836 54.936185253331039746 57.299106636416212268 63.161099571400434627 61.271123300523299804 52.340815639477021648 69.896817904751401329 60.93280345472602022 57.668136358831276311 62.228138181486258418 49.185148900533690153 67.669883095387120875 62.807711097657445976 63.021302756419530056 70.549568230844556638 67.45793178708451876 63.446114713501998494 58.570321483075090896 48.148574108956992745 60.542558548230672955 63.477298052395710215 62.03918219674859813 61.489775701869405111 52.29050412207016052 52.780314719327115824 52.466952153570275641 55.340797047449321155 49.136588473820168588 61.215593944162847606 64.488683077522750864 61.886962870592910235 58.975593871083582087 55.760822835581095092 62.607531115835406865 58.933079831481144595 55.65796777903481285 63.894699094729375588 68.598613222045372595 61.063633305561197062 66.439203178747106904 56.549388034470069897 63.942820822078424214 64.828175279079957249 73.529371431906071166 65.049554287533609909 62.884180945133216767 54.655305323843940357 50.449928027251715434 64.233606816228757452 62.469373421363386001 54.083456119453899191 63.2913337568260701 59.913217842403440727 46.943028320065856462 56.437675874325705649 49.722491266511426034 68.654979520602395837 60.742003159106616295 59.149750955918889872 45.453245209519778314 59.927596351233461291 59.047349194766134417 56.877960715357509969 56.644897539820476595 57.202614720203776244 65.488371701396658864 71.459956222338846032 54.277795392095505633 56.936035915422216647 57.193728688708581842 58.451069921099474413 52.970428753256072696 61.510894077537564328 49.080664174655645127 58.653165243892317449 53.620054576593943807 59.420200711523172288 66.85137948884629111 64.319075559887693316 59.845134071051226954 48.233088570366660974 74.339126929129150767 51.846713295773582786 65.728544228338819266 61.74060038285209373 61.188098721197953012 63.085986566616938376 66.876392082575122799 62.236383599781468945 58.598842964337045203 59.337616909859939085 60.587486811574052581 58.475949470365776506 62.476574771508126105 62.262935530667192552 60.993410976473121821 55.911676266924111189 56.961874238926576197 58.651363854436191048 71.288643527150213686 55.577958254175001684 61.859511256158910442 63.537293668978904293 61.917135196526984942 57.126324836312569744 56.339468703728016408 59.227026987447409567 61.592526585611203416 56.822627242280326243 68.000021875378962477 60.677067987853575914 66.730998827681830221 61.140097452851172477 55.827612127068448444 58.876413054169624672 61.596222292918902497 62.7291232856825971 70.219491858174777121 59.923430504130188012 59.499106606024490418 64.633820743622749205 62.661480861251334318 49.973045638147866043 69.346574073928366033 58.809064512485619503 72.746370780308936332 55.564221315821562541 67.869016780827777779 76.507658713456478949 55.448944016141204827 65.744193217903372783 62.535490871879083841 61.105916166667562095 66.564908525724959532 62.22243878828180641 61.783642394018549737 55.168773114405375679 60.481972720135047439 65.727115497226407115 61.675289872941334579 55.151609697191638304 54.057014519965100874 67.749933298907706103 57.885808976403318127 49.843166398921681548 58.322260887552886288 53.847029951547312976 63.041165618933924009 63.704521973524393275 62.847905427160270619 61.271837342690275818 64.592948775207844392 71.470390379357198185 55.489441698548453985 63.48126366791605335 60.202319420364155178 63.990988365913352709 59.673756307406250698 57.620305512821126115 56.084527799592109432 66.946547060039634403 65.740147605213863358 58.905559819924569354 58.640900304053651837 61.018296689124298382 66.440749310217483981 54.105863203527938765 60.819742107285811983 63.994557198039061063 70.048187409638615009 68.38460986867818292 58.407488181512363212 66.077689484828923128 55.589980438275105712 56.665261804802000256 57.51662064350595216 61.614640194902477788 57.5626327003920224 67.592264199276002046 62.214744496152825093 53.24215890660047279 57.203954780081943454 58.011702479360366169 58.528565467834084757 65.586444250397917699 65.569946538089155297 60.661500035818221477 62.678378771777190082 55.975190767674888548 69.990884055373513206 62.090121638416164274 60.042794449812703306 62.336926551013732478 64.490788944973274965 53.541386173281914296 68.685074662267552981 57.416609290104105412 67.609814526558935199 55.574196042787207261 61.153620406114193031 67.911651981369189457 64.46532911181309089 57.717181644170345578 55.677178296221384812 61.217311436477999109 59.568106828292542332 52.069787759883560341 66.308754170223409119 54.706372584523151659 67.235270526423619231 60.801424050305847402 61.46570618281698728 68.930412173697519052 54.333970581076997064 57.203627257018553109 62.275261954201532433 59.585546398961000136 59.83335824817435622 61.789931546103510129 76.194416844920596077 52.984180797275868713 66.333791465707136581 58.658002053180183566 59.798605664139401483 62.807115812080432704 68.785974706215668562 53.562248787266902639 58.332278332103570051 64.680960075799788456 64.310263327815093248 53.915954659588408049 54.467858785442778924 60.927803361557572259 56.922202530086430272 57.678533571274080316 56.773586698230737113 68.225696233526321066
-1628.5650346514478315 -1651.8331811815312449 -1621.1113880812756634 -1644.5415508349362881 -1651.6728615122272004 -1626.0533854590898954 -1625.3305875836917949 -1608.9593467697914093 -1610.3036824169560077 -1636.9108322144131762 -1634.57509898295325 -1630.6315133939317548 -1644.3003960288665439 -1624.0207753149516066 -1628.331319499611709 -1645.0243845411573602 -1643.4966227069996876 -1627.1984860330144329 -1629.2307756520858675 -1658.0893866481167152 -1626.1225831499077685 -1652.252772296799094 -1643.675718781573778 -1635.4134063772041827 -1628.7532188126729125 -1653.1740897899567244 -1629.9670564016514618 -1629.2253446843290021 -1629.6536597670549327 -1652.1176174409561099 -1636.4760826898927917 -1619.0112438950088745 -1618.2128754336017664 -1630.0685872432982251 -1626.8874735965855507 -1627.8273489455643812 -1612.8265932358585815 -1642.6535902181799429 -1634.922154449714526 -1636.5707338626828005 -1639.3194474470506066 -1646.8292253545369022 -1626.2064705441819115 -1635.1249188106482961 -1617.9390489858490128 -1649.6427847342956738 -1633.6225481714222951 -1619.3673378078760834 -1608.7539087899092465 -1648.0543567132024236 -1627.3736015395729737 -1650.5146518903686683 -1639.1848811716636192 -1623.1455811822024771 -1634.3012435517971426 -1645.0443007409492111 -1655.8778619182842249 -1596.5683722586470594 -1610.5819099818274935 -1591.6022418956522415 -1635.9528449268807435 -1626.3993159038741396 -1624.0877840144821675 -1652.4754891251197932 -1629.4066949943940017 -1642.9885672884370251 -1624.7901233489772039 -1635.9851751084345324 -1632.3920185681161001 -1634.3854359782369556 -1618.7294372587584803 -1642.0594363125896962 -1621.3190484193821703 -1607.3210817687363487 -1626.183472991958979 -1621.5626679989504737 -1622.4856171361416273 -1623.0358846352089586 -1632.7033387663800568 -1627.3915276722584622 -1611.8728824795696255 -1643.8900631006838466 -1639.0080971012921509 -1638.4158906659017703 -1637.0705372305890251 -1617.8068709418434992 -1632.8086300605807537 -1621.2550588107101248 -1619.6052295907577445 -1626.1827527235525395 -1619.8896954421877581 -1631.030414312010862 -1625.0176763453157491 -1643.5171355045599739 -1617.3991577348149349 -1639.9153959901691451 -1627.6994643578177602 -1626.4457782858703467 -1619.5925383644953399 -1622.0366933065829471 -1628.3704590505474243 -1635.2078064745126085 -1614.4393296548776107 -1633.088819884249915 -1643.9051606871498734 -1636.5727674013307933 -1630.4933430746427803 -1629.8392687748728349 -1632.8935070641152834 -1626.1709938581784627 -1623.5781142074051786 -1635.6595169897630058 -1640.5093973879377245 -1643.8046743544568926 -1625.0557317923153278 -1636.844044421790386 -1643.1537740664177818 -1644.1666917194818325 -1627.8020187731824535 -1629.6599779850382674 -1644.4410899003783015 -1646.9373364855948694 -1601.2055102638291828 -1643.6077660959701916 -1636.9091388259560063 -1642.1893278011650636 -1638.1277271619487692 -1605.1381853873176624 -1622.4582068027930291 -1650.5033399277222088 -1641.3655478174455311 -1631.2557242919087912 -1628.8932058988561948 -1619.7014224917834326 -1615.216870003144777 -1627.4771349129364353 -1632.0403671734550244 -1649.7092042227227466 -1610.399051900454424 -1638.2501913578344102 -1612.173255646612688 -1629.0529332656212773 -1614.3476186881973717 -1631.558093807344676 -1640.2890875937778219 -1640.2637477868718179 -1628.1750053665159612 -1618.586466463399347 -1625.0074752807306595 -1639.1337196946590211 -1620.3903623703758967 -1637.6013895298401621 -1637.8010269848969074 -1640.3816916508048962 -1637.646589883661818 -1633.71012630546943 -1626.585430183642984 -1600.0529383376763235 -1629.8457587051516384 -1624.4193462893654214 -1626.5952067311006886 -1632.7856333524657657 -1646.3410283842129047 -1636.3131131181426099 -1643.6542507499689236 -1634.2374844190226213 -1654.2312176434322737 -1631.9143358315234309 -1613.6201265929839792 -1610.1187505028331088 -1622.7407946797973182 -1616.8723197315212019 -1630.0689285465584817 -1640.7340953408911446 -1638.7166750554595183 -1616.9130830593587689 -1625.7919173581201449 -1653.0457076300078825 -1632.1452527962799195 -1647.0904587382881346 -1630.6577182787295897 -1620.2368728919150271 -1639.384740809357254 -1650.3489419283246207 -1633.1696809927420873 -1629.9957139906255179 -1626.9252606994298276 -1642.0688370305836088 -1624.0869790507458674 -1623.3975794485504593 -1648.5457929156282262 -1647.1386778849482653 -1613.4957820934432675 -1639.0963871672279311 -1641.1300025844816446 -1625.8463408820466611 -1627.8296589561580276 -1632.0944143514921052 -1645.9702530454535463 -1630.1550787412240879 -1641.0476355519758727 -1631.4934784894394397 -1622.4907117594623287 -1639.7363271143390193 -1616.8834113521761537 -1649.4246844374931698 -1642.5014475611642411 -1647.7951033588913106 -1620.4929787988241969 -1642.8859245361359172 -1647.1244226604633241 -1617.2850144602759883 -1618.8914906031031933 -1641.3998795142633753 -1636.9355994194702362 -1637.8065262157549569 -1622.7512532185817236 -1612.4547966151030778 -1621.8022020772680207 -1644.1326037990993427 -1643.0396595025993065 -1618.2173455590248068 -1660.2290202580647929 -1622.5834943256377301 -1621.043577831688026 -1615.4493824522585328 -1654.9019326935599565 -1629.2336040472325749 -1625.4267331671724151 -1626.891238652274069 -1664.6022603315509514 -1613.9782706654016238 -1622.5107450415189305 -1638.7848864246072935 -1626.6103679720849868 -1620.110378415219202 -1657.7714963148498555 -1639.5862460028840815 -1637.3409288764814846 -1644.0060369167701992 -1653.0687932195685335 -1614.0314340319455368 -1619.3669798960470416 -1642.4235076759684944 -1620.1983220404088115 -1620.1423328902326375 -1616.8436493395815887 -1608.8192649574762072 -1631.0005297931775203 -1645.6947040803147502 -1627.5499565410614196 -1643.9391553754467168 -1623.9775163262997921 -1637.3837132185308292 -1635.6451338670719906 -1639.6240725295999709 -1644.3644716406463431 -1640.4523710799071523 -1644.9798682694788567 -1610.8962989811161606 -1639.8343112602512974 -1622.5046030687019538 -1625.0349514274309968 -1630.3732703757973468 -1623.0579656649117624 -1645.412443251636887 -1631.5380769263838374 -1621.4135360156590195 -1609.2700658325886707 -1614.8687277968369926 -1628.8582799601283568 -1604.9340627498895628 -1612.375335114176778 -1650.6101311815268673 -1629.5156978268200874 -1633.552935974687216 -1641.6927460196659467 -1620.4047523283149985 -1639.5374325483435314 -1634.0372025439205572 -1636.8106930049129915 -1627.5364899672101728 -1620.4639010706400768 -1619.8451653505828745 -1639.7726897249488047 -1630.8249527063392179 -1640.7484169130348164 -1627.4071686293493713 -1620.2012553316214962 -1629.5387183805187306 -1626.6090664046942038 -1632.1413717558471035 -1619.6023952964392265 -1614.7134072792962343 -1637.4306716961723396 -1616.3268448985209034 -1612.3385146114501367 -1618.1671126879841722 -1643.7836433375198339 -1626.3014028432392024 -1626.0224496365535742 -1623.970315847552456 -1629.4828724838673679 -1646.9345646489675801 -1610.576678662975155 -1651.0699324669956241 -1639.4576843472573273 -1635.1368449740159576 -1594.8529140890427698 -1625.1489633329363187 -1619.9937366209790071 -1625.1228405490585374 -1659.9337528670973825 -1625.568187854218877 -1631.3662592862876863 -1644.1642858053830878 -1632.0072426236665706 -1608.6499481356790966 -1614.4953733973211456 -1632.4609417427827793 -1630.1617256606123192 -1633.4889153002211515 -1638.4846594403250037 -1641.19444198301494 -1620.9319091719378321 -1619.7490770992576472 -1645.0757932231028917 -1626.6988352922051035 -1640.5691265521622881 -1614.7424525959786479 -1632.7223972622659858 -1619.7982966428683085 -1640.549538493063892 -1617.5315871476727807 -1639.9808651404225657 -1640.8095470603609556 -1629.2199654995372384 -1609.4288210046979657 -1624.1927734102559953 -1653.9718693828215237 -1644.0973663061427033 -1639.5439504275900617 -1632.5455501515054948 -1621.6944637611056805 -1650.7990039872629495 -1626.3113179583012879 -1649.2423822490457042 -1625.3015736941501928 -1658.6038919375982914 -1610.7460195003493482 -1637.3330422067351719 -1633.5730964011181641 -1624.7738727972462129 -1634.6275096165677496 -1627.521512034089028 -1610.7600573016427461 -1628.1224765273641424 -1644.2575293452325695 -1632.6826739553969219 -1621.9470234820037149 -1638.3673798271738633 -1629.3721143817756456 -1620.2553012866083009 -1620.9177649474736427 -1655.0243493759485318 -1648.3153396638072081 -1632.5826141774725784 -1648.4707274313025209 -1658.7948482982021687 -1652.8255015966619794 -1647.5068699510545684 -1642.7832921939557309 -1620.6353549289276543 -1635.7452889606904591 -1657.9298221257879504
545.20050988919774682 550.70923067892420022 544.86155771356084188 545.44708634156279459 543.41933526527236609 542.89491376562955338 546.87223750072610073 550.86927094980103448 546.48413404692041695 556.85626662275808485 544.65167967129048066 535.30344045134552289 540.80041325701495225 535.93892709413512421 545.49610241890820816 553.77984422021688715 546.39548132866650576 539.95537535186349487 545.09085724134342854 557.60000746628486468 538.80871787879675594 535.34258755693065268 546.11373773806519694 543.59202685236914476 539.18715115464965493 553.88384225417303242 534.69614093926259102 545.31931100327642525 534.93713720708308301 543.53861121222655584 543.14260241431134091 545.0345462512271979 543.81313504843581086 544.06540328541916551 542.04804660212346334 544.3153978482328057 548.95664264762137918 552.3105763889877835 532.59486971536682631 548.4095150570392434 543.09074452973459302 542.32626078759255961 545.78246035189147278 543.77884129766448496 555.4425733714629132 547.946956578881327 542.53995301739303159 532.80405354099275428 544.91029889438505052 553.55909287723693524 540.38728517285744601 548.11384680499043043 560.44187014059014018 554.70596230799048953 550.38352663859859604 530.67861982214469663 541.38772525966498961 556.94750307659330701 547.58921778863668806 544.30944796959886389 545.19509657323294505 546.90707322164632842 541.2366475497732381 540.43195911033956236 538.46980618073610003 551.95240401354669757 532.00914522558616682 549.44592387932186739 556.79975219721052326 551.13272591896873109 535.59132371375073944 534.28806687063774916 540.75116457004639869 540.0782994577931504 550.31467442810344437 552.20594475076381968 545.15317447429197273 534.99310293594567156 536.57804864687057034 538.38838610008326668 554.50902161416956915 550.90929262902363917 547.27942918791927696 539.21666547950951554 535.08786590785564385 535.03409480465359138 545.73084991589644233 545.03199429562232581 548.46111090187628179 564.983803095794201 541.77700510097974984 551.44523071501123468 547.70598439308901106 542.42028465297960338 547.26193809272263024 547.38665093556051033 543.06899676552041001 541.2007435365234187 530.84397092422136666 542.03437485463518897 532.35338983211784125 557.43205115686907902 546.18209545926083592 536.14127556672235642 531.63437736404534917 535.42075392495280539 546.3392108178665012 546.25933653657943978 537.18576720357634713 542.94008386990822146 546.98539093477995721 539.74349391858618219 538.50686063937553172 548.02387295340236051 540.32509595199803698 541.96576294718886402 554.70165381558945228 548.10027284119712476 539.29330471495916299 537.58912239314963699 535.79234818064890078 543.02018633809302628 535.38392394169738964 536.29818107957839857 539.62283079512701534 548.41260435442018206 540.68791035123740585 546.60099679582822318 542.0746304179310755 547.61367305347971524 528.30735944543323512 548.59721744636942731 535.58407248123876343 546.99083318313319069 540.21751491678685397 551.26876546059463635 546.84907242980648334 547.40413490609330438 541.54965623968314503 545.66251285250950787 527.79549551270145002 542.4597858776069188 553.04065097150839847 552.418741101742512 547.21473769830356559 554.04774267848813452 550.4941983314955678 537.63093124992917637 541.57531820345775486 549.89770359490341889 545.00654786014820274 539.29585024366940615 547.60203614999613819 547.64172769592732948 550.01464170266501696 544.34671148986478784 542.80178289262198632 550.83510717308411131 547.62158033443824934 539.14635191838863193 542.78786853431324744 541.66326838622637752 544.28875506926556227 546.08716326568139721 568.00595363759805423 540.58418814887590997 551.63512649882079586 530.4972785100630972 535.49356681917322476 534.53816021899956468 531.61293344120269921 545.01747271984754661 546.60320269629494305 550.27091095954938282 546.24044541531975483 542.61998369187801927 550.76075495997258713 534.31000518565633683 537.7471097430664031 537.72501376146169605 548.1771565050398749 547.91386803528575911 547.02135093209335537 546.52635948424926937 547.30724300854274134 542.23315510837846887 531.21639077729662404 528.49580366516352115 550.12856335008427777 539.15245504203483051 555.87318628624802841 545.50803984788251455 550.34321507983031552 531.38310373322440228 538.99456435976503599 549.90794677371559374 546.69207383921354904 545.73202617481967991 536.32076850523094436 543.39696101082779478 550.73881276453050759 525.69713521043570381 542.03532399839048139 538.6610455117266838 543.29836645740499534 535.0621314087970859 551.91424095527418103 547.47475691340900994 553.72625682934744873 545.63990828349767526 540.48256042714740488 540.38557254400120655 551.20674177363468971 547.37827484503441156 544.15660024248393256 551.25670009501186541 553.03431829489363736 546.83961339014524583 528.47598928893012271 541.83049645123867322 543.50280673968472911 541.93983267825171879 552.59531078168936347 545.8820110771284817 549.71958259165899108 538.51018869494987484 539.95052143671625799 534.1721501056457555 541.76094738105553006 556.79861531599976843 552.44302197175193214 546.5094951995899919 540.66175218575529016 548.22740891993839796 547.64819746741943618 549.89098581619339257 552.17609658873004719 543.67732517322099284 548.56616415256564778 534.88555364497483424 547.90553328224996221 542.47129849995087625 559.62745498999993288 535.56511339723670062 551.51584815597004763 533.31116629264806761 533.98401211898817564 550.8513368373423873 542.86773147682333729 548.42738811373828867 543.64426639180567236 542.18106516654142979 525.76589688032527192 542.60560169870143454 539.27783395756080154 538.43428627679202236 543.36655764997101414 548.23727996711068045 555.36021558908907991 544.27343208617855908 540.79553880379762631 540.13700150358477003 539.44472460924635016 543.45653574647053574 544.09042240279961788 541.76987320300793272 535.27069309541059283 543.85924865288768615 553.47917412618630806 547.29067652146909495 554.58736975538306524 531.79953049124844711 544.19638343507506306 555.47270099677598409 543.81081420804309801 542.32250430102840255 552.51562667143707586 546.95327516657005162 545.44332052128299893 529.80610775696209203 539.91566128056513207 532.71009682837052424 543.03976593535969641 543.56098476115209905 546.99850355323769691 552.21436308871057008 538.20678096172434834 533.80780443681601355 541.72184217522635663 548.07801416643076209 547.62084992833672459 540.35596432787269805 540.60538390780595819 542.21372543637210129 538.9192018170836036 549.24930107479747221 545.37972213676448519 540.99316898506913276 548.74548751987242667 542.19943414067029153 537.66196395976839995 549.0702399059181289 538.96853383134146043 534.78719279139841092 536.16047046286439581 552.03144346649833096 537.48565195100343317 545.55773397090138133 546.16355071035729907 553.38975554046896832 535.03210618662478737 537.88265269615760644 530.91240233578025709 543.06622184175591883 549.54015121246982289 554.27406847482143348 527.79802953600096771 530.49107744479647408 561.78753275976885107 548.74165179934414027 549.45592262530317385 537.06514236747671021 554.71451956441683251 550.74356621838046522 536.26636455842992746 543.96712412978945395 536.31557044868088724 549.4642192424626046 533.66238507044408834 536.93887887180551388 547.67064707860527051 544.41457286918409864 537.59527331017648066 555.74423444976025621 548.60113197257874162 543.7000179134845439 535.23371879426485975 556.47497815156793877 546.30076763991201005 551.64375078642183325 549.63014945566226288 535.29462311761574256 536.95755212251515331 547.80804751829612087 548.9262862109545722 545.09227383148061108 555.52069935017664193 537.01265727344991774 542.6477508098925 541.63480368311104485 540.43719153693643875 556.41763107521717302 541.59804697438573839 551.04836610403719988 544.61427827886802788 550.49103428272985639 542.44527809632802473 549.0012071712786792 544.86906704472301044 541.23931845604113278 552.8545267279178006 536.36620765567624858 552.79160017649849124 538.0622334348519189 526.13945781888799047 553.54150838479142749 550.62671364359835025 550.60876486359290993 550.56960082985312965 526.63655008166335847 540.6334248294159579 544.66674807446565865 533.03107962965623301 562.96501478824950482 550.36384318448540398
192.78086497502764018 197.28220432949180463 189.38887459376709899 202.4127036458294242 189.2425455812680184 202.17769367549129811 195.13909163642478006 185.88447526513806451 196.63146703965236384 189.70300964139269695 197.67465772384949219 195.90169045961854977 185.64739857281375635 189.49540976176200502 201.26223085843000149 192.53700037750581942 190.44316147985753673 194.93493891893015757 186.97171960477058406 193.29689711458888723 193.75004519540792103 188.6286600333914123 191.55122397779993548 194.55295067592970781 197.57022484673245799 187.15390603397202085 188.13038540861958836 191.14510850861054791 197.36731802848544248 183.49734461796415985 199.64225441704135733 185.920478724147614 198.09193903757753219 201.11173543716071777 190.51137163155590315 188.83583503529865766 190.22672528781890833 197.22327690560769042 183.97910875133436548 187.72614487321402521 186.05264131751513901 197.77837930376077225 193.69075363307243265 201.8808488097325835 188.5907886442999768 197.90094048924231629 197.89706594903645964 189.5874152399904915 193.78992740013322305 193.38226935609014845 193.26427152155508793 201.06016741909911616 193.51859593857525965 198.57010137847697706 199.94186760870593389 191.09062206966217445 191.91778507357688 196.29869892080787963 182.01775277671990239 183.53852962089354151 191.34196122471072954 199.85197491460687047 193.14873464587597596 189.29074799124714445 189.79846011815362772 190.14465484514786908 198.55578513653469486 194.65390283081057987 188.29616466547508935 198.19232601303923502 187.97554475491665471 194.53529322035635118 194.61370083151521726 194.39536861944222323 197.0026582848518899 197.01089148193588585 193.70031145813774742 194.79469292777153555 198.01777478719091619 198.29336600830609427 197.74738571814742727 189.8643584129894748 194.58765449887687282 185.81502494974745332 179.93482192376168882 194.71210219960821064 194.56877264295027885 197.67897400612065439 200.8826082869486811 190.21437302681260917 187.89839624454299383 197.0151850920634331 195.09512006387458882 196.33224045496726262 199.73622041049256381 182.25625799581223418 191.4270602069101983 185.37820045836252802 198.09476337358717046 177.98050626885196834 196.04488162467634993 190.84090252373113117 181.02738315404454283 192.19792231185121523 192.10534152510680883 210.20979344686313084 176.09778287651067785 179.27208277350521826 199.23682702787726839 199.26902071608790834 204.55740065440764397 192.18853092751928102 199.46414548591025095 186.80865676263550768 195.22613385162955524 201.2178189895145124 191.89278543363218432 197.28498101466470871 196.24820227785644988 187.3298945489902394 187.00920724327039579 179.23164720637171854 196.82330412770463113 197.62834957309081574 200.2431726562889196 200.04497971217529084 190.82965982907379043 191.97035840944144525 187.71781357678875679 191.96112949440768602 181.03877037811116679 192.96227823582799488 194.48712243905373498 190.74523679867658643 193.52373348407658682 187.64899606275179167 194.85184318990300767 194.03659609536555308 183.21491821126306832 197.70485241010302957 181.73754923131829742 184.05783238903413235 185.73195088034555056 199.13418124044991941 191.92540034412581917 200.08754778945424846 190.71667222009349985 201.95788819503846412 183.830142441768146 196.71751531104482069 196.98301087576794544 207.30114133841456692 190.02651160607044289 189.17890118155901291 177.96226995115330283 193.95867015236231623 201.73637160180066985 188.72458255876773592 197.62100921746730364 188.8839624968546218 194.35493017972632401 198.41253043269878731 200.56509112635347947 192.46369417696135429 194.77125493873927553 192.38331134659904365 185.24438348807774446 208.48781807543701916 198.69499304353072944 189.80437131605282275 186.06745267960454271 192.35718310033240641 194.52620616912142282 194.71918510182450746 191.10297798985607187 185.52430031726098036 192.13393552176501089 193.09850831815433025 187.77653867890560946 193.70042054664617126 185.61645669719547413 189.42928024970143497 198.15307142423571918 190.296121950796703 183.57087423713855401 191.16796423812689909 195.90089127959365101 196.75252456685319657 184.71953040494946663 195.46922017143316452 196.38600028250559149 202.27534908098289179 192.86690522894465971 189.686005646199078 190.27739739086715076 191.5076536996176344 188.14323327494014393 195.4669959105302155 187.25914102375458015 187.32337520536677289 188.22082973212189927 194.22483417202872147 182.39427122387309055 191.77458442636418567 199.65754809288768001 199.0843188079136894 191.43426951014967585 201.00700109112372616 187.98002681615292886 191.59671336586313828 197.74678829724624052 194.03161864378992618 183.85692094921432727 191.17843708469962394 195.49744765669012736 195.80372575152657078 189.92821050316388209 174.86847451707808432 194.73462902415880649 191.930663453458493 203.13448382847388984 198.64000288898068902 198.29133046548673747 183.49746375739846371 189.64532297029367669 193.57973956430225826 196.89056186046138919 198.76041995036192134 187.26849419027107047 187.35404422746449882 194.82794353417685329 199.22198547900421772 190.65092206985366374 187.80240489787388469 183.02209324283003866 193.3158092075465504 192.23659043534487978 205.25849019214069813 194.80377988698623426 197.64277452528631329 191.71252139582165341 188.16436748463732442 194.3359206156085861 186.16195476478193882 192.57003743031057752 197.60627520462301732 191.89664754309904993 192.491916756719462 190.70266921311264241 189.86849274116804054 195.51806668815018497 196.62374875061740909 205.06060490178839473 180.68144241120089077 184.59796269112158029 192.71744834723523354 191.84361481652430825 191.605400439465825 191.32376762107119816 191.04160726921583091 210.36818143322182095 195.04548835293132925 191.82981828260446377 195.74110572980021061 190.92579024389226561 200.24235381137251011 188.30643268662211653 189.46485438920541355 187.34848625712947978 188.82978034730854233 202.94398003620236182 190.43967310544826432 197.69079239619074428 196.89658332117369355 189.49505553210877906 200.40287332320724545 191.33533085084289382 187.23621802411875592 191.71739169764029498 198.97957933836866573 194.10920380328568058 186.62716938431924518 189.64607165588233784 183.86348215157730124 192.66244271883712713 198.47365241208621001 189.60936324763150651 185.13629076359103465 178.71334634840215472 192.18996522919158565 181.57087014560480043 200.89426740158964435 189.31632547226544716 198.21293981900981862 187.86781908905112459 195.65854609290411759 183.89580176640276932 198.06442883915721609 182.95565606556212401 185.67454861924943543 182.73302809521931067 203.85211567599418458 181.41269543342747284 188.23131172865990379 189.39091188119178355 195.935194103515812 203.94973460369291729 187.55224698910222969 188.84769151463294179 194.02488330845918085 182.72989239174981435 198.92531638453544929 206.81877932831747557 186.14446243340896103 203.63425929287373606 191.01130434745462594 189.3227174511072235 193.62616770547529654 200.33005974897608326 191.97936767471995267 190.8298651110208084 194.78103255026502438 190.57260732002669101 193.3663417332953145 194.48015696572929301 191.87760936528215439 190.19588243236225367 185.61603668263600753 195.7821181313713339 189.64117754706330743 194.93037082937968307 201.74552386814934835 194.72544530882558433 193.47398480053053049 192.03945049591544603 181.67770037677095729 190.73945786760620535 187.16370755636248191 185.0349007317631731 198.02745249643527359 196.8004215267039001 198.0267235914928392 182.86432338820543464 196.65180832593571836 194.73943546134188409 192.27492402277178485 196.11788584526297541 199.22318957497284941 184.50317164998182307 188.02996641183159454 188.78472296129416463 189.87269363278804235 185.98726501022386515 189.4861995434351627 202.40391950138408106 191.4762418430449884 193.78189288047821037 201.5439819517285116 182.72512854358740242 193.13330097274103991 184.76226257983773849 183.23955671279318835 193.00464177155740231 194.68783803414504519 186.46784113159031904 194.88912544146970163 196.62779175366188156 190.33956788687248718 187.25990519887909613 198.57234999687568688 186.86615036959886993 196.51558835218901322 193.64495395765825947 181.16146112036739169 188.98100852721458409
-1763.463192949927361 -1774.3636482576703202 -1777.8372559914459998 -1801.4365679015206752 -1757.330667668339629 -1789.839376423606609 -1780.9275708877753459 -1775.3079383024251001 -1769.5943840405952869 -1771.8984118133143966 -1768.7533583225797429 -1767.8670291299858945 -1797.7531612287007192 -1790.3673944702711651 -1766.2102648455859253 -1778.0378896973670635 -1783.6128918596107269 -1764.2328974056019888 -1747.9845614351947916 -1755.6954228837673782 -1779.6959588860615895 -1793.3186194279012398 -1762.4308599403211701 -1775.6320366349596043 -1788.2927231802432289 -1782.7700365629275439 -1755.1444254835798802 -1746.9263729383419559 -1796.5354127494842942 -1766.9871386948475447 -1787.3222542911610162 -1802.2080766806147949 -1813.4745152476832573 -1770.859645982972097 -1763.0409698832472714 -1738.6719666316093935 -1789.5586552661638962 -1791.9883331046528383 -1774.3663509397458711 -1775.4799603919177571 -1780.2777001585229755 -1782.9512875213356438 -1790.4593509759201879 -1790.2787333692817811 -1757.4349849444022311 -1767.2052789978597502 -1742.0377331540094019 -1778.8719821156105354 -1789.4464249618831673 -1761.8687586889145678 -1759.677487772594759 -1793.8406278180552818 -1788.316928256475876 -1776.9466384238430692 -1763.1664403886888977 -1782.7936786156560629 -1779.1481268669756446 -1771.6394870493129474 -1750.2771719351487718 -1791.8487183176696362 -1785.3966647762572393 -1773.1456373623025229 -1773.4524133051404533 -1767.8734914867845873 -1768.4080297379080093 -1777.5038605964973613 -1789.6633132316619594 -1755.7832521488167004 -1770.4924720375863672 -1797.4772849070327538 -1778.2559222881238838 -1762.5631778305000807 -1778.820047304199079 -1778.2893760647568797 -1790.6805077502433505 -1767.3686718433177703 -1762.7940941882227435 -1775.5357112663521093 -1768.5428614753557213 -1778.3781086892527128 -1761.8320769863062196 -1759.0027137075705923 -1765.9720800546015198 -1774.6795268874420799 -1771.1551873014755074 -1772.725049952542804 -1772.6006671006794022 -1759.353105221302485 -1780.4816626772308155 -1783.6696918733905477 -1780.5773505675958859 -1803.546079742361826 -1762.373819094338387 -1762.812837256263947 -1794.194777609845687 -1762.259778964538782 -1751.1177502087452922 -1748.8334469923270262 -1777.3883370985583952 -1758.718772119654659 -1766.181575526166398 -1776.0224376448759358 -1763.0559203012353464 -1781.3304572136521529 -1776.7766773958255726 -1782.7104587952337624 -1789.2086830289847512 -1786.1046895671847778 -1763.4337212535347135 -1746.7456517087164229 -1782.7902723139457066 -1787.7066032806951625 -1784.6395127948137542 -1766.6638809421908718 -1778.0820669353008725 -1772.5718892402815072 -1793.8173283661599271 -1787.86202430885578 -1781.9274129731975336 -1769.549328561686707 -1766.5218375671131525 -1750.4050095262973628 -1786.3247023703977447 -1765.1283876393699757 -1775.6151868110400756 -1775.8214844552001068 -1767.8909158284932346 -1785.9894375715118713 -1769.3031563737501983 -1786.1612774842503768 -1774.3302163078647027 -1760.8964216953952473 -1767.6863995220214747 -1770.4154343266759497 -1762.4565012465513973 -1755.4080579185585975 -1786.8599547501096367 -1777.781649588806431 -1757.9291775842802963 -1761.9077437760072371 -1751.397501526316546 -1740.5711952978174395 -1777.7144274437282547 -1789.0039851951494256 -1780.1232644314025038 -1782.4614768968544922 -1753.4325042294883588 -1770.8523712297776456 -1774.611080713027377 -1788.9708453689238468 -1789.5678280764416286 -1775.3145071335263765 -1796.050444124268779 -1782.8024558468180203 -1771.7388572720333286 -1780.1175629293197744 -1778.4099643600764011 -1762.9850487974790667 -1785.2604853127691058 -1747.8922118977286573 -1770.305248728339393 -1778.5869976097387735 -1766.2146815168741796 -1777.1361185427690543 -1789.5791033303335098 -1778.8281821433649839 -1789.6110599695418841 -1782.3728881120566712 -1774.0081620515322811 -1794.3729523179440548 -1762.9410481443592289 -1769.0866004785982568 -1781.3185315673872537 -1744.9523018393072107 -1807.2608562909583725 -1769.0408080837794387 -1779.1924437017735272 -1760.1076423031390732 -1767.5139271541331709 -1765.8516569887599417 -1793.5397896557719832 -1797.0133028539332827 -1791.1016487108929596 -1755.6736119516669987 -1762.1272725387236733 -1789.8482929375879849 -1783.397319096806541 -1766.6612556899799529 -1754.437144343099817 -1795.9222017848542237 -1758.5676313923381713 -1786.9146710781301408 -1772.2889868910119731 -1791.0703736250889051 -1745.3489782462845596 -1773.572421357111125 -1761.7057752947926019 -1767.4582392292802524 -1767.296453644120902 -1743.3908155022236315 -1748.4053921613585771 -1770.6822721897533484 -1774.9189481287417038 -1773.300748291996797 -1756.0936955806459991 -1782.3043005093895772 -1760.8738478189645775 -1778.7632651472335965 -1734.9406669798793246 -1770.1413437876467469 -1769.8657042669608472 -1777.7904243345662962 -1766.5136988619085514 -1777.9316609937538942 -1789.4100459799722103 -1762.0578241986922876 -1760.2720080209078333 -1763.1623000561444314 -1749.6076785574709902 -1778.0238609538544097 -1759.7476850384146019 -1775.5065647722933591 -1769.7107087575459445 -1769.2172409570391665 -1765.7529420247315102 -1776.2125395197849684 -1773.4366490470797544 -1792.6114615116787263 -1768.753581685483141 -1772.8551699856338928 -1793.1029431586187002 -1764.1704867833711887 -1743.2807586393339534 -1786.2132350246577062 -1764.4963780655909886 -1772.8803664986978674 -1757.0943946164957197 -1777.1899969139092264 -1772.5726509451446873 -1781.9697873281386364 -1771.4927583034950658 -1786.571871022544201 -1786.0094640145966878 -1756.7869495655550054 -1760.5428778262244123 -1764.2792383115704524 -1791.4029914166162598 -1770.8966365893077182 -1764.8493455480418106 -1784.193560976312483 -1759.4674356821221863 -1789.1305293623865964 -1747.5177248814211453 -1735.3113300988231913 -1758.5854448377103836 -1788.0135380452566096 -1762.9876170837071641 -1790.6530999315386907 -1791.2419068336810142 -1779.2822959133859513 -1770.7774846813676959 -1772.6115979588366827 -1770.5750710491593054 -1755.5066335660503682 -1784.6872775368537987 -1787.8886199132487036 -1758.7201367374266283 -1789.2655684570429457 -1774.7160818400811877 -1791.9262160779339865 -1752.0780911586743969 -1772.6818765333332522 -1765.0986032005184825 -1756.3135057779377348 -1776.8231957787675128 -1774.1475333991008938 -1801.9876991078522224 -1776.5915464866986895 -1762.2252982738996252 -1772.3481475742726161 -1789.1508686671536452 -1771.8339771160776763 -1801.7717307961147526 -1787.6088919203916703 -1763.9069391128657571 -1772.5223634004391897 -1758.9349472236385736 -1774.9800510421082436 -1756.4690699479399427 -1794.6677370951847479 -1758.5540095203059536 -1765.7227936702695388 -1752.3167166004050159 -1765.3215517007158724 -1760.8697162979640325 -1797.2263873599054023 -1758.7027691466439592 -1789.0184842595469945 -1755.1715343639839375 -1776.4414347887161512 -1768.7638480681032433 -1742.1897297247492133 -1764.738654362254465 -1776.0426753016936345 -1773.8185156478864428 -1781.9382545291603037 -1773.377991848145939 -1780.4957177963497088 -1767.233614788463683 -1770.2068474213324407 -1769.2465869699794894 -1774.836024661521833 -1787.5650762742502593 -1770.1588135571803377 -1783.2237135625705378 -1777.6121506268968915 -1790.0664618424082164 -1789.042546403477445 -1762.6605153916623294 -1745.2888526123344946 -1772.5905447230552454 -1743.1361657998324972 -1793.8261557479222574 -1783.7672023202960645 -1765.2815273664375582 -1754.3912395201537038 -1776.8957453096861627 -1783.5980550183380728 -1782.3266732254041926 -1769.1339193675407842 -1765.4851322965221243 -1795.7222136108191535 -1788.7353526326455722 -1773.2186691735041677 -1777.4648363518558654 -1771.5058660224269715 -1781.6938840515649645 -1784.7169409656287371 -1767.5114878767728896 -1769.4379872197141594 -1745.7771721616086325 -1790.3162259877003635 -1793.5400731151712534 -1776.348296144804408 -1775.5464821712851062 -1773.2334981795765998 -1760.6032155989878447 -1777.0788164705131749 -1772.5751426857971182 -1781.1566598865620108 -1752.855635372545521 -1764.1355676958082768 -1803.6674363032923338 -1793.4273169154387233 -1764.5741550108011779 -1792.1545189055909759 -1755.3277120756672502 -1753.5802518524171774 -1757.6549598179085478 -1755.7102406005021749 -1766.6699067253375688 -1800.7845449859712517 -1774.4148059926378664 -1762.105579925752636 -1761.9924234757620525 -1789.8467559209295814 -1779.6326439472163656 -1790.706596620237633 -1787.5190191087997391 -1770.0229629173929879 -1756.4363574441304081 -1753.3732751574284521 -1777.0772614828194946 -1758.1087966466345733 -1758.614026916517787