-206.28984360470317938 -200.74483706660498683 -207.86660498168654954 -204.69841516918341995 -201.8981984914676957 -203.72644368205868659 -201.76579378058895031 -205.30453601196830959 -203.50302814499917758 -204.08533148858890627 -212.02035151481788944 -210.84674899621907684 -214.18267788031548093 -208.94309021578786201 -198.18178491086817417 -207.03018436056407836 -211.00344933905171274 -205.74886021715602169 -205.11010678630105986 -210.35813804428576645 -196.45420611771285735 -195.0568661727031099 -200.24793782701945588 -206.76192857421017379 -200.7604395419188279 -212.74679029263245411 -203.07448043996100751 -203.24694890548977355 -201.99204352370009019 -204.69943148605307215 -202.3794941027632035 -212.46617915831302525 -208.00111783381865393 -213.34230513029612553 -195.63146368278904674 -208.71585659644088651 -190.48221999142859318 -207.82344853782353766 -209.21544971776793886 -208.98589362771693345 -200.04433319067905472 -197.46430865805191956 -203.42103617353711797 -205.21287863132033635 -198.55215518033787703 -204.30775686834536486 -204.37523200135791512 -203.02191338493142325 -202.69987530902633921 -204.83193720100064183 -209.30391246047221898 -197.45450759188059919 -206.22151805497634314 -199.27126033952541206 -210.04338130024569864 -204.74828156372782928 -203.3098954985089506 -206.55267962625293876 -203.270531635244879 -197.94182393265526798 -207.01410546120411027 -212.69698927678453515 -209.86179743897892536 -200.00851822822932036 -210.7243144392790839 -200.37517332459819386 -202.07142677979962286 -200.54986846312610282 -203.39563433596688924 -206.2622834694458902 -194.96191805913952066 -196.77164878257639202 -195.61940026493400069 -207.70228117598409767 -207.52375199872389544 -205.72277603525841982 -192.9695067027852815 -211.02976713700920186 -199.03571937034413963 -213.4142387489787609 -199.48102807297141226 -211.69164452454205616 -208.67506285312285286 -201.33324295285112271 -206.25655568381878879 -196.6539173747776772 -210.02054076761254464 -203.79844649675064261 -210.89674559921490982 -208.9996801963308144 -208.01049501496586913 -214.4865741375086543 -209.6715879653687864 -210.65144346018806232 -206.28835157779593601 -200.90570815005622762 -208.32331491732011841 -211.10060943393378352 -209.79499964140708812 -198.19295184236133878 -198.00167850871420683 -206.78313474507385195 -208.53842109383279535 -205.61860487969784117 -209.0608865823490703 -202.15424058257508477 -207.22514729246296383 -200.98719182770139469 -208.30572716278618373 -202.55103390180011047 -191.19849801874735817 -211.06426026450640165 -213.44995918794964496 -216.86848174295701597 -203.4571541019258234 -211.79998339069135227 -206.71323826464305284 -207.51902437649908961 -203.18590594956171458 -205.77427286059182165 -210.32246688833726012 -206.02671927380788475 -212.09091428523177569 -199.02261871697203333 -198.60854941110548566 -199.64793670970956896 -197.06638312354201048 -206.27954174018782396 -205.98764986704389912 -203.37243662462373095 -202.81846207925801195 -203.97144821044702212 -203.90116457214509182 -215.40231436795050968 -213.59508757065651707 -203.37054407035458325 -207.75422693230720483 -211.28681223892513685 -200.91514042981009425 -205.69728477724396498 -204.28962499889615856 -221.06533603116034215 -205.55597146454888957 -209.64952760789816466 -200.25839797866373715 -196.67804419872345534 -209.49557857077718381 -203.94158571426638105 -216.785164140074329 -208.23578969548717055 -199.25283952792744913 -210.44060682760542136 -213.78725242937164808 -200.39914718220614986 -204.94919832263011017 -201.86340283464002709 -208.08365573968828244 -203.09404330785673665 -206.268599504324186 -201.26804363455971725 -210.13814298184203722 -204.94550360914809062 -199.76049516331536893 -208.06990911764734165 -209.44698035083473542 -199.03407619283890995 -202.33429926218235551 -207.19296626054565991 -206.41362472150365193 -219.52411844412338837 -207.64878322316806702 -208.56755022268839639 -206.27420249165669475 -199.55489564459531948 -201.46634783869527041 -209.42141874441281857 -211.1145359369401433 -212.05100982059013859 -206.17167765588843054 -201.17667687870746818 -207.05810970694190587 -201.68408668618084789 -204.06833636963523304 -202.82265116234381708 -205.46256878021623038 -197.66255867796195389 -201.15104969017662029 -204.00528739814657797 -203.14998426828475431 -205.06668498332743411 -202.14988442335726404 -219.35748115931119173 -208.95580571472595466 -200.84031180770048763 -203.10698652056819924 -205.03683836063027002 -208.86957560312725946 -202.96155351066755657 -190.98567395326369933 -205.8695432104537133 -208.06547490008301793 -208.76619617047938959 -201.83981728809180822 -208.93542775504178621 -205.80420669824312085 -210.83899340361003283 -204.20655019250230566 -203.14610188328680351 -208.37128143831716898 -205.56411294992722105 -208.61240469269361597 -201.29381848743267369 -193.75739881835247047 -215.56426031439622193 -211.73789346951039647 -203.03160435967836861 -200.93493885716608816 -212.79372132194384903 -214.5570645527734257 -209.4624346875575327 -205.12938024546048155 -203.86072881590436623 -203.65309759046914451 -214.55999486422126665 -207.25002257724793253 -202.39860889368893027 -213.44181416183545252 -195.27403679612660881 -207.62541721975165387 -207.80364317599307356 -212.91607786022157711 -199.56334825352834628 -207.62933459424831995 -211.45882444812281165 -208.33144550368217551 -200.63013648643180886 -201.14775569961943802 -217.79881303988094032 -210.09868226432399752 -210.31809258765636628 -212.6033930223713071 -208.81083686901089891 -205.48159600930827651 -192.77608886037182856 -202.27540445859636975 -211.50878023359271651 -215.77029640376537145 -210.66761197089908819 -199.05914173261066935 -203.71438646866022282 -200.87693827188061846 -210.61958952407607626 -217.56151134460813523 -204.89645562587540439 -199.74835181300369413 -205.66904807209459705 -213.41555005603419204 -199.93133527404361871 -196.4353808148435121 -206.41946862515774797 -204.16768970255407112 -203.80177045859676355 -213.01209832254949106 -207.28442993861486343 -210.17763310657633724 -207.75982800637240189 -195.88490012247336836 -206.71440841445348724 -201.76400460637097467 -201.67684050613846125 -205.32855832755427627 -203.67619999922393959 -214.69158201115556039 -212.66900670552021779 -202.63784066706037379 -203.81176858845560673 -211.69067342079750915 -197.57082832589918553 -202.66875829157919497 -199.47537538485900654 -196.55676559824777883 -200.17132344751641426 -210.51760750857027915 -200.05476344915905429 -206.00594350612760763 -206.79932818102693659 -211.67521808904780301 -198.30366147846774538 -204.79322234437273664 -207.3795588167432129 -205.82208532171461002 -206.76671117901204866 -202.58167596866843496 -194.20457724323355819 -204.53633645236828897 -202.71159755386881329 -208.14118889473039076 -203.06528779405275031 -219.2832919243851677 -211.98414118973420273 -208.52779068080533875 -192.36404517637038225 -214.70033961070413397 -210.63271514770252679 -207.20330939414475324 -207.15961405768760528 -209.22922960826471694 -207.41957932391500208 -214.188934120754368 -212.48954306807101489 -200.99766050075609769 -206.46445886625485855 -200.59255820828008154 -198.42835183954395006 -210.34614385686700189 -205.37129964910863578 -192.39756495046793816 -210.34222817777498449 -207.16034203817224579 -209.50698134907815984 -209.14954008911891492 -206.87055777601941031 -200.82212999621495442 -205.17037152751265694 -209.47918716849454768 -202.0914499387008334 -201.90985271666119161 -205.8187474620852413 -207.35981986196887306 -205.58659512850431383 -207.98760826017527847 -211.28020986471759102 -206.85614544560036165 -204.59520551932575927 -214.21756043665490665 -211.46448902014745386 -196.53331092949835579 -204.81144267779700385 -208.40067365274805411 -205.22350891782124904 -210.84179207691269653 -211.23413315059596584 -211.64900814485889669 -204.63071384317737511 -209.46200280853136633 -209.14077742348365518 -198.16864112615823501 -207.11191018461622093 -194.70715636297131823 -207.11471389396416498 -195.32681209576907122 -204.93760188421248358 -198.64575782838610962 -200.91282729121309103 -214.59569367431959108 -203.65353355537865809 -205.55733089740917308 -201.94319975346897422 -213.6444722704156618 -210.95626009610745655 -199.98089458072794855 -201.66100757621353523 -202.68244821303167669 -199.13233819475507858 -206.955602404484722 -204.34846887943359661 -198.02875549463092852 -205.68539310169947498 -214.45574008432811297 -206.46213883533837929 -202.79116754378009091 -206.65837805230074764 -211.30598025128358586 -203.4856809788677765 -212.17009611852060402
-1315.5457804777440742 -1291.3078065760994377 -1305.2937017798760735 -1308.6788495538041843 -1313.7176337716675789 -1316.784876304686577 -1301.1008346907074156 -1308.1328072090682326 -1297.7232290494064273 -1284.8218432445521557 -1297.1249274111576142 -1281.8808230720671872 -1299.5136818561334167 -1284.4665472486549334 -1297.1737721607844378 -1303.3043306121019214 -1320.5701967208046881 -1292.1753020694461611 -1299.2185404642384583 -1295.6954452601760295 -1319.4764058466855658 -1298.9273200050108699 -1288.8065933663388023 -1322.8782750993823356 -1284.2354843255600372 -1304.9674073241183123 -1324.8162041620280434 -1266.1661939164619071 -1313.3221307795938628 -1294.4553379820633836 -1289.4743068145792222 -1290.4088281602585084 -1291.682906340369982 -1285.0736190480854475 -1314.0404722062244218 -1305.724426976506038 -1301.9722962027690301 -1308.9517333933504233 -1306.0906320034634973 -1301.8416461234398867 -1294.3620461536922903 -1271.3053174756569206 -1286.2337701888311585 -1302.2334485603021221 -1304.9306927012730739 -1296.8078773662846288 -1300.5393387449244074 -1302.1105447835777795 -1297.3886893989324562 -1305.3479757534719283 -1308.0065940033257448 -1304.8180109949689722 -1310.6428609084746313 -1304.0524347501036573 -1314.1220870273982655 -1275.0722340792519844 -1294.6761808263511284 -1316.6843990673612552 -1307.079668186465824 -1317.0256096761852405 -1278.4924051160242016 -1311.3579767193186854 -1293.4104202830683334 -1292.6749547533893292 -1331.3558022076949783 -1321.4419915097951161 -1309.9737342485436784 -1317.7460035625074397 -1297.8563863627452974 -1316.7841129178837036 -1282.8434226398478586 -1318.9725611922892767 -1312.7188542222313572 -1306.0427566914393083 -1299.883030839622279 -1294.6334449759838208 -1299.5557752681086185 -1327.9805112563778948 -1308.5987724058356889 -1301.6886412633600685 -1298.8632626404416897 -1318.8719638103398211 -1303.105847152177148 -1310.9571502267167489 -1281.8578847481282992 -1296.2499101865307694 -1298.486268515521715 -1283.264831009121508 -1283.3144103270335563 -1299.7821004437832926 -1311.9623340149364594 -1281.634527506070981 -1296.0690322012872002 -1317.7758128642037718 -1287.5281513819854808 -1284.0447384717881505 -1333.0863531368340773 -1314.2746173945354258 -1301.3068331563813445 -1310.3005408827968949 -1297.8763161351255349 -1293.4379026968681501 -1303.0556392864957616 -1317.7306005378102327 -1292.5984384812873031 -1315.0318158760171627 -1304.0298286004658621 -1308.5794794309190365 -1306.3668502116368018 -1296.9962872534911185 -1297.2631457632148795 -1311.2977542393668955 -1288.9055105735169491 -1298.3032117971561092 -1310.5154768931106446 -1292.2448423456642104 -1302.0235249202062278 -1301.5541880270534421 -1301.2111742040806348 -1303.1294763101861918 -1311.2984510402291107 -1302.8457208303868811 -1290.1361399408424404 -1296.4675020627216782 -1296.8878256535263063 -1293.7926473728059591 -1295.6872228467573223 -1289.0341246562445576 -1317.2959013424874684 -1293.9156147195760695 -1288.5190385278644953 -1299.7273175614009233 -1299.9829685403865369 -1292.9262758395711899 -1306.8720334763736446 -1290.5073131838430527 -1302.1527177110199318 -1306.5136818539192518 -1294.2264426123360863 -1305.2925115018238102 -1307.5592307177737439 -1297.5087505426076859 -1297.4304253047587281 -1298.4911393312866039 -1301.1359022361868938 -1303.6692262596068304 -1315.5587807464717116 -1302.852247772660121 -1305.9048744009337497 -1274.9906100052996862 -1295.9983380536696131 -1276.9503246951203437 -1300.489500455048983 -1298.0124896383381383 -1316.7621331627226482 -1301.195345971656252 -1310.3958152392303873 -1286.0223774261723975 -1283.8419580471077097 -1306.5041511341917158 -1283.9479198627150254 -1296.2195424049753001 -1316.2770233767785157 -1291.7519327113918735 -1291.2684009000977312 -1297.8887853405346959 -1290.1908698413262755 -1283.2755474176212829 -1307.4116468160559634 -1306.9022987635321442 -1311.0159611833976214 -1305.2316523110673643 -1313.0365993026002798 -1298.6234035934937765 -1275.9745334499191358 -1294.3399232510560068 -1303.6353516071671947 -1295.3559046903901617 -1315.8324693681604458 -1300.9575206259344213 -1293.6071192227166193 -1295.0803501265136219 -1297.663679565348275 -1303.0165377129751505 -1307.9063179234788095 -1298.6619551585722547 -1290.8377041716446456 -1269.8219261523372552 -1307.0393165394323205 -1299.9092550791397116 -1277.078067715176303 -1291.9986104145546051 -1300.2935101044065505 -1312.6776873352914663 -1268.1176283608212998 -1331.4289856506400156 -1302.7257829954530735 -1318.9620778556338792 -1285.6878562072888599 -1318.2742368865647222 -1299.355767756592968 -1302.797646484162442 -1307.2294623315588069 -1311.7128026681818938 -1298.1252007740988574 -1325.8451205086810205 -1285.863593320084874 -1300.7758710018238162 -1298.3302745779622001 -1312.4376576363119966 -1297.2357189335261864 -1288.8309809707420754 -1301.6066322741180556 -1327.3603996639560592 -1314.7524573043926921 -1281.2218755228188911 -1290.297179538091541 -1283.4666775480425258 -1319.0551051428719802 -1295.4957369575690791 -1316.4398322765750891 -1295.8430328398978872 -1297.2990038419393386 -1313.4721015071609145 -1323.9321664514407075 -1297.7443631068772447 -1325.4884379503903347 -1319.3608981135193972 -1302.971870907017319 -1306.8723832562304779 -1284.9437222281021604 -1289.4470733433920486 -1297.2251232040732702 -1316.8898836041175855 -1299.5917419312786478 -1313.9963005214506211 -1274.5208147480016123 -1306.9511370683965197 -1304.8179439735902179 -1290.6649642226316246 -1292.1496052178529226 -1303.3727404397293412 -1288.0559905514671755 -1291.9515093160141532 -1302.1949325742464225 -1296.6610888412244549 -1297.6101273955894158 -1319.8340688470577788 -1312.1326420388970746 -1293.5289349225361093 -1303.8256465505576216 -1308.4265038999817534 -1327.2467874664803276 -1282.7824665320986242 -1308.7431158994975249 -1311.9280719590115041 -1314.5278807617266921 -1303.8328938322322301 -1315.9463426964257451 -1294.4259746555428592 -1276.6273486541963393 -1300.2913642037426598 -1296.8393050787462926 -1286.9448133220034833 -1321.3877235039444713 -1281.7077137880137343 -1325.9951574116896609 -1299.3279582693626253 -1294.3196402861112801 -1299.6972925569214112 -1330.0716489646538321 -1268.0700589280118038 -1286.4861326700597601 -1284.0312065530204109 -1308.0778740219825522 -1318.2656065247031165 -1305.7321446174053108 -1304.0229106039985254 -1305.7799747990040942 -1312.6268149187953895 -1310.948861724471044 -1321.2789094202228171 -1276.0928401431094699 -1282.2796429698798875 -1300.0735565789775592 -1308.9463341342777767 -1307.7377939744981177 -1303.3362971732012738 -1293.2946252878421092 -1307.3919553661849022 -1295.04163734501617 -1290.7837695788105066 -1311.4300716770935651 -1299.1907241509477444 -1307.8091423838709488 -1317.8433500431217453 -1302.2613267306926446 -1289.6477026797140297 -1277.7704281349290341 -1311.4323562268932619 -1310.8022687019577006 -1303.8575805886084709 -1309.3001012427898786 -1291.1646921243325323 -1308.2613508115309742 -1308.5917349438509518 -1297.2881936725952983 -1285.9812781561736301 -1313.6086183014358539 -1303.5344404035997741 -1288.3208937307301767 -1300.8858875172036278 -1276.977958277900143 -1300.6943972458154803 -1321.4281430000983164 -1301.9466068927413289 -1275.7516917583066061 -1299.5879841610005769 -1295.2840645220408078 -1288.8590241850724851 -1307.9580951403736435 -1299.1089258419701764 -1290.9270816565651785 -1282.6520646030953685 -1285.2769121687306324 -1291.189348540811352 -1294.3852017607284779 -1297.1404530359009186 -1299.9119337026361336 -1308.2058697058350845 -1325.1056369570885636 -1311.6604804352098199 -1293.1830612342496352 -1327.9650121970691998 -1298.3014603114488636 -1295.5530913762481759 -1320.7404469224654804 -1292.7783496709175779 -1308.8615854168144779 -1314.5973185335503786 -1281.7065994719948776 -1290.8360110274979888 -1304.4746325050180076 -1312.7819681539376688 -1289.5437355261137782 -1292.187923259221634 -1300.6607813189864373 -1305.2039322753037141 -1316.9714628472265758 -1307.242681791461564 -1282.2862161503362586 -1292.6976696319609346 -1292.3869917411516326 -1319.3094823620394891 -1304.5625234642463965 -1295.4514083949845826 -1292.5927313332854283 -1292.4212484416848383 -1277.8017830323476574 -1287.2530327805163779 -1307.0018978073480866 -1297.3623198227114699 -1322.2050546436310015 -1295.8040617680780997 -1290.8006928930633421 -1303.4925114669965751 -1323.85132734316403 -1323.3717730628691243 -1309.5981154660266839 -1299.3557651211074244 -1304.584896226947194 -1276.7026055208343678 -1303.3048767804871204 -1311.3406026673455926 -1282.9725675608742677
453.68926281226913488 461.92887027758860086 470.64923164414994972 462.35554651418902949 453.71729444316162017 468.446582176508457 462.24651375403993825 460.64295639638788771 443.54778008962972535 467.6443064193786654 453.59666571973787086 454.78859899445160409 472.69798413236429724 462.5182773537140406 457.42928785909532508 449.05975007362366114 462.12957843487629361 472.43453299023690306 473.57343919091744056 463.31707869847781467 455.31439773146553307 467.5310634845730533 469.28536415534324533 464.24953866238394085 460.76318107670630297 466.97949025447911708 453.92485615213865913 458.27893395895824824 458.29250462244590381 472.84622513831806145 460.00576841463532674 464.59962844272826032 458.39692310550901766 466.54822802195036502 468.7520216077942905 452.17803874037406331 472.43204237681379709 463.73022432257045011 473.70187504341674867 456.57775381020343275 465.7166891334464367 458.082322603659577 465.7785292610053034 451.85099255018542408 463.18444759925591825 463.54341531449477998 456.28151684315054126 470.80100203370915324 454.80761666720252379 453.11095963631703398 457.08367262108140494 450.31601717870614721 461.79949742276835423 469.53385611636554131 462.32677664730596234 458.27444873436081707 457.24127950160226419 465.64668862542038141 450.04343781777316735 472.36566308201298625 443.32768877435324839 457.71851882409424661 451.94540716431146166 455.51602878357300597 455.1215645195091497 481.88789319059299032 460.93824701700629021 460.78628135838494018 460.9822301967312228 465.66034408121737442 462.17808331534399713 447.0100379717525243 460.68875557684145861 465.73724428616395699 460.88891869659966005 470.27070694541043849 465.08918063367110562 471.97146360725298564 451.76764276279510568 458.39620043575985164 466.01656653280974751 465.27392155367232363 464.20188129014576361 460.04857768177220123 467.43691758130444214 458.75956861441812862 453.62016025056976787 451.13629917679503478 464.68068469588092739 464.27494140961294988 450.60487822138691172 459.28028833390857244 456.66364126618168484 473.19321229107231375 450.95105914021814897 475.7198844681052492 460.93188005449115963 451.79120121469566129 453.80568141400522109 469.87574446875430567 448.08584489742696633 461.57630775408944146 450.5608196548023443 467.77118135103643226 465.28598170061229666 467.26421135981922816 443.23045484643290592 463.56659745988110899 465.50600194577003776 463.58016308036371811 468.67524666924708754 454.97255008096931306 474.21179723051750443 479.65163423455260272 466.36566525448353104 457.15359001322730137 456.12579044071230783 454.52190155693972429 453.46219552756201665 461.79462261803496403 464.91514832782087296 455.98157156366153231 464.0825947095215156 463.64164196552604835 456.00142288951894898 462.89756107671871632 464.95795350140195978 455.85943469453059151 457.6748018752423377 465.82968731085554737 456.93323559377449783 459.09801224379663154 467.25888064887436713 462.79469561574097725 465.09800776876465989 462.85290239365031084 464.20036021502704671 456.65980873828073072 474.19648980156284779 466.06584844661944089 466.50613353871364097 454.26934771581920813 462.91664686639461479 469.94223303567207495 450.66759298346363494 465.71501970299163986 452.46109681524859525 460.29832108072434949 469.66372296936219755 465.81358218289585693 464.96557771044024321 463.23352790934245604 454.79714378562619004 462.62028467247313301 460.24103391971152632 468.28647132124967811 451.2154902184211096 460.09713059877293517 462.20997446523529106 463.08424840539760226 455.02700255788295181 454.27965465170149173 453.49214699159023212 456.88826594095866085 464.09216831190008179 450.85807648015213545 451.3218537001591244 459.5306199411218131 468.56001035371826902 468.67932885811632104 468.69139773380101133 461.61811788339724671 458.08430552978666128 468.02018456917994627 467.04617824107737079 461.48025777797658975 460.3837061971383946 457.82456354284016697 462.91679789231164932 467.95883876184899464 462.13260010553312895 453.72279895708112463 456.74482125493750573 474.23871199354181272 457.89800046346033469 448.93109270908433928 448.46034546643784324 463.74433615963602051 464.19958605481252789 463.71867703716429787 467.94775738370560703 460.81535735220120387 447.70509778297036974 458.68770178840014751 460.51734100804134187 459.84069253937394706 462.87112154614220572 453.38361349377424858 457.27246507710259493 463.79815974934155065 457.47223265815460991 467.28283709455303097 467.73316847104831595 465.04004460382020625 452.87688329344717886 460.52824013685892623 450.030620704522903 464.62534911741033739 461.34082604894047108 447.39611780112124961 456.53334345029423957 466.84095625206055047 475.41016337868546771 454.73024810679123675 462.19835430624999617 463.16524653020923097 449.5793089502350881 461.10531109960032836 458.20019626875989616 460.41785199086706371 470.35684459924266321 462.77634661690603934 463.18260996739411439 462.00316210845744536 467.97312981953660938 452.828732988633476 471.50941585486555141 469.77856462284677264 474.97680186318700635 456.87966301152118831 463.34997139099061769 447.09249565881998478 454.36865384016095959 456.27270406159658478 456.72166240703785434 461.86819251163746003 460.86371838642753573 452.63003840459708726 461.9538904003678681 457.89464523691680142 466.06417891643695839 453.27208715050795718 459.47117823801994518 471.3239413157957074 457.58146717190527397 465.4357795072414774 456.43910578902011821 460.88959027234369614 454.81012400240109628 462.04316948673260868 457.92361882694700626 453.62894062379069737 452.22086897603583111 459.03918880431410798 456.21411835859260009 457.6187391958740136 466.24667689030593465 462.40540359916195712 470.70904094183964617 449.25282238965962733 455.78937310518108461 466.43188277079161708 458.22318816555343801 472.78103585099239581 454.9661360651999189 470.37030660807801041 459.02933186560903778 464.42185438149658694 460.42229342428737482 453.1769503268450876 463.53306868570302868 477.55114544334219318 460.10115909580900961 458.20438656960624257 465.97683332684664492 466.9491697338190761 463.80865937243953567 458.62455490227580412 466.75781250582173243 453.04877931990768047 460.616211280938046 455.84383157925628893 463.03358258595091002 457.71747092632909926 459.84893808738564758 455.69662829985031749 457.49975965245960197 450.85136996998807035 455.75936599262939808 460.12518998311662699 477.64728437078883871 451.77794318232992055 473.21132108244177061 457.24274281496741423 461.08882389064268637 473.24256055069059812 456.22952900899190354 465.05719313467005804 470.9797919817890488 460.43964736616356959 467.36627948209468286 461.99698373811764895 451.02919174959333759 457.04352813666662314 463.97393594151674279 464.19381240454771387 465.24706116568069092 462.95241595661298106 459.84855010679416409 455.68337359700984734 464.15337603183286319 460.22200797613822942 473.94993916005722667 452.20677686441302967 459.73100525161464702 455.82644619840391442 465.88738532882217669 460.19509083676314276 455.22994637711212818 470.06853097134626296 456.08447523510426436 466.03520880328653675 447.30304906454108504 453.94577085800870009 459.92796076757014134 461.72651041115801718 462.06000864263148742 460.22850307635559375 475.15582880568393875 454.62070305672779114 461.88760804384179437 450.38571472350753311 458.31095704584839723 469.48373270134749191 469.40074304563768237 470.48020273071040265 456.85139876821830285 468.18913387354569977 455.85230102561052945 470.54261380793667513 462.03063378535375705 455.68202620705216077 455.71015502050863688 465.78659531224712964 460.76254095247384157 462.59305721264780686 469.44181487949572329 451.91249880420991758 461.3146142325045389 449.3907630619882525 455.69918937541496007 461.8453949075460514 455.56537447637208516 450.94524124437839419 455.45843253262421513 467.66099091776345631 465.06245755945587916 453.6278434413864602 458.621574013162558 453.62957937914035256 452.26363756364600022 462.79644959606474686 459.18955710186708075 476.92798138956283083 456.47909846244510845 456.59916556921785968 453.42047463992884104 459.09415558756313658 449.03022399108363061 464.0133779728272998 464.13195839394978748 451.11704073592534314 475.37488400894324059 462.87308202032602367 475.11121243702575612
-153.71775105017024998 -170.02505781132694551 -169.44508343635740744 -169.69629406677731254 -156.65347114046778643 -165.91327486606459729 -150.41699856316864725 -164.68213481613631188 -163.88006111115180374 -152.90795621745766653 -149.96233804297955317 -160.05668495934060047 -167.90422785687516694 -161.36710996832462683 -160.97736684342467584 -165.43734532331035325 -160.28529335953328427 -165.35527230581851654 -166.36172965847632099 -162.83831900616942789 -151.44190364613365318 -152.61734069910227163 -161.65588111755431555 -150.64519812447056779 -164.66248193333265704 -157.10278908133687992 -164.08891069775657456 -169.29934019314742955 -159.79444393764887877 -156.51911204664742172 -161.42303070123378461 -166.80478136575908366 -157.82377045962513762 -163.76218069976550851 -159.37280156687947397 -157.40057287402839847 -164.41323187587832422 -166.70149111657940466 -162.21269588518447335 -148.38050574833204109 -155.56545635347205803 -163.80268553480414084 -157.20542415588440122 -156.93284945699238619 -148.40468672918271409 -157.9927190303479847 -158.42341889665814847 -156.15362469341661722 -164.2766123972916148 -160.88059325556349677 -165.15357308272317027 -155.05473766880106723 -154.86756147280874529 -148.01999084513300886 -160.7322109920355615 -154.10501861976695182 -163.69981928547815642 -156.00762167028989325 -158.22298486247871097 -162.26501364077486755 -158.50767625889102419 -156.97617940833799821 -157.80255696748685068 -155.10883083554691098 -161.29931830475163679 -153.45355074170726084 -158.78347313834296983 -152.40575470621598697 -164.61704730444859024 -156.15085081231822528 -152.97225243507986647 -157.80492303003740062 -159.91460870971658892 -165.31033939150182732 -168.88671373315679602 -157.29986190930293333 -149.69701419959736199 -166.65629506995432507 -157.67988734384394434 -164.61569848598134058 -142.52280284575908809 -165.26015575841267946 -162.47903248321966885 -156.21022976567192586 -162.37939155402500546 -162.64907026629106213 -162.40138609513664392 -168.28096397811825113 -162.58357034236433947 -161.16862752993046115 -162.34590854667601434 -164.74050868123870828 -160.02792112498772781 -165.18371234839244721 -158.40771801681222541 -167.64560936093431565 -160.85372818516458437 -159.73020690508994335 -166.47990662098496273 -169.00428848570300033 -165.10212417942713614 -159.88458209597769155 -171.62437682515565029 -159.06785453599303537 -167.5305354063960408 -146.22701128113678237 -156.60028078177202815 -159.07405918016576152 -148.75222629850998146 -156.73037590161999333 -155.95824501806876583 -167.06420606011502628 -150.96906770835394695 -158.24689821049452121 -163.96452506137023875 -166.69962922613896694 -151.83737756389666629 -167.17873909408902477 -171.79386902687039651 -168.16323243946087018 -172.22811261278224038 -167.34995230019842438 -170.34308233321044668 -165.81205330066589454 -157.203024557466847 -159.18428758629940489 -175.50914321588493294 -166.89567050560305006 -157.97893267976914444 -159.99820470644985448 -157.38517336912281053 -158.42074585823428379 -168.33418316561241568 -155.16067609487674872 -161.9053538232294045 -160.77570793598121668 -174.01634393663093192 -163.15509433080993063 -168.02256794135138307 -166.37282004935494228 -157.78174241683862533 -152.04143577796273235 -165.00965461867838258 -161.1502865129340023 -160.60276326813436754 -148.62281760242601081 -152.479041667853636 -161.64443938116534127 -168.67074723292145677 -164.02394999587050961 -161.33142484479225232 -157.59421282641295647 -150.26224854250133944 -164.05862817555359356 -153.66992570290611297 -163.87898709361425631 -154.06660099578826362 -152.51618636940855822 -157.55010932277122038 -156.16148073990933653 -157.86802813800272816 -163.61878495935360434 -163.34187037441978418 -157.78509269866086129 -163.35081660792928915 -156.10757940157952817 -160.89581315490445945 -155.69891064176900386 -156.96485480536043156 -171.99935492876676335 -170.50432845432058571 -157.54236909271631362 -152.83618171570910249 -155.72614348363850922 -168.47344921550759977 -162.8031639295182913 -162.03104011506889037 -166.9254969936527857 -166.39011692923065766 -158.24661047594787533 -157.24638582040086021 -161.49498959753498184 -166.80270019436022721 -163.08455607995912828 -158.73122132657127281 -160.32293245298066608 -164.70395363472223949 -163.25244606292105232 -159.45921702086889127 -158.03680135353846481 -150.55366173743269087 -160.92215725492036427 -159.48345708624924555 -156.15257457202019964 -176.6596202577055692 -167.74355041839871205 -162.21041092112841397 -165.01657707456456592 -154.53642505334218527 -166.9985396163882001 -164.67937245177742511 -163.77208255608229592 -155.13593067329708219 -148.16814186765597583 -153.20904830971701927 -163.91054496342900393 -162.73084481637823728 -167.22829568130987354 -163.63713326795667058 -153.55863465909092724 -157.48065730577894783 -165.33554537640384297 -151.59277574541977174 -152.82082795313786505 -155.27490385550908059 -172.83424114092642299 -147.96617594029726206 -146.32220443783782571 -153.97519211959220797 -161.34973133479888929 -161.78532063620448866 -144.68975196326866239 -161.66803944520901837 -154.05588577325116262 -160.222977239612419 -167.99644553726551521 -162.21039826509451132 -160.01492533282979025 -155.91495820310032627 -164.74099947655898291 -157.566678363668359 -154.21415682813636749 -163.56714719306702932 -170.37521506723402354 -164.54638222115082158 -162.3056491508915542 -166.46679618713821469 -165.05010782186940332 -155.97958429261481683 -167.22027749844764344 -157.35813360121093751 -157.45330087658592788 -154.00531225930643586 -154.33659204407931043 -156.96860748281002884 -166.25673860381004943 -164.79854676200031349 -161.73411977597712053 -151.6081531096241406 -151.18374143950114785 -146.64192189686900747 -161.62802267851535021 -156.88948416401149188 -162.54686988546711746 -159.07654262825147384 -168.49467297515349173 -160.40002589966772462 -160.8679678386015155 -162.05575076665965639 -164.13729307687313508 -158.76337666828368356 -167.79899036368223619 -164.33881057563959871 -173.13014473583965014 -161.81234090302760364 -170.22779463817849432 -159.10785509756138367 -156.28308791517855525 -157.65123645113263251 -167.94069318188238071 -159.4223406570262398 -154.45307437663245764 -156.3810842335766722 -158.85651628741942432 -158.04677660531461925 -163.49459668787994815 -154.47368694601962602 -163.79698643142239689 -171.71351278282182307 -157.36863429553687865 -148.84777116466116809 -166.76545288261425526 -162.1709197083706897 -155.59005691808795291 -153.25109177237962399 -154.59340751606259801 -160.86568015541485011 -154.7751415202131966 -155.57858871431275816 -156.13875972099816636 -158.47465999049416041 -154.35817398743802187 -161.89825429898394304 -156.35641418410972392 -149.01785254240067502 -164.03060839330731824 -162.51098307563319167 -164.9528198875657381 -159.14191582898402544 -157.22097732321975627 -164.38449552596881631 -164.78808511448369245 -157.27576389822414171 -162.6090417799677823 -149.77701924899531605 -164.14190098722772859 -151.67825082069177256 -147.46282955010849491 -162.80704521620600644 -160.26281730261777625 -162.94551288497129349 -156.80149452141816369 -163.91208161562462919 -155.46570681656135093 -158.51911370055060502 -159.89240671662815885 -160.82611937091860455 -161.22115611476678509 -161.68755107042323971 -166.27059611692382646 -161.60889191426872458 -180.12099218203854889 -143.32370724859032407 -154.10234278053769685 -160.13215331386589924 -162.30161615501324945 -166.51595797442203661 -149.89742610070584306 -152.36830632558442744 -157.09053630169245253 -157.31680487688984726 -162.48575220522172913 -151.65808815753723593 -145.97806457638600364 -171.84449096071037388 -138.48016422755875965 -173.83846089699574122 -156.76184289949384265 -158.24488431146366452 -152.54401112522828043 -162.61616828089009346 -173.02044143142788357 -167.39968263233575385 -158.77322444941685831 -161.58195381617954922 -162.3806939029779528 -157.89233971459222516 -153.02910991864308698 -154.81226331319939504 -159.18922643119776694 -151.83106500403735595 -155.29022282643353492 -160.63246170714074879 -156.6233994371396534 -153.59545034049861556 -150.23270479307547021 -167.60034573822815673 -159.78480469948482323 -157.14583536917578499 -162.46101517283474891 -159.56363833103381467 -163.79134781182051483 -161.42215094080381732 -164.27777061503860523 -155.93765251460902732 -165.61125406001008287 -159.52590131783622951 -166.96986960562034596 -160.01422280875513593 -155.42219834441624471 -160.40446814573280676 -162.08046016581414506 -149.60639410392971627 -154.78420781025542396 -158.56745726890864034
-1291.4537963303782817 -1312.0477800724850113 -1304.6465369685711266 -1314.2694183333726414 -1291.2728748808872297 -1289.4368421012459294 -1300.3168954801813015 -1287.6037615159973484 -1269.6693180957165623 -1302.0657400365957983 -1306.0285712418417461 -1314.7989616360719083 -1314.8237402869676771 -1290.2132110006591574 -1292.4789425628059689 -1313.802098853439702 -1286.7707566761541784 -1304.8418702439548724 -1298.6257353909222729 -1306.5589923542834185 -1312.7488045217487524 -1299.0585129628411778 -1301.0624836764600332 -1318.0915248896719731 -1303.2588142314543802 -1304.7830422405395439 -1288.3283403230761905 -1313.1910802910663278 -1284.7300400391350195 -1307.795048554998175 -1319.4665022143296937 -1307.4546245566803009 -1282.5402057970754868 -1289.942019404235225 -1298.0380936572908013 -1294.7472354409053423 -1293.870294630057515 -1330.4217417992263108 -1286.2992924413376841 -1307.0383159961570527 -1312.0839511472345293 -1322.1871230725928399 -1267.6173598482234866 -1278.221714675923522 -1300.8852156521702454 -1300.1312257008410143 -1299.1916455831060375 -1279.7835805797708417 -1294.3114716458737803 -1314.1703090696605614 -1288.9573575001081736 -1289.102630663919399 -1297.5146872677994452 -1330.2593264738613925 -1314.1702526212402518 -1312.9105978778673034 -1286.8115662492070896 -1290.3305570260201875 -1307.5608693329602374 -1296.61274031511266 -1298.5618874075203166 -1293.9372568585254157 -1297.8902037876105169 -1295.4316256955471545 -1305.4428757920729822 -1299.6659608384272815 -1279.3177090051119649 -1318.8986783630571153 -1271.3742188038845597 -1296.7756333944414564 -1299.4119938963835921 -1289.1713631227869428 -1280.5321836382784113 -1292.6192054505472697 -1304.7363972635389473 -1297.9081446356176457 -1298.142240195458271 -1286.8777164531588824 -1303.9542927355680604 -1285.6599958508902546 -1302.0687458981949476 -1296.2692734323911736 -1272.9570707220002532 -1279.9863134274173717 -1289.0610672553852964 -1313.2569809170170174 -1293.9386503864425322 -1289.3754548611052542 -1318.2959947205818025 -1306.6782301479026955 -1287.5753866994377859 -1284.0616796954861911 -1315.267598094169216 -1298.6348551392754871 -1286.0941099616591146 -1303.9285487209310759 -1313.3046196812549624 -1303.5895843675671131 -1309.7895283254956666 -1293.3328521508738049 -1317.6906731404517359 -1285.2265914923627861 -1285.7572651310870242 -1292.8092352865487555 -1304.0833484859826967 -1317.0801581035220806 -1296.1858225866562861 -1280.8651011848394319 -1286.3727420252391767 -1318.7847273351624153 -1267.6718477278102455 -1260.392075331720207 -1298.087083048202885 -1317.0563450646845922 -1295.4591648552161587 -1299.6361840390268299 -1307.182119860613966 -1291.8514968121528455 -1278.4400232060934286 -1279.9432827868472486 -1305.767867218831725 -1333.1522580852704323 -1292.2887198361108858 -1292.0859228158346923 -1283.5185426978271153 -1307.1527225001070747 -1312.4833256117260589 -1310.8226406885964934 -1305.577863558039553 -1301.5689192265394922 -1289.0941299672429068 -1304.3623466502401698 -1277.3589985168705425 -1280.5866950634510886 -1304.7981242933119574 -1292.1394388321637052 -1290.9532547074488775 -1311.7352284241344478 -1290.1474345416934284 -1301.0036954100521598 -1301.4610012337948319 -1296.3832493189672732 -1299.6934264491071644 -1317.5517404840984454 -1306.9797957923942704 -1305.069151283041947 -1292.2314434388135851 -1312.6808035269430093 -1304.7886839852076264 -1322.3416293634177237 -1293.0147671630934383 -1302.5951692104972608 -1313.8285174669063053 -1283.0961029442969448 -1309.1095897467737359 -1274.8542003020015727 -1318.3794317493520794 -1305.8002017603866989 -1290.8033400075898953 -1301.7963119863841257 -1310.2525910279282471 -1301.3772446867596955 -1307.7103482633724525 -1284.6773159186077464 -1302.4722369827229613 -1294.8023235478137849 -1301.9400363002453105 -1291.8972247292210795 -1280.9558013676594328 -1330.0874236194549667 -1299.2868368187571377 -1308.7301586234370916 -1280.5716250224629675 -1284.5154933695030195 -1287.1755480848489697 -1344.8035888265171707 -1303.703650496218188 -1297.8920018288374649 -1296.1837665974624088 -1297.2247537495111374 -1289.6980721592722148 -1305.9832078951037602 -1290.7270071997957075 -1284.7127750059385107 -1291.6255011576738525 -1305.1462557241754894 -1273.8864696850414475 -1319.1591231803695337 -1304.3039193456236262 -1281.7970342224257365 -1308.8155531720674389 -1297.6706085307826015 -1281.5129330860975188 -1294.8308870054545423 -1321.7689107729879652 -1288.3203580226204394 -1282.4679644633995395 -1295.3840792594176037 -1292.8241478261518296 -1313.3612620790861456 -1301.3820407591483672 -1292.3969354419248248 -1293.9062574749852956 -1339.5500897692270428 -1291.1685691882637457 -1310.6332225699270566 -1302.0001670492185895 -1271.0363947983391881 -1284.7556153999953494 -1279.0002949651452582 -1289.4739247268280451 -1302.8384133139600181 -1293.6791238132400395 -1288.4427950468968902 -1317.7793901743525566 -1306.8529205483405349 -1300.8646780178721656 -1300.2901089098047578 -1306.5441755521269442 -1311.4869140999055617 -1303.0130211266903189 -1292.2111370366176288 -1310.7930127828049081 -1300.5320716404426094 -1287.0097014098798809 -1284.6408239031745779 -1299.4927773696392705 -1296.0593482404979113 -1304.0372172899774341 -1286.0199738550975326 -1315.5962731763804641 -1305.9845647013091821 -1288.4659013290718121 -1289.9986991197608859 -1321.0680053618132206 -1294.6466723414857825 -1278.1219134033813134 -1291.4041101411071395 -1302.4448072784134638 -1301.2899439560142127 -1265.0063684283366001 -1310.9904408670115572 -1311.6517401831306415 -1281.8696891079782745 -1288.0365576500507814 -1299.804548934941522 -1285.8174270503509433 -1303.3678803056989182 -1303.0633863475607086 -1286.6212310749529024 -1254.1736700967551315 -1302.3417637598399779 -1297.3200822184114713 -1300.8455013521611363 -1302.5815116026392388 -1311.510313135839624 -1284.5630583842155374 -1278.3571975998943344 -1314.3624611415953041 -1300.2534612271542755 -1292.5645211243268022 -1293.4992755985881558 -1308.0025088231955124 -1269.1316321075316864 -1310.4460486628067883 -1286.7651351709816936 -1310.7614422991832726 -1295.5866221942374068 -1292.4957577217717244 -1291.5782672265138444 -1305.2184111781439242 -1286.7350142219970621 -1310.1800520717022209 -1311.700446489234082 -1290.9280492423717988 -1310.8123244819203137 -1300.3620831565638127 -1291.1822053069161029 -1296.9923068790615162 -1290.1426830927480296 -1299.9744946117125437 -1292.1984876566871208 -1285.7393020013500973 -1291.2775512090097436 -1316.1424095011871032 -1304.2157230394038834 -1282.4022840193817956 -1279.1526067891543335 -1285.5700290954239335 -1282.6112822451302691 -1325.0254702025433744 -1289.6065360614509245 -1290.3063555136664036 -1317.6451389402770928 -1292.8763543261011364 -1303.5348235629796818 -1291.6585708080178847 -1279.6100316596809989 -1315.6533371593004631 -1316.2387446117893433 -1318.1009349701837436 -1304.3200741823318367 -1308.0496332781929141 -1325.0597846141861282 -1300.0652004202518128 -1305.2112932243996966 -1294.4844369136812929 -1276.4888322688002518 -1273.6638322245123618 -1282.499774824045744 -1306.9213944488253674 -1300.2538756030494369 -1295.5279110604058133 -1287.9366963741865675 -1292.6248400280599071 -1291.6818557119684101 -1317.8934073986993099 -1302.371564795254244 -1280.053215958914052 -1293.1654288460747466 -1296.8693197825793959 -1287.6904366045789629 -1286.262608029466719 -1299.6865386064607719 -1304.114417190728318 -1307.8948703844780539 -1293.6702683972328032 -1312.2828332712269912 -1308.3552483306659724 -1312.2124022478005827 -1293.5313245801780795 -1292.9226360235959419 -1304.4512801478965685 -1303.4089161450681331 -1294.3979802481510433 -1290.5555112178365107 -1301.5971554957811804 -1307.5422973718557387 -1288.2346144100301899 -1273.9232470170909437 -1304.9822158172726176 -1307.5458146916660098 -1294.109591149176822 -1289.3605448860862452 -1287.3269802565014288 -1307.2751745804823713 -1317.3337930020975364 -1300.1014684215058423 -1308.5684376053325195 -1318.118508740320749 -1298.1888447669932702 -1313.5425389490417274 -1294.9672840114255905 -1299.7720242475538726 -1319.9519284977636744 -1288.3097689947426261 -1320.4481642357884539 -1267.8240743875819589 -1315.5408828899862783 -1281.6905018685622508 -1283.6623186734102546 -1291.3432433735329141 -1300.72131094376482 -1308.2761618307920344 -1299.108912538667937 -1306.8031851178413945 -1296.5753724246860656 -1304.0646227761806131 -1296.0839667320210538 -1326.3636875482327468 -1301.3113991795778475 -1287.3503813398754119 -1311.3682479651918129 -1316.6111806635735775 -1306.9477010298335244