-181.76404114900151399 -165.6395214420456341 -177.9697923516327478 -166.81625368782729879 -164.79107421698222424 -178.49441511965721929 -170.45002342571382314 -169.29033331650961713 -180.50098550866323421 -163.84228421673458342 -178.96386792045160519 -173.01266950889259988 -179.46003928736672606 -169.29536043853133265 -173.16553766820692317 -164.69272974198165116 -182.13393400523631271 -178.08964965048284057 -170.46102770422746175 -167.31013871799001436 -166.65314987875154884 -175.44252033231128962 -171.92719658492782742 -174.31718298078627072 -176.49582648448094346 -172.9365867375659036 -166.97042065197481975 -158.13302084703144601 -166.5610041051183714 -172.75494018635859561 -182.52880880816587705 -164.02129887347570047 -180.15831552195186305 -169.32315572364538525 -178.12109310950191343 -173.10891791988035493 -184.64674530782920669 -177.49123567304235394 -175.93238753769588811 -171.94724864276375342 -170.24346922726604703 -169.88751996949602585 -173.80931479670218209 -177.01775245999661479 -181.60334657302783512 -174.88820142288503234 -172.02689941978763954 -169.35438970264166869 -172.54462294851848014 -171.18414936127393844 -174.38963861337256844 -179.55330578907404515 -164.86042064131842722 -170.22424105158097518 -173.70992207468586344 -166.25746437711927683 -170.42667521513990891 -165.61101647588986907 -175.81452173026860919 -170.47239871999110505 -178.96686925963476256 -168.12998684180735154 -166.52682257455225567 -177.05295157419163843 -171.35646580219628277 -173.61557504681869091 -169.6933311901861714 -176.21146389509428332 -172.85142987841285844 -182.23620124777525575 -169.8364384193932608 -176.4865742625980829 -176.48194419865558302 -174.28338322822551731 -172.97951405411487258 -168.98286012260655298 -167.63063790624295279 -177.83612049482886164 -178.20904370641284231 -167.11600458878206155 -175.45482850984649303 -174.69279435561176683 -171.91083010589520086 -173.88818944163170954 -172.61180467526426696 -165.74695904148836689 -166.64053222916257369 -169.77975234160331297 -174.96791979367858971 -162.29425657906043057 -168.51261509975384456 -171.87625162276287938 -164.13376214725298041 -174.78906528628886008 -173.14695210385494306 -171.66537015883764639 -172.37201493639514638 -170.44617781966897496 -172.14369345408584877 -166.23496783344160121 -176.32272866072290185 -178.39535968523711063 -170.35301248475892066 -167.30306161591599334 -172.58409408947497354 -175.08333443115466821 -167.43522244762607443 -170.96246765587031291 -171.03461813905073541 -165.22684767435598019 -179.66895949291128431 -177.48144501039527654 -174.74953367684616978 -170.06299580836136442 -172.34851341758533749 -170.41836002600871325 -166.92962870194335778 -179.45511385649558633 -165.55840706109557914 -174.49316371029715356 -175.64274568305438606 -167.08870782332374461 -179.27900186957191409 -167.66942902639431168 -171.93507963619990164 -171.11442613138709135 -179.2155927026347797 -176.35553749072897745 -169.79763472766757104 -170.72523658655791223 -177.50964788050316656 -164.76910346404545749 -179.29242124094741939 -177.48377594085346232 -171.40852351037611356 -167.93053226686862445 -177.9717183009653354 -171.84694299914457361 -171.17704124930264697 -173.13226026394141854 -171.28410257182218857 -170.91700097685824744 -181.11775920706082843 -180.49463099854909842 -169.32586953456072365 -167.84445511497037273 -178.20717864486408644 -169.80077695066904653 -166.20333915486696696 -174.10156101848343724 -185.40521003736952821 -165.53892717838104431 -180.12076716861864156 -173.08049043954204649 -177.77126666310266501 -166.96362347842753593 -170.23382780151857219 -162.14110579270567314 -174.97743791612879249 -173.89371807920451829 -175.98176038855262959 -177.15163574298748017 -165.47894414712004618 -175.12741830263612997 -173.08614527517667625 -173.17320545214192862 -176.41624885741612161 -169.35607659743206455 -176.26646332813820095 -170.97483058742287199 -178.8685040504875019 -173.11229902619538734 -181.82941224370117084 -166.80017206193872426 -157.99455734065642787 -174.6571720261900964 -176.06379109734788813 -180.35244734372031417 -178.15264508859340253 -164.9580109468267608 -171.46248982495885116 -181.42365200545347648 -163.62609748360307549 -166.69847640273457046 -172.55701796278029292 -177.52835227171050292 -175.86157580648659859 -162.64760601282878838 -172.74009106670516189 -175.45830587664542577 -167.59149729022274755 -165.5422869056960451 -170.8434755863872283 -169.13743554575557937 -174.01655867727711779 -174.15751487463617764 -180.41590076025261169 -176.1029843426154855 -165.12202169960070819 -173.30383377291008173 -174.49153619682905969 -163.81769068966042369 -183.52493708515950743 -182.67533018075664586 -177.16700850955280089 -179.6361460906171601 -171.56611833944089085 -171.63360314666238082 -177.88677430721497785 -177.23387441555897226 -177.60173426260453766 -163.91113578233412795 -167.27528982810190428 -176.51308271528250771 -179.57744267842451791 -170.59187339912296011 -182.76686167300326247 -175.83072108865215455 -175.57948734184199679 -178.74703630089180706 -173.85063363943467607 -165.7198947603569934 -173.48020496597251849 -168.72945170142688198 -168.46099007125857838 -174.37345175743405434 -170.52142862850286065 -176.73462505198850181 -171.0666696270053535 -158.43096903759814609 -163.44698438752445213 -167.39050311601664589 -175.76243447870621139 -170.95901956463114857 -173.67986398678547744 -171.58828923466336391 -166.02648330892225204 -171.36581861422814654 -167.25074392045593186 -162.41879904315669592 -173.46921632768652444 -166.26725670636645305 -179.07814115501707875 -170.41945593345423049 -169.38605107617038925 -174.12141709372048126 -166.50038249522341971 -167.64573651903256746 -167.43988223122681802 -171.4270698401825257 -170.66376717095073445 -180.28135465540594851 -169.62944701321151797 -169.06265020356332229 -174.54342217544541427 -170.05884185236175199 -168.76350251319050244 -177.85618033141199135 -175.5344225340332116 -176.21096721015067033 -176.00656468478308625 -169.65072651228157952 -167.35710283286550748 -178.28780142451034862 -176.30337382845291927 -165.72546725406300538 -167.67484466087296369 -175.22567577725072852 -175.22989692624597069 -178.35505531538885293 -172.88066682503833249 -174.59151127694423167 -172.50532999802248924 -168.93166130161230853 -170.07979087951878228 -169.68130467738646416 -178.34985974968515166 -169.45562571949804465 -178.67634323666354135 -172.69658531931463585 -176.59324376254804179 -168.25945226481962891 -170.6913207194740778 -180.07678631109840239 -170.19921059662883067 -169.93013227801230869 -173.21315473222557557 -171.2365920483404409 -172.33977199213416043 -173.95073309211673518 -178.58474690306385924 -172.06416057734313085 -169.71875763661392966 -174.12642398935901156 -187.60727515510083663 -163.13955786229414002 -170.09114020306401471 -171.12327444548367339 -176.27132539847607973 -178.78838102112240449 -178.47989134258608601 -170.73981031262161423 -161.13894369987488631 -171.4941994638376741 -177.02823651633477198 -166.01962775614981638 -171.03832404119680177 -168.91993652678843318 -173.94262220882359316 -180.13430123047012898 -174.27488690752028333 -172.0998013610577857 -172.11857332479036131 -169.44276559397343362 -170.14843043467359962 -176.68791312205985378 -167.2996158426706188 -166.99563044898363273 -166.59830849621732796 -174.45399992704147962 -181.98433194209536623 -175.49395467588104225 -178.80313157893286302 -180.48619560299815134 -176.92385813086940516 -172.55298674836168971 -189.26740331256166883 -170.91877951215388975 -172.16248453772024618 -175.26930585738310242 -177.06721502094492848 -174.75442441412954508 -178.26387955616317527 -174.64199002255131177 -171.70798474097858843 -170.40834319044250833 -177.0945774137452986 -173.95904787722002993 -163.02214946749316482 -168.65908269623301408 -162.95833526525456136 -168.98379845887455986 -164.86895720414187849 -177.7744108563131249 -176.01672362905168256 -175.23233795119037381 -170.52227776585723973 -172.92028865284197536 -174.84135637357496762 -173.62765639456137023 -177.1174136458629107 -178.84093409190387547 -171.13027975699841932 -174.44823467460730626 -161.94481192098788824 -170.59020172213658384 -174.38404863394157474 -170.58205566285883492 -173.95244594283363426 -172.36383058452275918 -168.50244330890635069 -168.0969956478824372 -172.81548483274266914 -165.27230958737115429 -169.16844824779758483 -177.96314245144856159 -173.06509955868267525 -168.24532318180629886 -179.0649156827779791 -166.93949733921397183 -162.15916223608863334 -165.32043683433369097 -176.35331959100386712 -164.21405862337482517 -180.65856285669997305
-1553.6848586482853989 -1557.5502076831537579 -1530.9593570813635779 -1566.0600573878016348 -1544.9342555757757509 -1563.9154281330381764 -1531.9568465498603018 -1528.6260619614113239 -1555.1215811270631093 -1548.4496787716377639 -1550.2864707859814644 -1545.2767901748024997 -1528.9413895523607607 -1545.2102243487433952 -1553.0161519481921459 -1547.617650900697754 -1548.5440408182994361 -1571.2285430000567885 -1568.4527499669582085 -1558.5396999436513852 -1537.8895440185501684 -1561.7450294584250514 -1538.2642767947627362 -1551.836071933400035 -1519.62652765091525 -1545.9067598997569348 -1552.244480228008797 -1532.0769576199611492 -1576.3237679248450149 -1534.1509890770244056 -1543.375192781862097 -1516.1094376293206096 -1528.2193254869196153 -1576.7990853218793745 -1557.1058674559064912 -1554.9311027437672692 -1533.7848500722441258 -1547.5589420043720565 -1576.0097807277725224 -1555.8749855737246435 -1543.9124178449958436 -1556.6644273942415566 -1527.3983437669041905 -1545.1422543176797717 -1532.2265533325521574 -1542.0810729795928182 -1534.6860386502332858 -1558.569208136980933 -1557.9459040054823618 -1557.8539452983698084 -1546.6539353825671697 -1542.1708555736397557 -1549.9430101433688378 -1558.2412417203734094 -1546.0444073147359632 -1518.9844820736914244 -1560.0565133764871462 -1555.0851811641155109 -1534.8456239687602647 -1530.3976575797680653 -1539.5442878966475746 -1535.214816445294673 -1542.654898181363933 -1546.6772929949106583 -1549.9891069936029453 -1555.3799574755107642 -1554.7178560070067306 -1544.3384877839989713 -1555.1470842992423513 -1546.9873433919576655 -1575.4594868727692756 -1541.7464094206434311 -1569.336892751638743 -1542.0127989439799876 -1544.1843317274563105 -1566.3379801351343303 -1532.5146135039599358 -1556.0486572656570843 -1544.0770814910042645 -1576.4513413130443951 -1543.8365268521572489 -1554.2881539085583427 -1545.3518537325110174 -1547.0979905783947288 -1527.7976858970466765 -1546.053980680145969 -1547.3454122724879198 -1541.5024748588100465 -1551.2402070796824773 -1532.4604316890886366 -1552.0860371636792934 -1543.9418809456274175 -1541.1865019011449931 -1574.2005423798875654 -1529.2218692416249723 -1553.4901140354456857 -1547.3425389796680065 -1536.8528317662842255 -1540.2267127907712165 -1554.2538726008210688 -1562.3117760720704155 -1542.0932208938334043 -1560.1225478472076702 -1566.4531848085289312 -1536.4207879158575452 -1541.1768660057550733 -1533.0565127510419643 -1550.6416724649918706 -1549.5166086909534897 -1569.9809493105512956 -1560.263606531210371 -1548.9256369195970819 -1551.2572864704698077 -1567.5895381552043091 -1535.078360235392438 -1536.7883110505736113 -1556.2502736147853284 -1567.4680372551297296 -1533.521201783974675 -1552.1153889655890907 -1523.087755869429202 -1570.6539637961982407 -1533.6594658973867809 -1549.2989190823841454 -1551.8304338333007308 -1546.6082735354787019 -1568.5756382321467299 -1560.6122155215016392 -1564.3811346273109848 -1540.5294633381963649 -1530.2340501085773212 -1551.3594170162066348 -1562.4569906643473587 -1553.7641957807966264 -1566.0778465560044879 -1542.5391521398983059 -1550.886629882308398 -1552.5628716453791185 -1563.3739524812065156 -1564.4982781720877938 -1550.2323290968590754 -1545.190571169231589 -1563.8140251009490385 -1541.3257370681910743 -1550.1931313564978154 -1548.6204606157916714 -1517.9176969277891658 -1553.3824698323362554 -1544.7038386472956972 -1534.6219930285069495 -1572.1127468705435604 -1524.917248694683849 -1543.878591438992089 -1561.4531462651157199 -1564.3842226697422575 -1560.9640464197457277 -1556.8340979214674462 -1544.4307977629143807 -1543.248714320146064 -1520.0590409256008115 -1556.2734846280065995 -1558.9548006091174557 -1534.0911796161296934 -1573.8371830262742606 -1545.2793921675627189 -1543.1903446381672893 -1556.6661380254276992 -1536.3785248307408438 -1552.8915865729534289 -1561.8021249293294659 -1517.9309214796571723 -1562.1843955543961329 -1514.9125420904470047 -1562.9735482434223286 -1539.4250964603552347 -1551.0382400072812743 -1519.6944140965852057 -1551.8417340876192156 -1544.1081992030601668 -1554.7124099817972365 -1555.8759313343348367 -1538.5028168493536214 -1568.3042186606937776 -1537.6193467655925815 -1555.0971314841310686 -1559.9482433120940641 -1551.4275548253301622 -1561.5126531106795937 -1532.7949496262608591 -1540.9009802066343582 -1522.6977397996618038 -1537.5333844045362639 -1533.9799468454957605 -1545.5430231164843917 -1555.5314313160035908 -1542.039580236613574 -1547.473505889422313 -1561.0149771391256763 -1552.8188448041853462 -1554.7847465740665029 -1567.8781622564763438 -1565.2331331739726465 -1535.0726568954207778 -1558.3178231569979744 -1549.1236471869356137 -1555.2694959210634806 -1543.8385685252201256 -1545.3784851933723985 -1544.238268259890674 -1567.101484665720136 -1560.7095194634516702 -1556.0824665812074272 -1540.4035358419284876 -1555.657228540972028 -1541.8141753866602812 -1590.8911685961215881 -1552.4435009763953985 -1541.0538301326355395 -1551.5368546448075904 -1554.7019431833643921 -1572.5999952672100335 -1561.1747636328948374 -1540.5186387350820496 -1579.1944764363570357 -1559.1899880056555503 -1547.8291974331978054 -1527.9309630506559188 -1558.3753160073176787 -1561.8566767472912034 -1545.1332546005335189 -1551.5529792961719977 -1545.9290850614158899 -1543.0568297152804007 -1538.183314767968568 -1541.6197179378864348 -1580.2536170855371438 -1573.6625481709047563 -1538.6634157206410691 -1546.2171400064726186 -1542.9956092190457184 -1551.5707907714759131 -1545.2368379889144308 -1546.2666981376041804 -1572.9996757622216137 -1532.3192935557283363 -1565.9359536488184403 -1555.0682295868550682 -1566.2253579677578728 -1554.8101085400958254 -1528.8677555865760951 -1551.7474680369807629 -1557.8869022840551679 -1543.0738027644933936 -1544.7036705033001454 -1552.1145358367823519 -1544.9360072552562997 -1564.2531632641296255 -1568.5950490854845611 -1568.4055408294309473 -1573.6473665098042147 -1543.2509491951886957 -1534.974775615855151 -1533.4925996820416003 -1556.2054367756713873 -1571.9512166403976607 -1577.6442976436273966 -1526.9162129199789888 -1527.2221397801090461 -1525.5589486652349933 -1536.7183124645455337 -1551.4392328129501948 -1550.2119638299768667 -1567.8716951183591846 -1529.4308771957994395 -1536.5297318885661753 -1555.1414535114099635 -1541.4638923847105616 -1553.5822469624029054 -1554.3327916094226566 -1532.1526137501050471 -1565.8540072007028812 -1529.9295560425430267 -1561.4143874146757298 -1552.0817925337462384 -1536.3360801414667094 -1545.3170711572506661 -1579.636079743033406 -1552.4145103126609229 -1547.6842790764808342 -1546.0236304933343945 -1524.98647334506677 -1559.3707837983454283 -1529.5124573108867025 -1536.0883536050496332 -1540.7146992252987729 -1544.988824099896874 -1558.9457885425379118 -1549.542966022532255 -1560.0678140850659474 -1545.0330493380074586 -1553.1788520559482549 -1550.2111887242754165 -1551.6431679051675019 -1529.4226630172545356 -1537.0432525349099251 -1584.6515496714885103 -1577.1830401771014749 -1545.9870034271816621 -1553.6414110977095788 -1569.1731513956278832 -1555.1952732219920108 -1558.6400708694714012 -1575.1088248406313141 -1559.7991670850208266 -1557.6279589225955533 -1556.3809891830258039 -1559.7089289878035743 -1554.6835696973250833 -1547.9619872164437311 -1553.9614239071142947 -1573.2213181258275654 -1572.6946116005897238 -1547.8591646215331821 -1560.9978925044424614 -1555.4631997729479735 -1542.1855358318689468 -1560.4494375773763295 -1545.3471758311995927 -1551.0080577014268783 -1584.5622294214610974 -1551.5919559069718616 -1539.453630036789491 -1537.6815176241987047 -1540.2792545935978978 -1571.8584922160632686 -1550.9861734092396546 -1550.8681587137505176 -1564.8058170348797375 -1570.7387439283647836 -1537.3976278126222041 -1573.7534999132003577 -1547.1183793208192583 -1531.5877836418362676 -1534.5221084210752451 -1535.7197673893710999 -1530.10829789311083 -1540.8108117883036812 -1557.9400625947237131 -1571.5197502416099269 -1543.8337618325406311 -1564.2459405899337526 -1525.5636017472716048 -1539.4733328021882244 -1551.2684038083891664 -1543.1917372319387596 -1540.5469524558122885 -1547.6019582500841807 -1550.3775094768614053 -1547.0574756132618859 -1562.0597565674427187 -1547.0218466403675848 -1550.4445203100312938 -1571.4277624806600215 -1560.141696709021744 -1552.3379493211095905 -1537.4251625401091133 -1549.5977637578789654 -1549.2008818013550808 -1535.2404879296436775 -1554.2261183939076545 -1539.5414047103006396 -1553.5357276477186588 -1544.0159813618240605 -1537.8065028858350161 -1525.1086441076088249
518.32662000855316364 520.92780164345367666 507.09027147859490015 507.2388196371431377 520.84367458634233117 503.63920968213255946 507.07480750613228793 504.18094792089857492 515.49961995983062479 513.86102349865575434 520.17995277250940944 508.95431494407495165 508.0836796199141645 517.70034974757481905 509.95740447815586549 508.25825314193542681 513.67042364401675059 507.82598053589771325 504.46801977220218305 511.2238133597045362 494.66906643317724956 512.12115191007205794 517.41341053373571413 513.75212888982150616 511.5987349518441647 520.44791445218822901 508.18407640637013856 515.71340581943661618 500.77219445907297768 515.51080021965549349 507.99574451678637388 511.73485887938409178 506.44617541111608716 516.72380981277069623 518.87045128838610708 518.77379767461002302 515.21966551529453682 515.40501286664880354 508.88602534056758486 510.3843211328857592 513.87809063815166155 507.76201243636802474 509.81889261449919104 504.23437059449173603 502.64030926882708172 523.19305428508857858 514.06201386653128793 523.18585486757831404 496.69579147031237198 518.61866613638835588 517.51363802478897469 509.48439137958303036 501.88333650823437893 513.16238453134587871 506.17376908050744078 508.75004920627486626 506.98120776227852957 510.60716770018035504 500.89871545404685094 517.33690077142966857 523.51386881945120422 514.96534712770233 508.06334665325698552 517.61119765160731276 507.22315584273462719 518.60990470301510413 499.05788426532302537 516.64194904327746372 508.17874345558374216 521.63933612234882276 502.42972058860550533 509.95701725530551585 509.95548265374566199 513.24180895254414736 504.57832759609084405 516.76222186280870119 506.25945167441005879 514.19149566199803303 508.78533009292817724 511.00755760034303421 507.37211494258377797 502.5554899973902252 520.07562887617018532 505.22782575227734014 504.12873574047011971 513.59398716797886664 509.97016474142719744 512.60919667897940144 502.57356344305975426 511.44774844938018532 520.12461573382097413 513.56792895429805412 501.34772354801884831 513.40897716585652688 522.21198558951869018 516.55550678794611486 520.51207595303651487 507.71367924980773978 509.80173368698410741 503.92613972952096901 510.41457641775070897 509.92331695035397843 521.79181351499153152 512.81988700491547206 516.44712516750075793 514.06108958590584734 515.53758053109947923 500.76936277564357169 514.16092897968712805 523.01924087862926172 504.50881107685063398 509.8895604167381066 507.8278884853892805 522.53574697768351598 510.60110808849913155 510.8868081613098866 519.09465911660765869 515.17432068204766438 519.25601799271589698 513.46431983849947756 512.65318671673367135 503.06704791666913934 517.62677182895561145 519.84133315603344272 503.55316830244640869 521.79566336240634428 528.57908331266605728 511.0479694308434091 502.71559802290198604 506.45344917147679098 506.38895674984973994 521.49610427414654623 513.1796603204428493 521.81110616139949343 506.49389604453881475 511.99518033216043023 514.37842246698846793 515.41242232135186896 516.68112716243820159 518.72016715094275696 502.16600230961989837 514.83742117413271444 514.18403371208341923 501.40140809897570762 496.9094320680209762 523.76847348981607411 523.23763864673287571 504.70947332747351766 522.94564421294523981 511.77385225636243149 525.31041249823715589 513.52073760376174505 508.90973556007492107 518.75544651868062829 512.36584737469411266 510.09191214350784094 501.92659999272370897 512.71757540240832896 506.23363465540921879 513.04075998800794878 509.73170133155991834 511.81162632650438127 503.79907303045547451 512.58238384262358522 515.67755148865614956 508.754473595040281 496.30410535119278848 515.05078486655520464 503.09645193910887429 513.46462475469695619 500.65183401244678407 514.95542507974278124 516.91839578084170626 504.65328547848912422 523.07781617923501472 509.95693490980380602 515.80842861934195298 524.74387342669740519 505.30285009453757539 522.1092014735900193 493.59433809048704234 508.72213356792332206 514.93878456092863871 508.30529669674939441 508.87111287631000778 506.17290605959652794 496.18900172357211886 509.96365717617504743 509.64806151361210595 505.85947327367262005 524.15794969445960305 502.56304753128404172 508.62659267699473276 519.03599754305639635 506.4560019557659416 518.33340597062294819 508.62201576477582421 523.39668310749402735 507.15630574322051416 512.65856233405497733 530.19294333701100186 513.51325827261780432 514.86012328714241448 511.2566816528415643 504.383514459399521 516.42120025920382886 525.14113926975255708 505.89255880006055577 518.1990031176434286 505.7664009195503354 527.94966753051232899 519.56812513480963389 512.63204368507456365 508.00191019814849369 502.99731815466901708 504.43115878585143719 513.80340909083838596 503.06267560637871838 497.87538575689217168 500.60353395017983757 514.52623532126006012 513.55151537214317159 526.37204193721322554 506.625343496356777 514.38508897482256543 508.09817825602618768 505.12618088751617051 510.77529601233294443 518.1118690318166955 506.21546733859025835 509.34661434551651382 518.92063651217245024 504.70782647714543145 517.72461823114826984 502.87925502085289509 523.03610625598128081 512.83977974534695932 512.90685557461256394 516.66168683974706255 505.46833187135155185 508.39205597728675912 512.09739214544674724 512.19835101812304856 515.80812900921205255 503.95050657838737607 500.07923820826215433 518.27756703979582653 510.191021070407146 507.78769272870454188 500.89040956343995958 506.11279775622818988 525.63267854073944818 515.22914229798334418 502.70279799358837636 515.62366501220435566 500.43482256937443253 497.40211222516461476 510.58159502604814861 514.83018695938494602 512.83416714005863923 520.89501747833776335 515.5311471348042005 507.09536491586078455 524.91231436172256508 523.55751787639030681 510.24051553269322312 519.59282044955159563 501.54972002518229601 515.49243296382439894 504.79995554034553606 514.18554107665613628 509.6340123806739939 526.22884929181191183 531.06482141680623954 501.1254694733934798 508.20174852912009555 516.03197063911295572 499.05838974360426619 504.19060737689835605 518.6985625486444178 512.80307262735459517 509.57841396557762437 505.73812766674831209 510.18570953025488279 504.59157096219507821 515.63508510598296652 499.97625861435096795 518.73656079343197689 519.98453363738792632 512.26260397097621535 508.70291966335571487 509.19833225956494971 504.51318093100559281 517.0975876965653697 517.97821005832906849 508.98434426426814525 512.00987274032490859 512.82166294439036847 504.10117089611327401 516.87448278548242797 508.11201441076713081 504.01814890260806123 522.83865269306795653 521.79419757991240658 510.30475468438703501 486.89896209963512774 508.10335093759294978 517.17537628547381701 513.03516899439364352 506.7996284932583535 511.65480200690365109 513.92009469560468915 508.16451549521832476 515.50989005221288153 505.12108036629558683 509.89911960513995837 517.92806603237636409 508.18257210351868025 507.36590832437047993 506.60092232079637142 505.32479009217246357 508.88122118219268941 513.87253481779976028 511.29568789498756587 511.29879516732825095 500.18899580169050978 513.28169742486090854 502.9684361042249634 521.60507928708477721 512.05247874978749678 496.9690083548604207 510.83266229693566629 508.58088705131569895 497.17072602500815037 515.32707178734324316 516.278719119369498 502.97752351860566478 509.81552258888899587 506.02862540202397668 507.91128672505880104 510.57607388555209127 504.53963256756583178 511.0259969964952802 504.37825289467679113 514.87088132877636326 513.49322557165453418 516.61066175127052702 509.83604333770153971 515.19154175790788486 509.94790686762939913 512.64505038011702709 505.45946267865792834 498.49788324774294779 497.33512937716170654 508.54672969737606536 508.57510941440330043 512.46421260684041954 505.51051315787469775 503.12134433148895596 513.98204804810575297 513.90127159401640711 511.83610618221143795 510.65178515225591127 501.09535343051510381 496.79036274424998965 509.64248275538051303 513.03338386932250614 519.33331211331460509 509.89126084223062207 500.26441382442396844 507.5207010143858497 525.00254244183850005 512.42349635965592825 505.90742143774366468 508.31785755316371933
-45.393433674410509582 -37.151644028008441012 -44.731280679747840168 -30.424207603723647964 -47.022118179884280664 -56.115225735548960984 -44.591020186809643633 -36.57726997815858283 -48.923488729042169609 -41.12090697785917115 -38.462251984497342505 -38.446824808635184922 -45.38066542861433561 -48.18881384854546468 -31.505707228797490416 -37.916193729182680272 -43.22705086811789954 -45.581004077769719629 -48.411855734955551611 -40.280257476059126986 -47.329467330617944754 -45.04989932660728158 -42.150010921592333091 -39.94069978248430175 -46.085703037287160555 -40.453962019795767446 -43.005379534706946743 -37.317956835451823849 -36.721755087029961828 -45.282041027988213955 -45.173367241881592804 -41.154618762264988163 -35.722294131634484415 -38.271498275559522995 -43.819912334707005641 -40.159777118107768956 -39.623830354170372914 -39.629349642725777869 -35.784637058942358578 -38.025232520920795309 -50.64472660635904333 -44.105611180718874209 -41.472791516428458181 -47.563992935135892992 -41.393673199715799171 -29.137592320266158197 -41.831066914933408896 -35.149034322381837114 -49.710299829947999228 -41.713774444930784568 -40.198902338946012947 -33.590765673537418934 -47.219119479550087704 -42.420871518251736632 -44.20626679776976431 -45.812638251632868958 -36.72643793272861501 -46.154660116268900083 -41.006668227267709881 -37.558020548376973125 -42.187112810061940138 -41.68707247588664444 -39.959027974086723134 -38.474109538505700812 -44.851333797634701739 -44.283041264488545607 -48.05710426746040298 -47.327186162006029235 -28.228259437029038281 -43.067011460955804125 -42.354710828793400879 -46.232970060232808862 -35.026222717161275 -36.832813803659163909 -45.301408738112954211 -41.820578645829115771 -46.613359093713938819 -30.508787903022618337 -46.668470940493364196 -40.605945929634437164 -26.652616535280159837 -45.392555746060551769 -41.043436996692967966 -37.066569441346679525 -35.770238299303066754 -48.610937379410458448 -41.894639735038481376 -46.807928570906909727 -42.898746621855565309 -44.059421855218218411 -42.0723528270452789 -44.146679663265487648 -35.798350967578571158 -44.327064933739258379 -45.564391017936685557 -49.971718148121006209 -44.771370650867027052 -49.768684792661275651 -33.432380959949014709 -39.684923935573024778 -48.402847111847577821 -44.970524785144384339 -34.657863467669400848 -46.75176832853945541 -37.825977879585614971 -41.395400647623425527 -44.670630176279289003 -42.673621066559761061 -42.562567646935036692 -42.594795349184437327 -36.479404089743354689 -49.296558575681430625 -45.074967233641118014 -34.411677515353616741 -46.475762409532777042 -47.222585166107165833 -36.80549439750953411 -39.670258841827141794 -51.64926441863118356 -39.895505313261381275 -37.572749914367719271 -42.081296266795746419 -47.765259032650931204 -35.35600591131997561 -33.695740590753054278 -33.478739019886546657 -41.34669629831486759 -46.736408684816524328 -44.264326698295292317 -37.908193194136686088 -35.458149477786982118 -41.605156856131713994 -50.699301161553108841 -31.712084825406336108 -47.34264402056948029 -47.106645732752291167 -45.545245032767368798 -38.278205366779218366 -39.832890239222365381 -34.825255348455520732 -36.795129703631886287 -34.724172896373694641 -38.547121133507985746 -44.635705954838826415 -49.028771485629505378 -42.043898267985490236 -43.098797497325051609 -44.464022576046190238 -45.617085099832777928 -51.090275411706301156 -38.227894240552252825 -32.702886038293364379 -45.323556484364715402 -41.50360360198489218 -36.597460739277956066 -43.270935913374600545 -37.959555283354845301 -36.148853025980564269 -42.391209036280940836 -43.241117832753857897 -43.778550353718472365 -46.955060720833230903 -36.598196609307699134 -31.826062302380215385 -43.076011705887999881 -43.412480976005596744 -38.629743300805081674 -33.11277106369000478 -34.584362782223237787 -37.180897900295022396 -44.814782946273062691 -47.710013775093464972 -39.376398046122446317 -40.283472611368502214 -48.242785251996693319 -49.411006439445081639 -40.810731266245078075 -36.761899254156467975 -39.446943184006123317 -37.3815571804209128 -34.478851557665322503 -38.385586632408774221 -39.374395279003827852 -40.742895056103762386 -50.132272686619621993 -37.67700544196577539 -44.225288976259520268 -55.3653456142372562 -39.791292612732931389 -42.105454860372027781 -43.873859371834079468 -43.688851103380308416 -30.097261753116981708 -42.545870432409330419 -41.969273361343439888 -49.912586920368845256 -40.733364052455200977 -43.244842127926943931 -45.965140980634025425 -45.983941104130721556 -34.130665271262202509 -33.994799722988936708 -29.460552512147081927 -46.296292473435670445 -44.228895220680222167 -41.682200827169538115 -32.835914781592158818 -43.499161464480138761 -48.081108591231270566 -32.266773330493506933 -23.468540233300394959 -35.339290082766851242 -46.446766651363773803 -40.563481509301190897 -50.095788050665426283 -40.389422555802163117 -33.558170716380132603 -31.681740897618809072 -45.259581049751652415 -31.958271929384359566 -38.790796263337014693 -48.042181350256093708 -31.607872817552738809 -27.785426953690972596 -42.667089345462059669 -48.333017886261572471 -36.569726497145275346 -45.130343237359781483 -47.365923384885896041 -45.428265416430065216 -36.365772830020311801 -39.094658804241689154 -48.416982355538351612 -44.671248558045313359 -49.605883496035467317 -43.43435659651600389 -43.159949890488753965 -47.868181766606767269 -41.813613921851924715 -46.965544342916786036 -51.350375446436856919 -38.207317924418198629 -50.798168190267631417 -37.087507900502870939 -40.074798067662825929 -44.362145168495217717 -47.102067726257153879 -34.558549622589403327 -61.678368363241339978 -47.747008878458473191 -36.860652498423199575 -45.436187486640335464 -41.034871688728173922 -41.797402917231046615 -39.75929955787970016 -39.871122531486349772 -53.524985292684689853 -49.853537121879732297 -46.030041394149435519 -39.488679830325757791 -42.229242148190820672 -39.609863600410591289 -36.597499909705028642 -38.173876458376369669 -30.031316676721775849 -32.940836839388950352 -37.754754579729883801 -43.513601440731633829 -37.334409134718754331 -40.769024552881383272 -36.919268297735214901 -37.102099842296439647 -33.920709200992682497 -46.130598217248731885 -46.487079336324811152 -51.755593678763432308 -40.91794932180444988 -48.505698244711162204 -45.095612750253152967 -40.495443209227346415 -34.787622701859362451 -50.06703651524872356 -40.135975379831592136 -45.349235849638972695 -38.273751114428350206 -43.86402729524674271 -31.718804212085260019 -53.315376321630751022 -42.841418062736998706 -45.374815750769649014 -44.021767548314812757 -36.531887805735678398 -45.201568839631221408 -43.610625855780327242 -50.632768048672062378 -34.790008897174189428 -39.049074928750584945 -52.633875204023176764 -42.222732118378644373 -35.148635107912980402 -43.635783150701271893 -38.489715449603536968 -36.01531174886088138 -49.371069668634739003 -42.366743835998249779 -37.671493496390148437 -43.333442985056890961 -38.728444641427927309 -36.66984781360743284 -47.656123273978110433 -53.168587203275791353 -40.661340171546655142 -42.041689567678773187 -38.497193135466716285 -39.857396667611901364 -50.105142562293153219 -38.734738407251278147 -43.236860787406264706 -28.562031980870560943 -46.036209891753372858 -45.008698362384130576 -38.726014823426105238 -44.888078671702771771 -30.363171191527044357 -53.54533024387292528 -39.545045923696363843 -38.951724119771057531 -28.674661686250338732 -39.196927612338299696 -52.290460952510365189 -37.297315373317061926 -36.698452917346443769 -48.939015122685120218 -34.058019192923801199 -50.804947134554851118 -47.98024460792720447 -40.626258461298128566 -38.436968152656191933 -44.362200827379027146 -41.7177731272789174 -44.482360675206180645 -45.53936126862144107 -31.24969980566728367 -44.981778358842838372 -40.169910449932601182 -41.839515757705740384 -43.683058375245778393 -49.923015024647042992 -45.890677157644290673 -34.684220457955845518 -48.117174522287221805 -44.604852270805366743 -32.041080995449263469 -39.848041269109359064 -44.902499934952984972 -43.643555789846239179 -35.599164201814190278 -50.107502029419137557 -45.438918760162550825 -38.69877937875575924 -54.458277592587677418 -37.168608428374149355 -43.138644726611481417 -41.978993040411644699 -39.056897197292101964 -47.290113416540350499 -44.836130986701199674 -35.011940149065999606 -57.315710565361300155 -41.684036760474540984 -45.56985614016069519 -32.33164744305987881 -43.943290094922716094 -53.383750030155894706 -32.405352468852932191
-1467.4005569140754233 -1489.6284698695708357 -1486.4396803403506055 -1482.8934095051179156 -1475.1287914114855084 -1471.0802042096736386 -1456.6809745165928689 -1484.5425999863559809 -1471.9006530135025059 -1494.7532950436402643 -1473.5492731451136024 -1483.2616660267292445 -1462.7960315686868853 -1486.6903942427532002 -1488.9563606066269585 -1502.603368381260907 -1485.9962403865472425 -1474.9087845530182221 -1478.1184116820882082 -1495.0760325612063752 -1494.7246470414233954 -1459.9201605482417108 -1505.3718537057461617 -1505.2660795290432816 -1480.8752966427241518 -1496.1789426557877505 -1463.3003660931201466 -1498.1579629753148311 -1464.3566991481879995 -1473.1793400903600286 -1487.1328068286136386 -1481.7702767603525444 -1477.4209899878596843 -1447.7614257519303465 -1479.0515465718137875 -1466.8797916652918047 -1483.5355266242559082 -1472.8228789366601177 -1470.2711040033348127 -1474.1150771278080356 -1482.9666012423588199 -1484.7911438732298848 -1480.9142240762962501 -1472.3255600906109066 -1481.5811495013037984 -1467.7071481042742107 -1483.6037348123470565 -1497.8245614653887969 -1478.0780316873544962 -1476.936645875487784 -1459.4478630527969472 -1464.4765809160221579 -1485.852053527087719 -1481.3550703808577964 -1498.4778482881779382 -1464.6448871698307812 -1495.220638229798169 -1499.3996373283293906 -1475.130647950042885 -1511.9718798933440667 -1483.1204426720862557 -1492.3964030678437211 -1466.6858597473340069 -1453.1731577910429678 -1478.1095744589420065 -1467.3678833276308069 -1469.7290362863730024 -1483.1175050851870765 -1494.4325834979738374 -1463.6149545748294258 -1456.2577910969428103 -1486.3883597489293606 -1502.078621709443496 -1487.2837575212558932 -1495.0743115547641082 -1474.5518554187835889 -1498.6424679594324516 -1472.7664923413551605 -1483.76716944929899 -1496.0237603933085211 -1496.4091902996115095 -1467.4015972552506355 -1472.8079902980978204 -1460.5916598916091971 -1485.5717584390108641 -1494.5972329525359328 -1474.6335343898369956 -1467.2787420727370318 -1469.0279925117570201 -1492.5128849846489629 -1490.7609008164993156 -1471.3417103427557322 -1454.265368852626807 -1502.0523107880878797 -1500.5913414796320922 -1459.4203914591303146 -1482.6698411730321823 -1464.9105700035088375 -1467.8548501433785987 -1465.0081671559046299 -1478.8827008608770939 -1459.7788860937018853 -1503.9207662327007711 -1512.8845900704445739 -1484.8391203240903451 -1480.1537171035906795 -1498.4544402815074591 -1503.437394762938311 -1482.521522123082832 -1493.5269742587552173 -1484.790426480383303 -1493.1622890118280793 -1495.580258282460818 -1502.7768633217033312 -1489.277969874199016 -1464.8105036529516383 -1501.9555077942352455 -1488.8463231722339515 -1488.1978459027218378 -1494.4376481208548739 -1493.4127214202653704 -1471.5302682253588955 -1474.5527958404084075 -1494.1987253371964925 -1496.0704863350797496 -1489.7742911855173134 -1481.2216069468313435 -1456.7737057789609025 -1459.1956439664527352 -1489.3057041520985422 -1474.1924256093980148 -1478.1913900985241526 -1490.2475526982050269 -1495.0599134634071561 -1466.4085478497208896 -1480.1629858010064709 -1496.9584116935156999 -1473.8285547446246255 -1480.5570041972987383 -1485.511557484820969 -1465.8710517155973321 -1474.9384808019920001 -1480.7733431034337173 -1481.3091952299819241 -1482.3382717543277067 -1487.6547452308527681 -1503.4181514544186484 -1472.3253284461191015 -1465.8662227335537409 -1497.8528415478499483 -1460.5327533330196275 -1484.9588203901528232 -1468.1191130358974988 -1498.8897560742091173 -1485.6852336046931669 -1482.4319769345245277 -1468.6127177151172418 -1460.0324218812427262 -1478.5784790272994087 -1446.0743324399602443 -1479.3859881369198774 -1469.5135125775555025 -1470.8790405895376807 -1476.0454270469717812 -1463.4275932847299373 -1471.7736384045861087 -1476.1278737316445131 -1465.9619119720721301 -1462.079529959688216 -1471.6550186525196295 -1490.8806485675568183 -1489.3267180670686685 -1482.4299756782584154 -1465.3975985726269755 -1506.9562358439611671 -1472.9977297713132884 -1502.9988622936114098 -1470.9035735493187076 -1491.3423352640809298 -1481.2854468941081905 -1479.3839728118209678 -1472.2287291442191872 -1482.3400803925358105 -1484.0597349470210702 -1480.7832891467023728 -1470.0313986803273565 -1458.8350058208641258 -1454.5236077285594547 -1477.4697343542190993 -1490.8819974016691958 -1466.9986564015766817 -1461.5541243530531119 -1476.3097174915615142 -1477.8147658197347027 -1469.9130068516603842 -1495.6700219486322112 -1459.6385832311502782 -1493.5828766327301764 -1488.4776159981345245 -1467.0938735305835507 -1494.3462538377634701 -1487.8153905999201925 -1472.0862420706419016 -1444.9889851519003514 -1495.8831642167176597 -1458.2163396670616748 -1492.8943980019948867 -1487.8134941509838427 -1475.8005602309888218 -1480.2121206640831588 -1500.4227984632486823 -1498.3706455193773763 -1470.6584996220658468 -1482.609064254300165 -1476.3071284521095095 -1471.8553759169919886 -1460.7984882710145484 -1489.4825955430719659 -1466.2485974548662853 -1471.6266242730341673 -1503.0100927287876402 -1476.9618546587000765 -1459.5211242288396534 -1473.8663349006130829 -1489.7252643602450917 -1495.2528782527213025 -1473.5817738970090431 -1466.7250923664175843 -1491.5316327741393252 -1464.8564024228564904 -1462.9088379071486088 -1472.5377058834837953 -1469.1894418477813815 -1468.4816717735391194 -1475.9620606553264679 -1454.7030231023197757 -1478.5746785852525136 -1492.5691496362526323 -1482.1783454695960245 -1486.524751768003398 -1488.4987632290801685 -1458.0153471071421336 -1482.5637722998262689 -1486.7541945097025291 -1458.3888723659863444 -1469.5612166224389057 -1479.0744210694833782 -1461.1741687944570458 -1492.0621310516858102 -1482.0871665515221594 -1476.8631173256862894 -1482.9379321909871123 -1485.550775167993379 -1498.6933340337247955 -1496.2121869204058839 -1490.7915625090272442 -1484.8431235499940612 -1469.9642944488657577 -1460.8171449821682018 -1481.1273378537998724 -1448.3592053154986843 -1494.1570193617039877 -1470.0350276961964937 -1472.853560879608267 -1482.5119577705233951 -1478.6012243023494648 -1478.6426250895667636 -1505.9942365599995355 -1468.0465612164573486 -1481.8518340502848787 -1512.1132407181523831 -1499.8569189218142128 -1475.301128981288457 -1488.8873886308795136 -1498.7180441525492824 -1469.050746618691619 -1492.26382607913024 -1486.3424719987917797 -1486.7698014020827486 -1503.7014925450175724 -1488.7148971920360054 -1469.9578088262317124 -1474.9975015386114592 -1474.9543322978731794 -1482.8982155730648174 -1481.2177056349946724 -1492.0010962628437028 -1491.1102569319048143 -1477.6975058987536613 -1459.1576724784215457 -1499.5596086392952202 -1462.653270670045913 -1479.476967882742656 -1451.5938422061944948 -1485.317330614841012 -1480.5458972653073033 -1486.9778732491195115 -1472.9611279500065848 -1488.7863626825092069 -1490.8515570163488064 -1472.0461488728064978 -1464.1617359349911567 -1461.6968733289643296 -1470.7972032906036475 -1488.9391289987236178 -1464.6357185212964396 -1497.8372823008905925 -1493.9567302984544312 -1455.3392995906692704 -1489.1160524083090877 -1488.7894792207684986 -1484.8378037103082079 -1438.5953430670808757 -1453.1510296784103957 -1478.9801049593218067 -1484.3614535612227883 -1479.4860605173096246 -1485.4581088317222566 -1493.7486446782231724 -1503.9192434339843203 -1470.6064983032399596 -1478.6367079290121183 -1457.6678482936001728 -1476.6183095175099425 -1485.6352781356606556 -1471.6217235859976427 -1491.2899661186897902 -1472.5636316604325202 -1493.1737665164655482 -1485.4935793804993409 -1477.4428258953282693 -1482.6577270872742247 -1490.0686473299010686 -1476.8395487264344865 -1487.6639700547609664 -1458.6668135861198152 -1447.9725819725331348 -1465.0983666697832177 -1476.7708543836281478 -1466.6322992290156435 -1496.7139499417703519 -1467.5528609187826987 -1463.3166411809932015 -1478.1655959108106799 -1479.56313463397737 -1477.5649754854789535 -1462.4217972749083856 -1486.1116833311716618 -1471.8141280313184325 -1471.5582574198024304 -1484.9847065461412967 -1465.390799896222461 -1469.478912912737087 -1507.4928642721222332 -1448.5330986022981961 -1481.4934257599625198 -1495.981801023046728 -1496.1002577474691861 -1459.6304409603310432 -1467.1757282289022442 -1485.8621205320407626 -1481.8058011477323817 -1503.8709535895102363 -1494.567388980085525 -1475.560379865308505 -1483.8201294943823996 -1492.7246745669033317 -1479.0810801773625371 -1456.3766472588315537 -1483.1701769390940626 -1483.4326823192880056 -1482.9145872740805316 -1483.1590560476242899 -1466.9906555633726839 -1467.6679185114560369