-187.03083476287744702 -191.21062696757348931 -186.27054064019895918 -185.88085460523501524 -186.19241698718829525 -186.47702662317942668 -190.23685623795782362 -181.00213339382770528 -189.15486550892796913 -186.65044566517681801 -184.28122786710042647 -183.76159708955387373 -179.04183136779764141 -194.89623393240032101 -182.99221542374323235 -186.77836216970209193 -191.94505864624835567 -186.23190584940817871 -180.52430380368210194 -192.85739484027635626 -204.96645202796617014 -194.13228457083158673 -188.48543559215767118 -181.74983098525260061 -181.81700560357066365 -197.74810099864427571 -183.92813781311210164 -192.55725460665479432 -194.51961121594766269 -188.38909716268611305 -188.68107225550338057 -192.52436660711950367 -191.87767723046965784 -188.4227061050837051 -196.3467665818288026 -183.56301914382902396 -192.7108741852666185 -191.47482287032403292 -184.82608628155392694 -184.72301557798971317 -180.56503601590731023 -183.41510285721221862 -185.82286618230531872 -188.06964001649865281 -192.73965047675707751 -190.32026260405561402 -190.69709278303568567 -186.12683884870722295 -182.19955355760421867 -184.85430053240017401 -198.32202884865745318 -182.15067990356777727 -187.32672146122001777 -188.04871017364592944 -189.52444296698087101 -195.75177030640767839 -196.01828911131042332 -183.56594226375369772 -192.46199086521437494 -186.98091472505726074 -201.98495075893097805 -181.6374301521544794 -178.09031316281328827 -181.24008020329858937 -187.551906503089441 -193.86858353319058779 -194.47317003662161028 -191.31896301309853925 -197.34796238200999596 -198.1898686502015039 -175.3281972175505814 -185.62556623924226074 -192.45252426898653653 -192.47108041039382442 -186.01536638653368527 -196.38391819709400465 -182.10462615992901192 -184.55669551696553299 -188.14894591330599383 -186.7710691516172119 -187.28082076363867259 -192.46202461598954869 -187.21800573571786686 -180.98932112532051519 -189.83300507022508441 -182.35347790134593993 -187.61408327581648336 -186.39310327557302571 -187.52776403099900904 -184.33218034696506038 -185.28078941971989479 -184.97009012803474093 -187.21173473707594326 -183.60833058324033118 -177.3696021168335335 -193.75481266659423341 -176.11690435731321713 -185.88822874531672369 -191.41604079979120456 -202.5389438347867781 -180.67849531673923025 -179.54646366288829995 -187.93607603482840318 -179.3222012794060447 -193.99873868048351255 -190.09551644718152374 -186.11683768019406671 -186.90036703576592458 -194.53502151655158059 -193.71451816969741344 -192.56683262340578722 -187.93580964182791604 -195.51614068135955904 -187.81646419698014938 -191.65284178567659978 -183.74138958121903897 -187.05156575213629822 -183.3393149713549235 -179.16048314858790036 -193.02965153093163053 -185.41735236348577587 -180.53017115039091323 -185.78226492954658511 -184.82915991126114363 -189.49584396613141735 -195.25368247293167201 -186.59313543522472401 -193.64302815586844986 -182.0225133044069139 -191.36396567894365717 -190.44708227682806978 -188.49162655665918464 -186.77275489238795103 -195.89438248397166831 -182.54485850706316796 -183.92139917739575594 -174.30147864533446977 -193.04337494423111821 -198.96890238003578588 -198.40110675442718957 -189.74568513632405597 -193.5348096587176201 -182.09397014032271045 -186.72224894291238684 -187.94508085772395134 -194.58119513809921841 -183.31685399475247777 -193.18308499599501715 -184.34549787057960657 -184.3982439554463042 -192.2140880186789218 -196.174420596997237 -200.00557264812658786 -187.13700237976098606 -189.96739169901181299 -190.02184258664237859 -193.45397182391099022 -181.13095318396179323 -190.4758701364322917 -180.15733898727361861 -191.38434876771222548 -187.99343468944056212 -188.01441562010521125 -195.39598922748757559 -187.22316331628488228 -189.51073006441964708 -192.2699599797135761 -187.82873740389402428 -182.4591513223293191 -187.48984288138524334 -184.89801410324938047 -190.75360062073269773 -193.37733257550968347 -185.95603521981763606 -197.12318727772606053 -185.94067726453357636 -196.16445754528697876 -181.58616905520005957 -187.94139085603799799 -185.64511207191182507 -193.80536569804110059 -188.90638446988251076 -183.71163003027933769 -177.10035893224772963 -191.27278418878069033 -184.90746162351857151 -194.52252726266303284 -193.08822187701221651 -204.12877078481469084 -184.24345989467857976 -196.01263195777471537 -181.10072323582951981 -181.63819388771099739 -184.05374646793148941 -176.9542601559366517 -190.89868167920445785 -184.59111188062064457 -190.42489823995495613 -178.66293647952852552 -185.9633164755281598 -191.09061618483835332 -184.1154432051886829 -180.20982056939669746 -180.68221219353330298 -183.95339778833997002 -187.08953649386268125 -187.37538769796600491 -181.43453245134776353 -189.236670137040079 -188.97217922182875327 -184.35573461389736849 -186.2769289062415794 -198.3594018288889913 -187.93927708220124373 -192.49978116958362762 -184.47605607950814033 -180.76095973314309617 -183.24610663345026751 -185.81888731479793364 -187.04842749948335268 -188.48289052086607853 -189.79258690322799907 -176.3851331789797996 -182.3988158375243529 -190.3244987091479743 -180.48232953842656912 -191.15725167236928428 -180.29124493317152655 -193.60452161170121599 -186.3676625644530418 -188.19701012634999415 -191.6501564194475975 -187.60775186649925672 -179.03959700303985869 -192.95284472194427394 -180.26404773675903925 -191.74920168436219114 -180.48337449241233799 -179.81606739842402476 -179.24758816304009201 -182.87118412566942993 -189.94660353144109877 -191.25949480802560743 -179.49767895731349654 -186.59930422027338182 -187.19849624274385747 -183.49929343555322703 -179.5088951656667291 -189.08024272276705346 -181.63791237084814156 -194.16246340625028211 -193.16435289061539038 -184.45725525557534752 -203.52502251595197436 -184.20368917172964984 -189.56956903885281918 -176.6461406989437819 -178.28666096487779669 -185.88792044406292803 -192.29870961522905759 -182.88765386804115565 -184.31091750557382625 -197.61533421491785134 -181.8873811821051163 -186.92426041908444745 -188.48606381663361731 -191.16715341900683711 -184.1179563870427387 -186.69828455573514248 -186.66499812634069144 -179.77346375641016607 -190.83093555440021305 -190.94693639859531231 -187.67320525938060882 -187.66273015746494934 -184.71663655524400838 -190.93333282190536693 -188.77155296713567623 -199.52813087031057648 -180.69510695856118332 -178.39558528366441692 -185.74803179936679953 -187.61473826811692334 -189.05317870798774038 -182.70260733114821505 -191.31538666722030939 -197.22198922074647953 -191.26562347487637794 -195.96139878251597111 -192.07558470340498502 -187.63634446818275592 -189.26296216951595852 -184.61729982880945045 -190.92286390294975718 -185.72202492448238331 -188.72628100186400957 -190.04429155907465088 -188.43094437335582825 -190.60017593579655681 -191.23429945494143567 -191.51527029472856611 -198.28612429877352952 -189.01002502816896822 -183.50713038830369328 -190.46633919573591243 -182.09240130146605452 -187.12261982614882072 -191.65381885651993343 -187.71939116936826508 -182.85100017979496556 -183.57325687807124837 -187.49292321328383082 -186.37536566072316191 -193.85474091121437823 -185.808719947796817 -181.07559021884506478 -180.23719754935561355 -189.95700452568240735 -188.10692890367383256 -175.22729693118850491 -174.31308763814945451 -195.56493406741665808 -195.02361237732395693 -183.96744464659190044 -190.64311928300583077 -178.8661917746773895 -191.03576612455805162 -194.12464514487982115 -181.2161990093429722 -193.01607613127870877 -189.82669211960833877 -180.85455416972169473 -173.58858279680231362 -180.07501264716606215 -176.28126143659602576 -194.00949746891643599 -190.51313916703213636 -190.3109790599136204 -195.03465793355962887 -183.39564911295340721 -187.29130928193157501 -185.21890827400611101 -188.66050503697488239 -184.91924196948394865 -181.48412096564047147 -186.03230936701012865 -190.45449388251941514 -182.28121040359599192 -198.39311021725973205 -188.52138254397766559 -188.76998042632934016 -187.71643753675425614 -199.67449885601112669 -196.1945629468571326 -187.19358954202505174 -192.24781482993697068 -180.50082739419778477 -189.41992095722235945 -185.74524085710257282 -188.09404120845235298 -182.34630076501130702 -185.10589254522272995 -180.93077083123301918 -186.26967229850404806 -185.66193443320989331 -180.34852205354440002 -185.70715368855923089 -187.90571467421244733 -191.66100573492880699 -176.863504169610394 -193.75078412730442778 -178.86672512776871713 -190.7362741167837612 -187.37667028486566778 -187.55303051326947639
-1356.3252554059104114 -1361.6308489666259902 -1341.1435876084635765 -1345.1927759470634101 -1332.2349674745798893 -1361.9389295013745595 -1318.9342176331026621 -1328.4656031745912514 -1354.7876279608651657 -1352.8382301530100449 -1328.1157951036402665 -1344.1991862895190479 -1337.9748243890555841 -1356.445357274745902 -1345.1857658195708609 -1331.4787475386499409 -1364.4359553959809546 -1350.2090436788350871 -1351.2993214181344683 -1325.9523413759682171 -1342.0004973293846433 -1351.7917207633875023 -1346.6478724590863294 -1338.7947794737317508 -1347.124413505904613 -1356.9651018369002031 -1347.3539541328345877 -1325.9193754408586301 -1338.0086640700835687 -1357.9831846893873717 -1371.3306459492093836 -1355.5915964592743421 -1350.7468047334007224 -1347.0038128787689402 -1371.9920659863507808 -1343.95401520263772 -1351.8576616732361799 -1364.1531577734886014 -1350.9963948347103724 -1349.4507496763649215 -1321.9048537415010287 -1349.9969517103918406 -1369.2097858744643872 -1346.3596562752513819 -1341.3597124574584996 -1375.4576928938024594 -1336.5406638519766602 -1324.670031423938326 -1353.1026033872183234 -1322.6646222446083812 -1366.1313040735619779 -1345.1955463056706321 -1343.6258246529891949 -1356.5729366849402595 -1323.9304723388229377 -1349.1792029824114252 -1361.705585982436105 -1337.8931811684087734 -1351.1348923020725579 -1335.6561014422084099 -1336.3449724273630181 -1336.2592699474448636 -1354.9771645898481438 -1329.5030044333564092 -1366.9526980164882843 -1339.2124700693666455 -1359.8933959479043097 -1347.3249389421830529 -1349.742343476312044 -1345.51097447318989 -1340.0757654990513856 -1348.3140108323073036 -1377.3493491658960011 -1357.2962548848413462 -1333.7371841107233195 -1366.2673073217499677 -1369.3903366940494379 -1351.5471195813879604 -1376.7585789975280477 -1356.2094142207106415 -1341.2702100530423195 -1369.378773872587999 -1345.488010298408426 -1341.2723647352286207 -1359.385891217879589 -1360.1416684139690005 -1354.9214452654600791 -1358.699490006625183 -1337.7124709794622959 -1338.8301681817374629 -1340.1243701384821634 -1364.9292032610021579 -1346.1611491603068771 -1335.2742108358002042 -1306.5787690065326387 -1346.3362364154122588 -1366.0995972587420511 -1320.9034949742683693 -1357.3976105103090504 -1346.3857143804225416 -1350.8741089601453496 -1349.7271495805102859 -1347.9279828172611815 -1341.6228926138969655 -1338.0960496077607331 -1365.5766906536298393 -1342.6564373152141343 -1343.2478966676685559 -1342.8655363008915629 -1361.2167869550803516 -1320.7957371722352491 -1368.2773289516783279 -1319.2905867457118347 -1349.8607412538397057 -1338.6851860509375456 -1340.0889283886808698 -1346.2750369467357814 -1347.2641750569928263 -1359.2849783119909262 -1356.5604955715541564 -1345.062653586819124 -1331.8572507790440795 -1333.3595283179549824 -1356.6647787426634295 -1340.912061155715719 -1355.7069104842637444 -1328.1693661153517496 -1329.7520294193127484 -1328.0988325056684971 -1343.5249456277899753 -1357.4225042644454788 -1339.7324687197408366 -1340.4760419917060972 -1366.1743652175750867 -1349.9909535419405984 -1344.4210520787139558 -1335.8894056126343912 -1333.0328972475881528 -1349.5615527290369755 -1361.1919631660625782 -1329.7381632910680764 -1349.195126036601323 -1356.685777967139984 -1343.4592422913719929 -1365.314968840459187 -1358.6795636121821644 -1358.4929338720585292 -1358.838771269839981 -1351.5449807062391301 -1364.2501059769560925 -1340.1938037283798622 -1350.9120140956322302 -1340.5011230920399612 -1344.481556910025347 -1366.3743331409643815 -1343.4917134651934703 -1355.7339080398462556 -1342.5689781059168126 -1349.5243320383708578 -1343.796390634657655 -1339.5544661492999694 -1364.6676156124462977 -1353.1228227025133037 -1328.9127692101083085 -1335.6283178941923779 -1352.9763992071689245 -1358.296451886793875 -1347.0192587648527933 -1336.7663858037828959 -1351.4168039426679115 -1335.6810655233812213 -1323.887625206039047 -1338.8098742613155991 -1339.450262890813292 -1352.0039760411102634 -1354.7597799899485835 -1340.793141061234337 -1359.8210603758770958 -1310.9594758271241517 -1345.7960321749640116 -1368.7450041734675779 -1331.8900462071392212 -1345.5347291301663972 -1353.4163474062081605 -1344.56865824527722 -1319.2264129307686744 -1339.6604621428391511 -1360.7069247310880655 -1347.6066647658017246 -1340.3729742240957421 -1333.7862653300082911 -1359.8902621760262264 -1326.4536373243986418 -1353.2024077966952973 -1350.4262262225829545 -1344.5403595746058727 -1359.4530471660216335 -1363.5402212217154556 -1359.1128006917745097 -1328.6734427119483826 -1330.8612457031688336 -1368.0745208923694918 -1380.4286080260744711 -1348.4020725871655486 -1328.0711376043734617 -1351.6404020038876297 -1348.0683386666180468 -1345.3275481865928214 -1364.557056484435634 -1331.5276500523254981 -1334.3342862654030796 -1340.1152220457690873 -1331.6779273701019974 -1318.8018595476155497 -1359.9457013740595812 -1368.735709155991799 -1337.907045900738467 -1330.0932766519272263 -1344.8191986302249461 -1355.9585361507381549 -1351.8550126676861964 -1346.3547193039366903 -1336.7703416242511594 -1348.5621413997016589 -1309.1047491154995441 -1325.3423600203298065 -1324.196551089771674 -1353.9536294511665346 -1331.0567771669195736 -1345.012357041368432 -1355.3569193573150642 -1341.1663581431798775 -1330.7780671162490762 -1330.9475164254965875 -1334.7586952701767586 -1341.0598394918783924 -1354.1937211029951413 -1336.0310716512415183 -1352.5660893745086923 -1343.1551170683981127 -1346.2498225912734142 -1342.6557966982791186 -1349.472670430914377 -1342.5822864008821398 -1336.5414288755162033 -1346.2437638586388857 -1334.2349049750562244 -1327.2660560689578233 -1349.7732019482120904 -1331.8911426304011911 -1352.1424515825672188 -1338.1205675261519445 -1312.082347135488817 -1335.4543897571074922 -1325.737817492675731 -1370.7769414097515437 -1346.3918682676146545 -1348.985197042436539 -1359.197990583606952 -1331.8072487495362566 -1335.4276859784433782 -1344.0379691852722317 -1339.4351228897771762 -1345.946963831336916 -1326.4549928777857986 -1350.9438907321482475 -1359.9525561145528627 -1372.2328475964998233 -1347.3168682391822131 -1333.4178716217545571 -1332.4901521778976985 -1357.9690250964638381 -1368.9067778405710669 -1354.5780208605831376 -1333.3734383113419426 -1350.9159787021576449 -1343.4971752309054409 -1348.6698239092497715 -1355.1134367125055178 -1323.1145798366173949 -1328.3016744507729072 -1350.9013182944299842 -1373.1140077305926752 -1335.4848730051580787 -1344.0576873119955508 -1361.0655536486488018 -1334.9579767494901716 -1338.3735389583071083 -1340.9495573834735751 -1367.1982265411938897 -1342.1546491757114836 -1340.796179664491774 -1370.0707836865874469 -1346.3350917749833116 -1335.6286134302279152 -1330.6305830724161297 -1351.0882431602863107 -1335.8499589736725284 -1348.929115293556606 -1347.2156974245342553 -1380.3380527365718535 -1333.1857779645736173 -1343.8770146503513843 -1329.9018397981519684 -1338.2098105580600986 -1348.5997979574835881 -1343.1043012807501782 -1343.9103905051040329 -1331.2570273070114126 -1331.4325545597553173 -1332.5228249093420345 -1341.822362716507314 -1360.0929586457416463 -1342.1085641897798268 -1360.6499110860384008 -1346.8256125839877768 -1357.3443524638009876 -1345.5105270870053573 -1353.4000771849516696 -1338.42895283632879 -1336.1384953895674244 -1345.2056118298019101 -1348.286794495339791 -1342.6794888320146129 -1349.7797081229407468 -1346.7960010647950639 -1323.8144879091610164 -1335.9342767498037574 -1327.3571287896834292 -1367.8389710200633544 -1362.439106848559959 -1362.5333647561215002 -1333.3464112699241468 -1321.5626411702958194 -1338.5773777553722539 -1351.3385213990659395 -1341.0243700495313988 -1328.5710766655454336 -1355.6969288550365036 -1333.0053283530096451 -1329.6906279869913305 -1371.492449109406607 -1353.1515892968138814 -1340.7237213627290657 -1309.7781291158794374 -1331.874138295593184 -1351.6048172376686125 -1349.4218535497791436 -1329.8282937858409696 -1348.3409140041328556 -1332.8463629841764941 -1359.5676948077689303 -1353.5793335582848158 -1350.7321947976854517 -1331.899336274528423 -1321.294325323170824 -1360.6861194390369292 -1357.7828573355689059 -1354.3225721391090701 -1342.138755565318661 -1331.6008952176030107 -1331.1777576618887906 -1356.6536859460290998 -1331.9367606466100824 -1332.1292898686706394 -1317.720623600731642 -1337.3090636940878539 -1333.2118049131672706 -1330.5506557432993304 -1360.4188948995615647 -1349.0033505663354845 -1353.5169348376775815 -1352.9163668204121223 -1336.1147878302278968 -1310.097421564418255
465.38982290314436341 471.79167028300065567 468.83158371794911545 464.40226363931606102 458.13787822010812079 477.96037618318865725 458.8483532096398676 470.9106931969815264 470.99111149664020104 472.54051440008856844 475.5411244220053959 467.66839068717388272 472.20305731412071282 472.33577706015898912 470.67411204026035421 474.83832808770864631 475.97969277161757873 464.21276387526211238 470.68829540584044935 470.25038609221962815 462.7626185654761457 483.14031983782655288 454.59338524175666407 473.13020470985668453 472.29493810482256322 480.42963186899243055 466.54824431232367488 485.32385448658686755 472.36681683123731545 480.4425340820334327 467.01027537791168243 472.94286157890564937 475.72483332880773332 471.2431307268206524 476.03712007945881624 460.94268013707358023 468.90603236481751992 464.73588055506394312 458.82216551102374069 468.23724769454065608 473.19706705191703122 475.94170008765854618 485.10126881093412976 472.36076040667768439 468.4578006003948758 467.62532979760180751 458.41579096229941115 485.68282872349999479 481.94745563334680583 472.26726429187465328 468.30379342739291815 469.37549971007445038 462.85499677700329357 458.26568449998546839 472.55061681759428893 469.86124917904760423 472.69151580557723946 481.47979445251672814 474.90465356356355642 473.89663080149267671 469.90630449143611713 458.14712704991308101 481.87279331721271092 466.58087414159086848 474.10917750303900675 474.55508003367344827 476.67298197014991956 465.74314500026457608 462.47407502888188446 468.39604099126614756 479.50148841323544957 481.42248789098391626 454.60754349041258138 465.71051176389158854 467.17533204133593472 464.73985985124744502 471.85619649769364514 475.14611279161937318 458.27855690713590775 472.22546993137717664 467.10445346255636423 467.0631032316835558 469.34906417259367117 464.65744491728634102 470.95620780745122147 468.89799050523174628 471.58445490933445399 473.66190376803831441 476.39534248535738925 477.74132544794002797 468.15906314309330583 467.05567597825802295 483.66845559052222825 466.95424993261701729 478.61578920068160414 481.31199841464643896 468.27661790370638073 470.89247197822368207 483.81124430717289897 472.96095214834122089 479.17532642508530216 472.34500957922927 452.72917204904058508 466.35968205587869306 467.00283900863365716 462.27039070203625215 485.11525255035593318 485.47433510807741186 467.57773654413637132 469.88682185482599607 466.16609022871267598 485.71680238026340248 469.73338132569858772 449.80636357209743892 471.38102760853985274 475.79607390650090792 476.82705571506892284 466.67464399497890781 465.65441516197887495 467.57367356305536532 472.60084258850417882 447.54879957723977668 477.51696853674650356 475.05770075648518969 474.86569664707042193 460.44215247245722367 465.86720811259687025 468.1944992548021105 476.5140396983644564 468.27254809137963321 482.81170166327058269 468.02926575347157723 467.91976892438827917 468.05635061759738846 469.07867764606731953 479.38194458609808635 483.97721484955280857 475.44354236042170214 463.99829389889345066 477.08487571865487098 461.99135552000211646 471.85912965079285186 454.10174079707923056 473.79609510394425342 470.55510193790428275 464.33472684764291216 457.24244896748791689 476.76999250548408327 473.19068565004391758 470.17353240938587078 470.64328027585196423 462.10134751644523021 475.68375943588893051 457.09035477828729199 479.48709856973812293 471.33629686213026844 476.98179114457451533 472.52150568269217956 466.35479226225419325 480.09356830717814546 465.89921391606844736 476.00222611047860255 458.34396051215912848 459.74833331222998822 479.96494485930344354 472.97209759818747443 476.7373309945165829 476.10110304630330802 463.42354350123258655 459.01364379466326682 476.3641761672370194 470.93049403667373554 485.16448571620367147 471.11385182289126305 463.59570571854970922 464.86463808221753879 474.32991091412065998 471.17807246378271202 472.43970056058577711 473.90537467720071163 474.31055146015387436 456.48773016424991056 467.22040556851078463 478.24095524634520871 463.78402469748340309 473.10295155935773437 468.41216835635634652 474.96573954758622449 479.32610175283377885 465.59618306763326245 476.79619790455444672 469.41222430548839384 466.78537335595427749 483.39214386730435535 471.57280676131483688 470.04367330320491192 479.86694111343553004 476.08407753182450506 467.98222886759742778 454.17838892757794156 474.68563348954415915 472.39564198490637636 490.11320908985481992 464.145751428097185 473.72166795978642995 463.64754072816765529 466.43008134852607327 455.45156056521722121 474.47092324334295199 476.17895352420106292 481.76361036276364302 473.79271180524023066 468.26707648936803707 466.65767399329632781 463.28075666037466362 467.95361494591674045 475.58090455421489651 476.98730634911584048 473.86495819680158093 470.99760289960448745 473.63091507237317046 468.88961270591750008 470.27551521094898135 466.67683589610504669 460.4229183935451033 476.89609095475054801 473.17858114956595728 473.88264220963401385 470.05865256987272005 482.14296099260371875 482.44296900264561145 468.47942420259352048 471.00902944920670734 473.79853435104001846 479.33298135828903241 458.54249608388010984 467.00287955066778522 467.06288903888372488 460.60943177733952325 478.87228581573066322 461.41946478181438351 475.80686820871892451 456.87400180099052704 467.48660317357939675 481.07995473306328904 470.69233645373844865 470.41589171126088331 467.86805602620876243 457.37772196385390089 466.37941313236200358 467.81264593851409472 473.9811053657539901 469.71821482871706621 476.992540043464885 481.36252831156457432 468.56056237033845946 481.47541636701043899 480.9670935967008063 477.99573826546514965 473.01281933267677005 461.67900913289315667 470.75900034552643092 476.64860364512253454 469.50754439677484697 484.22027535879897187 468.44162999160568006 455.47347662736569873 474.48274446762911793 473.44014181867225943 476.72822507523346758 473.72461647891276471 481.33939674860192781 467.55033686129320358 483.9979820971728941 468.57753382578965784 469.82947265137397608 481.26426989036269788 476.74071696405673038 470.81036319172602589 467.11765466029385152 468.68951901608738808 472.95374295163577472 469.56676648167336907 475.14574857499280824 478.55279130405870092 472.85777194207037155 480.54567492396392936 471.88257174483703693 468.60652564881155513 472.39932326758111003 467.72411313812938261 463.00787192820342852 467.57607051213182103 471.81726257276574188 464.44952390622785288 463.41280728706163927 478.1457033876965852 467.91024950743786803 462.95355475307144388 478.92160263118722696 456.5654285596704085 466.40935853983586412 473.1725219887186995 478.80971808373323029 471.76692720425592142 463.79738524210034711 462.82909971913881009 466.08879463551176059 473.99558623577303251 457.90808569416782348 473.40363283934135552 462.59022720792415839 467.23806162914587503 470.37944496179841281 467.09103086747967382 475.46017410328562391 467.11465794746607116 471.00724991860681712 481.75294428473807784 463.46681142375143736 470.10433261398333116 471.45759508139371974 480.34633032274740572 468.65513857327044889 472.61549190981764923 473.53038384969880781 468.82832653552128477 479.24731044701223936 476.69994867699637098 456.09715956182725449 465.32256948306434197 472.82278371385768878 465.14060578794834555 482.65904147019216452 462.8352967377889513 468.33724724467651868 461.14864717718160136 465.99013376987778656 461.02907250045399223 482.17993092530514332 472.26132033499476393 475.70989087045933275 464.17314554786742065 460.34524133503941812 462.60785458145238636 476.42363577236926631 469.86922231431799446 474.90618998100535464 475.69195437165330986 464.33795478268234547 479.52318917920393915 469.12193610508882102 475.65287006911228218 473.69961398796027652 479.32570472510553827 474.71990149316212637 460.35341713265069075 475.13436396656970828 469.61828321092923488 462.44306832048135902 477.17642434447157029 469.11686693420125494 473.0012823146696519 469.15274994031170763 477.94130984238478277 470.44572365380975043 485.40162076160453353 474.620188522718081 472.77057479176232846 485.21320802224204272 464.24760045917014395 456.86733038471879809 465.35053663430926463 473.97163153819423087 459.89849802027606529
-129.14829103918566489 -132.90455719040508598 -142.42482607291742625 -132.71673519847544753 -134.41676739737272328 -141.9978137786203547 -132.04879847438070328 -134.48178946843449921 -140.23341853097920762 -138.88230351840650201 -135.02301561365950988 -137.67486551315479915 -133.01284750147084424 -132.33831312815357251 -135.66322028494644769 -129.97216529846966182 -131.78219778486302971 -141.2945312477291111 -129.52402082407613193 -139.40774108937759479 -133.55539457451536123 -133.3459744332985224 -140.32567478293509566 -132.7866420959114464 -142.54831755039887753 -134.02443090007997739 -145.9430418227354096 -139.70592517863278204 -138.2828417623587427 -134.81770880834366722 -143.04630132655915986 -147.47341316113121934 -136.34534662308647057 -134.74083130887134985 -131.0650855140241049 -142.9249539768061652 -133.01333097739160394 -127.83340642113051899 -137.86934243243544529 -142.14450684491581001 -141.09751615484231024 -138.19397729262001917 -130.18502657799064082 -143.2412543387640369 -136.56944232253877658 -135.42469659688151751 -142.11090563194321135 -135.20537244327334747 -124.08121988208785069 -133.77545276432698529 -135.45721416668521897 -128.56127525744474838 -139.01071132110658368 -138.0225520712898799 -144.79032280784994668 -136.67884945789751328 -143.89008729570645073 -137.7107734761999609 -135.79669392531334893 -135.52480181779512236 -142.01683892056411196 -133.4844407068297869 -136.59196333893257247 -127.66487248522065556 -135.43392017898861468 -144.89170280999101692 -140.55940173023941497 -131.54943289753691715 -144.76082834128098398 -136.23418169136166966 -132.77441099794822321 -136.42368342422426508 -140.49483962493260947 -136.05237822950857662 -142.08701916341689753 -137.41093291945395549 -141.28169140014378513 -126.81246278022466356 -148.53022163033577385 -134.30135819046230949 -137.02907562239386152 -133.9667920419415168 -137.02973793155791782 -136.67648340801954987 -144.73631338769305898 -134.41856807583195632 -142.21598586881148663 -150.79566212035442163 -138.42605069867582301 -135.04543248956767343 -130.22189422625905308 -129.34334784122643214 -133.76059281663881961 -138.38417272632295862 -136.75113162561541458 -147.1836310636682299 -135.65877420254457775 -142.9084198853032035 -129.66511538066703224 -131.69996424960561399 -136.74075222666917284 -134.07371230998390388 -134.32030603757476683 -139.50323725045103629 -137.76088444095967134 -145.46358671374787264 -133.60226682193828651 -131.8470633808623802 -139.64917310596149491 -124.51551012613514047 -130.822055222998614 -138.00672367570129495 -143.81967097416927004 -144.57965256625882944 -130.19285840769447304 -145.79125270632340516 -136.2621537899921691 -144.62064750587904882 -132.97828570462630182 -136.85825010029714122 -139.56621426676551323 -143.32447657463143287 -132.71485774997574936 -136.48079788310755589 -137.43007328884246476 -136.95282412657795135 -138.13892582702723644 -132.6930834711870375 -134.68598297600829028 -139.2482639685913739 -127.59840418368462167 -136.14069906391898712 -143.65389836267456758 -137.94843903689229592 -138.71378483954441663 -135.26151816030053965 -138.84870133026637973 -141.23418841300420468 -143.06853843620248767 -136.41219256725969444 -129.63575726051632842 -126.89199075640878789 -149.74730845007033508 -137.84372964394748351 -137.82897818184139282 -131.44131004113458516 -148.58460196623170191 -144.71513955056335021 -144.85101668806916564 -134.90962498697803085 -139.6376361951477918 -147.02309561382313063 -134.49799548003201721 -131.96122636058484545 -135.09921003719418309 -145.40123090421471375 -133.80843436291701209 -131.48902245916073639 -139.27973879755191433 -136.45073850762491929 -135.82845546704828621 -147.14128666650654509 -138.49146555602291642 -143.68505666759259043 -153.11134909190010944 -136.57848252171942249 -135.6068841329785073 -145.0376074906599797 -134.23619377251327478 -136.11107009126274647 -147.6448745898463244 -131.00024325591064667 -135.11984053210460388 -142.60010455702305876 -134.54226382137511564 -128.73315331380061366 -132.47000889251975764 -146.84648720205206018 -144.44778589409008873 -131.34497139355113404 -135.35017664717437924 -139.05125538538300134 -145.34634609860265186 -141.44260536107256598 -138.59795328085832011 -134.88411632128477891 -141.39732079278101651 -143.06590225901729241 -145.57711778297488081 -136.37694956130047785 -127.25365284788345832 -130.93724893043938096 -144.59068843174878793 -135.99576365803397948 -141.21330913399003748 -140.77201118543399616 -132.2533034433004957 -134.51670729516342817 -131.55257913883733067 -140.84380759186211662 -127.46020070736609853 -128.74039523995955392 -137.50674444135469798 -137.09211251113802632 -143.88934602588221878 -136.58850394751422641 -141.25700712849220508 -138.89077639599861413 -134.48515136486233246 -135.51080216503069664 -134.35646388904660853 -137.14160777439363414 -133.96271678526650817 -139.64431409026448705 -134.25465215533486685 -138.56233846641234209 -146.65970268724575476 -147.31228724541216479 -139.16472187029415863 -143.73090566968323856 -131.979783446673963 -130.01682232184720078 -137.91466863446828484 -137.01828039528294312 -144.82473474276011416 -135.0980666218231363 -136.28133285912645078 -137.92127273479226801 -141.87431453096087353 -137.84335508220488009 -133.7987186801730104 -137.89394288259285304 -139.05804516108145208 -131.35931828647505881 -133.63179093423195809 -133.60732294111898 -130.17780333565764295 -128.67547098168762432 -139.23242874494158627 -132.81698330842905875 -138.80019192337499589 -129.89190613631220117 -144.72009352071773947 -128.11910260169881326 -128.54773148618301093 -137.83675713641409288 -140.67469598839730338 -134.61549049404482048 -142.80130078431452034 -128.24454405314517658 -131.67038605556260222 -148.21885474252351855 -130.70092362709019085 -137.90186328001203719 -150.10431405776728297 -149.4551777598684339 -126.83764940139739963 -136.36793213874472031 -130.37426414602498426 -129.32918444383145129 -137.67097791069687673 -137.58331017988379585 -140.70221287969565083 -128.33591193966086053 -132.9694325760210063 -140.26044028554164811 -142.05415781196961689 -142.74564571903621868 -140.61428528993843656 -138.7180937088398025 -140.79346778994994338 -147.32611516059913015 -141.2956517070871314 -144.65761189200685521 -139.36078326927921012 -128.35247870631812361 -135.63990440750572475 -126.12329441181761069 -132.78040886753569794 -140.4880058741010771 -140.43368479002612048 -141.25093567445500753 -131.23727290461795292 -138.57969865925312547 -134.89716026833954743 -136.4452834149146554 -136.0800629854113879 -134.63190292459034936 -134.99889423548324885 -140.22538213384351025 -150.54587347109460893 -130.32239043645884635 -126.07679748943988329 -131.77908228229594556 -124.47363031985284465 -135.64538223542623996 -126.73407932986029323 -146.59497354288006932 -134.64407402099226374 -129.43838793847396573 -137.21031743279343118 -145.12385065209755908 -138.49246711103563712 -141.15160572899429781 -139.0321043454590324 -135.76076610502718722 -132.63337889523563717 -142.60348943551224465 -143.89282122655535545 -142.31118097434551828 -133.86101817240313494 -140.87641075770966381 -138.3944550267034117 -139.24480699179235899 -134.84890761833881356 -142.70778563595294486 -144.5911465097082953 -133.66942167584008416 -138.18108762192989047 -130.11132250888087469 -141.06254188289796048 -142.4325407189563748 -131.3507931886555582 -140.73874329189231958 -142.07402108504237503 -125.95953525217684899 -140.53089910208643687 -138.36871661469731976 -135.03745873810109401 -136.74957742085126711 -130.63947725397221689 -144.80077776996859029 -133.05919048504361513 -140.01022255095384139 -139.72926581318000672 -143.82466105526077627 -139.5224175366732311 -140.65914889218817052 -136.52970960412406498 -143.23955030485757334 -129.49968550469671413 -135.00910563222444694 -132.41919011888538193 -137.77908463056286337 -133.07396337468236425 -138.82135024912648191 -137.19645930149266633 -137.38953880878290192 -132.53982621711455181 -125.77887721163057222 -139.43798877956692195 -134.1858986833193228 -136.6635033131775856 -140.04627567429648138 -142.85083480252507115 -140.43709205314192445 -136.86604081740139804 -137.57315817606195196 -136.1591904939999722 -130.44190868565127062 -135.75072545119110146 -153.20673394846210158 -133.47121663392209712 -142.98346845804584859 -146.41411746922668158 -138.58895147432110662 -134.15655525934155889 -144.14796708070821296 -142.73970807951451434 -135.32851092886517108 -136.6764736085401637 -134.73364904738795644 -134.67854894175508207 -128.03707774817195286 -144.14278568263827651
-1381.4900617850703384 -1373.1849078092607215 -1365.5755584529929365 -1361.7977203398338588 -1377.5216969472448909 -1385.0842458477927721 -1378.2920040259184589 -1384.226086879096556 -1363.7928443607736426 -1388.9344395204802822 -1372.7695414525819615 -1388.3553653647259125 -1368.0181967666521814 -1358.5346597478942385 -1377.2805470527989655 -1387.346672270585259 -1376.8628261114367888 -1386.7454097301097136 -1372.5555214154824171 -1380.2722209729240603 -1365.2558988666157802 -1395.7854755322905476 -1382.494374228398101 -1383.8841251929688951 -1407.5536442153656935 -1393.0752164206805901 -1379.6139707993374941 -1375.9441156616155695 -1400.1353344061196822 -1388.0910917259216149 -1358.6798292259679783 -1388.8510252773826323 -1394.3966891192840194 -1387.9378517274481055 -1379.6299876316440987 -1394.0109219636710804 -1393.3388822589902247 -1386.4967901847078338 -1385.5024544465622967 -1388.8118892403140308 -1380.9924952138683238 -1389.0315914117907141 -1373.7612016239929744 -1397.9345373676278541 -1381.623547742939536 -1383.8776976162150731 -1386.7435549867664122 -1399.3078408478363599 -1384.5733886465170599 -1374.5122628064052606 -1391.5245946036734495 -1387.6037930691675228 -1387.6127330226036065 -1383.9897717746905528 -1394.2066873044675503 -1390.9361010158186218 -1396.3571323994083286 -1389.7977817353216778 -1366.6808728814580718 -1388.5192139887444682 -1377.7337320401395573 -1397.2007336065923937 -1383.7263130132553215 -1385.9204793131723363 -1411.9913366800246877 -1376.5326933927083246 -1390.5031988993127925 -1366.9362455751891048 -1394.7506404844305052 -1378.8857751034172452 -1399.1775496727859718 -1405.3990788316443741 -1393.7461195114499333 -1378.5478424118712155 -1364.9202644543622682 -1401.3782629036279559 -1386.4261779185560499 -1401.1057655692748085 -1402.5584346064251804 -1378.2433856243062564 -1387.0554780323607247 -1383.2584968974431376 -1390.9741810340688062 -1387.3826884082543529 -1412.9822585824344969 -1380.2747591323852703 -1393.6964903721659539 -1378.8945086873427499 -1385.0209107834421047 -1356.242578110225395 -1382.5976612538315749 -1386.6627725767045831 -1386.7305611429394503 -1378.2678531802550879 -1400.4066119204958341 -1392.1626365820079627 -1385.2797073690715024 -1388.4354665619914613 -1387.7053228791919537 -1381.1938609855187678 -1377.0654571410736935 -1367.0135454481776378 -1395.6885143083575258 -1381.5602820327853806 -1405.491199861548921 -1381.8876715971459817 -1386.1358232585741916 -1378.6327922768396093 -1385.7465704006526721 -1388.0656439824354038 -1375.1635818541988101 -1382.1656463137214814 -1396.5399021576959058 -1392.2609138732575502 -1395.3002909270489909 -1376.9877357127850246 -1402.5278956936001578 -1384.3924092259767349 -1398.3264809978654739 -1356.9513463243149545 -1368.4085963209508918 -1371.2325696154109664 -1388.0846064751631275 -1388.3465571241524685 -1386.1443773901191889 -1393.0738450361698142 -1385.7887198867360894 -1398.9899709193996387 -1378.6951338209707956 -1378.6631775043360904 -1385.8336218068520793 -1379.1464863253208932 -1391.8552933334528916 -1383.7086255645949677 -1388.7607127872547608 -1349.8263948709361557 -1380.5121192192423223 -1384.507610018571313 -1394.077307530188591 -1393.5159268891159172 -1397.5490841429598277 -1403.3837053957211083 -1405.9302708404966324 -1372.6461924797308711 -1381.3397403692038097 -1359.1956321916827619 -1352.013671636732397 -1374.2836205972671451 -1387.9727046705056637 -1373.9402601782107922 -1404.0233447915959459 -1374.7430756110377388 -1378.2571222232841137 -1392.5306752677527129 -1398.2661671061198376 -1386.0577910839788274 -1386.6396706626494506 -1391.7979464599243329 -1380.639074860573146 -1382.8501808343103221 -1403.8922448443474877 -1397.6226200547321241 -1397.1190693807229763 -1383.9683172877628294 -1390.722447328342696 -1376.9131342426089759 -1382.9479882879231809 -1379.120611216580528 -1387.5815942187473411 -1388.5610588666711465 -1374.1450072610193729 -1378.9601333315254124 -1370.2423462518454471 -1391.7834111387728626 -1398.854599500661152 -1391.3237036129896751 -1383.5648547647165287 -1394.7621596033402511 -1389.0783871159005685 -1368.6117533341557646 -1397.9916776008010402 -1387.4290197527670898 -1411.2785031599123613 -1391.0965477038407698 -1382.4843754087467005 -1401.1479589037351161 -1391.2480153544549921 -1392.5529847315733605 -1381.3151525601399499 -1400.1117639535441413 -1389.4405179383147697 -1394.7590872189318816 -1375.7093569262226538 -1391.1412345214641846 -1378.6146638857831022 -1398.7249232356678021 -1387.7128786847899846 -1389.7618938861764946 -1391.8117706949433341 -1389.7563878175783429 -1413.2845574630389365 -1383.977196447883216 -1380.4923448372014718 -1367.628505428205699 -1377.1095092303653473 -1375.4197358190326668 -1394.4740340509347334 -1402.2909311911178065 -1381.3805725761540089 -1390.3186068364395851 -1411.2402797208740139 -1375.3500987378690752 -1373.9372484136811181 -1375.2962253819002854 -1393.4106839891740037 -1395.7288248059578564 -1389.9192511166181703 -1381.4581506476502 -1371.8533132975856006 -1385.276615720130394 -1374.2900660014906862 -1371.6943807507323072 -1374.5341471550248116 -1358.8219753032863082 -1402.8255229530941506 -1394.2033654715737612 -1404.876234359737964 -1381.8055508640834432 -1360.5869364891011628 -1380.8590805081350936 -1395.644023006456564 -1392.1681908659729743 -1379.7916785140339471 -1383.4266503603873844 -1391.3432770283422997 -1380.6664025957359172 -1375.1368582867780788 -1381.310680803602736 -1386.6981104406670511 -1395.3809337863256133 -1374.9534129428031974 -1375.2353761162798946 -1385.0760603416972572 -1375.1304520132348443 -1392.3209119927569191 -1386.9460923045412528 -1374.2557836727419271 -1381.4280598651539549 -1389.2679194550096327 -1368.8165084842792112 -1383.8291938956010654 -1396.2495629891777753 -1378.0707454499938649 -1368.9925091493189484 -1434.8880401170365531 -1370.5714649172273312 -1376.1837225366543862 -1373.4523906978995456 -1388.7374728642653281 -1362.3032870012709736 -1379.79007375029164 -1392.2652659709583531 -1391.6446189711073202 -1393.867753981935266 -1383.3000390985589547 -1381.2903109168369156 -1409.8981528399613126 -1379.7498656734144333 -1359.7200286215215783 -1406.4468950144894279 -1374.9765675073390412 -1383.0315356040762254 -1363.8113788248642777 -1387.0742994632194041 -1378.2064035127127681 -1381.5002947658708763 -1380.7046933122705923 -1385.232711425062007 -1402.3617427394231072 -1407.5336544586618857 -1372.7318027490211989 -1390.7627084150869905 -1395.0571108579699739 -1363.9629835752798499 -1399.7818205394830784 -1381.6314844247306155 -1409.9604577603033704 -1391.0518358695799179 -1413.6375752253679821 -1393.9473551028963811 -1393.2482745701520344 -1367.3175779234202309 -1415.580702493825811 -1373.0419839712358225 -1362.7985345276613316 -1374.7136702790105574 -1384.4617478573982225 -1381.4072382329613902 -1351.5468647369100381 -1375.3407927380260389 -1401.7988793676940986 -1386.6238007471251876 -1388.3081873658129552 -1369.5559928601867341 -1394.6365861553185823 -1382.4451602641402133 -1386.3424978569087216 -1387.569556722856305 -1366.1155150603358379 -1389.8343525701336603 -1412.4505702865399144 -1392.7205697755352958 -1388.7630863832446266 -1376.4905989458341082 -1386.0204519657606852 -1407.2191047741378043 -1390.489329902738973 -1394.8004328538113441 -1381.126217030112457 -1393.1183408706981481 -1388.1637960482885319 -1378.8004370559178824 -1374.8370706133016483 -1391.3823306563240294 -1378.2984453174981354 -1396.1760420501864246 -1379.9779445352714902 -1383.5591077451651927 -1391.0177682334697238 -1396.7299493542111577 -1391.4453340801458125 -1378.7703733160476531 -1395.2144265583674496 -1396.9197086515218871 -1399.4473894307943738 -1389.2061130774216053 -1387.6078091846873122 -1409.2466875344248365 -1380.3827548618523906 -1388.6927450789330578 -1386.3865099107697461 -1397.898949434927772 -1409.7752249237059914 -1402.966553132346462 -1389.9807156871056577 -1372.1922910873702222 -1377.0351950167341784 -1378.4082505508772556 -1373.5713320157417456 -1373.8621726097005649 -1374.7140196583543457 -1373.2100463246529216 -1378.9746090489861672 -1372.126093290932431 -1386.382075901036842 -1378.7376280268099435 -1396.5833430226766723 -1377.6056305218301077 -1368.868035049490345 -1383.8855506425229578 -1385.3048383487573574 -1366.1928856116512634 -1386.1154336379699998 -1388.6620960009249757 -1388.2410303113424561 -1396.2837466544376639 -1382.8156431523302672 -1357.0086451563308856 -1391.7168512769194422 -1378.9688339388599161 -1380.3853459649451452 -1375.9697219909812702 -1358.7866902243545155 -1399.3006276042601712 -1368.5106079511533608