-206.2451571542581803 -200.10820754237172991 -210.69798560176133151 -203.82904308924037196 -204.52573875382589108 -199.19737021561169854 -205.3254246285036686 -202.58598182554294453 -207.35860098358745063 -209.45006096129131379 -203.70141921441211252 -194.30067204339732712 -205.12632923903581172 -210.34414368981481402 -210.91785522674922504 -193.80323813238308617 -203.53343000928049378 -206.16349236130588451 -200.41488180021460153 -198.05453520288128288 -204.86527333161910747 -207.70675606816575964 -191.39723678056660106 -202.75496539997192258 -201.47446940347305144 -204.47111024486332553 -194.64342079778697325 -202.52803065871086119 -198.08201728166486077 -207.98213936150187919 -198.13204532101090649 -201.04631792365435672 -201.78465587965138184 -204.49280558144604925 -202.58431307692796963 -200.50242065328046692 -201.83275648898492705 -208.34138178270836761 -207.73740567053857831 -207.47123336475789301 -197.39634628919870352 -210.35809894493087313 -206.70491676579854357 -200.62098988838863534 -202.38336049553379326 -206.27545498461253715 -201.71656633477718401 -205.09253011319685811 -208.19283874111701493 -211.56000725382858718 -200.63365379546374356 -196.01507818052766652 -208.92705649168908622 -208.81736534267272987 -204.33399459624362748 -203.4851072286646172 -197.84158535768585807 -209.37424952796001776 -203.44538400975881132 -214.78850329089647175 -215.164836150217468 -209.03837688291670815 -212.85009231889682724 -202.40755097745244484 -192.88765905353932339 -204.20835705479777289 -200.45413353051898753 -214.33702142376597521 -204.60126724997590486 -201.20606123589345771 -209.53616482319071679 -196.79446627160686489 -204.94356959112832328 -199.14364966021190639 -209.81208336802396275 -201.94988555907298178 -205.43492986838407433 -199.57941605357751769 -200.29150523211689006 -197.97311245924697687 -192.01040302502849499 -201.76966306547905106 -200.00812391060904361 -207.60478987818166274 -201.86825553113874321 -210.36235927631361164 -203.89606252773828032 -204.92917573589522817 -200.87580816968477393 -201.22546533477122921 -211.16234778912394177 -202.80899398705005865 -201.30114944605355731 -198.81038818644015009 -203.79650392452143137 -202.30491988261368874 -202.04151712420699027 -210.805765577536107 -205.06077952115592211 -212.20907126185306879 -203.38198800575864311 -208.19792094908896729 -202.20644618149714233 -204.40019105493743723 -196.65364439411342801 -211.6158149265557995 -197.12401795185942888 -201.4711330588860676 -211.66069516084766633 -203.38529146818393656 -213.3839698856136522 -218.14613352132170121 -203.26963827941949603 -197.73713248742805604 -193.21834593877341035 -197.69289507658797334 -206.63443071904012527 -207.2368340739527639 -201.089472522591592 -200.90328766293131935 -201.10207485550520801 -205.34151913604182482 -200.76608799243945214 -208.05093514610027228 -204.91248732856209358 -208.28684651006977901 -205.1169674087517194 -202.60034629775722692 -203.0014497942290177 -207.00301865828541281 -200.54182359651954926 -205.02583857154456837 -213.67565651292238726 -206.02941070230957621 -209.89420939510836206 -199.81195866641635916 -198.81054439672547574 -192.72444947474721744 -203.82441258091404279 -200.49445574552697735 -199.52841537685054618 -194.98744315903758206 -195.29312807116494355 -206.77574330705667194 -200.04749440336541966 -197.77034262582836277 -213.84888059542356586 -201.18305088938089398 -199.39594497506686821 -208.60287553590126208 -204.19021354441838412 -209.71687851156235638 -200.9725701018669497 -200.84501609213933193 -200.19965758576611847 -205.45121424177489189 -208.65493991236263582 -208.16794220589983411 -203.08237249233908983 -205.66849656262195367 -211.64494336476931835 -199.26148224240824902 -212.22250706958422484 -199.75787998247969313 -211.228759460483559 -201.28046292516626181 -200.49099262309209735 -213.27257504227836193 -197.97553381628711122 -207.4401434348226303 -195.94114598652089398 -205.8546074951123046 -193.93332751855371043 -202.51238941082402789 -203.9748194351678876 -201.39981659588312368 -204.99019906041235117 -207.93788712324052881 -212.58719495478291606 -196.73311184629238824 -215.42925195475424971 -207.09843874267676256 -198.15768820658780669 -207.07424454249036216 -201.20940891774247916 -206.40767831121635822 -197.35882108223839282 -199.64308014773459377 -197.36318941975915209 -204.02821718611130564 -206.76185318172736061 -205.23638090514813825 -201.38798200803191207 -208.50629653659498786 -202.37943358892624701 -208.83507150031030619 -197.96285689852672363 -196.24829778989771967 -212.97410714862081704 -202.98507230548474922 -204.67776682978850999 -203.10925777373302026 -194.47222217366166319 -207.46851820977803982 -205.12111308109226115 -213.50636507018546695 -193.7377581915771998 -203.18674902548926298 -207.41898446676117373 -199.96954097878631273 -198.16115220253479379 -199.73089263079998545 -208.09143039450876245 -203.11866388290556529 -208.52533747742137393 -201.07062435327395633 -194.26472544254514219 -206.2217196366967471 -197.10135393877726528 -203.11375573456643906 -205.92164186585537777 -202.19905432683464142 -208.84863578294402942 -207.20122955842117562 -203.92651496166988068 -215.06369288987599475 -203.86122729194946146 -206.03653203078260958 -199.23709388933582431 -211.06189660844756872 -200.69240907204195423 -205.48178564924279499 -211.20515891578025958 -200.54927867059367941 -210.03960638605985878 -207.13974858880004604 -201.08333357416037757 -196.96708680545549441 -207.19383304175687499 -205.5003730241534754 -208.26131806237023625 -208.80855588269682244 -203.36489594987099849 -210.78371614110150745 -192.57272393729147097 -207.68669566813494498 -200.43337633444133417 -213.44638064979235992 -205.548457527591097 -205.2729528409813895 -206.06479128221582187 -201.03537922438067653 -215.42736746833298866 -201.68703389761392941 -198.38455898698936153 -195.76474004484143165 -209.32621871608614583 -201.91572987534939898 -205.65296856134375503 -200.86747245903518433 -207.9995810151640967 -207.07495175241916741 -210.69175739644290957 -202.08354723793073049 -203.87849137890114548 -209.91032460415803484 -208.33870291211533754 -208.59817289748156099 -206.80528989871555723 -210.33229990610007576 -192.83829820838960245 -206.70373178037277739 -200.80721974741999247 -191.82533010570591614 -199.45882109719087794 -203.22977639900986446 -205.92070016022390178 -200.73394968324140564 -206.24081967696690754 -210.61802038639825696 -212.81570838999991224 -197.97548606251069714 -195.24142264325467977 -199.22511407751628099 -194.53547877655827847 -211.33042594874228826 -195.57200290879455906 -201.25814849895007796 -208.77851887681637777 -207.42528499242644102 -200.60936439411108267 -208.32671932849666518 -203.73567409075735668 -208.43487816489593456 -203.91370395745300925 -206.16261393392403534 -199.63088921534259157 -204.0419010596763485 -203.17214570643588445 -197.13483422557629865 -211.4134027606314703 -202.45573222687050929 -204.38098664534516047 -204.11507744131850473 -212.52789208854534309 -202.58429054899923472 -203.47717684388612724 -205.11950042755424306 -209.04734434127675513 -200.15605995729211486 -197.72476612253478834 -196.06741170472679414 -207.35439849488173536 -205.483542635141049 -210.4141648096106394 -197.87984362287480167 -207.09992871598845454 -199.42136825506591435 -197.19581291493179265 -196.97801013792377489 -197.77589590599487224 -203.10297920689814077 -205.11747864362956761 -205.40717663147302119 -202.58411710530074856 -205.4788177690764428 -211.02968272467322208 -202.42888286363418615 -197.98460269988737537 -216.55567269156875909 -205.53326332138215093 -196.21100235948611612 -208.49165673007033206 -212.28176649009978405 -198.66785053539942396 -191.88525033686292431 -201.74468324586166545 -204.47669730777374753 -204.70734334930037335 -209.01665538053873661 -211.40091433860814618 -202.13033085994516114 -208.57630971405242803 -201.02648345945340225 -202.15353530000993487 -209.38868944023093377 -212.56144536479786211 -196.96686182268129528 -198.76038818827197474 -203.31488887622384709 -197.54248989687755511 -202.3057863671030816 -206.85445449960030828 -203.77453255890497985 -209.48338256554893633 -209.83403342457654617 -205.67809758916251894 -202.46070912851880053 -208.55447680595761994 -195.17269584236373703 -213.50458696734673936 -198.12245481077920317 -202.10382840177163644 -203.01258816319625566 -202.5420659131567902 -204.91965579013444199 -210.69410433862009313 -210.51771133956236781 -195.33275695776939074 -198.20397683319865223 -203.63570324386165566 -199.44581846790217128 -202.88418083544317483 -205.96462472878118888 -199.6194625201848396
-1309.7321456416066212 -1335.3826029662227484 -1330.1741050326354525 -1309.9691158242108031 -1307.6393999389081273 -1332.2528275940621825 -1330.8718139756588243 -1332.5250345495271631 -1325.9206344056201488 -1312.0625769568521264 -1306.2442200647178652 -1303.0815825468048388 -1310.5086707135810684 -1343.8445655258774423 -1342.7266939132025527 -1333.7994637853450968 -1320.8288636676254555 -1325.9407229401456334 -1311.7025586637953438 -1315.5592820355602726 -1320.8240203860536894 -1332.5581010817077185 -1322.9271418877447104 -1321.8047909433321365 -1333.4835340954120966 -1307.1559412399894882 -1338.6437289551188314 -1330.2278954390876606 -1336.7975247328470232 -1311.4592749094551891 -1333.1143633857145687 -1337.4380392811315232 -1321.2502126401998339 -1332.3400147782390377 -1321.3609500149302676 -1312.7590899274880485 -1329.0613321051973799 -1340.2099929958051234 -1325.0027734563129798 -1312.7959796884686057 -1314.6353965059518032 -1317.4769926308304093 -1314.3500476107844861 -1319.2995774161868212 -1345.221145005170456 -1316.6634132771137047 -1333.3154227559225546 -1325.2256245232881611 -1324.7568512780949277 -1325.1774146351319814 -1323.5834337720791609 -1294.6659166572082995 -1334.2598489195954699 -1330.7736664962560553 -1319.9641448517231765 -1330.1563515711068248 -1304.6956597402022453 -1313.0292788523779564 -1319.5933044236794558 -1307.120394178098195 -1311.4040894864240272 -1303.7255264562923003 -1317.1566949860439308 -1333.8790416051135708 -1332.0401370411227617 -1326.4519111187353246 -1330.262280851243986 -1311.0486566653380578 -1320.6938303996932973 -1335.0418977809295029 -1313.0007987433059498 -1307.1838014908262267 -1311.7564175095938026 -1318.7173634402863627 -1322.9454338092300532 -1329.9480567114567293 -1332.1105159916339744 -1317.1275624180534578 -1324.2555763318196114 -1320.6990079662027711 -1334.0697513800698744 -1316.1074420167592507 -1318.1046721497830276 -1300.5212631971367045 -1307.9059982882579334 -1333.4183935150147136 -1303.0229438124454191 -1319.6150928619254046 -1322.7523586979868924 -1320.8206552924316384 -1336.2125349762702626 -1305.4685118647976196 -1346.8518940695428228 -1334.1253983833732946 -1306.2453615568761052 -1314.1363725192973106 -1330.7762985059848688 -1336.7064922430593015 -1306.3111583790496297 -1332.0619058558861525 -1308.9396192141246047 -1325.0925194507412925 -1318.8189810172889338 -1333.2147104676053004 -1297.3191769940779068 -1310.2753293715445579 -1323.6304450911979984 -1346.1993577075152189 -1321.0532142472316082 -1303.8438896146776642 -1342.3576047712970194 -1327.6450858406374209 -1329.0699048512028639 -1316.1299783896181452 -1322.3063604822964408 -1332.458754028931935 -1320.6791166430957674 -1342.3494382129651967 -1347.4490486771871929 -1333.157722102480875 -1333.1586651761310804 -1339.6324726962250224 -1307.1934490960775292 -1320.3568899818376394 -1329.8284943032331284 -1337.3088599158072611 -1317.6106464202421193 -1307.9518843736937015 -1320.8753634281829363 -1299.4931819286539394 -1309.9165073912797652 -1325.8364487327542065 -1301.0907045210497017 -1326.4531200666078803 -1332.4027099478150831 -1309.1392345633712466 -1332.1730904439616552 -1340.3114848732700466 -1323.7217196478102323 -1315.8867695843937327 -1329.7730533414376168 -1322.8116418889085253 -1340.5647548793897386 -1330.5102013197247288 -1325.2272806412640875 -1318.4364496254386268 -1337.8078383989609392 -1342.9631496121289729 -1323.6097022841408943 -1290.7903512199104625 -1327.2432722523917619 -1316.3811728289599614 -1322.8805561321478308 -1340.3280479219060908 -1328.690923897953553 -1335.4134020090950798 -1315.9881783633552459 -1321.303072702872214 -1295.2954201846266642 -1322.9186900072620574 -1316.1138258825556022 -1305.8961681897658309 -1298.8059250382555092 -1313.2401019521028047 -1295.0689243469132634 -1333.5619770928544767 -1337.7792579950419167 -1334.3520516775988654 -1330.7738394435718874 -1334.0297355185236938 -1330.3892086948324049 -1320.396450529418189 -1315.8704457208284566 -1298.8197532554193003 -1324.0303893084353604 -1318.3895674011137089 -1302.0383218343017688 -1318.1346253254116618 -1316.1253546480509158 -1303.317428846749408 -1300.6611923323521296 -1320.8069097158818295 -1324.4597407147321064 -1329.5189412008719501 -1327.5967964839537672 -1321.429381480129905 -1326.0628898772554294 -1295.7580767758763614 -1328.6246034718540159 -1324.1458734968821318 -1311.6450310805837489 -1319.7892105890257426 -1330.7949744819914031 -1346.1054023992339808 -1300.34098495229523 -1306.675039000796005 -1325.0220725970561944 -1316.3406445590346721 -1333.6997728393382658 -1303.1072876449395608 -1342.2348150280963637 -1329.3141840171620061 -1325.8321932687861135 -1346.1550628955801585 -1323.8088256831874787 -1324.2671594106959674 -1301.9876457969803596 -1324.1280712279647105 -1348.9197334337636676 -1331.9679704556976958 -1297.4349776503499925 -1318.7021059365777091 -1307.652012263408551 -1321.6401697347519075 -1308.0024080732114271 -1313.8625511858222126 -1305.3733482733096025 -1329.9548874342228828 -1341.6218373363392402 -1305.6638053747926733 -1314.6270457976174839 -1328.3944399021984282 -1339.8269576043658162 -1305.6033435650149386 -1328.292190502064841 -1306.6110359222579973 -1331.006998226479709 -1310.9819819341878429 -1335.7634296982419073 -1320.7119188043743634 -1311.2399320765221091 -1319.514339142296194 -1314.4887351871395822 -1317.8918846353005847 -1317.0776542695166427 -1301.6434364577226006 -1321.5601639176550179 -1341.0068632243419415 -1320.7843189531638473 -1356.3348277195211722 -1326.3738704482473167 -1327.5983387993451288 -1343.01841715006708 -1332.065233141395538 -1311.1393887832177825 -1307.5328203223184573 -1325.3904989358368312 -1338.8461035467580587 -1303.7965796648597916 -1336.6566387589837177 -1312.0308807273872844 -1332.5476339435826958 -1324.6831662166587193 -1307.6032146812499377 -1323.7092650049123677 -1314.3268050008264254 -1320.26833352604217 -1318.0301059887362953 -1352.5885476390064923 -1334.8736601305793101 -1305.612830934521071 -1336.2105723121942447 -1320.5933867278640719 -1327.625651031139796 -1316.800071631209903 -1307.0358883561548282 -1322.7596579278058471 -1316.1359635951898781 -1322.5704251944916905 -1345.1400306777866263 -1315.8565023547550936 -1320.8168588908745278 -1317.2525531246822084 -1330.3964347640333017 -1329.174608989346325 -1312.6678161656043358 -1316.2052270342378506 -1322.6319598374786892 -1331.5135021955179582 -1325.9617930616677768 -1304.8082217741548448 -1327.7529074485669298 -1313.0952724136241159 -1325.4966694473628195 -1350.8443662095291984 -1292.6644845302650992 -1325.3561596583761002 -1327.7821867140094128 -1356.6118947620216204 -1298.7283361195525231 -1308.4443555609846044 -1323.5323412892564647 -1313.7600468358905346 -1313.1303073759697781 -1351.1180097640419717 -1318.8414638117633331 -1304.7255681086535333 -1328.4606515055411364 -1337.4558917302026657 -1342.438587241865207 -1331.7924236322155593 -1310.4985969156452938 -1311.6880376778574373 -1322.8107639428139919 -1347.4337969084624547 -1331.2339052056322544 -1308.0118398907943629 -1320.14745394481929 -1310.3520997426469421 -1324.2822448448923751 -1314.6720919681474697 -1322.4205782768513018 -1309.9060414954813041 -1317.1422163016050035 -1328.9973494357122945 -1336.1139203680006631 -1315.2059795008126457 -1332.4778918471304223 -1341.9053464285584596 -1339.138764869766419 -1311.1673609196982397 -1334.9872552348563204 -1326.4460589298962532 -1323.2550971290131656 -1322.7375636035339994 -1317.4742987391778115 -1320.1708460782533621 -1291.2513894727474053 -1309.8519923219769225 -1315.5303360450716355 -1312.7036656417992617 -1336.3136202348493953 -1323.1576333024900123 -1308.9360460729581064 -1304.307954180342449 -1325.796955873953948 -1317.0194233286108556 -1341.453442328843721 -1312.4333649670554678 -1307.4632097470932877 -1322.1304049159498391 -1318.0914263475885946 -1294.7781566451419621 -1312.6345338649275618 -1314.418443962743595 -1317.0452738088654314 -1318.0133555001386867 -1323.811643538745102 -1304.8648357137574294 -1320.3087103014906916 -1321.6236560649576859 -1320.4114651328557102 -1315.7875391666507312 -1324.3440360075946955 -1341.812343716283749 -1315.4922513177261862 -1305.7450628104440966 -1301.3173815651098266 -1327.345876243235125 -1297.1709083808495961 -1331.1369880809193091 -1336.085838607074038 -1311.753194396349727 -1319.7180436675093915 -1322.8171736936853904 -1310.9181272830392118 -1312.0290155020497878 -1328.0946934263649837 -1316.0670709276662365 -1324.2761931935081066 -1331.1667901499818072 -1326.0950308098222195 -1311.0034328243052641 -1298.3217950459115855 -1296.0448160935202395
424.48045032856856551 443.48911605128529345 444.36984581078041856 441.78301444656790409 460.57952424927987067 437.52032948575691762 441.61795861919745221 425.38314389398993853 442.92936130743311196 436.74550112120397216 442.83073515150204003 436.06572282800800622 434.0782268498276153 445.68836831563146461 435.21840571368477413 438.33136296143521804 432.53536805805026688 425.01021632852626908 437.59685180745339039 432.56798775459236595 442.48172884097084534 438.57969672292250607 447.23955055406082693 436.91950270290669778 435.57758520036372829 435.64037272254432764 444.1650598479279779 444.52260722035236995 442.05753782371868965 447.59941715010643293 447.90242870840785372 439.36921928296976603 448.80373494730241646 444.30033211103250324 446.13491338203363057 444.9082345487761927 464.64391643787939756 452.15467207276520867 422.47302639965596427 438.43092760639353855 429.66427365732994303 441.52336423130293497 437.0807258051916051 450.60859272507076412 442.71751428127276995 432.72205549185190421 441.44841923600620248 441.31297999328432979 441.00088347191007188 438.62209930651943068 454.20301790570607636 441.45127977466705715 442.20221997197040764 440.79958424295830355 435.19033170396005517 433.86397975155881568 429.91988973324458811 446.77028043346274444 450.67534770695147017 441.8176314230302637 434.58599875960612735 441.81736192485175252 427.38988433392597699 447.13300145745409964 442.60124790987782717 441.57196101626726659 440.21346231573630803 432.285139011309127 435.16313986017519255 433.19583320437732255 443.59800774243814203 450.4202909766323728 431.1292369220961973 435.51472553309673685 416.67922479593289609 443.08272176917080287 438.63438896080231189 442.6868567854070875 438.65504956459938057 441.12447115162103728 435.75942879191319435 438.65092304575284743 437.81106691537991082 435.87391149803266899 443.81734381500757536 445.01318448096509428 443.07058455569563193 441.2170246184774669 439.64764368524220117 433.91682570655098061 447.59277941703231818 445.37071351494682858 443.64789073102946304 442.25126368075467553 434.27321772712087977 430.40140744120941463 429.63588261801976387 445.31318306483956349 438.53494921242617011 430.2017349425653947 433.07519891229156883 422.92624430484863751 443.02728197201565763 431.60704923884770778 428.15163508518361368 440.3023830517248598 441.76732657677234783 454.47481804664494121 431.7868251540267579 433.604178883672148 442.02793791678493562 449.67297338055624323 443.66860931905620191 440.6301750324583395 424.89448768269090806 435.61330655802817091 434.33520329506785629 435.10990053101920694 433.85560863658514563 419.32481370599577986 438.33216097386917909 430.24330552654487292 438.52348976582442219 428.65302781921428732 451.03298977092015321 436.47301113891973046 433.72869657035676028 441.47977167656790698 440.71663721100543398 435.85193818581706182 439.81051672463667046 451.58297136221568735 429.75653756441744235 445.00342451878151451 437.2514632425040304 436.68047198136542875 439.44259772614276471 427.40474826859491486 445.2884573580098504 440.10623426588051643 450.19886445264177155 434.47080147317961973 454.33418960983925672 438.13632497931314447 443.99645064457382659 443.2441904733592537 446.0978131402357576 432.6879255953516008 449.20764308270923948 423.19055465673068284 447.51371048366195282 432.48171247289957364 442.5187378690013702 452.51665521888872945 428.65256523764600161 444.61173569253617188 425.48941789974242056 426.20242153823409126 441.40065865246623389 431.83174268462505552 432.79111633275505255 452.92026335845673657 443.36392249502944196 436.60960795567154946 443.47506712604877066 443.80859803415177112 436.4626727857398123 435.61776136546154703 428.91590785354520676 427.21841816985210016 433.3977960292992293 451.38059475108093466 441.04147966794857894 428.83892165263915786 439.25577882935033358 442.22613481506817834 435.33997734177029315 444.83762741802559049 447.21843584509741731 420.4501648604010029 442.96840518518826002 436.45798504512418958 427.29822370022367295 438.159978431176512 448.09339095386968665 446.62869431606844728 448.61694722760586274 442.27907961833238915 452.97947168219417335 444.48535720867778309 437.98481888862863798 433.5030349406704886 434.28746523442015359 428.94133991733622224 433.17046299472053761 434.85817922508067568 447.67705606126764906 439.09947575195769787 427.48424260514974549 442.89668174273009527 433.10969159804699302 434.14817361260503503 432.00202992182136086 437.1067840107587017 433.03740530358135175 440.35436691409762489 444.06112875429715814 429.96749993368234755 438.63026546054737764 429.17224892987206886 443.95652584539703867 434.25193954663814111 443.65900171384794248 430.23451470256151197 433.14542257333584985 430.01256786822563072 436.30341135708920319 430.21271637548795752 442.61669692025265022 440.49071357539719429 441.83007785166120129 442.776853192203248 442.81754556974595971 435.75612167766223592 448.68904060734450923 436.87120608437953706 435.79935195688432259 427.88826872757010733 430.28266485821927745 444.51384267255281202 440.03372593747701558 446.46420407150554865 435.4515210664912388 454.44341618548418182 442.0633716059563767 433.28522335302380952 433.54694508977752321 432.09645582226119132 446.13742576528937889 428.0275585493106405 440.8187004182717601 455.47505226051646332 437.55212943036480056 443.950820260070941 426.24823095740322287 433.25573178879909619 415.6424100366968446 437.29422760453826413 442.35803617990137582 433.90429434905257722 442.96195039378392266 435.70763168292228329 436.3337605106202659 439.61374657168983049 436.06191589669856512 435.36415253854238472 438.78684163851261246 442.54381961955238012 441.87682357690641766 446.24878134735399726 438.77490426422161818 434.07260989226790571 437.38941532835252701 440.80560755302923326 437.86812040278016411 439.87117750643108138 437.82773037240770009 425.93066823939005872 427.73924571738490386 428.11923016027031963 433.31396913183078823 443.56207578940347958 441.77737418359072308 444.65571178032973876 429.87844432479505485 438.21263210711543934 435.15944132515159026 451.14805152850988179 429.84646998033321097 432.75989245417440543 431.32302271739081334 441.4799611870819831 441.98256608967096781 443.36618071712473466 444.22292449840222162 437.46836720450318126 423.68821644774146762 432.41795167992034976 443.04254681541749505 435.69963759568679507 441.88586128441153278 455.37175789536536286 447.11986148899501359 448.58095502105737751 426.41325315822103903 432.39989145990182351 445.96000603619592084 433.37262168826089237 436.16442267378619135 443.9682070498390658 428.08094672884283227 440.5807924583549493 431.29179968725838989 444.28734637787414385 438.33413473924036907 434.51705000130107237 443.12934854583386368 447.45629330776165489 445.65626122184329461 428.15425286417553252 431.31167528851545967 425.76733205410607752 447.02594218513996793 435.32608944516596239 430.54498580067001967 438.83976605305355179 434.35061436222872544 433.46475681477272701 433.32742941551902049 437.1534692341367645 433.73069628243592888 420.74943105085554862 430.04011742100499305 427.98997344004982324 446.63168444148050185 432.82650354884435728 441.81670421383080338 434.05702411862620238 430.39382389348219249 433.46642137728139232 442.71965967829555666 436.25519318648917988 433.47427215038698023 443.92960838276576396 434.85015041736187413 430.84950196053756599 453.25958219164198226 446.68459114138596533 440.6194141007071039 435.59123270665469363 434.89200756347804599 434.57799911427076722 427.37005874906816416 449.22842238717453256 434.79411759744095889 433.70525667950386151 438.93596272254075075 433.42423320590813773 433.27086452084591883 445.52746696785379754 448.99771072098889135 439.69170632629885631 435.91047567275523988 433.06108073609709663 432.53415106189396511 441.46596647081537412 442.54532668576894139 444.13789275995918615 433.77219318473942167 448.79295191697286782 436.43521097440554968 449.8442057347856462 427.43543986652082367 424.82626747399137912 436.54227985695933967 437.09611587954412926 448.82574661266187377 440.323066884142861 440.79240470164188537 447.81373856732199101 453.13503379541623417 422.19932866783847203 445.02863678381726231 434.48537351791992478 436.80172018322542726
-125.26663049198457145 -127.01985138197674985 -131.72054188118198681 -138.05675089979561676 -119.87025662747770127 -126.92529499283770633 -129.94993199615308299 -127.52987398830623533 -127.16789542122235446 -125.81428444719588811 -132.85502748048034505 -126.64618138705978367 -126.97040608979547471 -123.14288208766301125 -124.53636505878191088 -140.04015927016493492 -124.23355687146123216 -129.86625767403540976 -133.90452615495649979 -127.0036025179583703 -130.30117267896144995 -129.60910582160775562 -128.6134918766695705 -121.69708624428707822 -117.57908163124392331 -132.87677282898619069 -134.4932828515796075 -135.36814042163518934 -125.21837371846844178 -127.2629359504660016 -127.62894093734161061 -129.35363529704508778 -135.4137343512389009 -133.58339731400138817 -122.85160661352563238 -132.9741262316219661 -130.35356844682465294 -129.63554633884848499 -119.27426331044671315 -125.58767164701501429 -122.35278371327574121 -132.02677389392277973 -132.9957043356779991 -131.3199858285975381 -125.96436250946692326 -134.56570590842557067 -130.71535565555893754 -124.49176715375070046 -132.21369776101028037 -117.88008584004232659 -136.82453355788499039 -122.1215752143193356 -132.62100326211296419 -122.18418122172489859 -116.11638499254223689 -132.18130127423088993 -134.65385552663522617 -126.80638394784145362 -132.66331300330185172 -114.36668358097131204 -127.85617003320628271 -125.63858290022571396 -129.89826940679424183 -123.07063959679652498 -132.68588703733337297 -127.12033834401819377 -131.82361110670251492 -128.50339289492245598 -120.77058191797468112 -132.4077031069778343 -124.82178121792412639 -138.30889171074773003 -134.57399218016450959 -130.83685836891794452 -125.80349220855877945 -124.65035861120654204 -127.03754619270293347 -120.80145549463640009 -124.30734487340521355 -132.08417168863496727 -131.1815045134918023 -123.54994637416785963 -124.99311512206165276 -126.4511914383319322 -121.68002292342605131 -123.90140883096796642 -124.29023573061373042 -120.44004970967796453 -133.86050190016243278 -134.37454724084093982 -134.16462280127177564 -130.49694737798495225 -135.63288190194901972 -124.09316381519647621 -126.08587171324330711 -122.83021919322771964 -131.41229384674932135 -126.29254950319777606 -123.57150847813888106 -137.09858930026740609 -129.95614542743177822 -130.15358678670503423 -123.46815658722104558 -137.11313466750652879 -129.04006653783429215 -137.15608807501584465 -120.03739560713755452 -125.86302931241252168 -137.9861218303026078 -122.54557191491609558 -125.38628779364901789 -123.020181877771833 -121.02178128089634868 -120.0254036151266348 -131.75804594744798237 -123.68719828859019572 -144.69035006773614782 -128.64595532230600838 -128.51385676240789735 -130.49689312409631725 -131.31450113385511713 -131.61099526842221508 -129.1352822390602455 -125.43507867358580654 -132.43384026304829604 -121.81888891753223447 -129.430861441790654 -132.98926249254930099 -123.00081286074498621 -128.49607978683141596 -131.60565667280093294 -123.84531843337677515 -133.07899832792645611 -127.78344334520821235 -121.1350120322114492 -123.56669246570911014 -132.60918742076984245 -139.12098570420306487 -127.39777771928078209 -121.25322061896432047 -134.78013674943815658 -135.55747583267788059 -131.1375411987528139 -129.81367891441456663 -130.3679304381387567 -133.45511897569502935 -118.74771931482726472 -128.04697243744496404 -130.29812909770333818 -128.95960807956384997 -126.0310484226827441 -133.2836654322032075 -133.06551734173584123 -118.54566953865959533 -133.13845721750342932 -125.6179430300730786 -128.95694405504693236 -136.87029433001345069 -125.23976229960291562 -130.2659049325486933 -130.52661405827029739 -127.60286470532437875 -117.81477761285296424 -134.40673289543417468 -132.90041861610507112 -129.59011199706739603 -125.07595042112060924 -124.1989853299319293 -124.45442896962602219 -139.37827401437633057 -125.21180760460526926 -134.81075810230422007 -137.60134104700631497 -124.38796388102342405 -128.35755566483751977 -122.95502269934583239 -131.13359407358814224 -135.19616001275971939 -130.18832840782565086 -123.8156537029587696 -131.90254917092141795 -124.39803743216225485 -122.03197898896257811 -125.34820927126303047 -126.48686632522769457 -126.86471920303880268 -124.8164349385227041 -137.39433348871065732 -124.14051046279564616 -128.26069601999282099 -127.01735114918596992 -125.73795095779550479 -121.65732660946207488 -131.6990553002944182 -116.25954355896848824 -122.6929869708378078 -125.60011222674754094 -122.96716630682453797 -132.33442286323105463 -130.77143404712430197 -128.70986983370769963 -133.09693645181789634 -128.25350706042107163 -123.71154293141856328 -126.41445116593195053 -120.88613197373369701 -126.18595587386280954 -127.97157289130612412 -122.15143049340716175 -123.46838298504673048 -131.76189975057513948 -134.39283173861491605 -121.80564663940504033 -129.08528805566254505 -135.60380193261778459 -121.47648009288826643 -136.36178997033738369 -120.22112384239203209 -115.89107678908243315 -124.28831299427056933 -134.2970651278128571 -124.87753461111087461 -119.34899932463680727 -133.06553961353563409 -124.92683109479146708 -129.08921946674789183 -118.52553618744826736 -117.27998149629901548 -123.73657446677341909 -120.11167057547011439 -130.7455028460593951 -128.38756240053800184 -128.72286879503676005 -115.47756777714420195 -132.60242788138126002 -130.0241710014873604 -125.49444024759284844 -128.23994625193907382 -123.38666936574979616 -134.02112937271996884 -136.61170630290018835 -130.49800508019851009 -125.30564234531208001 -129.26299913209840042 -130.9244674855330004 -135.01501421660566393 -126.63988237331000164 -125.72670338485819741 -133.80058593581978243 -122.57985234479629355 -135.81074117256630984 -138.03606433874179515 -126.52265583324852116 -130.55191833704370197 -132.52231555619110281 -133.30404900047875572 -133.18000991951541323 -129.78552883679802221 -123.77468075527986002 -125.57839152320806875 -122.60156555001202605 -118.78091575818609726 -138.85353721096760182 -134.9979091594188958 -129.35675403285415541 -119.19406167030913934 -120.98299989279986733 -132.08696608701413311 -139.51012570167378612 -122.84897507066962419 -130.14066977020934246 -133.01961023558214947 -126.81055451390432154 -123.0235543125434674 -138.17808003823679996 -134.11318514005120051 -127.95755775351685202 -125.00729484369661293 -129.96824558944260275 -132.08060514183901546 -119.41697193432730728 -133.50730420866659642 -130.80955586604457608 -132.79603217635280998 -140.6251623677542284 -133.65384957098336827 -122.60280306246417581 -118.32082454224257617 -132.2326945392855464 -135.63362978973404438 -131.47160853307698858 -134.5487908650965494 -117.1803682744672841 -129.22039062489520234 -140.5372303258326383 -122.90846515165196706 -124.72276919540259144 -120.54655947693098028 -120.00054877271139731 -126.93066225803158886 -127.33866612413176256 -120.4928831023615885 -128.24233767105999959 -125.18076000315491569 -129.12140815627145685 -125.94523166060523067 -136.10647905962701998 -132.06576949980029667 -130.83894542371143643 -127.12088890586841217 -135.57612357812740811 -128.03698287754201601 -122.77917338697908178 -125.60330318274807837 -129.41547436858655828 -116.63609434787883856 -132.9391188523464109 -133.58967001697732258 -115.19231095425223543 -128.78306186683326473 -128.76044787158585336 -133.45035608479020084 -123.68495596873601983 -124.67866246813363773 -128.36508879145185347 -125.08732997828609257 -126.01839600523884144 -124.01956624381067229 -132.20190721809564138 -123.33801707845989881 -129.88836275342163162 -136.5592719374785986 -131.64389460145739008 -130.45717878395018374 -134.64505219103617151 -126.14190087993048905 -129.45596055584269379 -133.20532734915263973 -135.58334251806471116 -129.69394925196584722 -125.41466867591914536 -134.16846298896010126 -125.20420275851876113 -134.01504346690032321 -118.975334783089707 -133.83671098537732291 -125.0217987142190168 -121.35916042753778754 -133.50297157607647591 -121.03978762057001006 -126.18815370025409095 -114.77414152749022946 -134.45091608951392459 -136.17352634321204619 -127.30432299973286092 -120.27237869514411273 -118.37224108723617633 -122.40616856439801552 -132.75632309195296443 -131.4877759843306535 -123.78062439535008821 -128.53666692532095794 -125.72139372368346244 -130.06654476211647875 -128.57709874446669573 -133.41468581511554703 -124.65954121410184996 -129.5647502614801283 -133.09286623163831109 -121.50921209116953037 -125.53458328552791556 -128.20292879036693989 -122.34588239895131778 -129.66426172034402953 -137.17304211825322113
-1334.9630710969361189 -1306.1868793960879884 -1333.5653419095251593 -1306.6849777266911588 -1329.7880039710519213 -1332.2387664433774717 -1329.1356135489911594 -1330.1374760804678772 -1320.0146809066716287 -1312.7529658157232006 -1325.2653733547372212 -1292.7478684813643213 -1338.388547717763231 -1325.0939086034481988 -1313.4704708642734658 -1312.2362792381404688 -1308.6559682822171453 -1287.8059035243243216 -1320.6257659625432552 -1301.3287050829749205 -1325.2452496163273281 -1334.259236078018148 -1331.1062493966196598 -1319.0461848062791432 -1291.4344011531788965 -1298.9252755092522875 -1318.3544605954534745 -1346.7214451070944961 -1342.0086690852742777 -1326.1392375282459852 -1308.3108457520640968 -1326.8920666701269511 -1321.8581176334453176 -1305.027212334638989 -1322.4218342048468458 -1288.5929897752173474 -1307.0803659990324377 -1347.5273369229605578 -1348.7178009386686881 -1343.6647490692073461 -1311.3537794144051531 -1312.9000868696930411 -1326.3810574864958198 -1301.2746668212773784 -1328.3762758815328198 -1337.0434263132162869 -1313.3014848365999114 -1317.333813130400813 -1337.2105609450657084 -1312.6330507285213116 -1298.684325177188839 -1315.2173430817983899 -1338.8228279848219699 -1315.261259381586342 -1343.0100257539145332 -1332.2528029785028139 -1328.4219552663414561 -1309.6186254322819877 -1326.1731365990453924 -1321.1338645558159897 -1325.4699028068851021 -1304.3295299080182303 -1317.3885869749265112 -1322.1148682455075232 -1314.7844960907266341 -1342.2020397608539497 -1320.3426477209043242 -1330.6717921149227095 -1322.342897151165289 -1323.775762761556507 -1312.3826757454128256 -1312.2285055969935001 -1315.0962029920356144 -1303.6927153894960156 -1336.4622953079090166 -1325.9084847283420459 -1325.9701245074061262 -1316.846561448936427 -1329.7606619966616108 -1320.4923610382354582 -1326.9127868797122574 -1325.792719026433133 -1340.591412819209836 -1326.2551140743112228 -1315.2788899965421479 -1313.7826357975743576 -1316.2221217867177074 -1335.9428901600463178 -1317.6406863543634245 -1339.2977074870755132 -1301.0072484563825128 -1333.1095455963725271 -1324.8188770784017834 -1307.6538505929636358 -1322.9323885889516532 -1308.123299539050322 -1308.1355770478814975 -1318.9300413499768183 -1314.7496783949072778 -1308.822313548390639 -1350.2912339679310207 -1327.9082977594800923 -1326.8795933857245473 -1316.5638845901250988 -1315.7678429348895861 -1326.5607954303459337 -1323.2860668828279813 -1327.1447820154901365 -1333.3207508201005567 -1321.7283506119283629 -1328.8162915228556358 -1325.9356839849690459 -1324.5186932123062888 -1318.5209228892183546 -1312.4651425738163653 -1309.6409150622316702 -1302.3198994205702093 -1331.879657558965846 -1301.1523968871258603 -1326.4143175691935994 -1328.5058349239811832 -1318.8510614127617373 -1317.270135438819807 -1343.741907932529557 -1325.2412950028715386 -1332.9385822903996086 -1303.3319740086603815 -1340.0785643711103603 -1306.4452859569676093 -1325.1501368328752051 -1312.4427670423146992 -1308.2401281979930445 -1326.3064635100588475 -1318.9611159582020719 -1315.503838530292569 -1336.8956802964360122 -1336.6892811033699218 -1338.3482639266410388 -1332.8397301292204702 -1300.2160900731796573 -1312.7450006422532169 -1307.9800034588895414 -1317.6264616762091464 -1324.9578547245532718 -1314.8792831175203446 -1306.9403974821636893 -1307.8583686896754443 -1321.8777710273704997 -1321.6578646724569808 -1332.1222886213529364 -1307.5934116809803527 -1306.2868333940366483 -1275.4424058958441037 -1309.218087737413498 -1324.0242078738967848 -1301.9358801699629566 -1334.1694184127268272 -1312.0969579167967822 -1295.8041810599620476 -1312.5160239368233306 -1318.9645955076382506 -1345.5435982330304796 -1332.6255777515157206 -1325.8665857053740638 -1335.6898417289255576 -1326.5169885450025049 -1318.2941489527906924 -1321.4830569268269755 -1302.9227300238731004 -1334.099328947017284 -1301.1383210769085963 -1330.1099575522864598 -1351.8099883817262707 -1303.6316510967510567 -1328.0387716189179628 -1338.6325961683967307 -1339.7116896832135353 -1328.6549207499451768 -1333.3509033960751822 -1311.8764674510416626 -1311.2453551842017987 -1325.3923640088273714 -1315.9820739882693488 -1330.205679596369464 -1314.1319124432266108 -1309.8011723109930244 -1347.1591453718472167 -1337.8056254069747411 -1319.9068331632088302 -1311.3414422434505013 -1330.3687141837112904 -1332.1863991349860044 -1317.7385137481091988 -1320.5329796532462296 -1305.0036529972708195 -1324.4600780589519218 -1323.271285556872499 -1307.8047636417918511 -1329.8699646228587881 -1320.1677896904661793 -1310.3131113672504853 -1328.3930859554809558 -1300.753815186929387 -1340.6284750898971652 -1339.6192102386332863 -1307.7106003530184353 -1293.9016095198055609 -1327.680160078401741 -1300.6780173500521869 -1322.9189191975256108 -1315.1331018116788982 -1322.0219677350669372 -1325.5624781273131703 -1320.6134444311267089 -1316.0832076270651214 -1324.8319539319675187 -1320.1668591461714186 -1322.2381107587748374 -1342.1116992358765856 -1327.3089646312673722 -1309.3358966535934087 -1323.6882456285507033 -1319.424275204404239 -1304.2114244669060099 -1315.8026158540351389 -1322.226820644384361 -1332.6714023260617523 -1322.709216120992096 -1280.7910660925240336 -1315.7830942257462539 -1328.4447590029178627 -1314.3918326200164302 -1313.2523953551881277 -1296.1513069968516447 -1287.6142099716405482 -1282.3386073929914346 -1310.0702317897118974 -1314.863730109392236 -1314.4800594016419382 -1307.3699603994693916 -1319.3596720294269744 -1302.2938093306227074 -1302.9604674498593795 -1326.4535061125766333 -1306.1083296405520286 -1300.6446383852012332 -1331.9553012590072285 -1338.3003127538072476 -1291.7218670223237496 -1297.0657351247389215 -1304.2470231560400862 -1311.7794369223918238 -1314.2982742576152759 -1325.3875637952448869 -1305.1677117850215382 -1307.732724635386603 -1310.3129252351136529 -1340.7096727611606184 -1307.5287179666206612 -1309.9959073239849658 -1317.8617730183075309 -1311.1904162930959501 -1334.970083013954536 -1298.3580801127727682 -1327.9718518415536437 -1349.0882305993077352 -1324.9623413543502011 -1312.4151674429690502 -1291.4057946835810071 -1342.138475105082307 -1316.894438698542217 -1345.9972718331623582 -1322.5960249181666768 -1306.8078786667690565 -1306.3223500515414344 -1319.8942185354462708 -1330.588440308788222 -1321.6274248361305581 -1341.3590805804151387 -1324.8869245703358501 -1299.2007737131434624 -1322.6475661456629496 -1295.5243154793429312 -1315.8016232268837484 -1319.2820925865255504 -1324.0728303789258007 -1332.7884986573133119 -1310.529843335000578 -1328.9319696384091003 -1303.4725578662100816 -1321.8050160697839601 -1319.9349231326889367 -1325.0964429938280773 -1324.4391805458285489 -1303.944433131594451 -1322.5778341393831852 -1329.4036698373238323 -1325.3862055014535599 -1306.8513059272254395 -1319.3577857667351054 -1332.5015981250830919 -1337.3966692800024703 -1328.0917714549616448 -1328.0667021851452319 -1332.6714409674073067 -1319.2962451428393251 -1312.9072462170465769 -1332.3847245040428788 -1328.0345159949981735 -1298.9434750606178568 -1315.4476534641673879 -1318.859124569811911 -1308.3013858927770343 -1314.1757293529085473 -1325.7259885799978747 -1320.752066562887876 -1321.8828010319209625 -1318.8585568430412422 -1325.7748400236641828 -1325.3451733291101391 -1335.0954787688990564 -1317.4794925333887932 -1303.1364524182540663 -1309.3702605917428627 -1327.1324187293787418 -1315.6345267903866443 -1328.7852751603081742 -1323.2107548749629586 -1311.2380294258659887 -1356.5471814194913804 -1309.3513048211498244 -1319.7022238295096486 -1309.6090476930598925 -1331.2846087715167869 -1322.6424770745645674 -1330.2483431709081287 -1323.8463016121386318 -1298.4245644556517618 -1306.8821164889352531 -1337.2493464413996662 -1344.0436755590205848 -1350.4935526733711413 -1342.607250446494163 -1334.9558097322667436 -1323.0316645427458297 -1315.9529215420866421 -1320.7519048738622587 -1310.7571777085286158 -1317.2326596504876761 -1336.795159522255517 -1310.5147412344299482 -1312.280688632763713 -1296.74215598138926 -1335.7618318593806634 -1296.8023820297969451 -1327.0772180013107118 -1309.2025944645986328 -1315.760468220911207 -1316.9956513599195205 -1307.6014683828923353 -1334.9038151124177602 -1322.0699280729247675 -1330.8537191217253621 -1322.2685307233812182 -1319.3210139488714958 -1313.5026502235646149 -1319.3774854229113771 -1295.9129286418437914 -1290.0319705990384591 -1312.4657000498348225 -1329.7115704420662041 -1323.7689978982909906 -1335.5849901777421564 -1335.4348931475631161 -1297.8412180893474215