-314.87123994010630668 -320.50220758584413261 -322.73382620628893847 -312.89526131106447338 -326.73820514142443017 -317.78842464594868034 -326.41421725345929872 -328.46662902422434627 -330.14170479774531941 -314.94792268475180208 -321.92486887036602639 -329.45697076731300967 -330.37525497215676751 -324.59929212990635961 -325.44794468249938291 -332.39364762578918544 -330.08189231044366352 -318.43274687157315839 -312.07887947452798016 -330.1275175184116506 -331.24752675178228856 -327.10722822065037008 -324.12954640955081231 -329.60865852891265604 -316.47122308023614323 -327.98627578644993719 -328.3861299391971329 -323.70448876187612086 -332.20085796696150737 -328.92383110838500215 -322.93324808783910385 -321.97817425466860186 -331.41100467869307522 -326.18135357277338926 -333.35251977358996101 -309.98961163762123761 -328.86901633322469252 -317.39519517221737033 -319.32537356303214438 -321.0092736555473607 -315.77136438893825243 -308.86630734621104466 -318.32935336045466101 -316.86299174885408547 -324.98434571206769306 -325.57616258843455626 -326.1062520177076749 -334.09054489170006264 -318.0449861614865199 -333.75043114226338048 -324.27990806233430021 -315.47488090627643942 -325.97162762238451705 -334.24628069045991197 -326.06828892452489299 -327.79085355811287172 -329.59337264082228103 -333.01969357751931966 -322.13214740312014328 -325.9300507372664697 -323.26611660897026468 -320.50487512304266602 -329.88403813138711484 -325.32242238199381745 -342.79924361752699724 -326.9640404343647333 -331.14225193885596354 -333.74987673874619531 -317.8608172814716113 -314.10845224655645325 -326.44893516848105719 -321.46816020953326642 -328.98066064555507637 -319.34132175986246693 -317.93765326479297073 -325.03264038985054185 -326.43743277504358957 -323.14016681983576973 -322.1632832209097046 -325.20375834909754076 -330.22313835558554729 -313.03486529782333037 -329.81152567595853498 -327.58283007943788334 -329.88416159718866538 -324.93553764843096587 -324.32031951273279446 -333.48909242790517737 -322.72281376055667579 -318.04879542134648318 -319.88311403801503729 -333.18503362008920021 -322.38317262533763596 -330.64599513142803744 -332.48407087570495833 -316.23598027345752826 -342.54875910025771191 -325.70426132132519115 -326.26789025364143981 -324.70966491058698011 -326.47132607642129187 -319.72740739311444713 -339.04780268551968447 -334.86208103624227306 -322.49408064088015635 -319.56703853141590344 -320.25713345610699889 -329.3579578176669429 -315.26812061945912546 -321.64535377087821644 -340.74555122666765783 -329.48622783268689318 -322.25111944526298657 -315.94807470217472201 -329.96460142113033953 -320.21728996157003166 -322.62032058714248706 -319.74553498612669955 -339.30063406580194396 -332.15308681386687795 -332.05322466219394073 -319.96586737097624109 -339.0229717132949645 -340.13920014766102895 -338.35995053852985848 -314.85627474943203197 -331.9754603685249208 -328.65399734593415815 -314.08516935715624641 -314.46597859582038836 -340.23946480313549046 -331.93068719219297691 -324.67701245394101761 -322.14529980641577822 -342.85455010475567406 -329.50974102685182743 -322.07829751048086564 -336.31473563146187189 -327.98329544122367452 -338.14662302991314391 -335.74971075274868326 -324.05538399452228759 -323.29461679716172284 -327.71313549486330885 -323.08706758046179175 -326.84185922600329377 -318.80001671077241099 -322.4947669977036071 -333.5638852037315587 -319.70106713815596322 -314.88887428905172783 -330.28788661060411869 -318.96348394421966077 -320.81159913336091449 -324.81765899513800377 -329.57417539165965081 -324.25107028374128504 -321.45429640563173734 -330.78565703144153076 -329.40168996163708925 -320.02826188008873487 -323.77912708680196374 -325.64743476215699047 -321.43224765395922304 -326.77860077237704672 -318.7774388033092805 -335.31555818821510684 -312.81409894876736644 -328.42617926610074619 -329.90840575990222305 -324.33826447688420558 -334.36356192181267488 -334.16585410024674729 -326.0896772377248567 -329.60475980114028971 -316.3694231411692499 -323.1033188585936955 -327.14937619499551147 -318.79127008157638556 -333.41736382804464256 -333.18973516069974039 -330.42528961577403379 -322.0000684575802552 -323.51222668710460084 -325.77217909936632623 -319.33390461804827964 -324.50424030498010097 -325.80356635299688151 -318.67119833770453852 -313.80672184685784032 -334.12753512822655466 -328.96852190970230367 -318.24553875175757867 -330.31918202910259197 -311.84146226077024266 -337.85622191812717574 -326.83296217634142522 -319.31852915266080117 -331.42290087404660426 -328.17691850204073489 -328.06753510460981715 -318.63395922335899968 -322.62512228361708821 -317.24033032167034207 -321.94448491230258469 -335.75282309236564515 -326.93628118124075854 -327.50776684218175205 -318.88265365749759894 -315.73248706837262034 -312.60907995087649169 -317.35939232909015573 -324.63619979770101054 -326.10203512773369994 -329.19283703743121805 -324.35629764026202793 -311.44427601732553512 -332.41737463562117227 -318.56069662844998902 -327.82869857054208751 -325.12739535745549802 -320.12616339959487277 -328.37200143809110386 -322.49959053030681844 -318.38543599996711464 -328.95645666651796546 -315.67215912499091246 -328.57623996463314597 -322.78360077937986716 -333.46406630590718123 -317.34900302451649168 -323.55235041917524086 -328.91951708360096518 -318.47810816037332415 -322.85086579865395606 -319.56529741152451152 -329.62028706669036637 -323.04006466576862522 -325.73092651558636135 -322.74575963340834051 -318.741508960206545 -332.08446661605029249 -319.00596305854759294 -313.47142678468776467 -323.33453983043398239 -326.17097305086917913 -324.49904774737649404 -326.71402973435118611 -309.3702860719184855 -331.50211605932247494 -317.57937641186020983 -323.64472278016592099 -329.72245730814785247 -319.59295708154542126 -330.69085640909975154 -332.79881671949510746 -317.19091252235102729 -330.31773050228269994 -321.14623270237831321 -323.18876857040845607 -317.04814961264327167 -312.07672805366820512 -328.6152677953933221 -325.6746108950294456 -318.77367282588033959 -316.13433523872970454 -321.46576520496091689 -311.57460235809764981 -318.65316525706805351 -323.09881835749769152 -325.97762163077072728 -332.49788285322927095 -308.22679102721099298 -323.85714268751087275 -326.50484943055352005 -331.92462710254721969 -335.01177162378763796 -329.40293042620032793 -313.29990650759197024 -326.58286228877113899 -326.45903028092368459 -323.7483283417683424 -325.70791003385494378 -313.98058872623090565 -332.06135826354392293 -329.30947788528749243 -332.47155122369764513 -319.6386608019988671 -324.80912453733071743 -322.41175144985447787 -321.56144639051893819 -325.12627470434983934 -326.93358210506829664 -323.98272513009953855 -313.02866892847220015 -329.17523270425050441 -318.52067736524287511 -332.43129321212398963 -321.95300726918992495 -321.20429283915865426
-33.667410307042779039 -29.246704391758292729 -28.345504125449934918 -21.763135480806571564 -27.697610618326081067 -20.819359967014793966 -22.168477999244188936 -28.705978388333196705 -26.623094382466284458 -33.167748337787017476 -26.720539899558069408 -22.752910086857070837 -23.799962559541874896 -19.463796159953645315 -26.497381611889920805 -26.775278903835431521 -30.408718161944140235 -24.690133221410135889 -23.983175691792148143 -24.823857088519446279 -28.809331529240886027 -19.619929615927617306 -30.812155381973948209 -16.877944996369901531 -22.354610010340024928 -28.287595251522624551 -32.87255808368998089 -19.37411609430690973 -33.596646762108584028 -34.704849140470386715 -25.185518530398020687 -28.504827748515875641 -18.361080477308853176 -30.679522300691537851 -33.438535526703034861 -28.488167901761165979 -31.165722123348913897 -30.398991239009223619 -24.39521597433251543 -17.472650397181809012 -30.094137506746008626 -28.702165172385569747 -32.371689387914997837 -26.446565262811141395 -33.323790995187685837 -35.547002724497538395 -22.746133943531670951 -25.423294443451887048 -25.637904263767616442 -30.344953746201031919 -19.003191301481180631 -18.310423218162377168 -23.002585038089165437 -31.349117403425040607 -31.46801359609012394 -29.477910332208054456 -34.687237138902794698 -25.068576288483424008 -30.225320184724587591 -25.835469957986987311 -23.593489107497504165 -37.657142890325545181 -28.731931686059233755 -29.978472238195351451 -19.170369790660558351 -30.284395227729188349 -26.072534505234944646 -27.991407920700478229 -24.48292695413558917 -24.503565610432410438 -21.900295985585135128 -27.943836680444608334 -28.700068425313201459 -24.635954826187635547 -27.506566001253418108 -23.002690714199154343 -32.934213982236180129 -25.362043795510125221 -32.300619242960891597 -22.151486681540802692 -25.413254343653765233 -24.15882586654768005 -23.128936460222938365 -25.233576336445693755 -25.459610019463362107 -20.968455444298008672 -28.715529231988067949 -28.250516445647257058 -27.897305615617145946 -24.459923130558550497 -33.963922553049698649 -30.718895549428449243 -29.635710804216007119 -21.675971886826200574 -23.114524999217184842 -31.168068465534002343 -28.621057752272882624 -26.579816148435472911 -19.515959506640946586 -27.938950056344417305 -30.525816050004870306 -21.819230766871434923 -24.178997105213490215 -16.622723067645001294 -30.436393111578730952 -25.600187556971825131 -22.978320832638669202 -26.475156645098582686 -28.568320917844836515 -20.32407141099247383 -34.981058902814709199 -27.085597469823667893 -21.814175358895198542 -21.947238986415626982 -29.426943537578807764 -28.601185085047980294 -21.907042870281564717 -25.827720871566924643 -23.987587092756751161 -23.668752286649215932 -28.145363336379784158 -24.685102449818753456 -27.322385987778094574 -22.512696844379874506 -24.364483450032469847 -29.823365574753857743 -27.574267885935388023 -25.536738793546348347 -24.880666013162894501 -28.966503988217784382 -25.343958769439204559 -20.207216160127060789 -30.2147647406462454 -25.494821197676092339 -24.762339082823050518 -27.451574883841082908 -31.060825492490803157 -16.887685398942764436 -31.313556286071296597 -25.793059688249815764 -30.525282144066380852 -34.400017608811850778 -38.922210446936254868 -18.949528580358276031 -21.992899697780980972 -22.737090519442560321 -32.915508069327096052 -27.13615647781845297 -21.290439598753536643 -35.396825188932950823 -27.924535146221984405 -20.667126060503832718 -27.376532218658120144 -22.817110166130845528 -23.900713302550823158 -19.676007793233978305 -23.294794335972277111 -18.988911333713893725 -30.867056721568914668 -27.595703570893618917 -34.370269222411899079 -34.443641767088500671 -27.281632012447250446 -24.341802047108707541 -22.388305329306927405 -23.79305952448935102 -28.534237673566266835 -25.47397514701344079 -32.07583756494638294 -21.295095218920636171 -28.611674796639455565 -26.747347692779918304 -21.712871362548206378 -29.722261370233550082 -31.601882841094770527 -25.343036540931624501 -22.274805029171002246 -24.787471319677422343 -21.525797721656957151 -23.674786507622087584 -24.085874164769478512 -35.016339152751612573 -24.880742705128568559 -22.398212592818914857 -20.167987740950877651 -24.794259358652471548 -24.302392467376225937 -23.235500717329600207 -24.081842676494961353 -32.264319684975383495 -26.846904358613137731 -33.84942231879161767 -23.071446745410884915 -29.033621652108962508 -27.427986324882919433 -24.947251126439759616 -22.492394006800182638 -23.506660187876313728 -24.433980576212405822 -30.511178995506028855 -31.265684596391920991 -26.279778471719755117 -23.460760506108389478 -23.699067570866141352 -29.947625252488130343 -34.792981768727941017 -20.630884434005981376 -30.986660541011975312 -21.584510278258871807 -26.493474220337965619 -22.479699390056129715 -31.994535814765448833 -20.412559143915920856 -22.601735311201210266 -32.81680485826402105 -28.916908502414457871 -26.761285414118972881 -25.577110213404889549 -25.800147231062645403 -25.84060634086037922 -30.302564774419632698 -22.519606217353121735 -26.850154760748608851 -28.989138089335487081 -26.083142713700514292 -18.172273888798777364 -19.325719425616195934 -28.541373162115689865 -28.130429769927602024 -26.21289720659653355 -22.560445380111737279 -26.503182621007859154 -27.006792199284134881 -30.354038885766911449 -22.949891266739854245 -21.307433404347115413 -32.626986847346920229 -23.498262625017815708 -21.413487958044555626 -23.974451629428479293 -21.406770200991040554 -26.911823523279132075 -27.933447986364249971 -23.034962720527857982 -26.946346220966482576 -23.429980766851457474 -27.690355112004532145 -21.286814641889346689 -30.356431237395931078 -22.936834758347124819 -23.308412655029439264 -26.499379419051660278 -23.781240193487864332 -25.844120478983473532 -25.843590836039897596 -23.490675245660959547 -24.532236298527607232 -22.993901698874751105 -31.216613527056878752 -20.315252454072894039 -27.476061519944064315 -31.34166323262168774 -30.108666946642170359 -30.09689049050262355 -20.7439050787302115 -26.047281289433755092 -24.413956425457609356 -28.245948976003308672 -30.348572260035965087 -27.647419779850764598 -27.329740026296086342 -34.13180852700082113 -25.306841602915014278 -28.381691773327862194 -22.656546704306450124 -34.453931861583889429 -24.480702665146356622 -22.639262325643436213 -28.076537843593804666 -26.74151496178114229 -17.853422454932285746 -23.807101270365784274 -37.66337407449715613 -28.876332884990979721 -25.305376104236255941 -23.048160183062879725 -23.260415881357424439 -25.400309827217203207 -25.118657872321193736 -26.657771634510488923 -28.861780523788066688 -19.844054945591683037 -35.349889315442212023 -28.147349258723821208 -25.849878406218763871 -30.117563454350314345 -28.01119970440133855 -28.665950011555874966 -22.933249250793810603 -30.839738484143605746
251.64245303330454817 255.65918262736857969 257.03125836333492771 271.5249402523675144 266.94631159278219457 261.21413739282149891 274.73171881737675903 255.75393306114608549 263.94288118205258797 261.4107987071347452 248.17153263709499811 261.52956766481224804 255.55507641756295811 266.20812585067022837 255.24403650084363449 245.12343052878327399 257.27900220806191101 280.17790953524627184 252.57403899578281425 264.84035277390086094 258.52624074149571243 262.13954189434792852 254.43365062462731885 249.91049808969515311 250.12821005790132745 259.40693382640972686 267.05167629700059706 264.7394380143316539 249.88470714276468243 278.93784091006165227 272.0272657981760176 272.49588057015370168 270.50214231073528026 266.88422787012672188 262.37164954265989536 275.77485199382562087 267.1638111462363554 259.59402551644438972 247.42130016759907107 255.60871481282038076 255.44864213941926323 254.1377868406076459 271.98612297123986536 266.64266205098374485 257.67535636664041476 252.04455933402465462 265.83111165836635337 267.03931611417095837 253.03959294441438033 255.77513091975617954 249.29072758692745992 257.32817591513975231 265.50212622831509179 249.83499765628798173 263.11672554296308135 264.14992279867067282 264.91281897247966981 260.10150607578304971 268.32497306080279031 269.20241892056401412 268.70202036155177439 268.61044286515294743 261.3390946442308973 264.9831921399145358 261.61317690432542804 262.11955835088207323 271.20130359452895163 260.02984682354002643 263.02958209892159402 256.60764894716299978 265.80010569073323268 260.52856462558077055 260.13672086539355632 263.51623940377095323 256.20918807044290588 274.47734929277959282 241.19793612942899586 257.65534833892667166 259.77966974098660558 250.09725895429349407 255.60365855785045142 252.81100805537454335 254.07484317349022263 265.6124420646868316 259.84576125025949977 266.50044892170114963 259.21557794224025884 262.76891460602729467 260.89733211051731132 261.45122239633826666 254.53338954532264893 251.66791030564695575 257.32052372473640389 258.17389865428430085 255.64845990664815645 259.50941280082935236 255.69902199351852801 263.57022255891638451 252.61785911062023047 264.21289880836320663 263.06383101360489718 259.71812194938138418 263.09555364474164207 269.95732335956654424 260.8498311165483301 266.81983577423835641 270.60206003100944372 247.62522354721440365 253.07506126104073019 255.35246635336091003 266.14487745270810137 252.90283840869327037 258.50293880721977757 250.64161016831386064 272.91789064840884294 259.44297819121504745 260.88604044386738678 267.2497114070561679 255.61240454392660126 247.73566962366521693 255.58644297675252233 256.62239382636516893 269.83383506191370316 263.02550181452107836 246.4299647978054395 252.46987711624950634 267.66073151190437329 256.56233853192321703 263.11863140149341689 252.78040897982847923 259.02038690724117487 249.7337943472860502 258.77145118425909232 258.93026831192042891 252.14306007814423083 259.38839376422129135 250.06412613084802388 269.78980571451569404 263.14672757938666336 278.02294664395617474 272.97101451094033564 253.09582846781538024 259.3730352220320583 262.93740782152167412 258.67627516696364864 245.82576186021583453 272.78461541979828553 270.02220654568702685 255.77414247412303894 260.74431242790927854 249.92925285592238538 262.04989958588231502 267.01266146767130749 262.23757694216544678 280.83435703870856059 268.29877931203270691 271.05979606257614023 250.35036940975891184 249.21096747775547442 264.84679416500938487 267.42046341283872835 254.80798402869382357 258.64528255799359613 259.81811878701046226 253.15103228066840302 251.90599614923871741 258.59985945860790935 247.96601121379885058 249.38842977025109349 262.52137742490117489 250.24954561221031213 277.32531804189318336 273.23716039382969711 277.21563382820653487 249.13057284669508817 253.50670487574262779 237.83961233947511005 256.71753463049299171 254.58921520788493353 254.76027829000236125 258.93478493171113541 261.85623770301236846 276.86840486195046651 257.59930250256371664 267.07636183353787374 269.02081812684446049 251.07032050971639592 261.02473704856089398 274.28485196350163733 269.01868259638922609 270.28857747864935845 251.88091704088620304 263.79610628479377965 255.64394861689797267 274.88922090167596934 273.22156681021772329 256.29579938912968373 262.80376254334362329 260.20486843475333671 270.31135302132810239 263.44883666945156619 252.29448300659447568 269.80298382986063643 264.51586034915476375 253.58113903576256121 260.36586861892749312 248.18497269918248094 255.35171240936173831 245.87261983079409333 259.66144554925472221 259.59287598126724106 261.07540768863532321 262.29751303347467228 259.11005849659773048 274.36697187024475397 264.18737093892428902 253.91578750674131015 260.0578908769972486 259.11086027192726533 240.55706357002603113 253.69905617043022517 264.77882757013253467 258.80585343462001902 270.27065328910128983 267.20807544058015992 259.4211541130958949 254.73622318074575333 267.23024908782446118 246.7031498793955393 241.96871581114424998 255.82463897586612234 267.97971939359291582 273.0311144202566993 256.98229555273974256 256.80688513808217976 262.50191878728549 265.42770882443204528 267.96252574842867489 256.40380551870202908 273.97119078478226584 253.06893657468350511 283.75600702647261642 252.7562043332910946 264.02681460719242068 266.77863031623269308 256.56798836342375125 264.43953789056348569 262.73216757352008699 280.8006809079832351 249.17693024169670934 261.45603714885282898 277.79853133934864218 253.60272341303715393 264.55965644065992137 266.8686861563425623 265.70725094422675738 248.59220451504305061 269.73230225722795694 267.70756373169842846 259.86842712147910106 263.45607011040044654 256.26296301427720437 267.99750091696603249 261.5729672303561415 274.78078981431985994 243.05237189407890241 250.16354181474190455 259.16329155012255114 264.25857594973263076 260.97478207695331776 245.51835916912261837 252.73760661784027093 259.65294807446923642 259.13773552917189136 259.16485448790660939 270.60215333350936362 255.64824704150314005 246.52308269665186913 262.03483164973238217 274.15665927814507086 283.7070852628008879 260.13694145283398029 261.2841946712331378 251.61790647352341921 269.03667699358254595 269.17386634932148581 242.99891975484473505 266.68798399460706605 265.58611903345649807 257.7444344313675515 254.22254064480412694 253.67465320415561791 254.06916508320344406 258.74669487940940371 266.03742535735460706 251.80093488068166607 261.67213917506796861 271.6613166784784994 266.50756764747859506 247.98941653408135721
-376.8524553841962188 -381.48382402744550745 -373.27344611933170881 -375.54020824777063581 -379.67289662808275352 -373.38141590195556319 -372.06077184139007841 -367.43417638776639933 -370.60373152513744799 -379.27202860667125606 -388.6875711109362328 -375.85569837662740156 -380.90227619305187545 -380.43118910672620814 -388.93710534890664121 -386.05140311241871132 -377.36812721451974539 -375.7496933579409415 -382.16660905779923496 -384.56650360023530766 -385.07333392444741094 -387.17163908720709742 -389.05742770441872835 -377.87827498845751961 -381.47560989385152652 -382.35394012435602917 -381.47095923622595137 -380.82755513959261862 -381.12420721828834758 -384.71189875818458859 -371.09015893248169959 -384.5769309258335511 -377.5445211712851119 -370.43365580835131823 -375.60548927396291674 -372.14949533898709433 -377.49622429483360975 -377.86139792815203009 -374.00497226823256369 -381.71650164914859715 -378.02329760658767555 -386.66396822721821991 -375.81345802912926501 -378.55792928522464535 -383.95129914025847029 -370.08321483926323481 -381.57012851039849011 -384.9181913224859386 -378.14934279055529487 -372.72045071837169417 -378.5537412426194237 -385.8610747179561713 -373.95875076847755736 -392.21686460032373134 -373.97450642655155661 -377.89696995970751914 -386.27654917478434982 -357.70055833182397009 -379.60227121002435524 -390.10890497363322993 -378.31184707058093863 -364.32070603661446739 -390.16745375422681263 -393.49774300131844029 -369.5997225839322482 -382.21975068973887346 -378.5528190569394269 -371.52338862083689719 -378.11869601380539052 -370.40673036314314004 -375.06047593854532352 -396.47690079892066706 -383.13574501438466768 -382.1206534655667042 -369.70852251486724072 -380.27076374950502213 -392.94247003203270197 -383.35658556633131866 -367.33345485791681995 -372.2218298043659388 -371.56701661953036364 -379.20839600897852506 -378.73755750175303092 -380.54471705202166731 -378.19167731209859085 -385.513050287693261 -379.82654302042669769 -384.67911988316171801 -368.45859979833232956 -381.87242500077127261 -387.29843244960733273 -379.51164162191224705 -377.8681421768931159 -394.28324878315322621 -377.2020024545997785 -376.33351201871533931 -382.97699057975580672 -388.64851445252674011 -384.60390158860610654 -370.72624569814945517 -386.33329053583270252 -380.15371232867511253 -380.6358063318508016 -374.1006501905208097 -378.31362868319547488 -380.68910004143225478 -378.23618469690165966 -373.6609417245352347 -374.45425817404071722 -380.80759358355203403 -390.18423587725231982 -385.11139899294215638 -372.73683224891050259 -391.64358013309851003 -374.23873311099356442 -381.42887158975628381 -371.25118100707760505 -378.17916269888632996 -382.91927177984257469 -385.90546777728542338 -370.14516294146886821 -375.77789951249906153 -390.82258685352485372 -380.83420103169220283 -387.77789055968349885 -372.86542840001408194 -384.05310793881011477 -382.90274959739025462 -371.97236063481796009 -377.60807686177281539 -381.18138367443935977 -387.74376743659593103 -378.52431078981339851 -389.07440700935870836 -373.99572848649063417 -382.32097378434986013 -377.09949089051394822 -382.49967465454005833 -384.94637723203919677 -373.38345172294515351 -377.43791910742186246 -385.63972061456206575 -376.00224865547693298 -366.72689715493493168 -377.856096542903515 -384.39874933864604145 -389.22224136812832285 -377.16488293358497685 -389.08177335246239181 -377.57969094389477505 -377.25272139451982412 -383.18487220365022949 -382.3419919953473709 -367.47689214322161888 -374.61446432618072322 -378.60104834264183182 -367.33477045664335492 -377.45706872956134248 -373.4850898815485607 -381.16028930077459336 -380.48273706022257556 -379.75884337060693952 -383.2806382107794434 -390.25854477457698977 -386.46432560671746614 -381.72105080302270608 -374.89262478914139365 -378.58905727411746511 -375.03316981340651637 -380.66179341934474678 -379.29546029388774286 -388.48634488711769563 -384.1144415158005927 -382.23896831155860809 -380.82729699344957908 -382.41806543747787828 -374.55866369951633033 -380.77892179682038432 -372.06677345063184248 -364.3853576441707105 -370.14925604631309852 -387.95496586170258979 -370.90946476010628885 -393.38618421443288753 -383.50708315684897798 -385.50815274341249506 -387.3654762524341777 -376.93964700632898257 -399.93805330691731115 -385.87543089452964296 -384.26049468255052943 -396.99263984623297574 -384.61744577302204107 -366.40129731785066269 -370.33579127855142588 -378.12741061677684229 -378.40957751261868225 -383.00806871408821053 -376.7438304643999345 -380.38862332002929634 -381.90617225263304135 -384.22940138895091877 -376.02503740475231098 -378.32563072271454985 -373.83825852616001839 -388.34039283423453526 -385.53080681560726362 -387.30151988441116373 -378.61808600469930752 -384.54529200285526258 -372.37367348337289741 -373.87738190475812416 -391.11861830716128452 -371.80508248667536009 -379.52134660995341164 -393.68472896762352775 -381.58261902719164027 -385.99871966155188829 -370.9867168566929081 -391.29881299910709913 -378.11851920922680392 -376.77827177431726113 -377.32831585681981323 -382.73231117853492833 -382.61014211447781008 -379.55459421711543655 -381.38339315998848633 -383.15000125066882219 -371.78347472670225216 -393.08853528124018339 -374.39556142756066492 -378.98652141083090328 -380.4341643854039603 -373.07736783077842802 -380.93129535428352028 -379.42321938231890499 -374.42980263086690229 -378.4057129462408966 -381.8871157366091893 -382.56629069464048598 -377.79710359947551979 -395.88023764738909449 -378.45299917708484827 -380.46584775056589933 -377.28667005185559447 -377.59915911749135375 -372.9874223753337219 -382.90619015039732176 -384.61054457187498201 -370.26266216289167232 -383.32326310320212315 -379.79801332641682166 -370.49868258195942872 -369.89771251130417795 -372.90702182426116451 -376.43217443113627496 -390.00336501612889606 -390.07653082804318956 -365.45743908260124044 -376.07495014911040698 -383.44852769880026244 -375.46828529744016123 -376.52215305215207763 -388.9783368466361253 -373.44404447754192233 -395.81848887078223242 -379.81400175292969834 -384.34871892906920721 -370.44424543901141078 -373.13740446635870285 -383.02552706671423266 -372.98234813090158468 -389.56224157288664856 -385.34385943626381277 -383.14192639658796224 -376.57841777063720201 -375.82831353826702525 -375.23702203035713865 -374.59847136628661701 -372.88335656261665463 -386.16239556873051697 -366.13149685485393547 -384.84466190735935243 -378.3676105069392861 -378.09924850318554945 -382.86152441720901152 -390.96008704811447387 -395.9915230638504795 -391.88249867736084298 -377.90404157006088326 -386.80650217710734751 -371.30191809008749715 -381.31106989674435681 -368.74945904296038179 -387.45624667273176556 -383.86688355347280321 -383.56022423931023013 -385.88861521101330254 -387.55572956063952006 -388.13014030958191825
-32.558888593032413894 -31.475077897336539934 -27.82370374168954541 -36.716150628033666692 -35.786294977540791251 -32.926905032721542455 -28.419545158656660533 -24.151979292401414057 -31.367391370419859697 -31.491011926285363387 -36.188092458156127407 -33.485311350231107497 -27.253261946208095168 -34.778329031479159994 -36.270119087743850628 -36.442806811952166868 -33.614739437605663852 -27.078497688882173122 -28.217589203954140942 -26.08919251535122541 -30.938571209991181377 -34.865855728982062089 -30.028092610991510725 -34.327629417166122039 -40.553525187864259749 -35.801191080142992007 -29.733984518382413853 -34.024046575309824902 -36.274816135449640342 -32.189796235098143029 -33.221311224671545403 -31.173201987483452058 -19.927242744868657098 -25.995613189796824116 -28.180412938403627265 -21.501891371174853163 -34.058987441189287892 -36.743793967480293361 -24.516215586668764104 -27.059337720078456613 -33.320193286376110109 -28.206527399882602936 -36.3862929447976029 -37.890726748042375505 -33.017832009363779378 -30.627355174232121726 -34.409841092170559307 -28.216366146621624011 -29.816785252981592436 -28.598096965360490174 -34.238297827976396093 -30.907120501789528078 -36.122821246169799281 -34.297188805031240122 -27.96481030706171822 -29.597710231224812816 -17.524195710837460638 -29.810509275216180214 -29.718138835635652839 -26.739284289250775828 -32.081509546155892565 -32.623669628495186146 -31.175229725701036898 -26.943079809134864888 -21.505779126888089792 -34.70575722792564477 -33.094413808161021961 -34.852315079471075876 -19.238280775876035023 -26.56962555243849522 -29.083758159131605225 -33.478790001651326236 -34.817854783426668064 -32.602505841345255533 -36.937510458880943531 -35.169598573724918822 -28.26859362710419532 -30.424053876934575413 -21.99668772828328045 -32.019485253767136612 -29.415140376854871818 -34.202395530113726352 -35.188123479155137829 -33.214195051585434726 -27.079898668940064255 -25.830795547898262043 -24.468447712147050055 -26.214020330433683625 -26.426900403832600972 -28.368107873645900696 -35.932417812470866636 -27.070320832764501517 -21.241569013922429576 -28.659728885842355339 -28.889802464484041877 -26.060624972439313751 -39.386234914248738903 -33.398669122399276432 -32.038279708898862452 -28.964412953634560921 -35.192263953251739395 -30.386873064271018308 -24.879074086463059956 -24.522552142862519275 -24.279768158648632692 -32.592340774483247401 -21.780042649946921074 -25.754714822981867428 -35.671322341848153314 -28.627038452233122712 -35.652182338957658203 -26.381474699789634997 -25.39630067669767044 -23.659547884432988951 -31.44444285383419313 -31.89333098695527724 -37.148706778239088067 -23.295667805997361199 -31.663598855701962975 -30.302967139358962356 -24.450090825477555967 -34.428746532805682534 -28.14468356842896668 -32.763021710500424888 -31.502751975566152254 -30.916977374788093158 -30.274187835130458524 -28.923322125154026452 -34.016094337581371576 -27.833861092365761891 -27.442372270262669787 -32.984523964607618041 -20.16260659537291744 -28.9222839814320416 -36.256435094634710481 -27.194053693023001017 -32.718407721332894766 -30.487517332649783697 -45.620395225443424181 -26.790949147482965742 -35.400110156433001407 -34.014988373495718577 -31.806613080176767028 -29.171055941699293612 -27.819930339796101748 -32.436295086048360758 -30.572630113738039626 -31.346558698090447592 -33.6194804503747946 -33.85705416010429758 -38.452046439688778889 -23.462280192984206195 -35.978464749093149067 -34.498692027387008352 -27.678525818093927313 -36.661360642013498534 -31.184659555096416739 -27.01836798089425784 -27.958943629101028705 -30.708397340189819147 -28.854609827787395915 -30.335140779269174516 -26.329791963940333943 -40.230030907154088027 -33.905225780890887677 -25.402297425030248235 -29.716831982246525001 -24.734460318240596877 -37.641529836810512677 -34.217204292989549685 -29.12253367039165397 -23.676608565537378581 -36.652118921726618339 -36.019213142383151194 -28.897471123933438975 -28.833807009252819142 -26.760476406645590686 -25.201240044305826871 -28.241802490966822603 -29.023387998828738432 -25.739041207237583819 -23.126543200223249386 -35.282345877688250368 -38.159748051841859251 -24.636397029449536689 -32.155256820514118488 -27.706052511507778036 -28.752930321169806405 -21.9832869037322709 -25.658558742954873821 -27.482174759027763855 -36.051478231991509915 -33.586505713514128502 -38.967118920454097974 -29.473507515198448914 -36.201202425549595887 -37.114967875308011003 -28.178675318549139206 -32.739564395802247532 -34.054454963763042485 -32.123885835246596798 -31.138159739487370814 -33.720187298784829011 -29.455935153150271333 -35.723836224604831102 -22.500924522777161485 -29.012395006774177375 -23.594013964802734051 -33.384174185000027535 -24.631220040916478098 -27.772121208566169059 -19.685995202034330731 -28.766825505562341192 -31.383391039469639594 -31.320997595075592557 -25.650245550740429223 -32.068212579283120078 -19.744815954616868225 -25.591059627165570589 -31.229046658499221678 -31.848158964112229796 -33.919975240391103455 -32.732633815340165029 -30.295488895030814547 -22.702991269521987761 -33.776929535067210963 -27.681582623134431742 -36.943621298606245773 -28.390902226853807377 -27.022347082534714957 -29.536723520256110476 -36.28968092771302878 -35.130214059295624907 -34.886620881341272593 -21.185686775215543776 -30.255303967390396735 -30.083657619986365006 -29.135586599482618197 -37.809525339597065852 -36.010259746555654203 -28.756340209675549602 -32.49158504327143504 -25.28871415891349983 -34.174955793851140129 -23.285701586447512312 -28.561397393594624816 -30.066212800194584531 -27.170783086704322074 -29.658834796045695725 -31.842157074011872453 -31.62981797372466275 -36.624347750043241945 -35.200278660338383929 -32.755010635890350557 -28.712285116417717745 -29.694979918207192071 -26.734286103652650013 -33.583172089216219547 -30.784145858346459335 -34.882326056356205868 -21.410784219112407811 -37.014139969275348108 -27.588416279806480702 -30.24355556476295348 -37.459718060275982054 -31.483518298317004991 -27.981287503268916339 -29.299757774178345926 -26.538500604571343189 -24.842800464160973206 -30.065426942141655786 -33.910914364038298174 -25.42295299159746591 -25.478786921626344508 -40.126268840991286879 -29.701179494495526967 -30.181768252036221156 -32.142768988950251696 -31.587359056163823112 -24.260938251388324716 -30.152026978289995895 -26.516689946943756695 -35.176416393004423355 -31.556641652244099561 -37.412736953044372967 -34.469055893774807942 -30.005676968010615013 -35.708717044721751677 -34.778351111412398211 -37.385121079230898999 -35.577653970442561615 -35.918645710194034848 -23.111020955058734216 -25.209429117665070663 -23.217742904393020353 -37.234344027793326859 -34.0894236443988774 -31.858134024387666727 -23.094146139786456473 -30.19091580637094907