141.76707012051230095 149.93789819090505944 140.41305491251057447 149.33258523530571438 138.24171156298703522 145.79982263257173258 141.36835735340491738 150.82163319379998256 146.5441076437399488 147.23126174008780254 141.92638089115436628 151.00950467468285865 138.85625380933387873 143.03699759257673918 154.64041271703163716 140.89732181199264005 147.40699512862585152 144.43747343667334349 145.94259591927414021 147.99377359970415569 152.04344172044363859 138.16916158608250953 133.05844676960478523 150.42978194459320207 141.31604035139858411 135.09501050078307571 142.19659835206164189 139.18644592061102117 150.78494985360617875 149.81109530345926828 143.6303081492741569 146.82237689989764817 146.87989296327162947 143.87398010046541685 144.47297480827518257 158.68526522072374974 143.9932067045427857 146.08196934119413868 150.1370519497554028 149.19716649163285638 152.76643673201618867 148.19809045255598789 143.77027933084303868 141.50576450605512946 141.75732518409535032 145.66338580703563821 139.33041647596334656 144.02895028446440051 149.27403808557795628 132.66022753897777875 142.49063707239355381 145.08929136362723966 136.28802511985404067 146.0005197626094855 138.92627748388622422 148.59211715325989189 147.64838638291516304 135.62050747433949027 140.10616193674243846 140.32761433689975661 144.60669011807306106 151.76756713659489151 150.6439367651038026 149.62035144174475931 139.85077961932222479 141.77031420083488911 141.7693032240013622 141.05445520787375813 138.21429093858012038 144.44373145490470733 147.20979813236766631 138.07160767162471871 140.98717481796882112 144.65501692172935577 152.520454759961126 147.44115657355342819 139.60951356963261105 144.3874914627292867 144.83929594707009869 131.02712821271217081 140.80278602352848338 148.66697230398489182 141.81089686330827249 143.58779378112740233 141.20500000368264182 143.84012015508318427 134.03017160354573889 149.85352836576100799 141.96969439463975959 144.41744530457827977 138.6876939519971188 148.40795965836144887 144.68060381648692214 155.12666116427132579 129.94412805616656215 143.64163149979535206 148.05610431628127799 141.81003551866930934 134.82051088428519847 150.313075387786796 132.16513989786452044 142.30580096294468717 138.10901028103984345 143.15407680202514484 147.12460111852033151 143.93837789693995433 146.92262173617544363 142.34112562070401964 144.69481598370830966 140.89139185466274284 142.267487298066726 146.46498304540665458 136.48016998416073875 142.33260197618349707 148.13763270535167749 132.47884234904233836 138.90983344540498479 149.22654222045898109 142.33148210523765442 154.46712940675254799 144.72586563917334956 148.84071325693085441 140.85262206428706122 143.54826640538266247 138.17029547389154231 141.12373490149815325 134.41781267403737843 144.99871739595775466 144.59631597598698249 145.82471867065996207 151.29937591373203531 140.6872120894763043 147.66510754378961678 134.84344212671172158 146.1413028734526165 138.36547940827878733 141.82631843054608112 136.852076445471738 144.2403158919465227 144.0060832197995353 150.27047749314613156 141.7928556513687397 143.93184995494911504 146.8704290715796219 141.49369092224011979 138.56530538114091655 155.87900697437430608 149.92528689508344542 148.46399103442246314 155.31089201867106908 136.61611764645650169 143.60618092832447701 138.02040895914771568 145.4805061362435481 152.86834781291040031 143.13312465242364624 151.92354312169996433 144.44829758679873066 141.25411605844729479 144.26699937637346238 151.52667258341023171 147.30948638581531895 143.10359545417438198 137.44839648266503218 150.50075336193921771 147.67188755987419313 140.0113389417692531 142.25327891180063489 148.89196823289617555 148.74132647214685221 141.88077336308532495 145.07828967961077637 139.95230574474285845 142.34155471274115712 145.19134933935501408 136.357037485095276 140.40326171712845849 143.49329613641890546 151.69266330274530219 144.04413327381749355 150.25984886308162913 138.55651352210537652 144.56771759328128724 146.08478519131031703 147.4805021564017693 137.20394282177423406 145.32917486717559541 151.47802192154634326 148.04651398014621577 152.14651584815226215 137.18344465524612019 148.73675633385101946 139.20620659905372918 152.48946663265490997 144.14835962304826467 143.10620717114935019 142.30302406760154099 140.43132953616020586 152.42058775888000355 143.58923097034073635 154.51734246036633635 143.15606932162293674 148.19978730669549805 139.22802246945937554 148.13937899441916102 143.73890684101567672 142.3801922727097633 151.15882811021162979 139.46773883693498419 150.5240848171565915 145.42397351736957489 144.45027509486561712 145.22930737435453352 142.38928759845802574 139.42235670959999538 137.34005245431660569 140.10682539947418945 148.03171871310422603 144.10816027792159844 150.51842260162695197 150.39678030019524613 149.33266396699548295 136.70588916016677672 137.68824573217332841 145.33353984755680699 150.76091936942984262 147.271981389867193 150.56079514611656123 147.54684718431437318 142.03811649538431539 145.07687797966610788 146.90397423803875654 141.50432710972987138 145.49892804025645887 154.67096387303743654 150.82786455281083704 145.8649495281223949 141.69352097112798106 152.35571516622897548 149.74340942862548332 133.8729471090963159 141.21731129412734163 149.14659083284854546 147.415551725154927 146.88039101945301468 135.33366643262516504 139.32523584052998444 142.44422101813435688 139.31039681092403271 161.56826568265660171 147.07944797487783717 155.09116659248809356 146.7370531799216451 143.2019086994674808 147.64079479770131798 136.3410952501885447 151.41847003055187315 148.60122794092387721 143.52752152395794383 143.51248141589104534 155.3951224259877506 140.5039180687593614 143.72395986784195543 153.54939165669563295 145.12374121090152812 146.72868531741215747 141.64214063077236005 138.29299382699267085 147.47588114009255378 148.37133003206614035 148.88885547014496069 148.15555020241296802 149.15020868876590043 150.07810635866465532 144.91481327341676888 144.93806221739379225 140.90619072647379539 133.55572985171818345 142.68084590213166507 145.68553193608255469 144.43364736820885241 147.89445093711105983 145.40489149364796617 144.71917675129157033 144.01667240858836294 140.85512639801351042 142.26307568675773041 150.7481347377809584 141.24889490584882878 138.02978305212283772 162.75964592329987113 142.25031731174556171 141.61860598033024417 148.8170701668553022 138.96758969602248612 151.37357098571905567 149.68792872193685639 136.68888692434134668 145.25819588244399938 143.82919167169657726 141.88708600378743085 151.19359633985271785 148.79140851636665843 144.6403774667385278 152.9018556962369928 145.43752349051638362 145.63164115886110039 143.61553679870007727 148.31731088787313411 146.79217212138991044 141.00527067923897562 142.79473933239083294 148.49425913369992713 137.79405367862409548 146.32592466221791483 150.13894687668019401 140.87133165669482082 149.12084651505151101 147.71872139591818041 139.15356852846281299 153.66085107086985317 137.11352971930890021 144.00458818431394548 143.00801385646781227 148.73958802107563315 142.56088521668482372 144.969008110567529 140.56062402675635781 145.15665457323069631 136.93783339774878982 140.53118051737669703 147.89755332494499385 141.99333332779252714 149.86396169248874344 139.94476490541387648 147.93615189547438149 143.76460990465679401 155.2861093344011465 141.74870760098787059 150.26219875019455685 145.40920180014506968 144.50692094749180683 144.82567261598424579 144.3118714673089471 142.85283188496737239 143.72995127698428064 150.08705973038408388 147.33381225865741726 150.59025832875596507 149.60787322421782619 137.59653860976479223 148.11833056078523896 138.51296316464600977 146.86068156725588096 147.28007083937097832 150.95018391638248545 138.76572185848692698 146.26618394857922567 142.46845484458023634 136.57211360586035198 160.51410936224274906 139.45426128440186631 140.38661690200106591 142.29594897898556383 144.24557929787391686 144.23117425832614913 138.07904181187359427 147.44470977843317883 149.69842096842208434 147.428678392477849 149.44391258765398334 143.54892074008228064 147.1894765409237209 135.48883850448879684 149.02246966255705729
-1166.1729349361714867 -1138.2105602291292143 -1143.9022124701798475 -1150.5939112806420326 -1155.8743644255521303 -1138.7244662249752309 -1150.2052538777616064 -1139.6430465477983489 -1123.3234428629932609 -1141.5681956355826969 -1151.3017009665848036 -1146.6824962051114198 -1110.2277169322501322 -1130.1364329945572536 -1185.3521727917634507 -1135.9476133407099496 -1143.6920294366391317 -1142.3390670192754897 -1142.4306699869532622 -1157.0674612813231761 -1170.0453295304907897 -1134.8442097588501838 -1140.2777319571214321 -1160.5099990080259431 -1162.4467244616148491 -1143.233092809922482 -1155.3877692824537462 -1133.600683798043292 -1148.3868475196588861 -1159.0926741108703482 -1154.2269423529778578 -1149.8383100649054995 -1156.3099247352140537 -1152.9841214716254854 -1100.2733969881915073 -1149.9041444834249432 -1127.9274840563093676 -1144.445621354458126 -1140.9857958012612471 -1141.2238470972947653 -1149.0145731307475216 -1150.3141425443554908 -1159.5615562876926106 -1149.8717227296240253 -1133.027348316284133 -1136.958211448568818 -1150.4339846697989742 -1146.063547454150239 -1121.4117086241431025 -1135.2243388950166718 -1125.2582560606281277 -1162.5298247073351376 -1131.0849848118805312 -1151.279042255333934 -1153.5822218024757149 -1163.7722229319465441 -1155.6166937413274809 -1133.6383749316823923 -1135.5154721803542088 -1135.6230478705820133 -1124.7165009285129145 -1133.673315252651264 -1154.3077755117258221 -1154.1226081450613492 -1153.5849632250840386 -1172.3868427924246589 -1131.8384460879790367 -1157.8086759709465241 -1153.6409006742919701 -1147.0988905910699032 -1155.619882273034591 -1145.4147218117991542 -1141.6660052852730587 -1142.1126185406230888 -1135.7940259999554655 -1147.9118185328350137 -1149.108453177551155 -1145.2187504658170383 -1148.8636060011895097 -1141.0170730713853118 -1130.0826483123560138 -1148.3866323220156573 -1146.9878871459222864 -1113.6340327107268422 -1142.9679651379196912 -1132.0438542482547746 -1154.5171787492463409 -1148.2838955648007868 -1166.1565225909341734 -1123.6790826283754541 -1142.7100523196029371 -1132.9422567194530984 -1152.1173690179496134 -1144.5519753521075472 -1141.8770588040993061 -1129.5993005848558823 -1157.387666847546825 -1157.1059153237267765 -1159.3023069480902905 -1144.530261485073197 -1123.2022480362904844 -1114.4333193735267287 -1137.2505744062709709 -1135.7326367400810341 -1150.6568090438045147 -1155.6920601765780248 -1120.9190018620402043 -1120.6146993903696512 -1129.9963135113821409 -1120.2873908235153522 -1155.1883267512330349 -1120.5441913220788592 -1158.812279385706006 -1141.7652963411735527 -1145.9053204161400572 -1149.1880857455253135 -1131.3426170179545807 -1150.8237068666137475 -1168.1804942395108355 -1124.481529453356643 -1120.7459756979944814 -1143.2786014535993218 -1136.9198034255625771 -1131.7064384566185709 -1160.5795718687811586 -1159.5909627942560292 -1123.6700994870288923 -1111.1233057101007944 -1163.2853050826706749 -1150.7901844183572848 -1148.519820464014856 -1125.1224748130218813 -1136.4524292417222568 -1142.1099355888245555 -1156.1029958788599288 -1133.4677147933509787 -1128.9072078720716945 -1156.3557828271589187 -1133.9982826445857427 -1135.3645221202007178 -1122.6333093083380845 -1154.533658141521073 -1132.3377301009841176 -1143.2203443944817991 -1143.0898428880957454 -1136.3738576516911962 -1151.703280923587954 -1157.6887388072316298 -1136.145762524858128 -1147.256506269477768 -1146.6408846874307983 -1156.0994828009700086 -1163.5394284373164737 -1142.6557991000504444 -1122.4397889057638622 -1150.9305096876257721 -1147.0678140956586049 -1142.4306501958103581 -1166.0128009715481312 -1133.7036926086825588 -1144.1049575392707993 -1154.4279265631746512 -1148.6259009800498916 -1151.3667758237684211 -1148.8949339145358408 -1150.9175393934765452 -1134.8900446513455336 -1135.2423406415575755 -1131.4893998655245468 -1158.6297462135057685 -1151.498737489788482 -1142.254262372850917 -1115.1797060826650068 -1128.5465101185463936 -1125.3836530807545842 -1151.8277383701565668 -1128.2429264478660116 -1120.0416061312391776 -1154.3064783381682901 -1140.9260681819641832 -1141.2066675290634521 -1172.6699432063780932 -1151.3349464612501833 -1146.3449445497146826 -1129.606262666550947 -1159.1128099616348663 -1151.0091602801546742 -1142.4786308521486262 -1149.6743236122490543 -1155.6879796258228907 -1130.2938025494993326 -1154.5442522562561862 -1133.8722946889329251 -1153.2993929281260534 -1144.7768691431815569 -1155.3085641169232076 -1136.6936129196003549 -1123.8263030381913268 -1152.3391555698224238 -1150.1289867567679721 -1134.2740774686749319 -1155.8119640914292177 -1157.0614001122175978 -1147.2148251550217992 -1153.6851330727774894 -1131.2977156892936819 -1150.0206277830743602 -1155.71635522010979 -1151.001762015953318 -1135.3531494045096224 -1150.5746908662429178 -1150.4482175884859316 -1141.410521703848417 -1135.0641821552367219 -1142.3240482864027854 -1135.7169026147844306 -1140.7957306446760413 -1156.9435130410861348 -1133.4055192982762037 -1144.8315151116014476 -1150.5215592923677832 -1146.1099045450853282 -1120.9156616015113741 -1137.6132585882812691 -1157.7401795307118846 -1144.095633689359147 -1136.1130915503426877 -1144.4312262495743653 -1122.076066691241067 -1140.7136676268946758 -1134.6529993917718002 -1130.1006498884282792 -1137.6944750901620864 -1138.7790294462904512 -1146.6117826301092464 -1136.6940164921152245 -1129.0593612006971398 -1155.8314417169735862 -1137.2507201060186617 -1144.8555942681157376 -1166.3842196693301503 -1124.7308859485463017 -1165.3926979195935019 -1152.8257482505969165 -1133.6867474694583962 -1148.6041727114156856 -1132.0571532040021339 -1134.1115385661032633 -1161.9455185849801637 -1141.0194470019050641 -1101.0286645589192176 -1125.9457668420998289 -1143.4823313883614446 -1159.5979142684652743 -1175.4943869558630922 -1151.1300478441596624 -1135.8538767723186993 -1160.9339479975067206 -1155.3222412549052933 -1159.6338254829693142 -1151.7813926227886441 -1146.2465008196822964 -1155.0729629902791658 -1135.3015716166503353 -1144.7585414412001228 -1128.3058272674693399 -1125.1167387133723423 -1134.1275594354794976 -1152.0051607708876418 -1146.77984357682476 -1135.6133382750338114 -1141.5066215937554261 -1150.944756687973495 -1142.9946379267780685 -1135.3154212948400072 -1144.8091175257350187 -1124.2884747461826009 -1134.4676032977108662 -1137.3824306938497557 -1145.7903904444885939 -1139.6951418065184498 -1154.2477235560584177 -1126.9294416914485737 -1158.3103042155812545 -1150.5445470783158726 -1141.4341087316345238 -1166.4375954371341777 -1142.4483529797025767 -1125.0350802840009692 -1133.7883890226619314 -1153.9925105970589811 -1134.6396602735821943 -1127.2097128796574452 -1133.9313588894933673 -1127.520964747464177 -1141.4685739485380509 -1157.064304503977155 -1157.500609119619412 -1152.3316018207879097 -1131.1016838123114212 -1135.8303804808031146 -1136.1075514640517667 -1167.1954686726326145 -1161.0248131694461335 -1138.7783089225695221 -1140.1671925052780807 -1156.4962053113654292 -1156.5276647719417724 -1168.4261585396661758 -1146.248068356275553 -1145.8277161243911451 -1160.3527165093519216 -1135.1512507225961599 -1149.3853069321326075 -1137.9054110890590437 -1131.9209292422617636 -1180.5183261253587261 -1152.1081211986013386 -1138.2632355528658081 -1141.0819338046419489 -1139.0112919572163719 -1142.6770405783465776 -1135.9318736515533601 -1143.5649388073527462 -1139.6582668195210317 -1156.1765653075819955 -1156.4261511543886627 -1150.3555228968664323 -1134.7871462702871668 -1144.584439162426861 -1134.9528796767615404 -1140.6648369769479814 -1132.389180040815063 -1134.4819363363035336 -1130.2588464351247239 -1164.8507344862882746 -1125.6341291640665077 -1128.8653005358271457 -1132.3917919341872675 -1155.7781274229678274 -1140.4985744133616663 -1141.0862323568073862 -1136.3896573878134859 -1147.7059603170857827 -1138.7503459879694674 -1170.7312174334583688 -1137.6890412268892305 -1136.6889805857144893 -1152.269456876761069 -1158.4445424535538223 -1146.2798049362240818 -1148.8772012623951468 -1142.1315934225135607 -1126.6325154344808652 -1148.6800107637513975 -1151.4254776620757639 -1141.8371476604688723 -1137.3577496666136994 -1126.9636777633979818 -1136.3522147782159664 -1139.829918087757278 -1140.4537495139729799 -1132.1393305263407001 -1135.0957849226560938 -1143.5502566824222868 -1135.5178509102231601 -1142.0672700188652016 -1149.0937256097361114 -1149.868764160119099 -1135.1334553033084376 -1125.8242482039725019 -1114.3570770086844277 -1134.1670492502266825 -1139.209050367599275 -1156.5132985609589014
653.08696713673202794 646.54005301422284901 650.45001351941527901 644.22054070741569376 637.1656963640638196 636.66122655492404192 648.67913720993135485 653.72701694589386534 637.83328265792590628 645.10892497182408079 650.54049084281462001 645.99618013978147246 644.55293910407851854 641.14791859032663979 640.86355765803239137 652.08368827903609599 642.87572892384673651 647.36823590963081188 653.24402211094013637 650.66665305033598088 636.93869275215172365 650.28621009833750577 633.60717403092803579 637.61089502663878648 653.58606087403711626 644.52233460686238686 635.47939464624471384 651.22870436424898344 641.18021241389635634 634.31688243338930988 635.17084715948669782 635.52895079075062768 646.21838199606997932 641.65706135925108811 642.25469142871475015 636.75365151938342478 628.52832979646063905 651.9198948202866859 649.4238516790775293 645.47316412766531357 643.83225161764801214 644.46543742455480697 627.18692732067108864 642.01606758152354359 641.11611391499070578 657.92573424427473583 635.77527527824554454 656.0421060289511388 661.11249632338854099 638.14738016713238267 635.90540779366949664 623.75241709675674429 637.24620117959568688 646.16019530333323928 646.0253338422859315 650.13627381974015407 634.48737277394889134 657.9166440342153237 654.22106516933934017 629.36229227983699275 636.61397198623581062 652.90508197584267691 659.10028208049413934 645.76493302983851663 634.78801722088496717 637.04406502984829785 646.1452998416467608 634.18218031771709775 643.09128792474814418 633.09459411509851634 641.05161772676865439 645.03484717265291692 653.88299523108253197 640.18642141349278063 650.4717703988546873 641.89351022209496023 648.7680315002221505 639.88945712888641992 646.57417965546278538 645.39485869668919804 632.00207143338332116 647.04170956760367517 647.25797185731380523 649.19847221830480066 644.28151176466667494 632.98181542372094555 635.69652227521828536 643.60673850697878606 644.35194400442208007 636.91467386446254295 653.56978666290410729 631.82853911331994823 646.94585062465262126 645.0403920259465167 626.21406995780444049 645.51897038475499357 643.82203541697947458 648.47458939446858039 640.96393110157657702 630.5460713728095925 639.56415869489660508 635.61953619917915148 650.42224402861791077 640.89300262470294456 630.05200889201739756 648.10420899934115369 641.94106660102022488 654.6957546298433499 645.04580704110674105 649.57539210993775214 646.30431009998733316 652.4569992130944911 653.54230709493572249 643.11467888800575565 648.86063914910164385 642.85179126226796598 649.32047710502615701 639.43544275759063567 646.0860405682617511 630.29050321820852787 653.60826420544015036 645.19399593041089247 627.32140127739592117 635.24665234804467673 657.44781643697479012 641.86343373550528213 649.79104312594802195 645.0816693431584099 632.91217289116082156 650.07889626722783305 627.97619990932150813 635.53107311563303483 650.28681078617637468 641.508704612055908 646.70925609895141406 640.84869699386490538 645.6655403950148866 650.08447372214834559 637.25050797146832338 647.51266592182071236 633.14559211771336322 635.12803847476664032 646.97309988214112764 641.30811392020598305 631.32651642983489637 640.77330081176285148 640.70731852502694892 640.75069184447772841 633.38802008754612416 634.70779955651971704 641.93837274022303063 628.56395435427236862 645.26632324411434638 637.93266604613540949 651.09691745116049333 649.9414747127885903 647.18315209058380333 643.03196953785584356 649.77864728331360311 645.32715880750367887 648.21697134970418119 638.62250530991752839 644.25866373089070294 654.00438806545821535 645.227757741487153 637.67668680279643922 646.26193006752509973 642.11144771641181705 646.57659403874072268 638.46866068194424315 644.30383049396982642 641.46564310982353163 653.42840498233033486 643.5561733197337162 637.72379162248489592 650.33182519298031821 642.75027189120748972 638.42948921508627791 637.96611884263973025 640.48193571997853724 646.90321459052279351 647.06042693597055404 638.28756075919648083 637.6890824226446739 650.07450879103055286 645.52053086167961737 634.38395357275942388 636.10437379021743709 638.97137192073671486 653.4939325724964192 649.15194469078846851 633.77576879184925929 637.91647118140451767 645.74737029376160535 648.95117658795174975 642.04643088233819981 640.33357386960040003 641.6157227033484105 631.56171738258797177 646.7723947510448852 638.18710612502809454 642.95262426298427272 646.45816498305543973 630.62705215837058859 645.90439859799300848 632.78952354573618777 642.60511096676191301 630.17254602605294167 637.61201904664847007 643.43423184387654601 638.84097491225827525 639.59799747536987979 627.96782198276912368 644.70411436631741253 647.58748373581192936 650.59848760498312004 648.48688329998719837 639.5151558410028656 640.5586180842298063 634.07774395410308443 655.87846082422629479 648.0512664574343944 642.81278439171944683 631.51056414844799747 641.91124430422917158 640.45645154545513833 637.59767918263048614 646.97600732173066262 647.10277849670285377 644.95104955889257781 641.84928991665196918 643.66703028355709648 654.17287373450437826 641.97851214228603567 649.93976205361445864 648.96225964296763777 642.46408312193636903 640.9803947950829297 637.38095816425754947 648.63971368421925945 635.92905672357699132 638.65572621331216396 648.38994693683787318 635.48025262172097882 643.84783780830969135 648.39271052544313534 639.5503451501907648 643.33576827492674965 634.52982166387971574 644.64192587489310426 648.69775862904293717 634.85038500923565152 642.14417180551970432 639.25935078244322085 635.98956704444970001 643.8447450302019206 645.04927273581984082 656.49582156635028696 638.83632938728328554 643.08266667752627654 652.29090229157554859 648.90482476106978993 640.72674399487118535 650.38888306839044162 643.44884299779960202 647.57932295352600249 647.11161689098116767 637.54484443036290031 643.86734815931640696 630.21346185553829855 641.26373489623358637 640.69813550652838785 649.3619139261387545 647.91332229115960217 633.52830120198120767 645.33002134570062935 647.9868630710918751 655.55933237851149897 637.5199092777821761 642.52912844697345918 639.57340847378509352 641.12726708360798966 649.58851185161813646 650.1146789530331489 621.97810866306303978 634.11389063763158447 648.63289050163780303 641.77581187755208703 636.6789986513480244 646.84425267908773094 635.45747164828992481 639.42567704737746226 645.440704376429494 638.19119992510695738 629.99482849248568073 635.64376090784514872 638.62600623788921439 645.78891970838139969 638.91348045163931602 641.08756648773385223 654.28609150879935896 647.00850112123725921 641.21733968548221583 637.78496624304978013 642.38408854899057587 652.31206965949138521 653.92429709834664209 639.67595590705627728 639.2865077941863774 645.11647137945203667 631.7351688014678075 648.75330641574828405 626.94935837391676614 643.8199915879317814 645.98078152967184451 661.7911281154028984 653.56832943201879971 639.27629498040198541 649.52045523566926022 640.72311407054610299 642.56160086062391201 644.77517190165713146 631.88932231495107317 653.31527160086636741 656.88733743840123225 629.03070498637362107 653.24038658053063955 640.88351817637737895 630.99969207579363228 632.93990654541892127 641.65964191999989907 634.34272888086184139 639.01267956177127871 642.32790915462680914 643.91060926336228931 644.09279191500627348 654.26857283601520976 645.45371903432931049 653.51206228092894435 645.90897560324185633 646.02650350498527132 644.4319739914026286 651.77225642293308283 654.96912158030693263 648.12397471965925888 644.67329102324151791 649.77387947136617186 639.18927637111221429 634.80673494105838017 643.43767060736342955 643.500508455420686 641.85011050127582166 641.14183458892921408 640.82663075342384218 639.57228665350794472 643.74745491304736333 650.00618022875687529 635.96702508174098512 634.54478101240681553 638.33678129579129745 654.01097292557756191 654.71117158814968207 639.49736667226875397 648.4062457855102366 644.3226518997120138 655.12200990933126832 654.33436972948447874 655.03663277324437786 642.81789937461803675 645.22007642407413641 644.0442309896847064 636.99286111968899604 646.42570218468347321 631.43235211456180878 647.69206423058710698
313.09879404246913737 310.36386225424780605 307.23959004188316158 310.38743803213111505 301.40365817212665434 310.17675807788498332 310.90845895467577975 313.49902283368345479 320.29393177472701382 307.52846109253323448 298.16804023944274604 306.47576444366740134 314.28636485267770695 295.75670632239257429 307.6288197794603434 303.91902311416873772 314.59190794049561646 316.08047476854608249 307.51609842707443931 302.70391296926584346 311.82256844124270856 315.76396849091321428 302.03147896081497947 307.91028760056985902 308.9556651961607372 307.90591363402853631 302.02575218089157261 298.48246508905197061 304.75434468436401403 309.6151015069560799 306.57428003348752554 308.88643491889393999 304.60416774968672371 307.44088676909069591 314.07298172085842225 297.96481979606522827 307.87108549344958419 309.11631564229338665 303.92917117176938291 301.19368416643391129 307.22874628696234822 310.03393408044314583 315.62840768853163809 302.99823918377666132 310.84533787609791489 307.90805472167608059 312.55093914394399235 307.00040817999774845 302.6833877538065849 305.43971032336804683 308.74035688221357532 302.48769352119057885 307.13344101318864432 306.27041996249704425 296.97699357872153314 316.26774058280727786 304.62197283680711735 299.11463563028428325 302.85592556685878662 312.6596524676879767 308.48791753484715628 303.49921263893764944 312.40181966845210582 306.73479718611105227 306.29566251169376301 300.8230036230493738 310.80932491333896905 308.74197821331080149 306.05069429778382073 302.27796111062446016 307.90503308347609845 311.6240370813870868 314.66899096035217553 305.01608667864474 308.21436185265838503 310.00822200190100375 314.44729990718292356 292.88784710268777189 301.54700140983072743 305.52150403777170595 305.26678002023288627 312.48321900047454847 305.69594225284384947 307.12916089715361068 312.2112467268991054 308.01007103335018655 305.16093251471568237 309.83948256142224409 304.86593367664494281 301.63387309976906181 302.90468645374670587 304.62487818911927206 304.48006619962808372 300.88780892599129402 309.04388201604206188 314.3325948010140678 311.62485816185409249 303.49489871445655353 299.08724390213700417 294.39546009977283347 308.48167219239712722 309.57734248191189863 306.22146434681349092 301.95939515763961936 305.87021869532634355 311.70159640094129827 308.31984064134059054 315.73573931315911523 298.91289373024847009 310.7962379542010467 312.21104590747643215 300.58615236065242016 311.77355666996157879 304.86721685314881825 308.18290683632164928 303.12978232624027441 297.43223316939344159 307.90984502933457634 315.30491633426686349 304.18881762210691022 309.14994484903462535 307.15913750578602048 308.06577169403868766 305.27439365965250317 305.1444265093574586 312.532782622533432 305.2429249189009397 302.79493884639782664 301.77290315011299526 312.04969134059126645 300.80311891642344335 305.75484900473639982 310.66351851965754349 307.05876029627449952 309.54548700683568541 315.00195861346782067 310.7155604359339236 313.68417829642794459 317.02060273258570078 305.72565232262405743 313.87150022781491998 310.02730685122401155 307.17635124787437917 308.4456308219421885 311.56376287985847284 305.40206605292632958 309.84715954631764134 310.11647624634667864 300.90174229249134896 315.34566934745885192 301.31812793354998803 306.40910536126682473 302.17578994718581953 297.28706163793083306 308.82113194676202284 309.81862468209698136 294.26209026564117721 303.6097343892603817 302.82659557491257374 299.77451968405381422 308.32604020735323047 302.05127840105279802 305.47837201960322773 307.90442305769062159 305.32369317821132881 303.12863170332406071 309.85742174325167753 317.79712300244244716 309.37795271007558995 306.56291336019745586 301.54569619622230903 306.92002907815378876 306.68831937259773213 312.11309238025137347 302.65150955438815572 308.08643205764963113 300.37867430460232754 319.6412805076451491 315.03254440984630946 305.13014347527001746 308.3375975655863499 320.90685913339694935 324.01702125455818759 313.99096115937743434 302.39787077274525018 297.5200583549986959 300.90588074493882687 314.97019896557549146 306.11333633312870006 290.89470854463058913 310.5684690077168284 299.5346229935890392 318.44006301269655523 307.33663835007007492 313.12329253870075263 305.29710752208984559 315.87820194383283479 311.62139693186645673 303.63051333698638246 312.62722658962883315 307.14617162082811319 310.72865050106997842 300.47312740390253794 313.97125036268062104 303.07006305361659315 304.5235182584920608 312.17940150748967199 316.59434161470522895 303.95147803066868164 303.81215883585929305 313.58077419626812343 306.36330057036661856 306.45408806289975701 296.24385433823658786 306.27711122617239425 314.02309059216838705 303.9424534660127506 306.08766748086685539 315.34679733475945795 312.74621431112495884 315.22620299458964155 314.71514809687920433 310.9683087248425295 304.11425578128114466 301.77764630609391361 311.32552460141687334 307.07992591779725444 297.62576592913018203 307.64039104854464313 294.17638447925412493 305.71532981211794322 306.33828579683984117 306.37732943934344121 308.21803971626212615 306.20532450558340543 298.72602944071667253 313.6709575020831835 312.04678750562925416 307.05319435150738627 307.67043412554056658 311.93631517754607785 317.72784309278353021 308.87729218777070628 306.47213851393445339 301.87605093669924372 309.70084324813643661 308.64172978525493818 315.60583590671137699 298.21135647847773953 316.80926377578686015 312.81072119135649245 312.57957280788190246 303.01498944460013263 317.70380762165785882 300.0223604649348772 312.09670138773884673 309.87648364799861156 298.57421213158892215 296.50913513520214337 312.46108081819340896 295.70986480664555529 300.46418660513927534 315.14224644585385704 308.85072236942073687 305.49483992129319176 311.60313449301736455 310.03966003130113904 303.9513274495638484 305.01313768959698791 308.46871693641031698 307.90206189777018153 301.15604296086462455 313.22019543719142121 300.58437193987339242 310.83257530968847959 309.29433508134201247 306.60410935602823201 309.91699707026572241 300.87788332925413215 305.91217266540826358 306.90893020614731768 315.49039603299632972 314.38556675290300291 306.7091801817298915 302.14787329696537199 317.97661913052832006 315.37236080361913082 306.34395521377092564 308.1851836512553291 307.79219012641760855 307.76513649962862473 302.17721876667502556 309.59672643146132032 303.86678713879888392 308.27508633871582333 315.15610266875995649 307.79735513349243092 308.66923340676839871 305.28133481429750873 301.40841489002667686 296.64572003404157385 306.53472805275737301 304.85110560213320241 308.46090056773181232 296.91072931272873348 301.00516411993112342 303.20306220382627771 300.71901982217610794 309.75766250776439392 307.39892735007498459 302.52928525028647755 309.10415759755261433 317.19679962086922842 297.26258145084926809 304.80305027701564313 298.1531350464798038 306.54031275148497571 306.49897019524320285 306.63391087765427301 305.51820551262562731 304.8792474710606939 307.85596035274045335 303.19434235575488401 311.72816898923770168 310.17379401186860832 315.69299330513172208 321.53431523145809479 295.61696622832516823 309.93045721861341235 303.87146765773178458 306.78934992064671405 309.59873509045314677 311.54924155736836155 309.25459735014186435 313.80688723360987069 300.22390852537034789 305.22468504628272967 311.51402917884615817 312.30148973267000656 310.62756682925640916 306.30694911973449734 313.26044540144306438 314.41029468321107743 309.46960909551978602 301.22927049183113013 310.98076634499426518 308.92385457635140256 317.5561292148831285 311.49030418711993207 303.8240282885403758 314.0620476105299872 299.35335449275714836 300.31916796437400308 309.33754169739762574 306.1095905535073598 307.5752373152436121 311.44818896001629582 302.83966615499923591 315.95700913854602732 294.97962506584167386 313.54798870055367388 313.87364427904617514 295.11269135931945584 302.6445484655229734 311.52989779209099197 306.73507689172231494 308.26645927773461153 313.18501526122804535 306.68970252238869989 322.79127214421447434 309.83651114445365238 322.25667779737966612 302.74595174448359103 310.49064565891313805 312.73564212351436709
-1389.4592399045161528 -1401.5763363428136472 -1410.598893542392716 -1426.9351673978862891 -1406.8141817376886138 -1389.7776221334363527 -1385.1477974890167388 -1390.1132697461878251 -1405.0341333526018843 -1421.9986660636716351 -1414.4946992967245478 -1427.0452470680954775 -1415.5665879202906581 -1409.4836290347934664 -1379.7295219272787108 -1372.5584287973958908 -1409.1407908928040342 -1399.4453377719150922 -1392.878872057198123 -1401.9417559536539102 -1380.2834520218502803 -1412.8359025831564395 -1403.4496673275789362 -1395.905044864207639 -1416.2399233225994521 -1427.2841605844716923 -1418.6252291619371135 -1425.1563801684580994 -1407.726599846643694 -1398.4287203357037015 -1419.587484442432924 -1393.534553758559241 -1398.7804624902994419 -1387.8124816151521372 -1387.9087735787161364 -1422.0092107687501084 -1369.5490928054018696 -1391.7158100502153957 -1398.4257214467875201 -1434.2124420648867726 -1390.6454091331597738 -1385.9768600129848437 -1421.2800619225613445 -1390.9379623734830602 -1358.3147687036173465 -1376.9374296728999525 -1374.4405054076823944 -1414.1323626857652016 -1416.6388673275446308 -1398.1583097907205229 -1408.1567942025915272 -1384.406817752706047 -1380.6994344551815175 -1397.9032969138606859 -1397.9755806823770854 -1430.7673601328499444 -1396.0655203516657821 -1398.5852565348388907 -1399.2086594440588669 -1405.9759795152531296 -1398.8365754138117154 -1416.0544414542000595 -1414.6998729582162468 -1398.9546473711063754 -1419.4168135202417034 -1410.8696488872396912 -1424.0974229417079187 -1428.6953642970775036 -1407.2720549330747417 -1403.5706956382650787 -1387.0129946292518071 -1422.1258052803743794 -1397.9075781213809933 -1380.6826154006596425 -1411.0542830450726797 -1426.400158108609503 -1404.0353759988515776 -1407.4278854753390533 -1398.3839831402174241 -1413.30449652737002 -1413.6607261721651412 -1411.7238305268560907 -1393.9317333114474877 -1397.6491697058154386 -1407.6217333446231805 -1395.9228590338977938 -1407.9278744466657827 -1394.0905216238215871 -1408.0988298703041437 -1414.3056702822350417 -1388.7370112238486399 -1416.5050482863898651 -1392.4288206602529954 -1381.2217326487336777 -1391.1799369511754776 -1387.3082359068416736 -1380.9670228226198105 -1411.8982058599067386 -1403.4742196585139027 -1395.7894428819095083 -1387.1397157166979923 -1396.7710260423623367 -1410.4268284481993305 -1423.9180696116372928 -1409.071186203029356 -1393.1325922959481431 -1415.3891620087463252 -1394.6740225347855358 -1420.7947205766668048 -1390.7492634077093498 -1412.6875084828850504 -1383.7338194715146074 -1389.5132933891791254 -1395.2308369990432766 -1401.9862636601524173 -1413.7560642487794667 -1386.6988691662568272 -1422.358368602544715 -1403.3046891159260667 -1387.3018589819434965 -1418.6452362388167785 -1405.5542665786463203 -1419.7424043154692299 -1392.9400992598659741 -1405.3911194780071128 -1406.2508671308323756 -1399.4990116013482293 -1403.9978339579397471 -1413.7764371425034824 -1400.5223949727037507 -1397.1547851127606918 -1396.3563224260910829 -1389.1902549231715511 -1406.8608222177565494 -1383.3612330559144539 -1411.169731681323583 -1417.8086416568041841 -1370.0265540660768693 -1409.5795792576902841 -1389.6471107265826959 -1399.9734035121241504 -1417.068403071894636 -1404.0888218596812749 -1414.560219401593713 -1406.3288418701883984 -1397.8493720584722269 -1400.1047312672542375 -1396.7558077094788587 -1398.2431481436790364 -1398.7009529346923955 -1391.706045534643863 -1379.4727709385442722 -1402.6394683489343151 -1406.9424742109592898 -1418.7769123419188873 -1372.3048933712784674 -1386.5268029225235296 -1422.1834788159956133 -1418.4771100432928961 -1400.531776621707877 -1399.8978285230682559 -1398.633105732185868 -1412.3400966487840833 -1423.1395406989761341 -1442.7153991322663842 -1402.7553713099537163 -1398.0149999443606248 -1395.4136755154563616 -1411.1450813188164375 -1386.5137487478843923 -1415.9570862646196474 -1416.2622513444359811 -1390.1789665340868396 -1378.7251637953177124 -1405.1474134050085922 -1404.888145298020163 -1405.1160874067261375 -1392.0960039595536273 -1417.1088369849967421 -1402.368039247320894 -1408.460234399803312 -1415.0413830135564695 -1396.183857072893943 -1399.2865176251555113 -1429.3189059734966122 -1401.806136870198543 -1391.9334029479350647 -1401.6719612244555719 -1405.552337332737352 -1400.6217474464510815 -1403.2365715837904645 -1388.3573824511468047 -1393.1936938081321387 -1420.9175643788062189 -1397.4906968387751931 -1397.5147415347469178 -1407.8550418375762092 -1382.13483110199968 -1404.9163179105635209 -1426.5077267839187698 -1383.4316400292907474 -1376.6800123464183798 -1393.2867034869627787 -1414.8751062836240635 -1385.17038771487546 -1387.1270572597304636 -1397.1393681942797684 -1415.9654089073299019 -1419.450771901647613 -1411.849659801125199 -1424.8959015494901905 -1389.6175511833002929 -1391.6493421634950209 -1386.1702755699755016 -1381.0349491284127907 -1426.7700896217506852 -1393.0593724429913891 -1385.2613737995545762 -1385.2544278524692345 -1401.4603442693799025 -1394.2937034632159339 -1427.6733340659884561 -1391.3213835074086546 -1400.9686419534330071 -1417.4594723028060343 -1415.4439001149087289 -1409.9848876209450736 -1396.5498668511522737 -1435.1847446315052821 -1388.4635888041987073 -1404.7160882588573259 -1421.7874500173131764 -1383.4270199131924528 -1411.1810756492875498 -1397.8952574740587806 -1385.8699293924719314 -1400.6671434039453743 -1401.7059442351689995 -1396.6324226000303952 -1398.5991565453548446 -1397.2211810010985573 -1400.9116526673055887 -1400.47784897126121 -1410.6808709559129511 -1388.1763018505348555 -1404.4874092626944275 -1386.1481913006782634 -1408.644498957557289 -1390.4813019951977822 -1408.0270606167002825 -1393.1369589469868515 -1424.5317462348650679 -1393.6030582319374389 -1398.2654742807276307 -1397.176622550644197 -1431.2822997785197003 -1413.0186883514511464 -1399.7893154111484364 -1403.0639521983139275 -1389.3145376719896831 -1384.353685164768649 -1418.6104770631473002 -1388.2749558207983682 -1413.9575080224544763 -1404.9821916099265309 -1408.0076096197681181 -1411.6842273174049751 -1418.2529925512383215 -1414.8236810912978854 -1388.0794351616775657 -1422.8955143390298872 -1375.0203256893389607 -1407.4531180736762508 -1400.1275048609597889 -1416.0626571717928073 -1420.3537185233112723 -1404.420848265006498 -1404.0328405220948298 -1402.11361737623929 -1382.1332458209785727 -1391.8464494551790267 -1415.9022824484604826 -1381.2607403797071584 -1406.0145216744460868 -1427.5527327010549925 -1411.8482547897635868 -1415.8344194421918019 -1401.9341990464376977 -1409.769373974472046 -1419.5104985675654916 -1396.6320417396573248 -1397.0783017674702933 -1390.8450654174596366 -1407.3805511295174711 -1409.2868055318751885 -1404.0397403178114928 -1398.5045517418768668 -1401.5023481915011416 -1376.8496465518696823 -1410.5937950271504633 -1418.9216324562535192 -1387.8049629785575689 -1409.2565172013707979 -1401.0605594447463318 -1408.4770506657571332 -1392.5413636449625301 -1405.7913570421794702 -1412.8211926633525763 -1399.5141579419305344 -1435.2946411972477563 -1376.3334102535152397 -1397.5355549934211012 -1396.8923060393358355 -1421.0233171419349674 -1396.7982515045969194 -1398.7915053988651835 -1405.642425806773872 -1403.1027463141599583 -1373.5307108508827696 -1408.0324570288605628 -1408.8769443080561814 -1408.8068117938214527 -1404.318488607627387 -1404.6336359322276621 -1394.0444522316097391 -1385.3216108923227239 -1419.7391177758775029 -1401.8669299452997166 -1394.1558513865948044 -1416.9491751080158792 -1388.2398802655247891 -1404.3802195718037638 -1393.7300207243745263 -1399.2277981611086943 -1394.3343689226808237 -1410.8168097152286009 -1404.6891114368634135 -1415.268306152775267 -1384.3636869043405113 -1418.6487119559812982 -1404.1811206293732539 -1389.555872075367688 -1417.6493967370370228 -1384.0278158128548966 -1412.1564008804518835 -1399.151801082999782 -1396.5806150181945213 -1404.4447555476906473 -1444.1178717109507943 -1400.4676994760939124 -1388.2589815811181779 -1420.7251801832983347 -1401.5157051920921276 -1419.3089096986161621 -1390.3840523158241922 -1407.8955167316196366 -1415.391957238773557 -1408.6085072349721941 -1424.9690276274359348 -1402.1299916972507162 -1406.0146831483930328 -1385.6648175902039384 -1402.6981354412412202 -1395.1854094479970172 -1421.2152305469844578 -1412.6333353763425293 -1404.3133890764315765 -1386.0172100217491788 -1412.557575302478881 -1413.2598414624812904 -1405.3706191215046601 -1403.2191251099527562 -1388.968183770197129 -1384.670540714957724 -1389.2743112599639517