200.51606042639926386 196.36328442041343578 201.30192626361844077 191.12643334042874699 195.75898902276708213 193.53621287053101696 204.00851538890555048 189.60010276053543521 204.93912003234780173 195.13567764402336024 193.4580335457440583 193.89952370991130692 195.82720266582279578 193.23362422520978043 189.43574940253049022 191.59780334503633981 191.86428956965031034 194.72935093652907312 185.39823590937567133 194.37836199914855229 193.02411352899781605 194.47744567943331617 188.47653602089701508 187.88039053581337612 194.26934763508594983 209.65040501759625613 201.54938774346931041 193.40142072955134722 198.43724293696729433 193.39806266106302246 197.5572173024367828 190.01219315399333709 188.76574942380892708 193.15101152351340374 192.68636742052734689 194.99309104266598069 198.98368507377307424 196.10008172038720886 199.12502831030329276 196.07606709414829993 192.67635667633911112 194.42275343859725467 184.2718354440129076 199.79938445633294464 195.23602440416595982 195.93236267305752563 198.91929997495836346 200.85817484292621771 195.59083176991478581 193.41664174814280841 198.59834792515403024 189.34405622804518998 185.29802244236938691 188.81826541619491877 206.22294057275624368 204.88192700610602515 196.82345104829050797 196.43121554515866478 186.25852222340054709 191.44077247289553156 194.40750888658487838 185.61378311653044193 200.76008266643168554 197.39650515855802837 213.87477798860913936 201.28400124566766749 198.96403053844366582 200.90104680895339584 203.85584321200491331 190.93701350282265139 199.26482446025190143 187.38553927990918169 193.94518585371008612 196.14311047110260233 188.66291261021888204 189.51559442614143336 192.74444477473008419 188.74811355911833743 190.08590057757692193 191.46940919171146334 201.77865057820781658 187.33185163621757852 200.36839601944603828 195.13437813227827178 197.59414472015561159 194.46142926737059042 184.63356045633511826 193.24941487899570802 198.12392388313239167 189.95059321004163166 188.81381492678113432 188.73537866396813456 192.49690378415519376 201.77476326857950539 196.24354225504660576 178.37897296285348148 188.00061010116692728 200.07193726746842799 193.78897942173577462 201.33925578070449092 199.10633567019360157 203.16067896678120519 200.0004879401842004 194.02920662416295272 188.1027108420288414 193.09118651375820264 198.96700011995650925 195.58405229008599235 195.04512928835805496 184.16529629382466737 198.10684449721836131 197.14662680311249687 187.02086525211137769 191.19577233023682084 188.21242667799003812 192.15433184238213471 202.95686988519796046 192.94201922157361651 189.37541563925020682 196.58146973171477612 195.68807251181326023 199.44970392572724904 196.32024639178797543 188.76175016917949279 196.66218255136038806 197.80420004568975401 208.20026887351087908 188.87313249275135263 198.29388961415173753 196.20878369104326566 195.83674234914067824 195.51208803926499513 190.08074004496168641 189.59314105672325468 197.19457549549048281 190.52002303824278329 187.93255235148041038 194.99415663168710466 189.66315923584315328 195.79868666536526689 197.80603993696402654 195.63426803322437308 197.3796751543711423 198.89780302760362929 197.44162395964070811 201.66465234429185216 200.12613856821650415 202.0468263335990855 197.41786206823249472 200.50727890325555336 194.11212861429575582 203.62310375886070801 198.197780815625066 200.0151778405306402 199.55972091525040923 193.1695621812180832 190.52142682972510102 211.17319781639019993 194.92869578128377839 191.24830548829336863 193.95188520604824589 201.92837872639984198 203.44055068545566201 194.73455630833635155 202.15513439368029935 202.89981652927079381 193.04387377978986251 202.42239617127333418 191.90106788849118402 196.45867143844776592 187.64996797368434045 193.14108662955248974 195.34477917404737468 194.02322143827504419 198.11009912216132989 186.47031120752919264 190.87230308342310536 186.97303672103578265 198.78753709808046324 193.14299717375234877 196.5074356775213289 189.35441282522160122 196.80632240573879699 201.38742374126752566 197.78611425003248314 193.14324956129252087 199.96301399128213916 195.95881562215831195 197.58991268115903495 189.48280128227949604 202.57004806453676338 204.94186797715281045 193.52450000069703151 186.3654121220693014 201.64057372663722845 199.42149570527823244 203.35043918246563521 187.92165749167207878 193.51234171987132981 198.99521201405596571 200.85962052703743552 192.56066651596572115 200.35885754093303035 198.42853260884052702 182.85956360071801896 195.53509783174314407 196.64571306824777253 193.38666291249023743 195.25409197713898379 199.08318887694537125 192.14921620670605762 196.14992026315320572 196.20587323585490935 198.70460699934420745 204.76264052587265496 193.54714993937244571 196.86862751536469318 195.22109060849527395 201.18172575357630194 187.4232112202680014 203.46881242383557264 197.99564988456955916 199.62443555581592136 193.61560294193861864 201.44833907034981735 192.59131892659900132 196.88778884485233789 193.14693367513302746 186.53761772953410514 205.8165495761098498 204.20147272355967516 198.12884090671093418 202.35944359983378149 193.01542773615676651 194.78345655208266862 199.42049640774234831 195.24546145478143444 195.74138406748215857 192.38428083455451656 190.86005547119469838 193.2138620534414315 192.87959064174179957 199.4233372123170227 195.28558681508039285 195.29547689123353393 187.4529317656408125 186.15549807490205581 196.02097059004776725 199.63295958183744006 191.375743681920369 192.11524068015054922 184.52275711858013096 190.55670051447501123 192.3489205483133162 198.55368509598193327 202.31244569747082096 198.98066942783015065 191.46937300187315145 202.50734380463936191 195.27672628137798938 199.39240499343907231 188.05627153454628342 186.41510756642944102 198.21566728715043837 200.2591516016952653 199.21115599805759189 188.40043743362878104 185.40934926040264941 198.22975354141712501 199.07926302432215948 199.72305610713479496 207.22905495631232498 197.74362211966561631 193.45462199247651824 193.22898674964756083 185.6297830829131783 198.66348251542783032 197.50014939601084052 192.35884631603391881 187.0429204783475825 191.15082494728716256 201.12733811977528831 197.98444911257075773 195.01873410524262908 194.23300286997746866 189.06090791845221588 190.22597332593301189 197.12673200793622641 195.21793850077065713 190.38680712175030862 192.15144023240605975 195.74265338148936166 198.10719072471232494 199.55962011584387028 191.95120751805851 199.41833552812889252 191.66328495400264842 199.90856242667021547 200.85818748647074017 204.47040510257477308 190.6204390739542589 195.380800819416379 191.3548869433333266 196.20755254548862467 200.59640764165740734 189.57224529590493489 193.52716722131000893 192.20170521346796022 187.18245340906617002 204.30641955386079189 191.49518410684709124 198.9814320278071591 186.60101030558212187 195.39923778736155668 197.06730708048974066 194.45820182649580943 190.94850120070734079 188.2049257363082404 196.54420371690770253 195.71130921337709196 193.63006163299687046 188.20336503196065792 188.73294324259913424 192.65640455067693892 193.26047700306187949 194.49616525140612566 200.63894664223337827 193.68606128238707242 205.59913108478718868 192.7720986701437198 204.47268788012769392 185.69313731437824799 196.0043439759782018 198.57035919837471738 197.14123896364358757 197.92448933830422675 187.91381533517517255 192.5756391091219939 191.20525194483872156 191.43625052391956842 199.32300423096651798 193.77682682628443445 197.05255252973819324 176.66280790822705171 191.19972699480584311 194.28756440153892981 199.13687166128494255 201.01652113408579226 184.57433062012378855 189.23640471915024364 191.38064504270261068 191.77138931442652847 198.11672162345286097 195.0706809521996945 193.23983388424494478 204.68437109213269309 192.17509547351605192 194.23977570358925959 196.20553513877183605 204.89009554902531818 183.87572605528626468 192.61378550141267851 197.81990223596642409 205.84450371665843704 200.50375342559638625 192.58773765545171841 198.20639814432234971 193.06910582578956337 187.27868754129940498 197.86833320880995757 194.48447876652363675 192.40498144760198329 187.19442214288847026 192.30916724076251967 196.1685023428685497
-1401.7150201459764958 -1400.597446670778254 -1406.1581495514196831 -1407.298767708150308 -1387.302081913405118 -1368.0636489582209379 -1410.9503334572500535 -1405.9229327723289771 -1412.8743493566298639 -1375.8301163293990612 -1417.4583415980573591 -1382.6257220588772725 -1416.7438904770961017 -1405.7592720312818528 -1410.402250505836264 -1383.3847945315430934 -1395.8710028725679422 -1404.7130661703124588 -1394.2542806208348338 -1402.5466460112452296 -1416.9116815187937846 -1379.3592175348999262 -1408.9269320615708239 -1397.1424105207181583 -1397.3857172207424355 -1408.6411527421619212 -1378.9035777828846676 -1394.0249168799109611 -1405.1011940830344429 -1385.0733519338491533 -1390.7103863213808381 -1414.7714316940612207 -1402.4235579922876695 -1402.1000933845800773 -1418.3037761674459034 -1401.4689213547831059 -1404.5262149637105722 -1402.9743141346009452 -1394.1659074367667017 -1402.6960296789891345 -1401.7195344032675166 -1385.5610893923208096 -1385.8230795625140672 -1404.8901358626806086 -1399.8740478397687639 -1402.3956285805711559 -1394.357538398538054 -1388.5197157318571044 -1375.4345662907530823 -1382.466158890562383 -1408.3137343028488431 -1419.7118304225357406 -1388.4996121635965665 -1374.3040355726402595 -1402.8456456818705647 -1382.6122263361264686 -1401.5784181643509783 -1400.768668737250664 -1415.1398958131185282 -1378.8065291723944483 -1417.7792625242218492 -1395.8165619683481964 -1391.8409774732963342 -1380.0372964419589152 -1407.4346735566168718 -1382.8623235288232536 -1399.2816765099134955 -1391.1617911246671611 -1415.5031808366009045 -1397.5173158204543142 -1408.3587940455331591 -1390.8594195670555109 -1395.0455103090434932 -1390.186690590881426 -1393.1054045438349931 -1367.4929193907605622 -1389.894413897596678 -1402.2888540398564601 -1402.6859788076162658 -1381.1596939367905179 -1392.5081369908214128 -1402.9986751643364187 -1383.3564929603003293 -1383.8145241739071025 -1398.9309086654466228 -1369.6074893456961945 -1384.1839739960146289 -1408.9400874231619127 -1393.7527927868516144 -1386.906322057398711 -1367.6346709178083074 -1398.90228555255635 -1381.8363748206265882 -1360.8067862670272916 -1397.9422562028728407 -1393.0554578210735599 -1380.8674784149529842 -1389.8356972467925061 -1390.3608002944895361 -1414.3275555202008036 -1381.5934813966466663 -1375.3559231282292785 -1394.1819450040668471 -1415.315853216726282 -1399.3932451405457869 -1385.3690207216779982 -1393.5445605453303415 -1412.7538941145016906 -1403.9004954148747402 -1409.6552266324101765 -1401.6019163250591646 -1397.5992632462784968 -1391.8388923193083428 -1369.1580863455494637 -1398.2678955311080244 -1404.4352708552089553 -1402.0765030981556265 -1398.6790855372530586 -1399.6070240430826743 -1397.5246484013312056 -1393.4420868649121985 -1402.0403724161203627 -1396.4670144334365887 -1394.5294288112615959 -1396.6183790994739411 -1397.8536042991111117 -1404.248565100191172 -1411.5038798037767265 -1403.8504794615596438 -1402.8578646325488535 -1393.4340841545365492 -1420.1628095615594702 -1395.7630118389104155 -1363.5141744258833114 -1404.9226827141999365 -1382.9563215790781214 -1387.377804883677527 -1395.2012684219819221 -1392.0558586783292867 -1381.0732550877360154 -1402.5002080681815642 -1399.8653322128188847 -1408.8132771540435897 -1394.5768773240515657 -1402.7076888688975487 -1387.2695259660490592 -1409.4707706599956509 -1400.9170544597845947 -1402.7208341009538799 -1406.9819042117826484 -1387.1075476666439954 -1399.2928246006699737 -1399.8078757867135664 -1405.9448936731637332 -1408.2256168298779357 -1400.6113024154478808 -1424.6565648978819354 -1418.9581959129225197 -1371.9800986601501336 -1389.6869582838883161 -1364.3963162780985385 -1411.79643841195184 -1392.4224946010242547 -1392.7127795840360704 -1404.1019587012031025 -1389.829279117027454 -1379.1689143745868478 -1390.940909600427176 -1405.2999772450871205 -1420.7139842559176941 -1398.0486839206218974 -1408.6028325494385172 -1375.5415052530627236 -1378.4238991851257197 -1417.7027132247224017 -1388.027899522573307 -1379.4972496015011529 -1407.4752151301750018 -1393.4885767737962396 -1410.6487610183257857 -1403.1021177084833198 -1401.2795563591630525 -1414.839618964928377 -1400.7093154505678285 -1403.4987794491412387 -1399.3884101979342631 -1423.3272793477703999 -1409.5007746762482839 -1400.3124520912879234 -1400.8966953577457843 -1390.9748776151525362 -1399.6753376485121407 -1372.6778917534131779 -1407.6844982961806636 -1423.4687490727428667 -1410.0383937629669617 -1389.6394400174590373 -1418.7437649005439653 -1395.4229827885890245 -1403.4049473550358016 -1402.978853362516702 -1396.5495214388674867 -1395.5913703083920154 -1407.6686404458514517 -1400.937314917225649 -1393.009177922812114 -1392.3131617964127145 -1380.2689765796824304 -1420.1349793140648217 -1378.0024028237917264 -1383.6457764943493203 -1397.6898324424382736 -1400.1003746700364445 -1392.1480191053015005 -1377.5267881546058106 -1379.1035767350260812 -1406.8655802492369276 -1386.7213348449727164 -1399.8555212813728303 -1400.7147131461067602 -1411.8423711526347688 -1404.6625300018192775 -1397.6888855425893325 -1412.9203874279105548 -1381.9409478745071738 -1409.4522306360677248 -1417.6104075244775231 -1378.6478416016398114 -1361.3570882794990666 -1396.7416968554357481 -1397.8787677949585486 -1380.3094810402926669 -1402.2682310751042678 -1394.962659715728023 -1404.0317156728231112 -1378.8415601155052173 -1360.9202916075089433 -1403.9815740669232582 -1418.7046016629342375 -1393.5638135289068487 -1374.2583651281263428 -1393.6498593019018699 -1377.5112472694152075 -1391.5196317518018532 -1404.2441846132928731 -1417.0104606262818834 -1401.9410161497880836 -1406.446834758052546 -1400.1302175379100845 -1399.2692186166225383 -1387.430279681136426 -1384.1261933502216834 -1413.8073785715316717 -1391.1417712097709227 -1382.8208240254607517 -1383.9655768867080496 -1381.0117386329998226 -1407.3279313560103674 -1410.1377168205990529 -1397.84118111291491 -1395.7385133833647615 -1363.5847927485945092 -1401.3353549362470858 -1414.2470386712316213 -1401.5019173773821421 -1406.6997330869739926 -1404.3481766227880598 -1396.0737350298722959 -1402.9087161953343639 -1408.2567362953850534 -1395.9189794839892329 -1362.8006448533144521 -1400.3446457439752066 -1392.9962860557236581 -1405.3097978314617649 -1381.8776280765050615 -1392.785367152017443 -1412.0998949664403881 -1386.9583613105337463 -1404.3628326449806991 -1380.1425474169811878 -1394.3722091553952396 -1409.010063049149494 -1400.3211071037535476 -1384.1227549181062386 -1403.0375860883946189 -1389.9707557953736341 -1402.9667548158015506 -1416.3339932560716079 -1385.0065831353035719 -1398.3445196516897795 -1377.0760323607316877 -1394.8196791109237438 -1403.2702330657757557 -1408.5192285035504938 -1395.0144802731463187 -1407.0253871469251408 -1386.4242352601536368 -1414.8793899907843752 -1402.6379431009982 -1410.2493634054453651 -1367.4751411966822161 -1399.6744536924866225 -1414.6580483506593282 -1393.9737309135546184 -1397.6640297576586818 -1383.1826121382689507 -1402.0000536874576937 -1396.9013699126617212 -1397.6680799480652695 -1408.2264476952411769 -1416.9543055468045623 -1412.37447717883515 -1395.4284930770031679 -1425.749390113589925 -1393.8103726884903608 -1391.6515010679884199 -1414.0229050617979283 -1383.0183225930554727 -1396.6135597271272673 -1399.3687865122826679 -1398.0281745538388805 -1406.3809384938376752 -1405.1163067565707934 -1394.2509193660853271 -1398.041110694834515 -1374.7389660814869785 -1384.3692845364532786 -1387.5894510760560934 -1419.5166469894402326 -1405.1290597345730475 -1396.2907420006192751 -1399.8828365264857894 -1398.3807014255035028 -1397.9228414511496794 -1386.303960666757348 -1387.8731205392600714 -1387.9040006974435073 -1386.9731939053667702 -1403.6964073553103844 -1415.1531025950923777 -1412.0964542972208164 -1366.1248011195771142 -1388.4324125816804099 -1394.7810030414473204 -1382.9198079098880498 -1401.0974136175973399 -1380.434752563179245 -1396.5540151368109036 -1380.9107500279660599 -1405.4427428444105317 -1414.1179250053871783 -1388.7830236961601713 -1413.449918238441569 -1384.1558126949612415 -1377.7902198435106129 -1390.0986710587287689 -1397.2434717419416756 -1410.5698286246058615 -1404.0200674836983126 -1379.2737178248273722 -1412.750293946072361 -1397.855385211451221 -1407.2577530660901175 -1413.3196467154227776 -1358.8402722719649773 -1380.0641305489496062 -1377.7671599734446772 -1400.0596876768274797 -1396.6351062640819691 -1393.1557620842563665 -1405.4692995646209965 -1399.938756264106587 -1386.1887583441134666 -1386.9049313777056796
600.0683192674722477 606.71160219691000748 611.35220696799535745 609.60397986194755049 611.87622822532853206 602.17659950923984979 597.95472087590712817 603.50573989805718611 612.41366342024855385 591.92269387193914554 608.50295455216303253 605.9848957800414837 595.95323698121330835 595.16760883773019941 600.64469410004915062 601.6887296992414349 603.6288309889937409 596.97865700136810574 601.92029041158718883 608.25533807066415193 591.49592927139178755 605.73174651965734938 606.39800656965292092 606.55203281012370553 610.63784759099905841 591.26477587875479003 601.1457276214795229 617.75544548411210144 607.11061282401249173 603.22716743273042539 609.00581140357280674 608.75316670837742095 603.59046234286120125 595.28289203616327541 615.56775249868280753 602.84009861957599696 599.97508846881100908 598.89389798246668306 605.82039889644886443 605.75136013743019703 612.99788112155067665 608.52407239853152987 607.53462810034216091 604.12618242805069713 605.37672361305737923 618.1474085891585446 605.98738946712933284 593.66843998842102792 599.46593121417140537 601.95300808119361591 610.05186818159415907 596.91934378180235399 600.18343091860538152 609.48344408003856643 612.82951794816176516 607.97738470343756489 601.75116427544958242 606.74762098665780741 616.72636552909045804 595.91351755172911453 609.95647347222325152 605.24085703878120057 610.13888448130978759 606.02858081016938741 603.67284232740780681 608.61825732882948614 610.68258060003927312 603.74134458912612899 600.02112869413383578 612.34457017583542893 607.72099258100865882 600.04356403474412218 605.03269548897969798 599.29765224666846279 609.54689716462291926 595.91909588248915952 607.24812807757314204 599.75926665063093424 604.4765469132215685 615.17296163135790721 598.75438384695200966 608.63091791745125647 601.17731843287378979 609.40134985424776914 592.61784197550207409 611.51581026285850839 603.4092826773979823 615.67546617709319889 622.73044888829349475 598.18499877059628034 604.83563879646396799 606.53826958193565133 601.61052817041070284 611.70177114391788109 605.62087125585026115 598.43228813063956295 616.46754140577399994 599.23423591525374832 615.04024924736688718 598.53648234334673361 613.27603798778966393 589.53213408481769875 591.9194242851845047 607.42259930466434525 605.24752585616943179 616.04612469394476193 602.00271456016821503 615.9870429999772341 604.37361772741712684 613.2301535155881993 597.43950213435232399 600.1989469140453366 605.21087576730553792 595.17937393437625815 612.76743983182575448 599.95464463945290845 601.17346307438947406 614.71785591968512108 595.7340023310041488 598.44491454523642915 601.24628717976406733 625.59981140021750434 596.17979265780388687 598.83992392879906674 615.87969491344767903 587.22299003648538473 600.61821762669512736 605.54188562464685219 605.43801508744752482 609.20989987792961529 606.53605196123862697 600.29294977049494264 609.00541689570991366 596.04371130594336137 593.50817438624301303 602.07259289068019825 591.26798588435769943 592.44674595328899613 615.30754957035355801 607.16670401544126889 611.33399115482575326 609.39136994882892395 593.52841040661019179 609.53791882472535235 594.6947945799018953 602.00006065933757782 618.51139309274481093 598.46350981021907955 612.23620887007371039 613.34514787604007324 608.41999890329100253 591.61258551276728213 603.96068467399925339 601.9215749531314259 588.14245403579343474 608.9109327344635858 593.95772341932502059 610.41353397601960751 603.64965032841962511 610.35067373894116827 603.16949802134092806 609.36078801927715176 604.74274507807660939 613.76382062001846407 594.35768269400330155 605.31468669126729765 604.64880994840598305 592.2621537415751618 605.66644874267865362 611.40568240749348661 605.45952743358679982 579.0285036813069155 602.55701824096206565 604.52180062502941382 613.32690279028815894 617.46054278023120787 597.7976830797575758 612.65714759259208222 593.42975640386509895 599.66262316659776843 615.48675576697837641 601.14854647874005877 598.99495676486856155 601.23973659081036658 605.56841369940434561 607.19123199350565301 613.01644187171689282 603.89080356744091205 599.73374970368399772 604.64914527326584448 612.02932475503723708 604.01260740022109985 617.41126818902409923 606.78209088846324448 604.87070748882138105 606.77390069654427407 604.81183189006969769 610.27804088953985229 609.88932112656630125 591.66961947809022604 595.14812126605966114 603.80978808773761557 612.46803679962476963 604.11761281221629361 605.22034173250551703 603.57694388931065532 611.19051236913026059 606.88051398711706952 607.0571091244512445 611.98954419091023738 597.83309992782221798 613.28123295357829647 600.48545028280375391 599.61088714769311991 622.17076099197095118 601.94766854898739439 597.88886599161935465 609.25954440861187322 603.96838642817374421 593.51543751889050782 598.94445099856579873 593.13800288387869841 595.33738440575314144 608.25501262952752768 601.53867590903064411 589.85004834657229367 591.81254301281637709 599.28903941729856797 592.79261055150584525 603.34151735327952792 602.02206599873795767 600.85601354862285461 613.70392242392790649 604.54264836500999536 599.04748649040868713 608.19309087326553254 597.22918936540247614 595.27026340020506723 611.68293611282001621 606.06395726417952119 600.43702802793450246 611.11674502417338317 612.34080901865718261 607.35769487410470902 609.83401239894305945 608.7863666851429798 617.75657271093882628 597.56934096302472881 599.29030197235897504 595.02442266194543663 596.09558108239809826 589.90969022522153864 598.85118856130418408 622.18173416406784781 599.98375371412521417 596.35777898947969788 592.55109099830565356 612.74231314557107453 596.9648869434321341 595.5119814582054687 612.34307716767102647 596.73394354249921889 611.71017415396545402 612.70918917986728047 589.73675345125400327 595.93289957427248282 593.62914815843282668 597.806994683232233 610.73064236665027238 606.99663050462913816 618.39520076704445728 608.59773280612228064 611.1177261956855773 608.59164823296987379 605.74710556286777319 598.60567851242547022 596.81472432130578909 603.61091850031664308 594.25677965146451243 609.82818542692234587 610.4335022036218561 608.87973965150808908 598.82153786258345463 604.53782660772299096 619.03401845106679957 610.13864491068522966 611.52632226365926726 605.48175022471207285 610.17872948999877281 605.69440313544509991 603.64454088165246048 610.90786342490639527 609.72949975615517815 600.61591796511049779 595.66457897791360665 601.95994973021709029 601.46543413841789061 600.65431824224788215 607.68026141745860969 608.49136828858900117 605.89382146816808472 604.61673541989603109 619.02861750328474955 598.82759834855164627 601.17200505167465963 618.4593590929232505 598.23308356470488434 600.25158123611663541 623.37636256696282544 608.88627508525473786 599.68241025815802914 621.83191649657362632 590.99734357673037266 601.57469800075500643 621.25517296782015819 601.20645929804834395 586.53798319437373721 596.38793619976570426 606.65836394810230559 604.15610945855905811 596.44133980917649751 597.98352240223869103 599.3795823494169781 602.19021309451977686 592.34623468819643222 597.11362025692881161 609.66081071979488115 610.90706587360068625 599.90512808871926609 607.17265323545757383 609.68679970683592728 617.28517915560939855 598.00290352645936309 599.65284604417240644 598.91923471998097739 610.56826177174843906 602.44091709840438398 589.65832563853882675 601.00213080735704807 602.94428301109940094 608.97323928132777837 595.01240118277178226 609.39247581840436396 602.01362934030908036 599.5531189688260838 613.00941564195363753 609.32159935112736093 618.21833300517573662 602.71165140311404684 592.724352576506476 601.8000101586924302 616.11864295872805997 602.77612912072027029 601.94422561889120971 602.30846380804359796 609.33626966112922219 604.07958333068870616 613.56605333291838633 608.82158041753825728 596.76924614003189618 599.4095602759537087 596.35449007310819525 601.49266233423554695 605.06443778824780111 616.54955173381051736 600.10672874729868909 602.82344008355369169 607.27846427068845969 601.80858060586012925 602.41632617037362252 608.47754460572525659 601.37687349750035537 604.77805504161995032 615.8347803867679886 590.40073052986463154
328.01854427433141836 339.43368850575336637 331.28227174745103412 331.91522951131389618 337.61891001507103738 332.23568645784160935 328.20340467123395456 338.61617543755784254 324.93460970893869444 336.76523489648025134 328.45256935720499314 325.89421655574267334 332.60496831059322176 334.29563442828327879 337.97713695604142004 330.82297268277301328 336.3909812098806924 333.96661051346632121 332.02794856631169296 331.43231374949618839 340.33856210519394381 321.93303295209113912 340.20144864858502842 331.06467039667228391 336.45900056614851792 323.28599668732402961 333.58351151821517533 325.96052340267806358 339.87781796253091215 330.66681597502287104 338.89115076035506036 346.0023248698840348 331.97839429297442848 330.14271122710454165 341.44806773006894218 337.43315057925332212 340.21289733169521696 335.90210277339963341 332.53600680338342954 342.11765520931879792 336.45369376678968365 335.21940331919427081 330.2697552249478008 335.63214960551908916 336.69148975468993967 333.51489098657464183 335.36024329081061524 336.75887695278066758 329.85514851599833719 328.29384468185662627 339.53679993386850811 332.30580076369062681 337.64891778518330057 341.11400221302983482 347.74992284610721072 331.09600985287067942 326.17753535111887686 328.94691952463938378 340.56180300292612628 327.98049120135522116 323.77294751003159945 336.69954229658191025 322.62038259264181761 335.81442233254915664 333.80429131254510366 341.39228774897480889 337.39545791490581905 333.3357319986853895 334.78914073737911394 329.77704845430162095 332.31933680385049001 331.38927897811356615 329.90388342034339075 339.11360420196194809 332.36892168391733549 329.66309762139047734 327.11525541360680336 328.22088236732264477 337.010932020252028 324.37601959013227315 340.02449983280649803 333.51394868395692583 333.16069080457526752 334.99018479531611092 330.76812405139958173 335.88987700099124822 338.39718456308469285 339.69037944285719277 332.56623691408037757 343.92831376187945125 336.29607717384038779 334.07964469189073498 322.35855780859560582 332.65737029460962049 332.41371065132256035 330.16522663663647563 351.26074795810319529 334.61292722729052684 329.89021297737548366 346.2917874636886495 329.25562198114005241 332.77249030502974847 337.10042142431899492 329.38811710893315876 339.78526166796433472 328.93290113908290095 333.94156070268587655 343.21588567921634194 330.20588113959456678 335.40363479215363895 338.0739492993951103 336.73307953893379363 335.53447427849943097 335.43294183432317368 335.39892918634996022 332.01642333412161179 343.25811536255918099 329.18768016997029235 338.03244291138173594 337.19974366689677936 333.19435368100192818 333.72895166311695903 325.03533744954455642 334.28655828862736143 331.24030298386514914 328.76845171446956329 330.4146459881744704 328.6267016062730022 337.64448951411139888 335.85891126291522824 331.230835670563863 338.02411064250077288 335.46748179927095634 331.10774012921172016 335.02248872278408953 331.90534906173104446 320.62886850339208422 336.03195625884791298 324.08251727325784941 330.63825331372868277 339.82196904722303543 334.72063482078681318 338.59342011683941109 340.57880783184890561 323.90144720921261978 330.94920192351389687 332.74622829805980473 345.39278850579125901 340.56754030614507656 334.40571745793448599 341.72354179602109525 329.4874348755906226 329.64586709242996676 338.74224661865315511 338.67724819387973412 342.16446499927837976 340.15178971143598119 336.98764807825477874 331.38445885530023816 326.2841239625486196 336.3825455077181914 328.96896003640802064 343.58897036089359744 342.20160264193202693 338.06862852266544905 330.11161412977958207 333.76797914399327283 341.78334051232019419 331.99607832816565178 332.50198400366468832 335.09932913642404628 345.70040570642851208 331.5201934356667266 335.01865904376887784 339.62958805899347681 338.93229992066892464 332.83891888190930786 344.83247060367978065 336.84319421934083039 332.93354139955386017 338.33311717100912119 334.21993519376417225 347.4846926842258199 330.91389791057912362 329.25396689759725177 344.33699274972525473 339.76944656415162171 326.62183809920958311 344.07565594258721831 330.91199564771892483 330.86679469166057288 330.87357421963935167 334.35794689262257862 330.81430839425104296 328.27242989470630619 333.30620099372202958 337.38650029861832991 338.40225191192160992 338.77826843662592182 341.21897429574329408 328.46506787083274048 334.41968954174615192 340.46394585362855878 337.08734736352818118 328.27442667103929352 338.54703957887522847 335.46157884673721128 345.23619507130183592 331.66362265400658771 330.42693412407481901 326.79331452059290086 333.98440118419352984 337.40846539748832811 333.31382676277416977 330.84402767526324851 334.91848543959650897 340.43002519078424939 329.55155346471377698 327.97241064016958489 326.47046679727617402 341.3926615404830045 337.03358612193198951 338.26500689837041591 327.04517999925820959 337.68255491362464227 334.39463049824837526 335.36014417932415199 331.2285756249045221 334.93447906982572704 333.13526249986307448 324.5583835841224527 318.33579495147949956 341.07926039496953763 338.93224825812279732 337.45968745500681507 331.9855744435689644 331.369455376620067 332.08142979420625807 333.54305507695693223 341.76892936396637879 342.41267217260525513 330.42147934940533105 335.29586246434115537 332.73804511986202215 326.18374652943828096 333.09343889397922567 331.75994452469251428 334.35069690684827037 332.75708375841128372 336.71022269688620554 334.71223669843953985 323.88961834836027265 329.83319315666102511 335.4415309504513516 329.21678604660127121 342.13206237413987765 331.6601237442480965 335.10342972805523232 329.9858731126309408 335.99815133115237131 325.90863786603983954 333.65812151899996252 336.92891036761056966 332.21742131093498074 337.28219210768247649 338.23513020157457731 339.93782890763259275 336.36276128490072779 329.99737518395875213 341.32238060100706889 331.51281623831692968 332.56408852463783887 338.86229769008366475 334.89989409378267737 339.9902595506716807 336.54902455992390742 345.9511273969687295 344.92269499590429405 340.97123116447977509 336.56700212460378907 332.51190689011622226 333.23894655017068089 333.95833199626787291 339.54245417732170154 337.24702550265311629 336.45095305041832034 341.47728583941909619 338.97708617306756196 332.6907131463379983 336.24896144341681747 334.52736697206427152 337.43771672932814454 339.57224055394317475 338.81409817267910967 334.17707680701812478 342.07248888051861968 334.58379438411981255 323.84772092956058032 336.25811698142615569 345.93306844673918476 330.14994907964455706 340.95976241050016142 337.98057704780461563 331.31660156232425152 331.78889200843377694 331.93705847944420384 327.62675922301303899 334.14960956075776721 339.1384875321139134 334.73079415321768693 338.02307199414025263 330.32186778857533227 333.99823096693199886 338.37058304235210926 328.63225627744765234 343.81813518280938524 333.16748074604026897 328.49361165374381244 335.6726896077769311 334.2403628381413796 330.5144727961367721 334.59461454883211218 341.72250375477460693 331.79811436288196091 342.81693315362576868 332.73482097274103353 337.13131892165955605 330.24473015447352964 336.44223238578405244 341.50864511950874203 329.62485039122265107 330.53617744433819325 336.27804118315049209 342.24867121146934323 340.73767535749971103 334.06364668535849205 335.03244022170036942 334.68900731083874689 332.95518394317343791 328.40206250442776081 336.8374419062363927 351.26659783278574878 339.34289885139247644 334.07202497143077835 325.7046521845454663 325.77634589946126198 330.42323409243510923 331.6263290941287778 337.53466296061270668 340.42357706992453359 322.51212630529801118 334.12351653131480589 333.43446157277628572 337.60155156167621726 331.38997064293482708 330.02913277569655293 337.39736102446295263 337.88489068841442986 329.6466788216098962 342.16647324257502305 345.35049097630826509 336.12668781988179489 337.05582379395406178 334.15260864678447206 335.92760471954488821 329.21187644469512179 325.50293832807022909 336.10736703949538651 339.6280018835213923 331.92963205985154218 326.91424464418446405 333.8400590561400918 332.24766078162383565 325.41250882528214561 330.5997172502688386
-1480.6176314114534307 -1487.9752369551504216 -1475.8397175874545155 -1487.2505050889787981 -1465.1681904656443294 -1463.9285296062751058 -1475.1175994173192976 -1470.3343370178438363 -1488.6512139240414854 -1475.0680851472363884 -1491.3659678617559621 -1477.523426323973581 -1472.4849328404477546 -1472.8819306816033077 -1478.2242136736615521 -1464.3595127874427817 -1484.8083060218341416 -1490.8199821954499384 -1473.9989320650904574 -1476.6699058107813016 -1453.2593645573203958 -1496.6200736480006981 -1486.8169466192666732 -1477.599721948105298 -1496.4088201256108732 -1491.636200277633634 -1482.971962809687966 -1503.8300609813491064 -1493.1790583901718037 -1481.7465525684951899 -1488.0793914202715769 -1461.363470881672356 -1480.6313528067460084 -1483.8892119886168075 -1460.0445033305679772 -1487.4417963696744209 -1471.1544171769960485 -1473.5592252677149645 -1472.5779163556123876 -1494.7267573668887053 -1476.2040879661178678 -1475.8292495690373016 -1475.4245800869489358 -1476.1730259131416005 -1490.7184591159716547 -1486.6680193006575337 -1477.7254372307936592 -1486.2226679613538636 -1468.4257526770898039 -1477.5417129066943289 -1469.3522441399518357 -1479.5863708154913638 -1467.4730198895515514 -1475.7964777066499664 -1480.4151658684347694 -1479.8529947673850984 -1495.4570713872765282 -1490.1173691774990857 -1474.7100628512228013 -1488.1555418292673494 -1475.7543243746963526 -1491.9154974704536016 -1473.9571237767008824 -1482.5492746004424589 -1472.8804265216206204 -1485.6803149609236243 -1479.7469870636446103 -1455.6499711257886247 -1445.3580294660007439 -1476.2529278533379511 -1468.5548064105305457 -1470.5932231121112181 -1497.5320291501984684 -1470.2562930649730788 -1460.6514200342105596 -1487.107020822520326 -1466.3599080979945484 -1479.8287919441843314 -1490.2773065535050137 -1471.6599248339464339 -1495.6071736056881036 -1475.4036019939437665 -1474.3408160950471029 -1452.2973467929632534 -1450.9283781784047278 -1496.8057648922999761 -1503.4078762178194211 -1465.6775413547654807 -1472.0107736884333463 -1473.0763458766004987 -1457.3275970575098199 -1492.5343866790519769 -1484.1131057259046884 -1493.1260962893359192 -1489.8145181697714179 -1487.2764059220983199 -1471.3321908034019998 -1487.5104131658847564 -1471.0258366403936634 -1460.8986306402032369 -1453.0148189802296201 -1462.5189122074202714 -1487.9946527021995735 -1458.0892982571333505 -1469.7643085008085109 -1478.2461564811087555 -1488.4772888224417784 -1467.1115358288629977 -1467.5466852868264596 -1456.9789152816888418 -1496.876824734433967 -1467.7151910011375548 -1484.29340310408611 -1467.2807863369755523 -1476.6160414032683548 -1479.6643760153754101 -1474.6941277747184813 -1460.7047943776706234 -1487.2696015741591964 -1467.7251228211873695 -1498.6025252778977119 -1495.5521036428667685 -1465.422698112173066 -1482.7677722554740285 -1459.0994849687294845 -1484.8411813898430864 -1484.2694775136151293 -1472.5764994288415437 -1466.0111710185346965 -1463.1283861961408093 -1494.9208054312450713 -1472.1006814935894909 -1483.2114947986485731 -1483.2780821677254153 -1457.452072366908169 -1503.0289678679062035 -1484.1180394995658389 -1454.197434211213249 -1468.7523775116962952 -1457.6987494364452687 -1461.9141259011871625 -1470.4558622695872145 -1469.5614180723634945 -1478.5442050567692149 -1466.6053864268865254 -1455.2129936848364196 -1451.6856402160735797 -1481.1445363853329127 -1467.6811514490641457 -1456.661068840985763 -1480.5336628235590979 -1488.0970742418417103 -1478.0117421634604398 -1449.271470133949606 -1483.3703511367002648 -1456.6111816242873829 -1457.9245432976060783 -1473.431210633079445 -1488.7763931400427282 -1487.6046269135699731 -1478.0046146749953095 -1474.2236221797340932 -1487.2484187373975146 -1481.6843755900713404 -1460.3642010497055708 -1461.4691961924472707 -1473.5203228383620626 -1466.0188161832204514 -1478.0661170667112856 -1504.6170859557137192 -1469.9162470446631232 -1481.5840571418248146 -1486.5643043042641693 -1473.7787673155949051 -1484.4864211878496008 -1480.4852027388160423 -1496.1239330362204782 -1474.5572337515413892 -1482.6656374032447729 -1458.431078445320054 -1491.8530029150426799 -1468.1423215923846328 -1476.0193769701802466 -1499.4245410163484848 -1476.5445507386000372 -1464.4100062794702808 -1504.0568217959601043 -1489.2405600119936935 -1463.3289258123909349 -1476.8617810603907401 -1477.5807262524956514 -1499.6753498525129089 -1477.2767001076542783 -1483.2999368712642081 -1484.4202573446984843 -1481.6497410450572261 -1471.2886364731386948 -1454.4776312362571389 -1486.9771339711435303 -1478.9746332411139065 -1477.0788723763616872 -1464.569821551584937 -1478.8831811910815759 -1461.0167629995521565 -1483.2266978988257051 -1449.942712257321773 -1502.5836626859440912 -1455.5683677170543433 -1487.1962737353428565 -1468.5603157805905994 -1469.8993783759729013 -1472.391706428341422 -1475.7787252131056448 -1495.3143320947581287 -1467.2202694612660707 -1459.2764502010775232 -1483.1789782415589798 -1500.1942300989260275 -1482.5203109493916145 -1480.2027804523534087 -1481.6255983105036194 -1490.4296353214845112 -1466.5723483218912406 -1484.1252007553548538 -1457.2455784086619133 -1473.5271090156086302 -1480.4351148939826999 -1459.5811194704517675 -1487.0478251061824722 -1476.0252689995465971 -1485.1138799403631765 -1493.5019600114826517 -1480.2185282418934094 -1469.4565884371463653 -1469.0744643071770952 -1488.5131283219784564 -1484.6347229781590613 -1497.5543593661984687 -1497.6095859939684942 -1450.7786421955897822 -1461.2323814503904487 -1469.8470957859958617 -1493.4025991072514898 -1486.381739651319549 -1481.5884870696106645 -1457.5052241956836951 -1494.8856869044554969 -1482.7218402589176094 -1461.713653066919278 -1484.7892940136098332 -1479.8925691877859663 -1456.2973898185521193 -1471.4848187815935034 -1483.1842059971395429 -1495.8367420377378494 -1472.8416926976856303 -1457.9223372159194696 -1478.8039105419284169 -1487.1986117510587064 -1471.240501817266022 -1466.0119250571624434 -1455.0088880223183878 -1473.9942718846343723 -1473.8317283330638929 -1490.2419964238874854 -1473.4305329779774638 -1455.8574563954130099 -1462.5890541813557775 -1451.5451978803596376 -1465.53974583163631 -1460.5722012833425651 -1477.4247872056148481 -1477.0260397968738744 -1476.1992079271856255 -1486.8961848966625894 -1482.7738249360104419 -1490.7551944693250334 -1457.2503572849466309 -1478.4258902475758077 -1477.880920800541162 -1511.5248050979048458 -1471.7381374067260822 -1481.3194019590314383 -1477.6780573847872802 -1487.1670148979953865 -1472.6784007807082162 -1474.8212455097566362 -1478.9240326398826255 -1480.697183503926226 -1484.9284782585664288 -1476.0715453679119946 -1458.6116526728810641 -1498.3645456575732169 -1441.3328180847058775 -1474.8018111498552116 -1488.3384613361504307 -1481.5037161578502491 -1485.9828283822384947 -1477.7564601278377268 -1473.3467807421884572 -1463.3557819380901037 -1482.7500132409695652 -1474.6196322314651752 -1479.5588838651622154 -1478.7568732161112166 -1449.7974044104439599 -1466.2051503128184322 -1482.004633318172182 -1465.2369860077656085 -1480.1503115925863767 -1490.9147623343717441 -1501.0011428782388521 -1463.584115139886535 -1468.3006573862869573 -1492.7047739585468662 -1486.5181178128968895 -1473.8468530122042921 -1474.4855034960337434 -1478.9087851974500154 -1481.6383692807310126 -1473.6995473474994469 -1479.8213177945372081 -1467.9925965612846994 -1451.691101175913218 -1457.3395521807449313 -1515.2630060097778824 -1477.0812805811663111 -1462.9836010582605468 -1473.952078335921442 -1472.776737229406308 -1476.6986990541968225 -1457.6487260393689667 -1506.658741414961014 -1484.2176874580497952 -1494.1475457083101901 -1478.2901256757729698 -1471.8991426656377826 -1442.2349791133328836 -1467.4909351901542323 -1476.4864476257050683 -1482.6052730976168732 -1478.5170517658177687 -1456.9309095003702623 -1455.3834449884361675 -1493.2900025254700722 -1465.8680148449695935 -1456.3639154228360439 -1473.6356175236664967 -1475.9209324411949638 -1462.7832184428896198 -1491.6291033583820536 -1471.9383715433850739 -1460.888699334648436 -1484.5098953631206768 -1490.2036506189785996 -1462.5195555253951625 -1471.3575898225276433 -1473.3475344425130515 -1467.008303198384283 -1464.0449722673881752 -1467.5429017662036131 -1475.2586666007471194 -1460.7123587855510323 -1516.5538524236069406 -1491.3133408050341586 -1451.4992327454663155 -1478.4483155951938897 -1458.6005507403331194 -1496.0956995218102747 -1470.9665612837502522 -1500.3529978545473114 -1490.7705308233396408 -1490.5233989433684201 -1445.7277129339020121 -1469.4965578595383704