-251.26529372601200407 -256.68325639074691935 -255.00236082657681891 -246.16590424142970051 -255.06716257462059616 -248.30668822669250062 -246.20717348687816184 -239.45101471067755483 -249.27395917278684578 -250.73061951366653943 -250.22476862060707958 -251.03847972205048222 -258.166452338786371 -250.84198476657195442 -259.67693273042380042 -240.77106331190523747 -256.11040046470532161 -242.75506947947926051 -268.32553236202340941 -244.82393726955416469 -257.34652075371826641 -248.72182417068347604 -250.98555220407814659 -236.96801963508471545 -245.21819105469211308 -251.31383176539554825 -261.22183470162201502 -254.78239669783783938 -239.17069343370454249 -249.26145837987613163 -249.13312971554370279 -255.83931179172486736 -242.22142611559957004 -242.19762873183572083 -244.48242055968802333 -245.30923964361784329 -251.59853097457124704 -245.74907152593615933 -251.66253674222457448 -246.11406030118786248 -255.78340119640830608 -249.18996204763217861 -249.12678778003629532 -241.83084083051500102 -249.71358661233622911 -244.89892588360243053 -247.95185985077290525 -242.82148785268091729 -244.05991029564256678 -249.66266036197899325 -253.34252234995858544 -251.49150626651487528 -244.0071803994192976 -243.96621105940195662 -248.81823127075571733 -259.36941908281369251 -241.91324407472214375 -249.75857303926073882 -242.26091479729970501 -253.94737588866905753 -250.21835295776364205 -245.90609025160983947 -241.32742190873631216 -244.2595744382247176 -244.81900282091902454 -250.72705505732534448 -241.28209753536810922 -241.41705860285011909 -239.8965925993489634 -247.38546723519587545 -248.36333135307518205 -256.26466671776347539 -256.86565883763671536 -247.91114034205560301 -251.18648092020322338 -251.75981104013132494 -244.78910722977931869 -256.01080222550410781 -244.56916063989899612 -253.97568169685888506 -248.62593339649984614 -250.25827572612269023 -257.62591107543624958 -250.96546611701288043 -255.36358312873585419 -248.79858866939719064 -252.33109979332829198 -252.74024012949482199 -258.19866397422504178 -254.02670828309959461 -248.07791428626597963 -237.74888677501888878 -245.00349279961440629 -252.10494800177676211 -253.84571646101159104 -256.62892684564837964 -255.97731317235806614 -236.65955073039640411 -258.84001825745065162 -239.4696572478955261 -245.72360154700740509 -246.04963398537913122 -245.92555414903407041 -251.73248333556350076 -250.78745375770375858 -238.50589360311514042 -239.78898718674815882 -246.2651333042205124 -244.1755105336495717 -247.57269213242514638 -243.70064557355283341 -235.28973823120895759 -247.2648397355339398 -242.64848405363292727 -252.75942679630662724 -244.20130163334499684 -244.04920012140055974 -255.93960576547306118 -239.3125683628369984 -251.34227258222861678 -251.08702141031619703 -243.6613049908774542 -253.71040297976398392 -249.75613029970347156 -249.24473646244109659 -240.69561196417805604 -252.44477577832205384 -251.04416311322680144 -254.710478999474077 -250.37855606835756817 -240.76013360104258254 -245.31794217718237405 -250.62913631656783764 -243.35058643029091741 -241.41076832420199594 -242.65396599302968639 -244.59138249346099769 -245.90127317381453054 -254.49355719959532962 -244.40462744003480111 -250.54322420938342475 -259.7170921986129315 -259.77153336403392814 -241.0449095806931723 -247.64407521631255804 -246.85681759892648302 -239.84878927614585109 -239.25968570076972242 -241.66370815337347722 -258.48296319215370431 -255.13590491527196491 -250.58932337249703437 -252.65309423126009847 -245.8775343640922415 -242.00473093961261384 -256.39373027268146643 -242.33266825412889034 -246.2858550723017288 -244.78266355038113034 -258.10987674128574554 -245.84673336271751509 -250.43188232107246449 -266.38000787541403724 -240.2067133787601847 -254.52104290392964003 -250.93323375413743292 -242.19299719378372515 -243.80970274831670963 -252.55500318678465987 -240.71904117653991761 -239.22138192670860235 -249.67954492218166251 -254.25757604181430338 -249.04659924157076034 -257.52875614246551095 -247.7417530811777624 -250.91307180992842518 -239.49314618087598205 -249.39991776229442166 -251.0822775769605073 -250.51898701385920276 -248.44994494602218538 -242.73025708181873483 -253.7587319094350562 -245.80516642293804352 -250.15026807128242581 -249.86984139320307463 -244.35848361369707504 -257.14531343022053989 -243.56487271145820728 -256.01641375672494405 -240.46522978003690696 -243.22504448968899737 -245.61876941440272049 -247.49963149568407061 -241.56774656600529738 -253.9820009820395228 -250.70033938881999802 -254.32475921751714054 -248.07744156956951542 -245.19393026227277232 -252.06504021757285727 -250.64505058754090783 -260.56021486390835662 -242.49835731366655978 -259.88100532354883399 -253.38979936459031705 -237.23193027545676159 -240.01255266244493214 -256.07712787553668932 -246.4277232939238047 -245.81141844244811523 -249.58791684328295446 -243.14946958279313094 -233.18519947813018689 -260.08067137991156415 -247.95289554233974627 -249.68684572897799967 -253.33528870841033154 -253.53526999354298255 -246.50723311593864651 -238.96246190719881497 -247.96366312731464632 -239.1794446853540137 -257.39520242059307975 -242.16717057726501139 -245.89319967413112522 -248.84867681997812383 -257.78455639410464073 -245.14919207129230472 -239.10523758597776123 -241.94064908891010646 -249.11852411650193062 -238.05753377212352007 -254.59402557437292103 -250.60803622793088152 -237.05399167450207187 -246.66381349344277396 -260.67788294036876096 -261.67366106088098832 -260.9166904556531108 -238.69763493012675326 -246.25496299588905913 -244.12429332518001956 -240.27569033126289355 -239.74638766679728974 -249.07025960165165657 -244.95640444589551521 -248.03076176998624192 -254.09598101290677619 -250.75840796134218635 -243.35338921557161029 -244.41742198256238794 -246.84064911684103549 -262.40917183844663896 -248.22735614257072712 -247.95983032951878045 -245.07570079162547927 -255.85144014825129943 -244.58922384487021873 -251.17324421747608199 -251.95431707676613087 -252.94142304183984038 -255.15091098881075027 -254.84681793985043896 -258.3449079884155708 -232.42489374016966508 -238.36561440542485002 -253.91880916573083482 -244.67120987250027042 -253.18406015419682831 -253.26579327049887524 -251.65701831238470731 -244.93723234233914354 -249.75738752836304002 -252.40839871136034844 -242.67039591740888227 -260.22143217386866354 -252.55458168373257877 -241.20526881134546215 -250.51500198314860768 -243.73758772575735065 -242.59621797240157548 -252.73556618688073172 -245.6810076785490935 -243.90000824711532346 -246.66754405974106135 -256.43694326757326962 -250.57570937696627311 -251.94823351109303644 -258.49615466176658174 -245.77484590201390802 -247.56510607729703111 -231.35953737365861116 -254.65868181820411564 -255.59667874753358774 -258.78405675369998562 -245.7970970274769229 -252.09095175846408665 -249.40363281267843831
-21.635418017601864449 -21.111393545368208891 -22.748150265330355779 -26.644310389317400478 -22.264617942196728961 -30.76205014292629869 -25.052095848351338958 -27.821379215771624871 -35.247835582650118624 -19.506358739257834145 -27.839794794845762027 -28.76837306160010499 -35.453314354303103073 -31.673039750045379748 -24.653004206172038693 -21.70561670417568223 -27.099967705165735055 -27.869492943681219543 -34.453067331297468456 -26.920852032203079318 -24.543106207424923326 -28.134787398538307457 -31.031747250064572796 -29.172338783524217831 -29.638945762662462613 -26.007803239475943968 -31.73194948078068478 -24.532326519141061993 -29.64795217034743402 -19.473808776507020468 -29.132613759847458823 -32.072995028304269738 -32.263771802024876934 -29.515305279041317732 -17.616976359996471047 -24.65961136342041371 -23.800747347165575718 -23.343991319328793566 -29.164483289637807673 -26.648874035510036862 -26.150682691476934139 -25.300213827300808589 -29.769025144706333208 -32.748760947295906476 -22.841393612259373924 -27.837295541563690904 -22.758817927949216653 -29.173659663930905594 -31.171470825548087902 -26.995314969271536398 -32.828708594842233026 -27.825154190869604065 -25.37219441360054617 -23.709870965873601989 -26.262002724208723947 -29.25168604786334825 -35.898932954616405766 -26.769832835036616814 -22.089858264946578004 -25.855701657788589642 -31.873562671148022218 -27.807210083604541495 -19.36453281143784011 -27.90253567241919086 -28.465683241593360719 -31.731610029404059503 -24.059695194133311702 -17.257681781114300179 -22.548487374293017638 -32.027479283697765311 -21.316521742893346669 -26.859237249209328979 -25.304205832169859747 -31.957529403497826337 -32.3180365930264486 -22.521452330970049616 -28.767452165252123564 -34.921407896287185224 -28.640332573169573038 -26.044358193383633449 -30.112504295266607102 -24.978549276137599122 -30.062850431952853114 -22.382324055382582628 -29.476331779111404785 -24.553734211664263398 -33.449247766895972234 -34.80517290032329214 -25.875891101252449289 -23.148994992008113059 -24.065694000612836589 -35.017630257310628394 -27.948313216257627545 -33.141193097277145796 -25.328009924219440308 -26.982195336352475579 -34.810907601361584796 -22.349614134927300313 -24.408866803609367224 -21.004041210709218035 -23.811170416914123393 -28.816714940675588252 -23.636679784695363793 -29.537716489470437153 -26.401601841744927412 -21.476030625379284089 -30.611847577248028074 -18.21763321067593111 -25.832510759235375986 -23.840094934598692333 -30.225149503980961896 -32.723797728134115914 -28.105960599922326537 -21.367238502306538095 -25.517106114700830233 -25.906395420940640406 -23.582828804933434697 -26.40707401417564526 -27.061485859439773805 -27.576959870391757335 -22.702021775740586662 -25.955921596859809597 -33.915525158927685823 -24.522531797183535929 -28.916732894612625415 -25.799125217232560914 -24.918025870470383865 -30.36419466731019412 -24.415305663351340115 -30.041318966782892375 -26.561345665452083864 -23.859224984961144855 -29.6294873927270217 -30.680813106555561376 -27.447745812617633021 -29.987030802709682575 -20.518543820656034882 -23.00799443265589872 -27.740410718942747792 -30.463124032052768086 -20.911791785280513523 -26.179728010076452449 -25.734286409274563567 -19.59873058893264286 -21.628900248600064771 -28.135500264755492594 -25.3549886238586204 -23.12187422804169401 -22.163846429294679297 -30.119301781305356513 -31.169733073883897134 -32.831915092151042757 -24.6540959211242523 -27.204268420290372177 -34.743043634047523938 -26.177731994376703284 -24.496821533784842728 -23.806202997070919025 -30.243283871633167337 -27.641585710829001954 -24.229852943375195906 -15.274191515295063581 -24.914763438836526888 -21.977921216275177585 -27.582603869961538123 -28.579115909559245523 -28.806206382439594194 -30.596582468902816743 -29.569987661963033077 -31.288218701077987305 -26.780784260974481725 -32.936139470844487676 -21.86642408991682629 -26.278427421280461829 -24.019253466254234297 -26.067808913531465009 -31.683205444982558419 -28.664067432135649227 -27.05198544631567259 -24.785792775271481503 -22.363923676226871606 -24.767998012127119267 -33.676690738131924263 -22.350804314519656657 -24.540620279693218464 -26.495207861349250322 -23.164608812123955062 -21.593730930693791237 -26.592194152123003192 -27.55376979699063611 -25.707603975899480986 -18.640110586450504115 -27.67700795180257245 -26.989112558920421492 -28.514121666039834224 -27.327408192181955826 -32.100772609157559145 -25.650632917504701425 -30.623739271230526526 -25.258485997309598758 -23.622096956514155863 -18.653558682116038625 -29.943917973731313253 -22.541662509965846084 -25.516544117483892506 -25.36186486356587011 -24.501761354434325568 -26.890913583705049916 -22.396354965565631545 -23.756650685578030391 -25.475274535938055465 -33.5512043131288209 -29.258298849386076057 -24.47821002836862192 -30.837291801184992579 -22.808979788255403065 -23.37705660000968777 -29.980051275571081959 -30.727746350866681269 -21.457412910397994921 -28.805152939847516791 -27.105837761425743082 -29.465272557945297649 -28.667204208630767681 -31.244048155438552072 -31.419099391464470727 -18.186534678536592224 -30.625943292849211019 -41.35472116802313991 -22.781600778364918369 -21.623498599956931798 -32.339463496481045013 -33.576055053949872331 -29.073020455666668482 -21.318464212033646277 -30.614914418368996962 -34.343451436670321186 -25.335690737852583965 -24.791876397982516522 -22.096330965399936019 -30.155450477885196392 -29.374982711616056008 -22.521029945287544649 -24.720876623556254259 -25.827182638231331424 -31.321646484156691059 -22.346197518921204761 -31.476727579256326806 -23.239544946679540516 -22.930069888772830922 -37.615961393515313205 -23.929557125309415255 -27.781215163351347996 -24.865389563340478674 -25.72968085154696638 -20.541455093125613018 -27.374028512059538798 -26.177832533824194172 -29.336562144529267471 -20.267702092103640155 -23.682804013721380443 -20.089444735010463461 -26.658882149481655688 -26.710966341128390411 -26.242058327135794116 -26.751958397901493214 -25.302097530385186275 -28.650869473462488912 -31.069779960595639068 -29.311136916071717451 -23.488079259654639941 -25.970948856915399006 -24.840326534665656766 -22.523291477271730088 -29.789128457442025422 -30.768623372341842526 -24.306290969462988727 -27.928758474969345826 -25.751871600726364164 -25.181127380112449998 -38.481384603692845303 -24.63991456545369374 -31.831477909674052995 -28.544101493867295005 -25.792690565348969756 -30.284430323447118383 -27.339551000075879017 -33.894367263336825147 -22.659169063441787273 -39.608828346083967631 -23.167054969371182693 -22.989839590252621804 -32.428224501181617256 -23.438381382828811894 -24.545758096614996191 -36.10967060345036117 -34.085277561975402705 -25.950334304855850576 -28.66926825655188793 -25.793069128840823367
198.48686396791032394 193.6731288757480911 223.55042978120323482 198.3516956104834037 215.01242872833239517 203.03270078396110421 210.54836369473133573 214.17977051004018563 200.81785936452183705 193.23569648628290452 198.24528843710530168 211.37310867029080441 187.31798525815131029 201.11428122705507349 195.62263630749063736 207.23690718439965508 209.84389310129358819 181.19412048046177688 202.28892897329328093 201.45415882954088715 203.54982729180798628 202.06445272035998073 189.54443215908915477 194.70267260156421685 196.68030907391909068 208.26424570687908044 186.51705026782667574 210.72584785459940804 206.46835693732080586 206.12245997030211697 192.67479184429035399 198.57117857021736995 200.99980629519603781 204.42328892526145978 214.37447426784257232 191.39949209993636714 202.66874970413419987 200.96940859312906014 209.28221412059207296 197.41940691324177237 199.00604726816240486 217.10355052150447364 202.74232541335121027 188.0941428458346536 214.43722715462766359 204.96947409905266113 204.46403354113334672 210.67596416213115162 215.74245341747854354 199.21583098296989078 204.54028889425759985 215.93482917713296843 210.02218439450339815 208.12541888571968229 199.33976500132936849 212.02133308348885521 198.14675885631857 211.86046609221639869 208.73572194357058152 207.22614317355802882 187.84480391631635143 196.51084547639814559 220.07554308527642206 210.03801134976572484 203.54660099620215874 210.94444007513359907 204.02375653871351346 199.30021095770771922 210.30532427805201223 197.04434132610191455 198.58480651919890647 192.77174822527345555 194.50611324434999005 215.40319639076608382 204.01540451136290244 205.97752908998810994 210.64921860004005794 206.62866110330443803 211.48522780289951584 190.47068971102419255 205.29519618218824917 200.1774757024504936 197.92661541402165426 188.11538268055542744 206.56952708140678965 205.62861909748761491 184.50380875597338104 216.35072765472435208 208.43955826876484139 204.43087673052934861 199.7386695148237834 205.70840442007354909 208.79097780804679019 202.64561499751710016 204.70398803378756725 208.42660620110240188 207.15579590847630698 211.6970236105098877 209.45827269110591828 198.46859084642176185 206.60323521827433524 207.71255365159910866 212.41923107202646293 200.39673417356823393 201.32318543139041367 206.29637353085138329 203.50127251777215065 199.50272731486356292 202.77912505391066134 202.37112875318879901 199.99885053945700975 206.0685708033670096 194.90257577869641636 193.9450987596663083 203.89939945380643849 213.56283258069674957 200.91055647978654974 195.35002450397908547 208.79935935560050098 222.84351624292585825 193.2357122359846926 201.18517939558401508 202.95749531544743149 195.60800362701257882 195.72190369782259722 196.07650971911078841 208.57421976245473161 209.68986261655092562 219.31368078894334417 209.68792007917082287 195.96524526753927375 215.73414822556310355 199.33992786703257138 206.73630686704672144 204.80741603691660657 196.7611310822931614 202.0872005381731924 198.74891950209098468 210.42833972251233376 198.39634181198329088 204.29928491161044235 212.04509283693690236 205.19688195872399206 207.05122241598371602 194.77990227887488572 196.21148897323655547 199.79320624311156962 207.29438666485989984 206.17720215861567112 212.77233741336382877 211.84748722334313698 213.4569958174017188 200.75080504773225698 206.57324637292001057 212.37331512369325992 214.84364357190861483 202.44218101373243712 205.60538977833681429 207.02032338945795686 199.97141325120341548 215.26996234306204769 205.25997903530659983 200.90535966902629639 206.31054695086433526 208.47973787977838356 201.30176802277964043 200.58587986138573456 188.52709407214373982 215.49360483676355216 192.71628460038053277 205.12903826083410763 203.02123291843832931 197.2695812307408687 208.83576595489836336 202.19874032465793334 192.96554691132581638 197.34309794339975497 214.43646344803161696 217.73856469358958066 201.96724620967577835 201.07179165392994946 191.52741999255309224 210.80403555977667907 214.2036996803188913 206.42314260691097161 184.87398114861426279 208.00037505403636828 198.71412280931377836 206.535701488790437 205.87546985999290428 208.40605175678606997 197.34002786324140288 205.73118618719004758 197.65117892003280531 211.4435789916811359 202.26399346747930963 206.70483050335135999 200.59333041595064628 204.1245367667261803 212.85503231758474385 197.76115585450912704 213.25109891112313676 187.2249827510107707 203.48982602226507765 196.64842177142918445 204.01880184759968984 201.01770242794975729 199.56196712335469101 204.15884387829657953 200.4357032010773878 206.32366955239348272 203.1199361872910174 199.75785861105643448 192.64735912973836207 200.6017817406592485 196.35969563374729319 208.49504654351846966 193.48684169425260393 209.00016730745798554 212.50387852198443284 211.2361350670484228 190.6855009708511659 192.92291003174943853 204.42820937389481628 202.79822025665586693 213.35260661503690471 189.52208482921068367 186.82642637805713548 205.61612230637882703 211.99438006900570031 208.32564875174728058 203.57923999558317973 208.84474830569820369 205.53401075674383947 214.05818494545985686 215.06264502342551737 206.22514162638580615 187.79988255089818949 203.41970510326211752 199.21027843563845749 203.47706401965967871 197.51733313727407904 184.95487614676008548 200.25890206131919058 200.49297512433267343 200.77636321835947797 198.24704758014308936 200.7124289072147576 198.90011563426628527 202.92456718830223394 191.78065694590054591 208.04329029717612798 214.34995127479407984 210.45146590998760416 208.12923831409554509 206.03395562873544122 219.28755086283322839 199.84314277600995524 203.45488634097770841 193.18332388473291417 189.20630176398861977 190.69960242298458297 207.47143703713345531 196.06616806270176312 183.24336907500622829 206.68113877288607227 206.63696707454255375 200.94271549928913601 210.04672358090380158 213.50512386426183298 199.39858902245779859 195.46328579419645166 206.91741191771959052 211.9056697365070363 199.86924457851657166 204.96530382964618866 205.49869677723694394 214.7585366480438438 194.05246529842057157 190.61956597593663787 217.56731245175774347 214.79797781457466499 201.08407475783153018 206.84488270751955952 191.36502166457108842 211.1369695797604038 198.58060315024596321 202.5356106919601018 193.24254114700190144 195.78226554053026121 211.8952628828256195 194.92228173419320569 217.73543010278308429 213.29641264875229467 201.00766034492608014 191.91006817717584454 202.49538979748905376 214.72930918225571872 197.09807211475933286 201.71521394863776777
-279.1772261464661824 -260.57075520501496158 -276.90530294358148922 -254.06064672113330971 -264.20294658194882231 -273.2057185672945252 -259.02651703538981565 -269.55140658599890457 -257.34309183758449535 -260.61829778691179627 -252.96178688571814064 -255.59326986285236671 -265.22816033362920507 -262.47140810578696346 -264.5099069854606455 -265.09217202657544021 -280.49265340976575089 -268.61286643681484065 -259.84639138022401994 -267.13571164607901665 -265.22401636870023367 -253.24307601587292993 -258.73058355561198596 -265.67400691296228388 -261.63441221866287378 -261.56290116793906009 -253.79735761851310372 -251.11622348478041999 -278.04749221325073449 -265.69739413250283633 -272.79940260545839692 -266.76475925988268045 -257.62134837945217214 -262.62521621613620937 -268.06927512615129672 -262.84815569797785884 -251.18727061302266179 -269.85365069022992657 -268.32947286723339175 -262.50363239518327418 -269.43370370863129892 -266.74079541964590589 -258.65850232145260179 -260.85378137960100275 -264.43151389450252964 -266.63571682586137968 -263.10464128130450945 -275.84162393778910882 -272.38856301618369571 -258.64656087856008071 -260.12904998404127355 -271.36712057406765553 -274.88279069677878397 -271.79882827596128436 -257.47881954798697279 -269.21648445914928516 -260.36477672232160785 -276.97744636074060054 -260.60177713199709615 -249.66294648639717479 -257.93154030083695716 -267.98328231631057861 -281.84021794343192369 -254.10334877219401051 -264.34090343096517017 -262.05068386550084369 -261.64504014214850258 -260.98219634551713852 -260.67101754977096562 -280.12027181383029983 -273.9125130266579049 -265.28061369425802241 -257.43092070836775065 -261.60922014527022839 -266.04592180955296499 -265.20211721402012017 -271.00641395360759134 -267.18085610935600016 -268.23609744291820789 -263.17609776506731123 -254.94546143686685014 -262.36577043896829764 -257.44652014120458716 -260.61895130092671025 -265.12257462058596502 -275.12989251275217839 -273.8335205221080173 -256.97687230540844894 -254.72564405082431449 -276.84830002942112515 -260.73324021046295229 -271.07486849859003541 -265.43791540802510553 -262.6331523746442258 -272.07673160735828333 -261.77307414901082439 -256.58726542342185439 -256.00545120534985699 -264.85772669364075682 -259.70840210053410146 -278.34412787585222304 -264.0374231373340308 -265.90043002942547901 -257.82143392136549664 -262.23413156572235039 -269.06760819376069094 -259.63384786028791495 -265.55012805542668275 -259.32776803721787928 -269.66636906001480156 -272.87011345726710942 -264.43550233728302601 -262.35891777521646873 -270.28896140778726931 -272.41240622084660572 -257.85383431243951691 -269.54025432189678213 -269.27060053217377344 -262.10828333487626196 -260.31573005145617117 -265.51312327693278803 -274.56001966025411321 -268.06509504608936822 -267.79762001875167243 -254.63752805577746585 -273.11921613004744813 -266.96873805691842563 -277.53971766271547494 -258.38768284183737478 -272.39327956428689959 -252.03008545590765266 -270.14973801602343428 -274.27052822057794401 -276.68249260350467011 -252.52047042166174151 -265.76268726974126366 -263.60299156458245307 -269.00820546601056549 -258.43110190494644485 -254.12450973478544825 -260.4389981526191491 -265.72995575919406974 -253.04353455154480912 -270.90756821349998518 -268.15374147505480096 -259.04170542511621989 -263.90717003722568279 -277.9873780091031108 -274.82178550593766886 -266.48850871816608787 -256.11584530513277969 -269.37537941496708527 -259.28533631049066344 -249.93823601795179457 -273.11745582791598963 -261.89146136835097423 -269.71730358092531787 -272.94911714515910717 -262.37579325150153409 -274.72743318161491288 -269.62923010480278663 -263.01784633880049569 -269.94185994693509656 -265.04298203326402472 -264.76472460221424399 -257.26469743046686744 -262.05914017117316916 -270.56964364212694818 -263.17520985523589161 -264.29963467012117917 -280.38385322935977229 -267.91689989728462251 -262.10734261954257818 -273.46209782383391484 -266.60631754485228839 -261.15097218066853202 -268.59676219434402356 -272.31675455148081255 -262.70403101103960353 -271.65358967687620861 -271.46520446921221037 -265.23729573661199765 -259.22435392542888621 -254.4832604402138827 -265.75414701901206627 -269.13936623792153569 -259.09019321760854382 -266.71011024898513142 -269.54289068943211305 -273.02100333699473822 -265.54968668412340094 -256.65391644853133357 -269.57084117024243142 -270.15556488517603384 -262.09706313786779219 -265.10447362199425925 -256.5285564835926948 -246.76101764329200705 -255.03066150362784015 -267.19331457304355126 -263.40040405393386891 -281.94953913325633721 -268.58665898038719888 -271.06092790326937347 -272.52289543335444932 -270.30964586621291801 -258.10702330681255035 -276.09784543705984561 -260.02234305900782374 -259.60464430138932812 -266.73158723121048297 -256.13228187893656695 -275.45104889496133183 -277.0107772111232407 -269.81171536589124571 -270.26558193451302259 -261.60242025728121007 -263.48936184753034695 -262.07239428687626059 -270.76328328207540608 -261.05578157929511462 -264.81083365045077471 -264.60815878973943427 -266.99817135443709049 -273.19133952570126667 -266.16149407252004266 -260.76565408315548211 -276.2179091495817147 -254.46861934541956884 -263.51359591133200411 -273.0582526480536103 -268.4628375986261517 -261.91665013808284357 -266.62515635325922858 -267.89404791960447483 -259.68969204033948017 -264.64090583643593391 -276.15843534614697319 -265.18728696932839739 -269.08345361824871134 -264.20113818328644584 -269.05322448038327821 -263.54294885855051689 -261.5635052382218646 -267.3652890679896359 -269.12962096272764256 -262.08438230620856757 -263.26910731260778675 -266.02598719484711864 -264.29823870759992133 -266.398361432216916 -289.82399654723286631 -256.89943847962933887 -252.91835958513527771 -264.56268609312900253 -269.28099273066271735 -252.58195110897059976 -261.94724131035741266 -278.56730862967151552 -263.3573671459309935 -274.39837163720227409 -265.61399239195611699 -251.53990678039480144 -272.66592419547839654 -271.46360419270729381 -262.66225529936781413 -279.30673939997268462 -266.52809204204322668 -261.46912745822663737 -265.54984167260869299 -269.65769874356112723 -274.35178668936868007 -274.1385899861377311 -266.03071799841558231 -266.01665225263724324 -262.34097683672052881 -270.61890789035692251 -270.54888728448986512 -278.37056043634385105 -263.80838351156569388 -261.3479585713553206 -267.69580879453815214 -269.49218486204256351 -264.9794028735620941 -258.04126445573086812 -274.20643547057954947 -264.80721178591659282 -265.07450016416339622 -262.1962020465742853 -273.38734609311410395 -262.90341811718667486 -251.56167721605254428 -253.90109205720031582 -259.96728109036331489 -268.60710825165068627 -264.2031534783392317 -270.87601845512483578 -258.2056819467508717 -278.46143654574581205 -263.5339740823418424
-31.613486404876390168 -26.420709042235841935 -25.795523163522982912 -31.185961650406973433 -28.347170576648942131 -29.272197639727703944 -34.900360741161918554 -24.413572256609167965 -33.935150999277773565 -23.552976803658392413 -24.182488167957373548 -35.62366666377911173 -34.051729529891453296 -25.500952512128765903 -25.72965430217232452 -33.301958036638531269 -30.779664235586448484 -34.315806051367559348 -37.75864864191323278 -32.267510047059424494 -27.324456933521346969 -31.72940415001825798 -31.29907179133210704 -24.410879498772782625 -19.513365083571763137 -25.077146691028758596 -31.179031538007286883 -31.375458396434790842 -26.215271823827485775 -35.259791697442580016 -33.394271949818019607 -32.011024869534587367 -23.458218598664196008 -36.799345628223491644 -24.365485249708612514 -32.391623220116940729 -31.56813903061406279 -28.470850486284234648 -30.64979626550127989 -31.909835381965827139 -28.950228683687093678 -32.155224579551848763 -29.49285656356058638 -21.048570378645241163 -29.474984528203229672 -30.44690667948164986 -25.620093261169692767 -29.124819245831968573 -30.438837025182131413 -27.627995080728894095 -32.339033418307451484 -26.16044819100276797 -27.696603565379980694 -35.430827715810387701 -29.516579148358992768 -31.474404296534487457 -33.001256983933004108 -29.98496014208222249 -28.068254586300945164 -31.700810973600255238 -38.744765233388598347 -45.817643539843693645 -26.963094759763237107 -26.463054403707463536 -29.465847243362539132 -36.879860964695183156 -25.560287113717080842 -30.918623894208728586 -39.765700455631105115 -27.192933482486846941 -38.420112967692389816 -33.006371294393765936 -25.954173257685937415 -24.726825393754857885 -23.145950812730671231 -35.212492053973321049 -23.625134167160748433 -26.162749612319107229 -24.928337681345706045 -31.525534034480614309 -32.040437901285571343 -28.83475669146330489 -26.091400973235653993 -31.361938765561884424 -40.551989464241998462 -30.449025993692231395 -35.269177759390032634 -32.85761262385274506 -41.62686568987025737 -26.864379693764497858 -24.352704313308336737 -29.67007004178431373 -25.026641070253077714 -39.115408131557579452 -30.877669916518541982 -33.973992323050310915 -26.560917386902776371 -31.063968300889960972 -25.45858969231151292 -26.65238494551774906 -32.926523995150439816 -28.771195869173158854 -24.68590638884615629 -28.335625664408965463 -31.469889004815911449 -27.257452178714210334 -25.986499211761749706 -27.869675531931914492 -25.957970999063014972 -39.145429082860900394 -25.542425168681390346 -28.934686434246646769 -31.440998950728332062 -38.651893128161553648 -37.313450162239860219 -30.864936237442421429 -25.260827123682958018 -31.477724774594392443 -35.173750602453395686 -33.207143819284397068 -36.823766021445806018 -23.327490028825522472 -30.472400444584458512 -25.492254157590444663 -27.232233602506269676 -30.342122907700492362 -27.672499090489711904 -30.207054285118747572 -34.519357638029170232 -35.032825905326170357 -35.240959820864247831 -24.710559188353244053 -27.341296133797051482 -27.812873418605711606 -32.086955307405688131 -33.040939510887163522 -25.375995796021509676 -24.967233485173085938 -21.167532743881956492 -33.224909609278164169 -29.60763338430105307 -36.416624108781235236 -32.982615082365725812 -26.964098085603634303 -23.873416646590975176 -29.349942158435329276 -35.343925475745649578 -30.664852031580423386 -35.030049046319291506 -36.443270669406686579 -19.997652154951794046 -25.864937701745379428 -26.00563272740479448 -26.317429906964243003 -20.951882531360240591 -23.263536044219637944 -26.734183292882619298 -40.541691479472312665 -36.417828718949763811 -26.205394703040035154 -21.86974361059157701 -40.109541520166615669 -35.757721146072675822 -29.132244276723476162 -25.8339862805353917 -29.203734140472281666 -40.648141513947081194 -23.084362273276326505 -24.542776079105607323 -33.911344633647516389 -26.103034637852672972 -32.276982530596306731 -30.556020304110091956 -28.675579015830138019 -31.127270772518123465 -27.75991505212446242 -27.434994068495214492 -29.917287282503099988 -37.710022896808411019 -34.308856630475588645 -22.126424521975373239 -33.624583202019294959 -27.752197081766230013 -23.483392903499552773 -30.71800664712517559 -34.923441257706848262 -21.044223986473745924 -31.67928234752985972 -29.422705740392302687 -37.246480395112527617 -31.512311096799695775 -24.845083756269900732 -24.604342303732437358 -29.367727495851585928 -36.068450078616628218 -32.90506017505890668 -34.059495889809355162 -24.39139320479268136 -32.531392806417777308 -32.260366081838199648 -37.633119898336069298 -35.085929010397471473 -24.845477883842441713 -29.5276812799573527 -29.869352495517915713 -32.330032468853119099 -29.548682747529770865 -27.580741845423311531 -28.526115138684417616 -24.952606098859718031 -22.346265986027187722 -29.255829001613136597 -25.489693691164696077 -32.784861140493305243 -31.560029333617073632 -30.209644192643580141 -21.518884390029761278 -31.017862699375310598 -34.123681986645586051 -26.732954479843165529 -33.353107436451743695 -25.359409333327043612 -30.42102549021705471 -35.11172398902968439 -27.725770775141029389 -30.911639021851708975 -19.32418666978413313 -22.281733631397663942 -30.971191206753161396 -26.521269149931860909 -23.462156434392554161 -36.222638049192042331 -30.479662429890016284 -31.478755794859321071 -23.144271373120282931 -21.103032982489267511 -30.70310250449264089 -37.606290017098942258 -21.627388461964862643 -34.191408226992123787 -25.807627881102575884 -35.411594510300432148 -28.619211370668949712 -30.027002544621513636 -25.849259867497863752 -34.425244811115263133 -26.095725791302207597 -32.206309092790490922 -39.336261991293376639 -23.343289172376863405 -24.850233799524723111 -37.099867106614262013 -27.831203118451551148 -33.532609131014879722 -29.820738570449975668 -32.964226931713589863 -28.474788579377971587 -22.841866401661061303 -33.24948076005431119 -31.703222182576737964 -17.832148108239127993 -33.731484326679314734 -28.337536605072628504 -27.809942297861660165 -24.924627970542715616 -27.886848687670969582 -25.082523883339689519 -30.977787257248380115 -29.278817534344515394 -30.898566491711985549 -33.668269601772863098 -21.586403408304935425 -35.055184497077497952 -29.869442471880887524 -25.679403105242478489 -33.384032524353649762 -30.259899593313917876 -31.890488290687294182 -35.375359285450841185 -32.166682190543824049 -20.840932443032887278 -34.762442517831210864 -36.868391685310193395 -36.975845780566189092 -28.041765670571678015 -35.923763672454107621 -31.280109890216060364 -25.412782779947885814 -23.610585250249194189 -23.728510414659762517 -23.083561535687117328 -19.095290966860439141 -25.848583857707556177 -24.019717153403895793 -29.995671335679290337 -27.067201820294268799 -20.171497465383584569 -28.311408609406392145 -31.614809831414934393 -29.927871229464333425