137.07417279265831667 133.37553370230767769 126.14567570359164961 130.45410373523992575 130.85363940847844333 129.87854283592588445 125.99377348510139996 142.50174236711464459 130.43638734695898052 128.56664729724093377 127.68900045037273117 131.37535870573108809 134.82097426796650552 124.44886451821908224 130.0951023434334104 117.54979087772150592 130.33195036762410268 135.67721280679887741 133.58153690157718074 122.48108279168229728 143.15341170395041104 133.43676428149700541 135.12669837525521643 124.97528512290102753 134.57891728185754232 125.55573389552958474 134.09853333180063828 128.80558867521421007 136.82899580432859921 132.38266258963642485 136.92147438314225383 128.52026135919004446 124.52003865449094633 118.94679963248762533 135.24993359807621118 139.04016017741119526 131.30906007683310577 137.30082288508549482 129.60412662294089614 130.41067282347827927 134.01962573261877765 125.28279458182865369 127.7783915896167457 132.66265046077026568 127.16390498666706321 125.91083022623033116 128.13059161302501821 135.26951622028281008 129.70083797669585124 135.69031390092513334 122.68473972789873017 141.29229087196350179 131.30891696419251957 127.83336707447534764 130.77945423594280783 129.49349082509087339 130.13556637101572733 131.34524908850497127 130.51602985253938982 133.22926385132075211 131.06951401457726547 130.72662379154834866 134.64260254877731882 133.94543173633394417 140.52294717349934672 132.44393312688092124 135.35217160062171615 133.71246170911186368 134.7634293441304294 131.47548239245597301 133.79555762345643188 131.66966291168111525 128.04801461373216398 125.71629566613854934 138.95534877024880416 134.96960864293481563 133.66673905508966413 132.71453668048664554 127.76730858638367749 143.98018709059226694 136.9112303123318668 125.15252535701009151 126.68022387654750105 127.22819158588008293 125.42398751910424437 135.91263522570602618 138.24704866217368249 130.9447963183463628 116.69433095075034146 126.95450557412844717 135.55800322175375072 135.03011579499272443 128.73744113763999053 132.65641954203258024 141.30596039472092684 132.22203259786198259 137.86827430363408098 136.84352184419520881 123.82387363908051725 133.6800329426552878 126.01259377412472418 129.3927297543549173 142.23820894501815815 133.18328437097548544 124.34092301832524186 136.078306646769704 138.30038233443451645 129.81587509639300038 135.16866235792517159 127.93726138840064266 139.31440432258588658 129.21398614584086317 133.21287483174936028 124.71840882297345843 141.09914095611586049 130.27240170725664825 124.68921592449430591 117.91097513022542387 138.84926630727113661 133.03456014621335157 133.88688837584618341 130.61760592731624797 132.13056465430832986 126.80737211586421154 121.70699120153980743 123.55830129791500838 125.91070199829722753 128.89210355618797621 124.95216104673237112 124.6456955300097178 140.41240552075001347 127.22909729876482743 115.23768935146418357 120.2138166866354112 121.29233311681960572 132.6158901984533145 131.42687722205468503 136.99446150416432033 133.51588204777561941 133.99903053931581098 141.05594281034908022 125.25238776120811224 126.09255342252288301 131.19858457934336116 131.41902556276735936 130.21930417249788547 130.12565277806012887 124.96621279423000317 134.01267193941424694 133.04185794246581054 134.95700101475105726 135.81782726045145182 130.40326779703946158 130.57970095776400399 137.71765136121507567 125.7193246058563858 125.24141906976629457 140.6189884229074778 130.926251214055128 132.47690492457854816 138.22416415396449452 136.97726471578462792 132.26059530091714578 124.85697718594502703 140.89570794479561755 129.57275549845573437 129.56173489880126226 136.47938511913395132 127.12160167779772735 129.11336683716135099 130.33816898937106998 127.07140499264716027 133.38127178526900707 134.85527514949825445 134.38448196809147817 136.83437577767745097 135.77115182213202615 134.74259371986829592 140.35061511662198086 128.69254800740020528 127.4621727932486408 115.60166573296096715 126.07701694037159257 123.15275966093027193 135.44954697774304009 131.05310497245662305 130.91432101695090751 132.57933536626737236 125.78037013036490066 136.00081333699455399 135.9450463131422282 131.15398631726719714 134.81686212638402367 133.07694803128779881 133.63220287304432077 137.84362945997341399 125.95925865470789518 130.71394037348795791 137.48497781305016474 131.80516691293408371 133.75139622514473103 129.10646380255695931 129.98145968406919337 134.16115290223658008 139.20875981956407941 134.14307308729777901 138.9019966722782442 133.44114438455480354 128.08668908633038086 131.07572813948036128 128.98828137057162735 131.91218363924198798 133.38700726922317585 133.92085413464383237 132.57265579362089625 132.28690046663896851 125.4282839403398242 131.02402300404745006 135.35618678766397238 135.97131409896564946 139.67995662727827266 132.32852686328143932 128.49081298907958626 138.07825613800872588 133.98323768249457544 124.9561311151075671 134.7323279172860282 127.77860609832568173 136.46717865055944685 127.34661334542809641 131.51279868934983597 136.24158530302148051 131.17903105590039559 133.63766197437223582 128.20588323200234981 128.84607651722930655 135.75955375325887076 126.86213255367223951 128.49823452136322999 129.82870406501771754 136.48425609194688946 131.2049569181131119 133.04592962713874726 133.43152610838697569 136.1718412728110934 122.95876615926631814 142.0099317661996281 137.94140661245253909 132.93362433066337758 124.26719523114071819 125.26097294231277601 129.32740882025899509 138.15390886917387547 128.31409352352190467 125.7850571420743222 133.62907213683848795 131.80605653712316894 136.4905177689468303 135.52040491676035572 132.5869499108545142 135.18155255232261425 118.31630307663891699 140.47224744914817052 131.18139093204806045 120.68668303746683534 136.64187582481608274 129.72753509780179115 141.64514113332575107 136.28796406285559328 122.87085243456934336 130.94287099017191167 132.67292899992528987 128.14872844272667862 132.96589792884401504 133.38674528654749452 135.82286671971530723 140.7499218454036054 138.78889697627622013 130.24986037567384756 134.43092807429459867 132.49936270082991996 135.1796888988372416 133.09432607999497122 130.42262915874803753 134.34710745687513622 133.75484965876120214 129.11628836311223267 129.29936821095466826 128.48989424914771007 134.86098838621035156 131.65316011495249882 129.85559353732892873 136.78446556490627017 133.76457782480719061 120.26291469859127403 131.22650074325756009 130.47228792666652453 126.92972928921332709 138.01113859689067453 122.72674257557653732 134.07918794564821496 120.97778781033305506 137.75629152170213843 138.10185297482883016 133.18551803356712071 130.80598985846791038 139.72669263644883131 127.65341620272769774 126.01398185696481846 126.95174880856943389 134.82460123046968192 131.60644677554091686 136.89828655710684302 133.12189467302059143 129.70562793315576755 141.89041706089307127 128.13537212360242279 135.90233130440040554 125.95545543244499243 124.6661760436905837 137.0832603876148994 135.52784707362525296 134.57524641763220075 125.8627052380610678 132.22258005706032691 127.56909928021150336 133.83309522711417117 121.38772733955686078 140.89272611632085841 127.71064767598964806 123.84943877471181395 127.47113386553009207 129.9057660502385545 136.45763139689776722 135.811464097051811 140.52600836874347578 128.76847727782021025 133.55081153186389997 132.26582260765883348 129.97926324784228314 125.04235647300539824 132.04215551160524456 124.4907720618599285 131.44900657476802053 133.36553806237563435 136.84295480010081292 132.07574732738717671 126.07233181860226523 131.54412739260919807 141.5282075417194676 136.01755233227581243 130.07137697687988975 130.64759473998734052 138.42456051341534362 135.83523051310262986 124.13417880633269874 134.32951436530419187 130.02809014870896931 133.07274985645130982 124.27937944316121843 129.38346756553087857 134.48214879159357338 131.01010386113327399 136.71216969736187252 143.86474442700205145 123.51188172056886572 130.06902874105716705 132.76990000637471212 130.64320510960197907 146.62989788344896169 127.8386151839474536 135.3236720696209261 134.2224757457836688 120.03227991222331639 132.14428246851898052
-1366.3743569336545534 -1416.3482484446562921 -1388.7614982392979073 -1368.1839120649080996 -1380.149222270208611 -1351.9216023406468139 -1401.490756019247101 -1369.921589395538831 -1374.333789543077728 -1376.7676753987393568 -1396.4470812438205485 -1363.1941955358129235 -1367.359442271788339 -1380.3390851413919336 -1371.732137630129273 -1417.0324754322220997 -1368.9038246456784691 -1371.8629621856443919 -1421.6632829613870399 -1374.96618263040682 -1377.832079457143891 -1362.1547567932459515 -1383.6517820301735355 -1387.7197109650837774 -1384.6786794972258576 -1361.0282012129066516 -1394.3590023958252004 -1400.6468529342853344 -1388.423593043393339 -1372.4809827485869391 -1377.8971379777856328 -1389.3060645428495263 -1383.2949906010674113 -1369.0705945220393005 -1381.5221078765850962 -1393.0530776249993323 -1395.4374129353727767 -1371.1491864257602629 -1383.2142679088372006 -1360.7793423700827589 -1365.257967864255761 -1398.8701306294183269 -1382.0157413645695215 -1394.3119280704934226 -1395.8397241959360144 -1375.8743731924389522 -1391.4193974311410784 -1392.2067197189162471 -1391.1545571894823752 -1366.5622282877077396 -1380.2361176854922178 -1364.5071545313862771 -1393.3829858609551593 -1384.1209558812929572 -1358.3499473540978215 -1386.0373007558134759 -1392.5795619203875049 -1339.2747396263575865 -1370.6883845715713051 -1380.4563067863334709 -1389.194739474150083 -1373.7871722755112387 -1371.4148650409786114 -1376.7840295767196039 -1386.6248071188983886 -1384.6156696754412678 -1377.8156704387267837 -1373.9287101622364844 -1391.1131732978435593 -1391.3402055577521423 -1371.0466231065781813 -1379.2765376646673303 -1383.388127624222534 -1382.1157376529313296 -1398.7369345125191558 -1365.9251732777731831 -1383.8016245340620571 -1385.5335038149855791 -1364.486290659738188 -1387.4292133440651469 -1379.1672117853088366 -1382.5381959678381918 -1364.0145942524820839 -1372.7548891617207119 -1354.20384239905502 -1364.2120422196937852 -1383.5602558501661861 -1395.1776355077940934 -1403.0043916617764808 -1390.8613970129526933 -1390.2921041039744523 -1385.0132084317860972 -1373.9097537272330101 -1383.3907780777803964 -1351.3176992714411426 -1368.7854447005495331 -1389.7550829714464271 -1382.6867562051438654 -1354.9932655369016175 -1365.2156321297782142 -1378.904283512377333 -1377.9440821094722196 -1372.5986019201211548 -1385.8933637074203489 -1380.4350656271749358 -1381.1797622967105781 -1379.2227263607685472 -1371.2032973491529901 -1369.1442915072623236 -1377.4398875751221567 -1388.8563484230021459 -1383.8416508786792747 -1365.9852177469626895 -1390.6085186761151817 -1351.8915462207685323 -1371.6165297041909525 -1374.4360298240919747 -1370.4687574773906817 -1380.418961457358364 -1401.8805748084728293 -1391.5289353334890166 -1378.4568564855812838 -1361.4706449030263684 -1379.6120130075755696 -1363.1049035092491977 -1372.6039845328186857 -1399.297066201879943 -1362.8849673266788614 -1368.497077812440466 -1367.6535609462337106 -1369.840212235368881 -1382.7311558120518384 -1385.7586794634767102 -1362.166700343962475 -1371.4476163385356813 -1369.3187227487535438 -1379.6264044618567368 -1378.3299132235199522 -1356.0990429266682895 -1355.8193625876515398 -1371.0961886925385897 -1388.5639925129119092 -1391.8556233494755361 -1380.0380069340337741 -1377.8004495760626469 -1382.3430691435739845 -1364.0848684019249504 -1391.8140672623515002 -1370.2051847448590252 -1383.7892541622175031 -1383.3258316498368004 -1350.917114050753753 -1383.5663799659848792 -1380.6501738451238452 -1383.3766727898828321 -1378.9540942858589005 -1386.9532632886646297 -1365.8899301549517986 -1413.3043874015977508 -1386.9033257103167216 -1373.8555862560006062 -1389.56453710251958 -1389.672849483131813 -1390.5986996743845339 -1394.06783330735243 -1365.15865078316574 -1388.4537374311291842 -1391.4510746350551926 -1391.7775345193995236 -1376.9605572258915345 -1348.3231297040128993 -1397.9340468869197593 -1407.2870806564176291 -1385.5019903336867628 -1386.8325155313832511 -1397.3559058246801214 -1399.5490014298986807 -1357.1118719803316708 -1402.0653730316730616 -1380.5451366893091745 -1414.5461497002904707 -1360.7381271202154949 -1370.226991430461112 -1351.6013909896666974 -1396.0985116773849768 -1349.503786919689901 -1376.1231482971752484 -1381.435187528605411 -1378.8295492289346384 -1378.7429845787928571 -1370.3171863286472671 -1370.7151692762658968 -1345.0439634907154414 -1419.8341094512895779 -1386.4321112917871233 -1405.7023008338035197 -1382.7321024906273124 -1378.4160875982604466 -1377.9889532061720274 -1387.2392319202012914 -1356.771122427002183 -1352.9756502977027139 -1400.9369592045479749 -1396.9373010761751175 -1378.1063462142983553 -1393.3214106654518218 -1389.921177136843653 -1384.050793279925756 -1409.2803505427862092 -1380.602249676855763 -1391.8768380525857538 -1382.1030516123701091 -1390.804238596501591 -1375.5638272338437673 -1366.871747147272572 -1387.9455909471732866 -1378.5685063095361329 -1389.4773829320374716 -1393.6807951430614594 -1392.2388054599680345 -1395.7399802081708913 -1379.8247267991348508 -1382.1124059274500269 -1370.2727573781746742 -1366.8250737141554509 -1406.8249323356410514 -1382.1283382982035164 -1369.224158833177853 -1395.433459961812332 -1392.1003319915998873 -1372.1457365834123721 -1393.2328772834730444 -1366.4710188399735671 -1399.5161923353484781 -1392.6927479938999568 -1365.3682113749555356 -1394.1979002921179926 -1361.0885328866281725 -1370.5894354685576673 -1377.7858898083186432 -1375.6377634493621827 -1369.353339922171017 -1354.8733682049762592 -1391.7320113993187078 -1376.2670654681339784 -1366.9667846891250065 -1387.6533920072422461 -1396.6454333502013014 -1393.3621180308291514 -1378.8770298568240378 -1380.4968562146864315 -1392.6399155934477676 -1379.930157469588039 -1374.9016905643834434 -1389.8976560229280039 -1389.9542606317386344 -1381.4913912025415357 -1363.2691614018092423 -1386.3888268892644646 -1380.6985208863634398 -1380.9622781750892955 -1398.2832772710660265 -1386.2210174185688629 -1360.9118290127541968 -1399.4184830689748651 -1399.2829795451964401 -1360.4271077891185087 -1388.0519578262012601 -1373.0859253697076383 -1379.346158209906207 -1382.7577438529849587 -1407.3060882158474669 -1364.6345232643600411 -1398.1981576744956328 -1367.7586863895173792 -1365.9382443062261245 -1401.0978552601054616 -1378.7676289256005475 -1400.8655025596376618 -1388.8918264539663596 -1378.3172527171973343 -1385.6583391664319151 -1375.4296046900090005 -1374.8570002189296702 -1386.1877132470683591 -1376.2023789294173639 -1389.2518055392099541 -1393.908743057380434 -1379.376880141542415 -1376.814041859856161 -1387.2333923801902529 -1363.4945487798524937 -1378.2396101834597175 -1370.3479865119254555 -1363.348202578903738 -1373.3070256393614272 -1374.4548084592902342 -1390.8021641198204179 -1369.3519139987108701 -1387.8913407321026625 -1374.3908302550221379 -1388.1238616443879437 -1391.2063587119700969 -1393.831974251342217 -1390.4572267738262781 -1373.3918906815670198 -1379.3053100821616681 -1367.7517109004318172 -1412.7436023960544844 -1380.9577618849248211 -1369.6816599266762751 -1397.645001037580414 -1386.2447346176359133 -1405.5872737609586238 -1381.7107904863839849 -1381.4450958995632845 -1383.6942547120315794 -1393.1829862201018386 -1376.8013136098779796 -1393.5228574974794356 -1393.8726249474784709 -1378.7349425644461007 -1367.8768988582812653 -1365.1978210227148338 -1388.3826896241173472 -1343.2909919779117445 -1378.1617338441799347 -1388.4338023635216359 -1389.7380673818709056 -1364.311191468702873 -1375.1810565041566861 -1365.4991272419242705 -1369.2414109676947191 -1389.1305946041795778 -1371.6844351835668476 -1379.2851352760105783 -1384.1998157725395231 -1401.1957636954050486 -1381.6456217012571415 -1386.5258250922511252 -1350.4361181186736758 -1360.3339422030237529 -1378.9520711458269489 -1369.7952059145923158 -1396.0803936771355893 -1377.6770953504540103 -1385.0208019618537492 -1362.870804663414674 -1382.5286590626592442 -1382.7771015554189944 -1388.2481303884517274 -1369.1181409550381431 -1385.7873837201154856 -1387.8429448833253446 -1374.4399802328618989 -1398.5668260452746381 -1378.612883144367288 -1361.4474199545300053 -1365.4635105789425324 -1363.1582629691652073 -1384.4869965505843084 -1377.7490822320710322 -1374.5826387126114696 -1390.8754004638049082 -1376.6449759306660781 -1367.5870660187063095 -1403.8795957680447373 -1380.066336809673885 -1380.4559911204080436 -1379.0812386479281031 -1371.8217538780427276 -1379.6965838443354642 -1367.974890441444586 -1426.0016039287834246 -1393.4117424329044752
619.87387848951470914 618.77667875054180513 612.63782338366183922 621.16892784296408081 618.79707924375361472 616.74285827835524287 613.94488851177345623 613.67796700037865776 619.31697479350634694 603.28876603070523288 625.70976269063885411 614.98684956486079045 612.94327249286880033 604.36117482498821118 612.31542212163958538 611.39002966145096707 619.34913282305933535 617.1320997115821001 605.43166679018122522 617.40084549393088764 622.10618656755389111 618.32274174237772968 608.63507300935589228 618.40594831682972199 600.75651979625001786 617.60438094361063577 619.99439676666918331 613.18548152760683934 627.28960570987146639 611.7297735458371335 625.39001013611107282 606.70174972625375176 619.47862091468709878 621.11534583826392009 625.6801096421256716 618.79126388994700392 609.31732771686802153 612.96408494202228212 603.0606858568315829 615.00197723278540707 612.39105959680523483 617.6673982644761054 604.11662328434829305 619.70720406226189425 619.3747007581065418 621.1383729236090403 606.84621886106879174 615.45928638325335669 616.62964834019032878 619.52839631401661791 618.52973926466677312 607.01523736180502056 614.57869180285922539 619.94619932137629803 620.79941212341213941 626.36520912966943797 623.71592319345393207 611.66924565989506846 609.27058668414099429 613.41904273174554874 615.89516985672571536 615.77104928034680142 608.72098281375178885 626.11714099844402881 618.08395215985956384 617.90894204212656859 615.64904196588759078 616.74136629121846909 622.57870484095735719 625.06374234954932945 613.80976380795777914 619.7323333767595841 618.11832087780146594 625.3952729463317155 611.39050559298323151 608.60572196873101802 612.72659562069691219 616.88772207814452031 629.59572582640942073 611.29634024748986576 613.75567970809504459 609.23405049608800255 621.2621080201992072 625.92662336143246193 623.88092548635336243 613.48006214992221885 610.61939728435686447 624.01936280067172902 616.49963304731295466 617.93391132958106482 622.10320320773155345 616.43710056381314644 616.46085244684456939 613.79732293799725085 600.28068826805690605 626.86494618729500417 618.19470278145479369 623.39673335592090098 608.35025955332355352 619.33314678579915835 632.27391559701675305 622.07258011809153686 609.85157394145221588 614.5951155432996984 618.35685958404678786 615.93368747276838349 612.84217197889984163 614.67886344987152825 615.61019474613954117 609.74560011174241936 624.1973521076876068 619.34750047393265504 613.0375075461099641 611.13458439061332683 606.41546943794423896 627.26284147841772665 615.59073977761522656 616.33058396037858984 613.12576067663439972 625.58975856098777513 624.65835144944173862 613.38310320837683776 611.77244519126531941 615.70881337678008549 614.24391763401365552 604.23242982884278263 603.44761363217685357 609.21490186814651224 600.52017134150594302 603.82543683425637937 605.30605962261040531 618.27005191816897423 615.25011823056945559 631.29274555225060794 617.77960951151294466 615.74852571958376757 611.19031644865526687 625.30806243091933538 614.58937270992328195 629.06505264687791623 602.29322268154021458 616.41357656009881794 614.22050874033334367 614.94224869701076841 615.95337763951624765 607.71432326653518885 624.36952525450806206 611.29823563159129662 615.5738660346968345 617.52466587477192661 629.41606113751890916 622.59304995703473651 629.29476160336901103 633.5069783299526307 605.66695319817927157 617.61328581711893548 620.78006568591274572 626.02261669252220599 620.69870004362337568 622.92188764691957203 613.53739303417171413 605.22654308148810287 633.8220527284797754 616.08541385876492313 617.36128343345137637 601.98818774492531247 601.2536168423748677 618.53542987228013317 620.26429343730978871 610.60015768959829074 622.10482914344902383 623.47802499078488836 626.48489158703955582 623.68909841339564082 610.92159040479521082 618.97090382697001587 623.62598416785544941 618.20629140810081026 625.78476255432553899 613.24721215714873779 617.10118461367335385 615.27896701626707454 618.43990546005170472 606.6499217870089069 618.29740956463786006 600.06167573627749334 616.68441350289788261 606.4907918987728408 606.57030806376053533 605.692671707588147 621.31753703358583607 622.35197144551864312 618.77228531959667635 617.96746496563696383 618.93136739720262085 614.44701578859405799 621.49258372558199426 634.85939236981676004 610.8657190823023484 612.64368923391657518 634.62282225463582108 620.54660172558953946 617.43630794329283162 609.25001410770244092 621.64401134985234876 629.11634818960351367 619.22090214864238078 615.05480140994916383 606.69033664790595139 624.8289432901372038 616.97716871944919603 615.83851855068758141 622.74345850059182794 615.13648629628482922 617.18795582543589262 609.54012745945340157 614.71811126647048695 615.45092949378181402 621.72905382999385893 620.55391700060567928 603.2162241678583996 627.24745828731533948 620.77876006258077268 621.45348311684801956 614.19839420401751795 616.70086984158206178 613.46305700996288124 608.7503303204216536 609.65794744284642093 609.57517076047872706 617.00338784372911505 622.22752905852064487 605.50379479468733734 631.17777752658957979 609.30462885005590579 612.84555412315660305 605.30323794267997073 607.66196763026414374 621.61928796169661382 617.88234324314009882 617.03608270167785577 619.04922761712293777 614.02632896509703642 624.46149336630162452 631.28618478515500101 600.63591297194614071 620.87631638237621701 618.01234708369850068 611.69458801773157575 618.25464419922241177 619.46836553121079305 618.10429511471363639 614.3169336029511669 621.59057615494191396 611.60082034666561412 616.43963176040415419 609.54361672681784512 618.4469436681595198 623.42683940147196608 621.01644977777937129 620.39516464910172999 623.38802518480963499 602.49986271932846194 626.95149388137531332 627.71609227330964131 624.89695339447723654 616.46800930298354615 621.27717632207463794 611.68358751383937033 603.58677720120260801 609.67036104658711793 619.62624650022598871 627.48936976204106486 615.46050080209693078 594.00168327509754818 616.50548461634548403 607.38993205851807033 624.21638061378268958 619.81814231048997499 617.09543878940371542 621.32192338914273932 610.98505911469499097 610.27793343730161268 614.44245865515176774 613.59298894620633291 604.13775116688566413 619.37166184076966147 613.41020730611796807 610.40412233969766476 629.54166076486126258 617.69281872574993031 609.94768804742409429 623.33321314415627512 616.86651282310754141 605.96258475331001137 613.79190201744916067 619.92195802675450977 606.19952682736800398 617.09942844080364921 606.50571596483825942 609.23629937796965805 618.36695654361164998 627.46074338242215163 605.81634505340457508 602.92999800283337208 612.60809180859928347 602.62608819604031396 616.39870369338711953 623.39986796454388696 610.32531380179887037 607.39966510031160851 609.21470616260990028 604.26825849650015243 617.12682658160360916 610.75407827686217388 621.74477593128858643 623.01077691744069398 623.45355615361791024 626.81135045682606233 620.31158384564002972 613.1056379128667686 608.42951654985597543 622.69051375693356931 609.59326979136892533 614.89565376598625335 615.96029217527473065 626.24128603285066674 613.28613983236300555 599.35618376681497921 618.22526614242030973 620.6374403424117645 625.80155247917662109 615.46427629393338066 610.47129972064988124 620.66814600507257182 624.84835772991687008 618.10563567138285634 614.98301928003718331 608.79100574279800639 609.36104524229062918 619.70477036808244975 618.512680965601362 610.52798219512794731 618.28764063146377339 613.12958995495409908 606.86012206609836994 616.75347155347208172 610.96545197538705452 610.40621641585869384 611.04184023109121426 604.80804159538763543 618.92434988213119595 596.08492061651236327 605.29943365453073056 609.20410278240581192 623.04400066317020901 609.66247559905991693 602.99361860307158167 616.13679332768856511 607.68090799152003001 627.73061965102931481 613.45607678150713582 622.40142166964653825 617.16776473943821202 613.75147627295802977 619.73288158836294315 618.47309274462793383 608.62319654183454531 609.53144250079947142 609.01990158440219147 604.96165861304359623 609.63487412153870082 607.23679156927892109 622.29417757654596244 614.74221338853817542
277.75457145138682336 287.81498480019979525 272.91726267902078007 280.37149593163076133 283.94512806300230068 284.75582649047225914 290.60179849062706126 285.71803044234718527 279.53338668235568321 292.46224002635358374 272.49213226604354077 283.28649765094928625 291.77563348323991477 289.68038665744029458 288.15092533180387591 292.90563680900879717 288.01557378815249422 285.9839367150976841 285.36528114961271285 272.17349742093642817 281.10672712951566155 292.29746199361630943 280.39533598691309635 275.78905623605436404 277.02023354720756743 278.52984575240191134 279.77843184641386642 278.52050171295161363 287.01554049632659371 283.01564642995350596 299.24416125885113615 276.31037163722180594 286.07909803997006293 284.88219217064465738 291.8056230180201851 292.24278811652249033 278.44259356113690274 278.50812989928340357 276.69990169269794933 283.46265629858464763 287.02464494580954124 280.83461927478828102 277.07255973303477958 294.4216566596779785 288.04301089944749492 279.39454492082091974 280.84494676165405735 290.52562505066964604 291.73718456507606334 277.60332790069475095 278.52637416822625482 290.45565310903845102 275.8089844222007514 279.94695923126641901 290.101197561536992 292.26583677739267841 291.52607460136755435 282.45268249053304999 279.92829513089901639 283.09133457478856144 277.82992219987215776 283.73400900495181531 296.7398099454086946 289.41485665010026196 291.44563002762799897 283.52223683687776656 291.57619439608095036 281.47238697809564201 295.79823888549663025 291.95141042355771788 281.66460997545664213 274.57978906683541709 279.67205713145665413 292.19400096624980279 289.92230831035317351 275.34733411810100279 292.52468700963385118 281.85383983682851294 279.31043076446690065 280.69698285541210225 283.01690683248602909 286.3585191609806202 285.77565980986452132 289.54166068343857887 278.65328258798172101 289.63592198375715725 285.15878319544719943 287.30889814371067814 282.707177416784873 284.49849543285790787 285.26110959724962868 278.74198679124305045 283.34172954743741002 287.86594465039246415 287.8320543538031302 291.2759721225818339 289.30391244632039616 280.11318668207792371 275.23703362833435904 282.96131380660381183 275.21774420031306363 280.39702685465641707 277.89007211221661464 288.76971642048721378 279.41651752823889865 285.91243600242944467 273.85231546602017261 283.67595919027974105 283.59327311372732083 278.65865193422825996 271.72795925888846114 286.78914604471896155 276.86422718217011152 289.85235176618124342 284.19335618699557244 289.10251295064330179 275.79553204701107916 283.07480659991165339 283.44398535792419125 287.2956912837020127 273.63229513597332243 281.46498981306217502 284.17853139679647256 275.23816205284708758 292.43045558040449805 276.6638201874845322 281.16619278974036433 285.78563611751496865 284.40775157748862512 283.2246421008408106 284.40339964108824233 281.51691631193858711 287.92624635833675484 276.71378721294178149 291.71044564994855364 288.21676206628035288 290.90626830602661812 281.1438650771934249 287.02416519662614292 290.57708863291452417 284.35268561864472758 289.95403634177785079 286.34971373317421239 280.41904091160716916 281.60886396037437862 280.85053038946062998 276.35642316919137329 280.44899447140630855 284.30695788567732052 288.86947409012810795 286.17147592710864501 269.82844364339473486 272.86175259921537872 283.27220468247048757 281.14082495803296524 295.56279556521099039 288.44420684623185025 289.96855935491544187 286.05050153326573081 290.1754313952768598 285.87381870914254023 287.29330325980146199 277.36332016740436757 273.2020501528173213 282.00166319632830891 283.07574327614713638 273.22849756598816384 283.87989798631281246 288.82484356086922617 292.87041085296584697 276.61726437074446494 292.99336689362388597 288.11113608284892962 291.13653347828562801 282.46006419821742384 272.63003104056485881 298.50667954020946127 283.25985241168632456 292.56301004788804221 277.30917215584361202 278.15715537730602591 282.90828871279359191 279.44603804815341164 289.44676206345644687 286.35448956947601573 285.19771901294285499 276.33606554367941044 275.97591872814052749 285.49780287856179939 284.79323689063033953 280.69169758138565385 288.2628937270516758 289.56656890661378156 289.18023486087093943 279.62956717101371851 283.93842044706474326 284.72548480974234053 281.35963556630258608 297.62763426069693651 280.64717258386599497 282.23922672435475079 291.72152667826196648 290.12149902752190656 283.49619593687020824 288.38283860915652212 292.28991980591735 276.29994089764733189 286.97670321201093202 281.63507269169821257 288.90450657964765924 290.54878983197215803 284.98516352513684069 285.50510360093699092 283.4161070826288551 284.18034572849416008 275.9984089416035431 289.21861947407654725 282.77082111961141209 276.74811202597163629 294.04138313351239731 284.25863739343009229 285.02924519054499797 280.41439080540106943 287.18634712481127735 287.54528483762055657 289.41125564879718013 294.14980374673592678 279.58614739572072949 292.63393512116715556 279.2039023773230042 280.41509329736828704 283.90063835355744004 285.4790971732319349 286.6944952033915115 284.36994726246041409 284.44227422015057982 283.28912515829904351 281.55714872463141774 284.18554305286193085 285.75717023302541975 288.65932996171125069 286.71130248600104551 271.23930185609884802 282.10188279921339927 283.3302853179557701 284.3451604620308899 285.95889149851041111 286.55624977463884306 276.50436052474753978 290.83591666835752676 280.90760774235639019 286.00358527575423295 279.82240114932562847 277.71190605525640649 282.42267804146536037 293.07355821755930947 293.11908327436867694 285.4709217220358255 272.97708990330198731 281.93579759770472037 281.43322849044437817 278.60048484354280163 272.32741039794422022 282.64629356707939678 276.41118676967369083 290.45500035178287135 279.93259405112155491 279.29228695906971325 286.6555195999001171 278.56559570456539632 280.56783199712560872 278.26418767731053094 275.08586532360288857 283.84080578454654642 287.20217641571076683 286.44203676859399366 279.31032920773020578 289.02051197771629631 294.79112146856431309 292.42159710082029278 289.99676658309249433 278.41603082318238194 280.61398161536072848 276.74013342985540476 291.95750618159553369 286.03129506476676625 276.18669791255604196 287.67683106628470568 280.70659926024353581 285.44013088076417262 284.11709459592140092 292.48699609667386312 274.93837040185007936 280.79541880690879907 292.78461364511895226 285.51925287186844571 279.26322008363695204 285.08627289700922347 295.28717186105239989 292.07399233073550704 282.50153780916537016 280.79464297038117593 283.48385248566341943 293.14578795076920414 286.42182847426619219 286.65644025418316687 289.3188979987262428 284.17407010744705076 286.30679790859244349 291.46973731026793075 286.65702835934672521 273.46716362602808204 277.24067239645557947 280.15859178303054478 274.58946367848255932 281.27375841763313247 290.17205500980435318 294.03958105765752862 276.81041810255896962 281.49470644887293247 275.90935455229185891 288.21156219188202385 276.28341861033817395 286.65503020355504304 285.05201254337157479 277.44351465705273085 285.19299618921462525 282.71119358354036422 282.71955137739308839 285.61782900931797258 284.04624190686433849 274.73060241942027915 281.4636817865087437 289.81858719856541029 293.31972952734048476 283.78278910941401136 279.83530320630143251 278.74680336306357731 282.29301452149115903 278.92386488703238001 281.66413020907356213 281.05183859643210553 284.92570210756900906 275.74590603541560085 282.37071599452792725 275.04496200664090111 291.09435295127588006 282.08813572727859764 284.33996310109728256 278.45147772093213234 284.20366152102405977 279.88460289402945591 287.74277139534945036 289.51267860029935264 283.9661733387242748 283.61214604313454402 279.72377850944775446 271.96042172269744697 292.053572992830766 293.78249967556234878 283.35298457122058835 287.05446800718937084 279.07864082759147095 285.46135955687202568 282.75823271096675171 288.81177277059305197 289.03011608289102696 283.47032337412395009 281.87936369278691018 280.54824215185510639 282.69886986962933406 281.2873545913330986 288.23375101471674498 276.2980913969897756 284.64589962429784009
-1593.2188799407463193 -1604.4430129569670953 -1585.7714300951374753 -1618.0098035850821816 -1606.1865099475767238 -1581.4342371690670461 -1615.2533709983733843 -1594.6584454087171707 -1598.9347237490799216 -1620.032112577468979 -1598.0776264300438925 -1600.6013581303989213 -1593.9554191199035813 -1583.4358890388966756 -1614.9633263006098787 -1593.6946821837050265 -1602.7615975943267586 -1608.9744401236730482 -1616.359116331219866 -1632.3865908845407375 -1609.8095500231115693 -1598.2245822563106685 -1601.5312302532965987 -1588.5394595966099587 -1621.6575108429267402 -1603.2910990252794363 -1606.5434413114976451 -1609.8950608870882206 -1640.7420451329771822 -1580.6699977228813623 -1612.0487544655343299 -1600.1317345987495173 -1597.1265453662981599 -1609.2536604511403766 -1597.599288337982216 -1592.8778034912952535 -1595.3687993529390496 -1587.2377936813293218 -1633.0719180558903645 -1611.6528690379925592 -1601.639514467588242 -1590.5236271196085909 -1602.5288477881836116 -1588.8888465069246649 -1633.9617528476803727 -1617.6402830204249312 -1606.7852829235671379 -1614.680930160774551 -1584.4091847898696415 -1573.761372383539765 -1574.3177373023672772 -1604.2260171903362789 -1595.2727131766091588 -1605.8791437666202455 -1591.2700540525681845 -1594.8988763232302972 -1613.2206730919463098 -1581.9890832232777029 -1605.8363117897038137 -1593.9201351825024631 -1576.0524726015789838 -1613.9674252335473739 -1597.3905016329117643 -1591.4938053910377675 -1609.9211261978052789 -1607.0279072539394747 -1605.4338298659347402 -1594.1761511475474435 -1586.5966052671201396 -1600.7003477632617887 -1596.2328156936919186 -1620.5032502421322533 -1608.3133999056697121 -1606.4050140693259436 -1582.9463797874686861 -1626.155691667357587 -1612.260286826000538 -1593.1620325653427699 -1614.0234443108240612 -1573.2664932993732236 -1613.9537345069331877 -1593.7387713782136416 -1598.6250599959971623 -1574.9299012038427463 -1588.9580370021988074 -1606.3853125215409818 -1623.8868433082848242 -1614.7903451593708724 -1622.2377981585798352 -1596.4336689926942654 -1595.3385436462001508 -1580.1815788432154477 -1611.4247485000830693 -1612.1434796883618219 -1595.7659059317143146 -1590.6094662642260573 -1616.107295037193353 -1610.9259671248576069 -1607.1553766865540638 -1625.4993845765829974 -1614.0693148958177972 -1606.9043586244752078 -1599.9692668787324692 -1605.2304819630671773 -1596.3366827464751623 -1576.7926674273608114 -1618.243323048022603 -1605.3662357665141371 -1591.1517830872173818 -1597.0501601575656423 -1609.4512586822397679 -1609.2652454019262223 -1566.555993599649355 -1601.0045175485322488 -1594.5455481037656682 -1599.5668241924042832 -1593.6083407619428272 -1614.7356464595063699 -1600.5307571183516302 -1598.6337276789640782 -1598.1511818356530057 -1618.1146406009161183 -1598.6069898837856726 -1613.3260464928871443 -1594.0313430916212383 -1601.8222359987803429 -1594.5374241871311369 -1611.0909632107673133 -1595.6182865971450155 -1613.2595817329045076 -1637.1066419443675386 -1599.9644389164502627 -1592.8819889293929464 -1618.3956652503904934 -1599.2954015242626156 -1613.019974137509962 -1611.6829227945195271 -1605.3116110597841271 -1586.646053526396372 -1581.0393928368973775 -1588.0015664087807181 -1589.5134835032563387 -1594.0721141324711425 -1598.3175558459638523 -1615.3035468232374114 -1596.5010301793927283 -1628.293021368096106 -1613.2329931737483548 -1602.3851004699199621 -1607.6803056268793171 -1601.6645100550847474 -1594.6415547889041591 -1621.2045204852236111 -1583.1421859881174896 -1602.0915167463690523 -1605.0192190195266448 -1618.0944256931925338 -1616.5561925693041303 -1609.6247607793600309 -1600.407943745134844 -1615.0088410546736668 -1609.1252207469128734 -1578.8336537942216182 -1625.2707042777369679 -1595.4966809901166016 -1576.5209035996065268 -1578.4696664113489533 -1589.9846507538725291 -1574.6692509002948555 -1603.2442128418233551 -1612.4685954842543651 -1584.9212156336325279 -1606.1196613698680267 -1597.3220119635893752 -1617.3636078626327617 -1618.108937462060112 -1602.5384330808526556 -1604.0897879336855567 -1617.3857828433165196 -1580.4226726868207606 -1608.6395776391163963 -1610.9047082292454434 -1594.1811485548698784 -1600.0043773792083357 -1620.5042248316133282 -1593.7921854493447427 -1583.0916771089814574 -1593.5869482531429639 -1605.8752634330626279 -1609.5739808362770873 -1596.464457984386172 -1599.9181641666061751 -1606.9857973219322957 -1607.6570915823633641 -1576.6646196728790983 -1617.1889332206899326 -1621.0329586210502839 -1618.381429120093344 -1596.721535330414099 -1596.6692118225507784 -1599.9827493414006767 -1582.0438765284820875 -1598.9756440707988077 -1607.3302406665504805 -1601.7667831327294152 -1592.4964913382832492 -1626.5478038667433793 -1602.2661344331629607 -1608.7012493271390667 -1632.4543457944241709 -1613.6892576260158876 -1593.3964340418478969 -1615.2772191121202923 -1607.4778220602695455 -1574.2535951088823367 -1606.0702831795804286 -1612.2317654452401712 -1637.6968827424152551 -1601.0372726700850308 -1606.0002815765051309 -1589.5777345479291398 -1582.0718028193762166 -1602.6285545271600768 -1602.232165214751376 -1632.7927942787011943 -1608.6885850809921976 -1589.9768191544249021 -1606.5444313135656103 -1604.4801678400492619 -1630.5190327571474427 -1608.1557479450607389 -1621.0712732747272184 -1605.9176856769231563 -1617.6669906751601502 -1574.0125634017911125 -1624.4721516413401332 -1576.1330970928433999 -1575.2699766189850834 -1598.8646551244012244 -1594.5247986375047731 -1607.9469151377741127 -1600.7104584821447588 -1589.5127628515706419 -1602.0694458022312574 -1586.8535594429970388 -1596.1988116545769572 -1593.1182324221258568 -1590.6783563546030109 -1634.8945675547613519 -1604.7962430197630965 -1616.4727959930116867 -1607.2131866932063531 -1594.8148334897223322 -1615.1186610234890395 -1595.2946920640242752 -1626.427082719047803 -1627.8464455828543578 -1583.2870202637527655 -1607.3434451966095367 -1607.9106152341284997 -1621.9294012011143877 -1607.6900623695721606 -1602.2944791784707377 -1624.5227173461084931 -1604.0605082932954701 -1606.3365578151945101 -1628.6668077424758394 -1603.5617625615252564 -1602.5478737393073061 -1605.7783081485870298 -1573.3365423564855519 -1596.0575019857562893 -1612.4315210915426633 -1608.8505403129147453 -1617.2136707572819887 -1617.3424739205852347 -1621.6821913900200798 -1584.8458207010521619 -1607.7934241792224839 -1599.9379189377102648 -1608.8083978962247329 -1575.8529345240885959 -1591.4203817513132435 -1623.1476089856332692 -1599.0961120337440207 -1607.1938837782065548 -1590.9281279321382954 -1595.9959938547840466 -1596.5548558722489361 -1603.7294217684661817 -1619.5672141169043243 -1616.4543669007530298 -1591.3043134688232385 -1605.4727277748052074 -1619.1888112277915752 -1598.7845046968104725 -1600.5850136667313564 -1612.0222688198437027 -1588.2912217432449324 -1606.2762905560464333 -1609.9225848089261035 -1609.0286784049812923 -1589.763523185122267 -1612.6821236742498513 -1577.5110499801385231 -1597.6565486005986259 -1592.6126250598140359 -1598.7665148266114556 -1580.2992273182651388 -1606.0484543636150647 -1593.2209662519089761 -1607.8835692774939616 -1607.7896767438314782 -1602.7684042168104952 -1612.8599813785940569 -1614.4108625580088301 -1591.6192713046921199 -1601.6382138530348129 -1613.6728793821876025 -1610.6744339093484086 -1584.9543601701791431 -1627.8518640439485807 -1618.1446396755327441 -1580.6479665887607098 -1608.6369784900148261 -1610.7852141711614422 -1606.0604279796523315 -1608.8799355417750121 -1601.3966580653388974 -1584.0736521315434402 -1614.2888729953651819 -1605.7281551066257634 -1614.7246447410866494 -1608.2860858495637331 -1615.4104382210400672 -1610.8047564240721385 -1614.1660619906999727 -1608.1788887414681994 -1582.6684697266032344 -1599.9833149239352679 -1584.6704747558101189 -1600.1923049219633413 -1612.0580056920921379 -1615.244611511959647 -1608.5752057198758393 -1582.9429308967983161 -1614.5950928064594336 -1611.3760039233104635 -1607.7462066962962126 -1586.9783039313272184 -1621.5556674605534226 -1588.895568012594822 -1604.2464431390069421 -1592.6694359708251341 -1599.8750710507461008 -1614.4937976194610201 -1612.5614122415365728 -1604.6256675493880266 -1583.6456680599583251 -1608.9208455795599093 -1599.5732314639060405 -1618.1886685248286994 -1589.658999581531134 -1604.4213221190475451 -1591.9459924525251608 -1605.5887929402770169 -1621.7162220183126919 -1597.9713129119434143 -1566.8437495170874172 -1613.6987736822056831 -1609.2476280839509855 -1616.3770803798961424 -1594.087057417845017 -1619.2922925087978001 -1589.2789751489365244