253.54525947028702149 240.13873244893397896 245.48180912684171062 241.45876497974356312 248.96973705344595373 244.68742965621964913 245.67020572366664055 240.19012454507898724 243.77782251949790293 238.42999078721695128 241.65164398619606345 247.7111701889997164 246.805840885156897 248.54052489379418489 250.49793762088731341 241.9351175329637158 236.84841583692991662 247.71484108314314199 252.57507332701976566 239.0319321734528728 248.34842909586228643 249.33183452885415932 246.96382611878837565 240.63136796599701484 244.40850655661100177 241.09679147903605667 242.9952741878333029 247.11000568899899577 239.21697979505901799 247.84599036747397349 241.73689900170046485 247.37871358824770596 247.38379002300945331 251.5838111382285831 251.58463736915294362 240.05706468080680338 246.29239983370328559 245.65317131260363226 239.59580830640811655 250.45493322643301326 250.48525636384329118 237.41921386051254217 239.31011595998842267 248.66397913379267948 237.4739955603930639 240.71691247800819724 239.36998700162828868 238.83787118673853911 244.80995961427075258 240.44640985366851282 254.5100596735055376 249.11878057563748712 245.26003437831454335 245.83018620009210053 244.71181329694320539 241.19160366154187614 240.70427353448678787 250.4514805710484211 245.97153607208667836 245.25168931455422694 245.07985447439082805 248.41186392696135954 234.99635012900324682 249.68261187020044645 248.26394490826484684 249.8566100585101708 255.88183624235119851 253.5229151916845467 242.04343910737046031 251.59841044644633712 251.16081531294986462 237.79557336490699981 247.87685529760776149 243.81299805194996111 247.06111981789618426 252.31747811081672239 239.99758994080701768 243.19537092448979365 251.75040106190749611 243.17721877936278929 238.33622669358499024 243.71363630239559939 243.721853685563417 245.70908645155068939 244.26645016767258767 237.40433542832423086 241.54691811695698789 244.27052383513705536 246.72216267266443879 243.03719037384030344 250.58269692235091952 239.89099696902772507 255.00611952083116307 243.54650920538551873 240.066068514863872 240.09081522465899639 245.76168016516041348 246.17244443205945004 249.14504082187698941 249.65236823270794275 255.12792492639778175 246.96691658225941524 252.39332873985011929 252.19148488991550039 239.17456043175323543 237.52572152558042262 245.33707545424013574 246.2305906744665549 238.0229724239803204 247.29399569848334295 238.78720893742917042 244.20309951855551844 242.23833562857609536 245.54969379529021012 243.61038963149772485 237.03902041141435575 252.34096664327822168 249.45142144220335467 240.72318957667536665 254.4153056571347804 244.33464871686084052 233.59015756352661697 240.27847714960716985 239.99885298720613491 240.88946411013685633 240.0382877138684421 237.77998292227619004 243.85583217159950209 254.58405192041087162 240.23516365788796634 250.36104508042058114 253.70273976817034622 247.74667175536816899 251.19149957129394579 238.52241196051593874 235.80460667377425921 235.60000382544816944 243.55527719128465947 243.30827162708791889 243.16525058121629854 242.90253014734034309 247.13709408839358161 244.93979592891508901 245.14856676764500776 244.83247445530949449 257.42052174129622699 243.09042673678104052 241.12824435424289504 241.94061659718556712 244.26099900502998707 242.54278826216119569 245.9855831748264734 251.41222350243333494 248.78391271484852609 237.2460474284005727 242.48216403129566743 249.31635839750271089 238.63196366041745478 245.48967400562523267 241.65647471339161712 248.99388889463173768 242.45054669143635806 250.6233609682849135 249.98717751244319629 245.49625335946129212 244.34056115020240441 249.75686663693477385 239.1840093993636458 246.96197983838749224 240.23585961471047767 235.40595344015667933 253.49361117547175581 249.15299318400124662 247.53881837057440407 246.05920757747284711 242.25328371644454251 244.80744363339914571 256.71405941018144858 247.99595076148699491 248.09828802675164638 244.37293417798406381 247.43547680448446613 238.86309183157263192 240.26225231778602165 250.86952525217648713 248.85227310205641515 248.74990453578314487 239.45201319505230231 242.90811401757477483 246.59778714047772041 245.83240001416049836 247.72870915496315547 239.37031574299692238 235.69350686498472669 254.38726333560455828 244.02421553556541767 247.6082904901728341 235.45283965625398537 247.99244938603925448 252.91924012425769774 245.2086680622390702 244.23087960344429348 244.72436162261729464 252.06425271071620386 247.57544046268358784 247.18931387553843138 242.0060541681712607 253.86598167560990191 249.9556090032528175 237.29583059026651881 236.81324987911219182 248.73248019515867213 252.60231057006248534 241.71129630305415503 239.01853837437343486 250.47287755728137881 248.25241989114056196 247.89305429137297665 245.29467475099136209 246.83317545587780728 241.91855791448318769 241.6978897483715798 240.17232279072584333 242.25531721633231541 241.99941180543802943 249.94302425806321821 244.81030997541796523 242.4138731690416364 236.07085380365700189 242.46004879492971895 251.76694979923385631 238.65111078673101019 247.32365437758278404 242.14218247556328834 246.59442989573003047 244.39439469200914345 243.44135818253127468 242.99067924922246675 244.21161637394780541 244.88866654484826313 239.07430114984151714 238.2849371428411871 242.92472735351822166 244.98689638934217783 244.13787952742575271 240.46689497362712018 238.83419062171427072 249.03688594244229648 246.93070321736027495 248.13174083401693792 250.05943337744503197 241.40732571921051886 246.01352694369001028 249.59642863110732947 242.89720008116131567 243.49199840855769139 245.35833284575349467 242.75650099150777805 246.05402455074178647 248.87653277241233241 249.34452378850858167 256.22578053674169496 236.41448407153370681 236.5195924714874991 249.31710925716797078 248.71167021497365113 246.59137339612274786 244.91307101928785528 252.3286304235285229 244.78148396403807396 243.80243481556505003 242.7658508819184533 250.27943131440724756 248.65927059884438677 247.69649979968943398 242.91189799121491433 241.96728465409714204 250.19878852075211739 252.45251883659946657 252.36513945280296412 247.00056714626109056 244.64116055230411462 244.93421703418042057 247.19241154948625194 240.86607642403961904 240.59699677889236114 239.37398229913347336 244.46730687982386598 242.30818474552768294 241.78121420027264321 249.99213858592017345 243.1255586945848961 240.98822493473826967 237.8925083527865354 246.39411351809533812 256.00439379764418391 241.63120103295366903 251.83202964161390014 237.60485618890410819 253.36794305464277954 244.58102425828502646 244.39692179770150915 241.597684537479239 239.38926002829703066 254.34984437554660985 237.14395281632226897 240.72138858675967299 247.13104614849848417 245.31388105348739259 240.20322587192046626 247.97707269653523099 243.81782188433362535 236.04316655186104867 249.40479685316455516 246.42806430131548723 248.96708949291129898 251.85039868615868386 240.68377830549269447 240.2565738608222432 241.61723848857118924 234.9303599793952344 238.5273843518399417 248.04234735288670777 241.50396138954198477 246.29806962989854924 248.08657035237732202 250.30595925011161285 244.63902382932084834 249.66975489706197777 244.72514367895746545 240.41923063029042851 251.41451840520107908 245.86863954376872243 245.81736477820706455 242.85905882800093991 244.23093612453857304 255.80377013377221829 248.09954490158474982 246.5160445664999429 255.03998190039203564 243.21309933663638958 231.22143382806928003 252.18951648726059034 251.26959379835409436 240.73446826803217391 243.83465386507776884 245.53293125298353061 248.88658681155564523 229.92534386681955993 240.62855995176241208 242.97917426757641124 235.41143971955327174 244.32675005132648494 248.77448503112270828 242.10246738119639076 244.02532451053397722 255.37289750758151285 245.52093616467325887 251.06022914662094081 244.21481143675549674 247.71614285671168432 244.73292364631967644 241.3541675286000725 241.57398003453315027 243.6030226299338608 240.60238310773334547 244.89534065694317633 237.39888280563565104 246.66518740429108902 248.67438973384724932 247.27655188167099709 243.00961680330271975 236.07374573651756577 252.38673921787579957 247.39986561216716154
-1097.9670786842798407 -1090.4242578490436699 -1099.9867600930015215 -1066.4335201715923631 -1068.5531948136986102 -1078.623116560304652 -1096.2028164762687084 -1079.276115993671965 -1095.1723997295234767 -1072.113217826977916 -1107.4460722125759276 -1101.3174387265312362 -1104.1685104391888217 -1071.0673766404879643 -1093.1570605501706268 -1078.7819232800773079 -1091.4365149258717338 -1096.340886791216235 -1072.7667164810097802 -1096.8409600720153776 -1110.4366902456713433 -1084.0170200510665381 -1110.0637949629472132 -1071.5310916778360024 -1096.891918904225804 -1090.0734800235200055 -1081.0458491659883293 -1107.6573752436715949 -1086.3203397400866379 -1074.0637205601294681 -1107.9024270898803479 -1114.6113473024411178 -1082.2433047522399647 -1083.9462899814486718 -1084.5748771399544239 -1091.1030053773044983 -1096.5842745644476963 -1097.9338452850768135 -1106.832069325835846 -1093.8115358373390791 -1109.5653485884522524 -1096.6155909090807654 -1091.8605450574730185 -1081.2656640242184949 -1080.9733621597131332 -1093.4843384607688677 -1089.0469997984100701 -1102.1422167530031402 -1124.0181701493424953 -1099.6294703837145335 -1079.8544085843300309 -1100.8975680791324976 -1102.3122722617667932 -1091.1599759858488596 -1072.4716507336861469 -1066.860293871923659 -1089.2169331276979847 -1094.2042316027557263 -1072.5070329270113234 -1089.2653505835596661 -1084.6522499038237584 -1091.0260681115055377 -1086.6051414856037809 -1078.7682309115195949 -1048.9143461782041413 -1098.4439118446198336 -1072.2676399736183157 -1095.5410007924090223 -1099.9540013899165842 -1101.0359114973882697 -1089.5372864996195403 -1078.7227021135945506 -1088.0447531317606717 -1086.7840831052371868 -1082.8328169035353312 -1090.8845046942353747 -1100.0981441971937329 -1103.0010873332221308 -1098.3385634918631695 -1093.0050847638915457 -1116.1693742886589007 -1080.1788413249769292 -1109.5314871167122419 -1107.4127087629706239 -1112.0476638413115325 -1092.5500119474684197 -1086.0122260075568192 -1096.9927826473763162 -1056.3245267180614064 -1096.8763497143438599 -1081.3970847736011365 -1106.4031633062534183 -1097.8369045905535586 -1095.060735598191286 -1074.8742361995775809 -1114.1748705634486214 -1112.0659968339111856 -1104.750824214163913 -1072.422263666926483 -1104.8221586649178789 -1088.1423061803327528 -1070.739543288427285 -1054.2625213851777062 -1087.2847657174850156 -1068.683710897961646 -1076.5785068013699401 -1090.4967942622927239 -1085.4348709763157785 -1090.6099318468536694 -1079.9038140540621953 -1086.0685351657086812 -1095.9600500369747351 -1085.2774942203279807 -1088.7325473355504073 -1066.5930728762789386 -1093.6686887263808785 -1091.9383528060795925 -1092.3517457639140957 -1073.3333879246026754 -1090.1675424937197931 -1092.4125304673511891 -1081.2115658225250172 -1103.6914162621253581 -1100.0460900946693528 -1084.6839609803228086 -1093.6004550115690108 -1074.955029862000174 -1093.8800544141251976 -1094.0105656452728908 -1105.8470619585118584 -1059.5277114219197756 -1076.7013398851652255 -1093.2970615532997272 -1069.1809776429072372 -1090.6866040342786164 -1093.8089004599050895 -1072.0411344334806927 -1082.2552009708199421 -1085.2643148193114939 -1105.5092042422616032 -1080.9304115414006446 -1085.3202063001549504 -1094.1465243503344027 -1081.6820877764516808 -1090.5690067246250692 -1081.665773483783596 -1110.4793120559793351 -1086.6739461449956252 -1093.4878214671484784 -1090.4897021226006473 -1126.9627256174262584 -1104.1381880262920276 -1092.8130696560299384 -1081.826541115432974 -1078.2017154614752599 -1074.1697198409563043 -1076.8961094868159307 -1084.0524783252242287 -1098.7569197854240883 -1108.5135619423740536 -1068.947095045044307 -1087.0707678533815397 -1083.8180843702666607 -1119.8822770487095113 -1102.7696811237331076 -1064.4558152701354174 -1066.955668680514691 -1072.4408005342102115 -1080.2736106834217935 -1100.5597333552368582 -1115.9857294391633786 -1084.7870806714279297 -1082.5494276495844588 -1114.883528011378985 -1101.3709520012764642 -1086.9903808024287173 -1095.9995342390291171 -1066.4046958334654391 -1094.1230297897996024 -1082.4486709743309802 -1073.3631562604937244 -1092.0295946688363529 -1085.6879544517905742 -1095.5330586749200847 -1098.4873734901373155 -1071.3076122663214846 -1100.7095622956624084 -1088.1783285133915342 -1089.4463378021976041 -1108.2017231547401934 -1107.8176613528962662 -1112.6741579703432308 -1105.1609170907515818 -1059.2243194438187857 -1082.7724762259267663 -1072.1956132348591382 -1091.5687313572557287 -1085.3605413001257602 -1100.9910342356247384 -1082.4538349323579496 -1055.6797934217195234 -1084.9073852476306001 -1083.8583325312308716 -1075.2168047947729974 -1086.617410825523848 -1079.519636961034621 -1062.1337358419850716 -1082.4656374588544168 -1078.3176517232586775 -1090.1764847776137231 -1074.4709669331698478 -1093.7775352220444347 -1089.0665200631833613 -1053.1804758093771852 -1105.695539367494348 -1086.9188071933810988 -1083.4828490980462448 -1096.2678901215076621 -1103.6795847518512801 -1063.0949561955642366 -1091.603426159547098 -1114.1421645342591091 -1078.073338900918543 -1103.4077356803438761 -1096.725471838150952 -1092.4296593542790106 -1097.2156432942542779 -1071.8402227769099682 -1073.2890115202817469 -1112.5960173675944134 -1062.8677842638851416 -1089.2541722928742729 -1105.0760014161903655 -1071.9799045545303215 -1088.7354149319621683 -1101.97067396431612 -1093.3402674186427248 -1103.6314323521919505 -1099.1636187352291927 -1084.5412870536006267 -1101.2641266696157345 -1084.2118016382739825 -1105.0733323231936538 -1096.2638271282776259 -1089.4371310685287426 -1078.8826214235793941 -1097.3253148669596158 -1060.896231108840766 -1113.7286003917399739 -1104.8553578306471081 -1106.2956450908607167 -1086.6049200561851649 -1094.858069007540962 -1114.756630768264813 -1079.7844871034610605 -1084.4694379666218538 -1128.2700535757858233 -1079.5775581369475731 -1081.7023280864639219 -1093.8035052829179676 -1101.216861798148102 -1096.6143395641872758 -1078.659974193117705 -1086.3254504192989316 -1076.7419421272593354 -1087.2515775470956214 -1098.2639083263056818 -1102.8262563286486966 -1095.0955406667426359 -1091.6091070559966738 -1095.8480718991249887 -1089.5933009773018512 -1086.4148527681559244 -1087.6397890811160778 -1070.5175226790108809 -1095.2492039409794415 -1081.0347637437896537 -1105.1585324290560948 -1075.4335616203443351 -1101.8448466839379307 -1087.8018917043275451 -1127.9405318278193135 -1078.9871117032143957 -1084.3786926038660567 -1090.6641794399010905 -1085.7727827436688131 -1070.0048225118719074 -1083.0627759117321602 -1091.1828077841530558 -1087.1622006098216389 -1092.1466022428344331 -1090.2869309221123331 -1070.5481877740262462 -1100.3548906932574027 -1096.6161405421810286 -1066.7779056495512577 -1076.2773007180990135 -1102.2763677778202691 -1081.7487502740050331 -1117.063787955021553 -1081.4901479028285394 -1081.3379277834960703 -1078.0712998034418888 -1089.2201442585367204 -1092.9756591854247745 -1071.549213810206993 -1086.5974599228918578 -1056.181033949490029 -1091.2130833524533955 -1073.7266433520458122 -1093.8776234305676098 -1085.4135175938847624 -1094.5430227668800853 -1105.6976875237301101 -1081.1846159868860013 -1091.4687209158073529 -1075.4783053659525649 -1086.8261570706779366 -1067.3001737469719501 -1091.5322870599648013 -1107.6958237502942666 -1084.9997435323305126 -1082.5934793119097321 -1080.8524758930798271 -1085.404136472516484 -1086.8322847668582654 -1096.0765196193744941 -1099.6026102035357326 -1069.2514485637495909 -1089.0550013134372875 -1075.5743910545238577 -1124.9136092803889824 -1072.6683544774070924 -1092.3549649356671125 -1070.8607632487667161 -1101.9741180920511852 -1078.6386921598659683 -1081.4729763851023563 -1074.5200606060784594 -1101.2937367924560021 -1102.6523545780423774 -1090.6409746475012525 -1083.6393629334979778 -1090.7596768215594238 -1117.7897265316184985 -1074.6419230325561784 -1094.3488022860794899 -1094.4404486178559637 -1094.1757827653329969 -1087.5058557028564792 -1084.6530297564900138 -1096.2386514356292082 -1076.412210913385934 -1061.2812914231810737 -1085.4344299057763692 -1093.434150480968583 -1104.9859492117714126 -1080.6431960623647228 -1068.7638137821652435 -1115.2698757895209383 -1099.8762683414324783 -1093.7442566340380381 -1092.9341449209946404 -1084.2867838011325148 -1089.802958381766075 -1098.5352922203271646 -1090.2270428457015896 -1099.7400665067027603 -1074.854386274730814 -1092.8174610622152159 -1123.1712937904851515 -1089.125267233230943 -1106.8735860054553086 -1106.2478271536215289 -1082.954692183339148
625.75467145362392785 636.99615675646828095 619.86958029457935027 637.57104996973805555 640.54825563075246464 641.48809253700403588 628.54834743991398227 630.96820399036027993 620.97244140361931386 646.16767296069826898 636.65257988578093773 643.76561855850570737 632.23263687104656583 642.83179701358687907 633.61671297685040827 639.9450426459047776 648.68853232989113167 638.86286372331869643 627.14580592236904977 625.21431109950253813 633.85779891945492182 629.04762313005380747 635.95837777109170474 642.16422799214717543 643.10368107112742564 638.59335798052791233 642.09985819846792765 652.12407603037536319 632.08254771609813361 632.93764732640795501 625.59957754853928691 640.23645055222027622 626.01971812044610033 639.87988696550348777 636.79740721633174871 630.42634436953346722 638.85952054062215666 644.07436201426173739 630.66007045735534575 645.92493433210006515 645.42177809457859894 625.87841246140362728 641.86540923793324964 626.59143626462264365 647.33966841678477522 625.83761993511359378 629.05724010966162041 649.80129597369875682 644.90439439980286807 639.88390337866644586 622.28745835642155271 645.98643883036777424 642.63996899970391041 636.09477737094186978 629.20537826101917744 640.81162326935145757 638.06088371354712763 633.79201610929646904 633.46243919967173497 635.55368551148876577 630.69529572916178495 633.33159769143264839 647.97470642624614356 639.07298088498885136 630.45481565380532629 626.79061573374985983 644.42358184143336075 635.29210554584972215 635.66925671355431859 630.74015351609773461 631.00717125120877427 614.57298955804003526 640.78184754509265986 630.14391482066014305 635.18077026909236338 633.08739529400850188 634.84698036961970047 644.82938500897148515 648.62462466888575818 642.46573951686093551 641.03607209302083447 638.57561023176367598 631.81349186144598207 645.28445005670710088 627.62273669208116189 642.33337357646951205 644.94041299540481305 643.30726524753242757 637.4050849229661253 625.5637312140324866 627.54788262799922904 632.82962503410021782 636.20230174781386268 646.66427694944388804 636.21620920010514055 628.87575136669875064 637.20619826030326749 646.11248215218336099 626.41766145972474078 638.98116313104947039 632.18635695949797082 643.93001610909720966 633.11877441953151902 642.98009473692854954 645.43880652404425291 636.65321334695534006 639.1356823342498501 632.91232496416364484 644.35105228822408208 631.18360980116131032 642.2883908690946555 634.10407642658799432 637.64524391383270085 631.49586868669382511 640.50293130194859259 629.85803747960937926 629.74363788489665694 637.6661313456154403 647.66915416276196993 637.31127503652328414 642.19735163637562891 644.99450721163964317 638.35154364865900334 627.5200327617980065 644.85958802976540483 641.80490098689358547 644.8398400298932529 643.94522405176121538 626.61561033838393087 632.0437837927554483 627.86195054318375242 641.15723318284358356 631.39338977076499759 631.91712370467632809 632.36910445180888019 629.79268095280576745 630.94513855136358416 636.07940495916670898 637.91161777316892767 625.12676657152303505 632.98875550359730369 631.7027182963171299 635.41367280947144991 647.28383874789301444 646.56991362799624312 637.65543421779784694 646.11235663312743327 659.99453157089487831 643.74442153485495055 633.84573469037786708 632.08309688203667065 635.50938022170703334 635.73302858018814732 649.69304822375318054 640.39062006661390569 633.01347281706659942 626.870714946080966 629.58490918798077018 640.85372065015042153 641.64148715744329365 641.9871561210264872 641.21863979290412772 634.41965431984851875 636.87282053429908046 638.00430062812040433 627.87128180230126873 641.26209191292412015 639.2304223963694767 645.23622621379433895 636.50952601080825843 631.24773922938925352 638.13278760674484147 647.39885650890516899 650.65739714844619357 653.32389421433117604 640.36730861096737044 642.65049770427799558 629.39199844205347745 637.30754548471054477 641.55997705844549728 639.62595986091309896 629.51454571024271445 644.11575900797220129 648.86369693978008399 640.82308917183161157 639.4274013116317974 645.76172123164610639 633.81680778213626581 632.92138652177686708 637.04322820112020054 631.89162666968741178 641.75957188905522344 642.93701789500505583 639.81671400577192799 637.31395801353824027 635.45457138778408535 639.33855500129777738 632.01963849707794907 630.29564970870126217 635.18817215123658571 642.72547337257981326 637.51566699677630368 630.39469982166326645 648.28038416963897816 637.3294262978183724 623.04357203312906677 633.71894521844137671 634.40647714452393302 646.59866995505899467 638.44558202636176247 635.26368196723524306 636.06633325622010489 634.19315639400451801 632.01749129894483303 625.10571624253873324 624.61015609999526532 635.08749261304774336 643.2639236802723417 642.48920249804132254 636.27150579204737824 635.6581552177760841 639.24508424389398442 634.39767841904586021 637.26742807118432665 638.46965446372382758 629.79389201802325715 633.30408322742960081 641.32577912383726471 639.35047263795058825 641.08845139918059886 639.6658851675160804 639.28305453552900417 644.98994396362752468 640.18275220593727681 639.50461132486987026 648.89691960906816348 632.52927384589327175 630.70985240281220285 643.20381003186400903 635.05799358631429641 624.65959362846115255 629.46802236000439734 641.00658549624881744 637.94352405008919504 640.57163566623000861 618.75042428016524809 632.17323008415155527 634.89341979901166724 633.95182375470778879 648.24588626707725325 641.32629383490973396 630.5617436639255402 642.14292938629580476 647.49515097393600627 646.92360485948665882 640.89246735361598439 641.75374168878408909 642.6259018794929716 636.11042317988869854 638.00491917970805389 640.82627829152909271 633.41611208115352838 635.42195214899061284 632.10467791739188215 626.80040176074476221 634.66610183240936749 646.00450818662716301 634.54868779367222942 644.70541092244252468 630.10651759911718273 626.34358240783262772 645.53343974303152208 636.35426173796474814 643.44304070163946108 634.07178399823192194 632.17908051943254577 633.72459613423063729 635.39874162716159844 633.8969929354211672 643.53759642721581713 648.48545775360776133 637.44998569642041275 638.08781750250557252 635.40478481888339957 629.41082417111135783 637.28895489049409662 629.39241554648276633 647.48718090099339406 648.6274202397088402 632.77953575063258995 641.06451578401743063 648.26329780617527376 633.52205696402177182 647.71230180412828759 637.2412054389643572 639.00213052188928486 641.11486215517925302 629.4158293360129619 645.68822091217634807 637.48257097539317328 642.41150472236847691 635.46511843089649574 625.38487456519703755 622.92650729534454968 641.13760129869149296 643.23642765042029623 643.57771327972398012 642.61428344223531894 640.57109821953633855 638.57710923943727721 650.56535959890288723 637.64380914066055084 646.70574934965611646 639.57829057461617595 632.52217070216750017 639.89994967365157663 639.96958488987559122 640.10060810913932983 635.80934607685287574 624.94020273571391044 629.94445004262536258 639.75829562417550278 636.7401542902048277 642.70670366005333562 631.50004031042544739 644.53287940972961678 643.8584455223731311 626.02806608847743064 629.92653965354475076 654.29312544087997594 621.79222715877108385 642.70208158968455336 638.53040193377864853 624.98839916049507792 637.57275733906919868 640.78737830034719991 641.10848901619760909 640.77608664269837391 636.44972668103616797 642.03339563433121384 639.33095474878030018 647.74355401368814 640.09048571170933428 626.14343444087853641 656.83400888659787142 633.41703081981324885 643.68923908524368471 629.15623682440786979 641.26254101887457182 639.05055854898330381 633.86187007100761548 630.32206890933468912 658.80417678007506765 644.13631534383807775 636.65375566056911794 638.43559429892093249 631.30050006413239316 641.58781937434355314 633.36116736975770891 645.85414977543791792 631.64416482484784865 641.84433217270066052 631.6132896784949935 636.09616417424865631 632.84715797365436174 632.45382972015272571 633.12206827365912432 635.00039867570421848 646.21998798606387027 646.41331191008396218 643.24312217028409577 634.00427748323647847 659.98320205649417858 636.67181782139903135 641.14691374616927533
304.75117388696520493 315.77720223253345466 313.30750565467849356 318.75786700760670556 312.83472281334093168 305.93325949955368515 306.62373992008036794 296.3690040311849998 307.23232875416385923 310.94287406452957612 303.64681536801992934 317.53651987076864316 315.42124908376803205 308.78661003373082394 319.41326943218439283 314.99484708813452016 316.48578634675345711 317.92707769731367762 298.83504086131154054 310.92523513125291856 322.52276743867980713 322.49412595481072685 312.81952619437447538 309.69409012451819763 311.16868082863504696 303.43874548904807398 304.16540157515890996 312.54168573975050549 316.67615823749264337 315.04129101749128949 307.1778364877014269 306.1167802767973285 317.62642131293176817 312.01439563586944814 311.88628747416174747 319.31647852668584164 305.74351433763041541 314.13800853072825703 311.90505704981495683 307.06654668830850596 315.96286140236753681 312.19322877492743373 311.85060423790042705 302.98568172797087072 306.359411093615563 314.282941992338408 313.35286977969229838 300.24157912717555519 311.89697741944809195 306.23474357889801922 308.33493000529733763 312.39399659554931077 310.76332275534235805 308.20044716545538677 309.74269980191502327 315.41321293080164878 317.24366948197433658 305.1265073912659318 314.4696420108930397 308.8830729132646411 305.46333359359135784 317.94609100699972259 311.10553935658992941 306.30769986242404457 311.52390250354329737 308.57165197258626677 309.18181948026517603 310.02263641858286292 308.79218498157212025 310.58701597138934858 310.72657585530015467 311.75956926550543358 311.20940425384571881 311.55618183402560817 313.41821088331755618 312.92046020806509432 310.7350797118951391 313.583830875347644 310.05445310437499984 317.07667733573975966 309.41006228160017599 300.36796123735007313 311.57321981252783871 309.80157182051198106 313.56996911405713035 308.21356281162263713 302.961682981579429 316.30875717928876156 306.61244325355511364 314.43340632461485029 308.92092346337568642 311.2970247429394135 310.18658593565817227 307.71302777481673729 304.63570462105212755 306.8309821584770134 318.6399803645883253 317.28145546881648897 308.78489446176939737 312.83811592002695079 313.21503663105636406 308.76772074554048686 306.35180233997010646 310.74670849534271611 320.74781375054419641 310.08754617651106855 313.18354015390792711 314.00692081680284673 311.16046358551398043 308.31243859309552136 303.9391034327665011 310.15466401204190561 308.70099359828589058 309.88376425051717433 310.86380075100584008 314.28343499388637383 308.75606902349727534 316.16080370778530551 314.90910090705631319 314.36015955571969016 313.36188987472911549 312.95870584766538514 304.01007479585990723 322.16576805340190504 318.9751249320964348 308.88822467718591724 310.8616298651831471 315.66472652360198481 311.81022139986794173 314.30269278625343077 312.84369193752166893 308.50690051510821377 313.82344202250556009 309.46098881775026257 303.58331256766649631 308.87980772317166611 315.36665130255812528 312.7170642880994933 313.52600936098735929 314.01244107280194839 304.75371408564205922 311.02481303406932511 310.08095795631038527 314.62342720283811559 310.28190136815993583 311.96434264531285407 310.00315512471843249 304.63150799016972314 319.12240934564403005 315.13434689912531894 304.61329372119956815 314.79175169912247156 310.69261904767853366 301.34368663565004454 309.83793875894991743 317.42364455144087287 313.00202660711966018 313.55051058097694749 309.17570450852571184 305.12828526734216439 311.18184184798616343 316.94188627133308955 310.84893504027428435 325.79680777571917361 310.07196677925333006 306.24542016383429655 308.4262200758456629 311.78766110464346184 308.29293366148448285 303.02796925141080919 321.46155932167886249 324.15333066287007568 317.91144630959990991 315.45716401930826578 314.93807078639548536 309.51039237978000074 315.91370605225984036 317.855375867638827 311.76745442556062926 302.55670318088323256 318.81479174562554135 315.72862272867502043 308.50174739072537022 313.7748642309115894 312.25047365257853471 315.08627093847144351 307.50801864150565734 307.4072890281220225 309.84042925197923068 318.53168800907872082 308.65857404494101957 316.58799948243699873 317.60626228089603273 314.96907304610988376 313.73331580610073388 313.30529709100562741 312.1532109107045585 296.04978344983220495 300.71025506600011568 315.24816610423062002 303.35622603570408273 306.4331896267585762 306.22418135325528965 311.2459457648200214 305.00574322709763919 303.85944497469904491 311.30603005522181093 311.03491689940614151 306.46384577406684002 316.36963067949642436 307.55972856254999215 308.65064789773066423 309.37620811266248211 316.65208857185751867 313.06755148954147217 302.5148796661702022 300.42183237223309789 324.10932984326541373 312.71085717057530928 303.61799180753956762 316.34665793623270247 306.9866117340724827 310.43168626541512367 306.4470949919020768 307.53867101058330036 308.98005744231517156 312.13217797654192509 314.2516323181451412 293.39729264657933072 308.3202287479214192 307.74478567782597338 308.82520710274224029 304.94870751489258964 319.35305492798721616 319.64605180094548587 311.7945048102274086 294.06266445818118882 308.68794854353149049 305.40005353860834703 313.81019970676243247 311.68838226638996503 299.54642971444189925 314.15883408675443889 320.3142216498089283 312.25381203735554436 316.48257639377266059 310.47548613532273976 308.5977618759914094 319.89525680754741188 306.39675840361519477 316.74282966908481285 305.34627876917596723 306.27251094640945439 304.22102914425300924 302.32377871699793559 315.18316463870257849 303.29043591382185241 306.98826472277738731 307.68705788637242904 315.96789204185364497 309.11443195969297904 307.42617037898139642 314.2372840648000647 301.36862013193240273 307.00595340796672872 310.58762218732971405 303.65926574805695282 313.77598519211397843 306.24111041656777843 309.48523875675573436 319.42399046672767327 309.71684931940973229 313.10847034802355893 313.56510079047029649 323.33415395060683295 316.59962995091490257 307.36444587385551586 306.40474047153253423 309.692240899958108 314.0625315944125191 314.29147766757910176 312.12286359741432307 310.29800025619044845 311.15521674035733213 310.45622601031095655 318.91304548945828401 310.85057276055977127 306.26059044510890317 313.91638985270299145 314.63152729881358027 307.9569917538003665 310.84379315823616707 305.71476333619619936 309.9450739988997725 326.46078642649922585 319.65614407626912907 316.07743145705114785 307.21235082509338099 299.66966687854198881 319.59608553927273533 318.46600379308193851 309.10937037989373266 318.99758450691018652 304.65860726123014501 310.41837911517700377 311.93273028703816863 305.26166387885382392 305.05821339136110737 310.1320475590443948 308.30166880739488988 309.88245281496199368 313.45732732499664053 308.415843715391361 297.23775571272801699 321.20679733468193717 319.03326312526371566 309.81931143849152477 320.59731482883637455 311.96112353587352573 318.11174481938388681 310.4497589739607406 308.46098731069486121 327.41581590237285582 311.93264900359855574 304.05604482152455148 306.58531743939300895 310.98182953429625286 309.37517304319811728 310.05592984394553469 309.39571183851234082 311.23898616136938244 309.64370322293063964 307.37264336501493744 312.46431635466581156 298.72521775312560521 308.01212810425391808 323.14048461957918335 310.1535091217785407 308.7062571349922564 305.88186019089215506 304.1990190782437935 313.23250633729151104 310.00008569146893933 314.87486381964390603 309.54075091452648394 312.0962527569707845 311.44245937840241822 305.75355754396213115 307.28916346895783818 309.97739820548031275 306.1276159462453279 316.15744271621582584 311.25124305991801066 315.68911277672924598 304.26304465452278691 312.72664582808738487 307.72656129006981018 308.2085439368162838 305.77423700556960284 308.50418851183479774 316.7748254942827657 309.65196590121672671 307.15617657767489845 305.25164140971071447 317.1547622921273728 315.56909985955542197 312.41609188307177192 312.11381479095695113 316.10795794929282465 313.41676864526368718 314.54244856038855005 312.96595611947975613 301.67962680512226825 310.01149311892686455 316.21284581013145498
-1206.8566712838044168 -1187.9896207478002452 -1198.158866408627091 -1195.5583966838310062 -1193.8938635609156336 -1218.3495576374621123 -1192.1362032407985225 -1187.0222123925350388 -1191.6977505858776567 -1229.2109426944718962 -1197.908496881191013 -1212.9764175232060097 -1209.4247224178598117 -1193.2817279098655945 -1205.540941851117168 -1198.4186655457633606 -1163.5767314162267212 -1187.6583782982959292 -1212.5070261291930365 -1213.9132778598273035 -1214.5473623486454926 -1204.0554598367530161 -1169.9757953100888699 -1190.041097665330426 -1168.6485205109206618 -1200.8576431529477304 -1198.7856577944701257 -1214.2534122752233543 -1202.3695394856147232 -1184.0601107423015037 -1201.397766276400489 -1200.1902761422122694 -1216.1279605615741275 -1183.0860101640364519 -1183.3863803386625477 -1177.6155764249381264 -1170.6766367208063002 -1174.7258115894535422 -1169.2500189851964478 -1203.6037065520386022 -1195.7493082102803328 -1184.6036408861862128 -1202.4774916966664478 -1198.5138681399648704 -1229.3964021339011197 -1197.759886471310665 -1179.8215948144795675 -1213.4909821463361368 -1199.3800262965551156 -1214.6390162528471137 -1211.9223638222990758 -1200.3681083833109824 -1203.9094087033820415 -1200.9705034783305564 -1215.061270127070884 -1206.7635709551886976 -1182.0497062671890944 -1196.6312148670945135 -1196.9397951576879677 -1183.7184103262127337 -1208.6751957031310667 -1164.8477219851367863 -1193.1320589864146768 -1181.9220805151230707 -1210.4933465177582548 -1192.4879057476141497 -1198.0614292176185245 -1217.3038018983372694 -1224.3160645132861646 -1202.1939135610750782 -1210.5405056618549224 -1186.2993847052639467 -1200.4959602705885118 -1168.1727274340498752 -1166.2246043348991407 -1209.8811127146484523 -1217.074184403694062 -1195.4330188597393771 -1198.3289660693883434 -1187.5839524173154587 -1216.1625484054411572 -1190.6227596507308135 -1190.5969334682322369 -1194.8575487152718324 -1201.9805904675624788 -1184.3809244218623462 -1200.9271174225168579 -1180.453687749677556 -1187.9336306203563254 -1192.5148032212609905 -1205.6287341305057907 -1213.6288708075235263 -1193.4924387004289201 -1198.1011781364832132 -1165.528778854120219 -1182.9558701596238279 -1203.5275191157013523 -1205.9708862615711951 -1186.1750855494776715 -1202.6918474335238898 -1170.3426662414956354 -1202.2339547509241129 -1202.2633238951425483 -1200.1687704270484573 -1199.0591366909036424 -1188.5978262164296666 -1202.6171424369258602 -1189.9191066215828414 -1187.5693747627990433 -1188.6028443743512071 -1192.4699960114160149 -1199.6257562110299659 -1225.0975912478120335 -1175.2540948803089123 -1200.193432356251833 -1167.9635656738198577 -1175.18529861933348 -1192.3220335883765983 -1204.3039651170020079 -1191.5807653449892314 -1205.1916029358335436 -1180.1278784324242679 -1186.2629181356091976 -1176.9092713518834898 -1171.087907857450773 -1210.384378066983345 -1175.6512380725439471 -1198.1128632159632161 -1189.3399807734940623 -1170.9498664303903297 -1189.4654741225356247 -1198.0482047117877755 -1188.6547816515771956 -1195.3577393114851475 -1216.3003937737428259 -1182.0148651683950902 -1178.0573106654512685 -1205.6325509100740874 -1197.0312111942332649 -1202.5429973792636247 -1208.7528396541511029 -1192.5467068642533377 -1204.0595566222643811 -1192.7678315691084663 -1198.0427683817529214 -1196.925299026472203 -1192.9469228216339616 -1177.8750611579880569 -1197.0074825341803262 -1199.8117886130498846 -1196.2117609127888045 -1186.0592076140908375 -1188.8148141599003793 -1167.7268720702224982 -1189.7228836736589983 -1191.7600994815456943 -1186.1397583397458675 -1185.3104615223835481 -1190.4530966295981216 -1191.2555187577893321 -1202.1181601576188314 -1182.183252337163367 -1205.5905008379222636 -1189.1538531298592716 -1201.5991719953776737 -1172.6349789921732736 -1211.0419870841660668 -1209.1597543656421294 -1182.7757575308312425 -1190.9872639563689063 -1187.3305932882312845 -1192.8011450044875801 -1196.3711362845772328 -1213.6438098424641794 -1183.5070336485921416 -1185.4286010440055179 -1189.5774086759768124 -1215.743239849302654 -1206.4036873012100841 -1173.8393742495702554 -1202.0909144269319313 -1191.9045652453523871 -1209.8759307490436186 -1211.7959652435260978 -1212.0216279378385025 -1177.1110481047492158 -1195.7692943400950298 -1181.4801430050706585 -1193.3931065430581384 -1183.7641946639853359 -1184.5307892109053682 -1201.8809644711145665 -1173.8014165195399983 -1181.5112547765527324 -1181.5771058720524707 -1181.428877357666579 -1210.902456006632292 -1199.0873646415429903 -1183.4868823727285871 -1193.1650492350504464 -1210.3437114793778164 -1181.967891415221402 -1211.8808080928224626 -1201.2069112602177938 -1200.2727310472350837 -1213.3272215348706595 -1188.007935261477769 -1210.5397872310641105 -1194.0748750012846813 -1194.7563093946605477 -1197.6685291696594504 -1175.0043320228824086 -1186.3556077085061133 -1206.9575233623959321 -1191.1653395825524058 -1204.1944060347555023 -1188.4351046857780148 -1186.3188176011005908 -1186.083687597080143 -1188.494780981859094 -1191.4110313249077535 -1188.612708164474725 -1179.8125722675513316 -1206.8366542417538767 -1182.1637366788795589 -1204.2292576590575663 -1172.6781957779928689 -1204.238535146228287 -1209.3293968747298095 -1194.7843513997961509 -1209.6523099844891931 -1194.5972825986086718 -1203.9512925281139815 -1194.0396120303248608 -1193.8417625578154002 -1200.3984522449095493 -1187.8292533478118003 -1189.9865990846196837 -1161.6689499078156587 -1181.2906254262168204 -1193.8919392655118372 -1199.917515716614389 -1182.9199718806185047 -1194.2973665700114907 -1182.349202836295035 -1192.0419751536228432 -1180.7305049652361504 -1214.2015091459445557 -1210.4368391136035825 -1204.7806827025201528 -1187.0436304943666528 -1201.7302850002236028 -1199.2146589396181753 -1194.2707789262408369 -1194.3504706650767275 -1203.835456791355 -1200.5772471603299891 -1212.8600763997671947 -1200.3348076669221882 -1185.1290733381015343 -1221.3853035891263517 -1203.1645670513094046 -1171.8921218088694332 -1189.1633751547474276 -1208.4805109596470629 -1177.0727344536624059 -1189.3556987863034919 -1213.7156513150348474 -1183.7803232307314829 -1201.9028342448168587 -1183.0555784491698432 -1194.4709724841495699 -1187.5510661777623227 -1190.053863957049316 -1181.8970574722118272 -1208.468815415124709 -1196.8945010229074342 -1213.2535486527606281 -1188.7429820347651912 -1201.0197407662292335 -1189.2844379721568657 -1211.760565047982027 -1197.6009044306690612 -1208.2132168333062054 -1193.9447225735252687 -1181.4779059201632663 -1178.8989884289678685 -1193.4015253362558724 -1212.3903680373798579 -1202.5380227625139469 -1174.0788320914616634 -1215.4703636981075761 -1199.8541349688398441 -1201.8035789052512428 -1220.9516853446336881 -1185.1719119115932699 -1182.3588781285363893 -1226.431535450429692 -1202.7530355172170857 -1180.9897501951763843 -1207.2678738315535156 -1180.5761048207596104 -1193.9179116225911912 -1187.9686103922401799 -1196.4970960532930349 -1173.2493834469273679 -1193.5209796070225821 -1173.4849675565301368 -1197.9958609788577633 -1204.1065386748439323 -1199.4377872920131267 -1197.3110482385111482 -1208.4146909525695719 -1200.2165652568148744 -1198.6185104077537744 -1219.3686908612994557 -1183.1629960824222962 -1179.9400382226217516 -1191.7387337316731646 -1192.6761487601481804 -1206.5988207609314031 -1210.1256827928129951 -1208.3406662444881476 -1192.5495624971267716 -1199.9099516156015852 -1196.0253845970814837 -1191.611531096556746 -1202.2133629774386918 -1205.1510489057293398 -1191.115075975342279 -1180.981622560069809 -1189.1806147583849906 -1205.3569711584193556 -1212.60378283555292 -1211.9299131377579215 -1186.7583061472307691 -1211.6455570702555633 -1196.3988874634858348 -1213.374093716292009 -1193.7192283780977959 -1171.1300585471001341 -1183.005910614917866 -1192.0028150929999811 -1192.3925063846631929 -1198.4798163651012146 -1189.4610348357966814 -1182.568355123496076 -1193.0338310166289375 -1200.3187709036856177 -1191.7783840612721633 -1198.4818227096034207 -1183.5945836390517343 -1173.2954070660068737 -1191.6164040393600771 -1188.1449172006223307 -1193.9669933714378658 -1192.8964071931613944 -1178.1137826839408262 -1184.0990079123669148 -1208.9940026236283757 -1203.3966055151211094 -1168.0260305336805686 -1166.8342864609535354 -1215.5071719028635471 -1208.5959959635363248 -1201.4273097100649466 -1204.3137746703705488 -1194.2281157543129666 -1201.1508143406313138 -1181.6951514708307514 -1191.5589984351452131 -1197.9273284799901376 -1195.7822081667895873 -1186.0209441938725377 -1212.2344024914148122