-264.75336221048382868 -260.8376872724554687 -258.76792066174027696 -275.57535996168968495 -254.52621075184592314 -271.45372089104608904 -269.96338957495424893 -279.83174182874171265 -262.63640772982512317 -256.20708178158093915 -264.55713974498695507 -260.23711831756111224 -264.38801923944549799 -268.11546414677144412 -250.84017048100986358 -257.75772299756977191 -265.03270911991927505 -257.82298327536278748 -277.6389564617418273 -268.9173251190385372 -270.64540219853512326 -260.56293322827423253 -271.4488569090283363 -271.85230245914090119 -262.13996975023570712 -270.32097194181659461 -263.64124339620860837 -260.29600733557424519 -268.97501537431412544 -262.22913770892449747 -262.04073819816488822 -268.48303934135890358 -255.49545034318532544 -261.26827498109736325 -256.11254723648914933 -252.88342559180330227 -263.90903945178774848 -264.97292076640275127 -252.23375560544477025 -264.98324342535471487 -261.20700629373124002 -259.07394441826352249 -249.46032385032802381 -258.85358380883525342 -273.11706692327811652 -259.94980746664367643 -266.45353655572552043 -265.73957913470144376 -262.59653287422548829 -261.76916964824584966 -259.42981529201119884 -263.60797058436321549 -255.24461579600847472 -279.10937946018981393 -261.43466407752083569 -261.21049872119692736 -268.04350357192288357 -272.14759956750083347 -260.88872978032975425 -270.47295602322884633 -251.39914473535597494 -264.67858691013111638 -266.64009976666079638 -257.47888680910148196 -260.62797810363815643 -254.83907844131343268 -269.53567683690204149 -257.17718186960939875 -256.28877464027419819 -265.64885552663719182 -274.85330489547231991 -255.16591991902566861 -256.87366414089177624 -268.97984713777861998 -257.92473382219429823 -268.64398337237253145 -260.25142227405740414 -275.94656078044266678 -259.02020458987760776 -275.67669883971052514 -267.41044515080028532 -260.91722330247301898 -259.24309253445733248 -259.79286804384145171 -259.10867631808736178 -263.77358086129623871 -265.53991391100106512 -269.19167664123312989 -268.26054362926549857 -252.70395219881783078 -266.88441762091071041 -255.64436735472770579 -275.94133286705516639 -261.3039810954427935 -274.34884560942293774 -266.35227244728696405 -279.78211491177791004 -265.67038444098943728 -263.79976117132014224 -267.76047812449718322 -250.09307132975823151 -258.59082826749528294 -257.48191906401132201 -262.30061675496324369 -266.04025006085595351 -261.94745481998575087 -258.58320118886820183 -268.65022083104668127 -266.00379647815674389 -254.60365133628502576 -265.21435258669822588 -273.06263441398317582 -273.01760229131281221 -264.23147526128451545 -262.75187004283526448 -266.61409547390013586 -260.22890327939387589 -258.52236047833031307 -263.84113646746868653 -255.92078721336608282 -259.99183899114080987 -266.5133759132556861 -267.16797995788016351 -269.82074786113059872 -261.59237538995733985 -254.05490136239899357 -259.76121497260510296 -272.95613565505794895 -262.4209548455369827 -258.41911076287135529 -251.72997883611947145 -255.73138703897973301 -261.65395265543151027 -268.86303007433929224 -272.2786877747958556 -261.77647452732509237 -266.67904769003791898 -262.87492199868393072 -267.58548513159854565 -265.89084734821756228 -271.99263196012469734 -264.16156885760977957 -268.08340533771894343 -261.5633539787932591 -267.06626174733276002 -260.7260544122553938 -265.6536533285853352 -266.95306227107681707 -264.05946259805966747 -262.43659406036567816 -263.1357436165924355 -257.84329159609029603 -253.71175325034243997 -257.53733852853650887 -258.81252267691712632 -269.16987442513016049 -273.06075680631886371 -269.94052608141566907 -268.37969110864588629 -264.3655467244304873 -262.78051689786320821 -252.12635234774100468 -252.08263507537361647 -260.83763912575284394 -251.4025050178402978 -268.79700494064888971 -273.61285552965318857 -263.93234204854934433 -259.31021209160513763 -263.40899051869342884 -265.494200419273227 -261.36025941929381133 -275.25468756520541547 -262.82207816698286251 -267.49915860687747227 -262.88190369292141213 -253.62361337141416584 -251.51420000529401477 -249.12869125000318604 -269.23644380007988275 -274.77435389420230649 -269.86138103892352547 -261.09323352697924747 -261.40109985987078289 -264.53158814622133832 -266.58981495717665666 -257.76368137446019091 -264.05536062601720459 -275.32974046837449578 -268.78187397925483992 -257.39546636469475516 -257.03086970867201444 -257.01081756655247545 -257.96118587758166996 -267.5160452449114814 -271.00024650046339048 -252.40967959888115502 -273.12662785124018683 -262.9720823866366004 -266.88711457041597441 -271.82806091253365821 -264.81824876249260114 -262.93107154668484782 -267.27481788234780424 -260.22499009663408742 -264.42961973389799368 -271.27992923184251595 -267.46063044266952602 -268.79741223688864693 -269.06784185032188361 -265.25094922864263935 -261.86633630164129727 -263.0476596299826042 -264.53180200311487624 -264.45323039757067818 -258.98082303020311201 -264.14979949524143876 -251.53113040536484846 -264.92348182792818534 -263.8632176249889767 -264.36462540432415835 -265.22537966462715531 -263.8584333669035118 -262.93260381551885985 -275.80973314104465999 -262.10468308510724 -272.09407194214304582 -272.04028417395386441 -267.81882502276368996 -273.09496036465361612 -265.57424585006219786 -263.67180062581121547 -271.9321285818162437 -260.11601212545809858 -258.00285843640051553 -271.16543119515483795 -260.61469149586145022 -257.83836645505181195 -257.92393778689591954 -261.39769858880396214 -248.30028719210210397 -264.9161246771540732 -265.87668639129003623 -265.21606872082401196 -261.25343045375063866 -254.44586810224956253 -259.69250124382455169 -258.33025433090438128 -264.85024445946487504 -255.63002706151769416 -264.26488395765193218 -259.73158585687696132 -276.37681109997004114 -261.03367931929767565 -257.01623806173489584 -268.59830823234341324 -248.70240881434952485 -263.87335985692510576 -267.31879857609425244 -273.0846794335449772 -258.36824075693937175 -272.13440635330107398 -254.66219643993497357 -269.69787252311749626 -258.29337692571920115 -267.0389530106860434 -262.60383956692760421 -250.19832648890758264 -254.25735756603179993 -257.80009602088546217 -276.84288268805931921 -265.92618459773956374 -256.8929528531990627 -264.50585006083866801 -267.49236364012227796 -259.30868917308572463 -265.38260133644115513 -279.0401197141737839 -259.52525338828166923 -273.5197879908061509 -263.60743111012220652 -254.29107347213522416 -262.23671409218712824 -243.23012412094513479 -261.18888853408293471 -271.14421123312280315 -261.80461716649040227 -260.2327871871015077 -265.2693194842317439 -261.51095975717481679 -245.83087748904756609 -251.55344135899909475 -256.27480446129249003 -263.8220352167687679 -257.26590384071903372 -264.47813200355898289 -262.64137903851212741 -268.62975236980912541 -262.71045200847004253 -273.27807688981778256
-72.115471204922869219 -81.694445044253484411 -84.459435040988893206 -79.218172443268727534 -78.888680374134040107 -83.144433559341905493 -81.790462073492918194 -77.970257307981768236 -81.25697332621659541 -74.944051754231878704 -78.897528595862652878 -78.771523370618524496 -82.856203331176288884 -83.82520513039888499 -70.890043317410857071 -80.072874917228347158 -81.447941823082942392 -78.698624834390386695 -79.415193311152350475 -70.605181081470732352 -73.619561035454921694 -74.225138871191902012 -79.297301802901287715 -69.932829950463684554 -80.675783571694921648 -78.637249010199383292 -78.131619761554020442 -77.958533744448033076 -80.089130434646747858 -85.182817707090066506 -77.098097160523536786 -78.433867219608814025 -80.953325055874444161 -79.44702518082191034 -85.068335852963713251 -79.6872659990228982 -79.077671449749004751 -74.367037787988834907 -73.995499141804060628 -76.536269674814988662 -82.612214303062501131 -78.749238303058021415 -72.720055534053827273 -82.110724728035847875 -72.575526243024285122 -82.6954856191485419 -76.529696835449357195 -85.436943301457333177 -83.549376921285102071 -81.086124976764324401 -77.660623708649751507 -77.207657059594467341 -76.842293564026817876 -78.244815449644789851 -77.111674766778932621 -70.65167567479609545 -78.715511236867882872 -77.778125555437256367 -77.505344661123601213 -73.734218011292824713 -80.508569404026488314 -77.412951093795356883 -73.788122202039602371 -81.78006145421576889 -70.112820582431496064 -89.752980370292235079 -78.432029837487093005 -75.144441042572637457 -75.418378830385776723 -82.729312436273858111 -81.883144821857598572 -83.639601915709249624 -81.10631305078138098 -79.592433951051205554 -76.039986227323566936 -75.937331859654875643 -74.753541814399625309 -84.044727500338353821 -80.094023492530467934 -77.157433470942692111 -78.527083891771994217 -73.795144876602648765 -79.530685618645563295 -77.065443714272120701 -76.211476244679460024 -80.37431634527156632 -75.57662438427577456 -82.231594475888869056 -82.066581345220868116 -80.188154151018537164 -72.475115275670162873 -78.393314938486781784 -77.1803442459897866 -77.824267541857835795 -77.530629458823554501 -81.519507132293327345 -73.815115770239984272 -81.11053610643364209 -79.059349567081341092 -80.783003852365695252 -73.853258646398714404 -75.353451939813993476 -74.170730127677416021 -77.303355261412846744 -79.088649020851676141 -77.686750755881888608 -75.492029395820310356 -83.092169408891635385 -77.644881456966913902 -75.587042599900527762 -76.763536466134965508 -80.669981266243581786 -83.205357881821470301 -77.299567173868453551 -82.809890029977680115 -74.244026617442358429 -82.310972192357240829 -76.583736713128274687 -78.841830316822338887 -78.043573876289087821 -77.517311981555039324 -72.006372050765833137 -75.378328425817727521 -76.471591594618445242 -74.307978024664350869 -76.332070283858811877 -83.000261651549934072 -74.187324156759743232 -83.197687968436497385 -76.468246538953479785 -66.158310165543142034 -73.981125140641154303 -79.532060373288004484 -85.168676185281441349 -77.320564738025240104 -72.893835389611439268 -76.470849425038622371 -77.619316106764529195 -76.886349713054002564 -73.8187429552119454 -78.521142726967269709 -73.812021972155761773 -71.89014971084429817 -79.766201985511784756 -81.461829979279627878 -80.16185726110651899 -78.12918959589478618 -81.014612911157101394 -77.704461708418378407 -84.854472641903001318 -69.359909069290495154 -74.304742208224098476 -75.232184858509100422 -77.732489648024397866 -75.184631939640780729 -81.625078579750578456 -77.24892208500548918 -80.919410445735280746 -74.764028343588293524 -80.678301577638052322 -78.080923054749163725 -81.353275063155635394 -82.331618644133641283 -74.698146074846889064 -72.617126320120789273 -81.513046582994064693 -80.813563648938810502 -78.188801064635555349 -73.375088434225219203 -81.177895841708831881 -84.163773075238935917 -79.359393091103598294 -82.653713306254388726 -77.148405047819480274 -79.356706819524603702 -81.901983077516021581 -74.631100089218023186 -68.738651569843938205 -85.649191655020700864 -79.921619204965125505 -81.14312407688703388 -77.48493664652525581 -79.837812482577618312 -70.108125215264720964 -83.517142002676067136 -73.807320628086642955 -80.551466885658300043 -82.115296179874931681 -73.119659277030535804 -77.146468463114757697 -73.110145632560460172 -69.022093827679910305 -71.901962768874156495 -83.761281200536288338 -77.934266102769640838 -79.181134334252405438 -81.06209824873755565 -82.846650015362286013 -80.013944023608374323 -81.65724854668746957 -82.199763415110908227 -84.247283506125739905 -79.169206556013818954 -79.899802952114001187 -75.237413949708411565 -76.054428375695465547 -72.021125105573204905 -78.804186579636194665 -79.742680274556107634 -79.318081625242498944 -69.870162959606375352 -79.025640021929575596 -76.595554414237540186 -82.28955600863896791 -76.864647747682070644 -82.296657037630922105 -82.970798504323312272 -77.127210908480066109 -90.638985816356608893 -72.598808057381774006 -77.280154680907401143 -78.441478647982151529 -76.408483921541900941 -81.363662633930005086 -79.781990900798774646 -78.566487202703285675 -77.517238539507573591 -72.818062723521009616 -74.425289529859782078 -75.560554863119264724 -74.992399329681404652 -77.788277320220217348 -76.918551475118349003 -77.294599429283906034 -69.794013499160996616 -82.961261568255565635 -75.233436111026946946 -80.347301977239141024 -83.401836199099719238 -78.691989360812542031 -77.505676699886137726 -74.20679967958916734 -69.301245314037913658 -81.593664343021103491 -74.274466501438709543 -72.362994483606229323 -77.734873832676811389 -78.080568497385982596 -77.904595410190282223 -81.869360850720795497 -76.169371139729875608 -78.223017655611329246 -79.145166436749079253 -79.138365024360012967 -77.043282867246034584 -78.571166956446319318 -77.836481118239760235 -75.706969536779766372 -76.154637768145377663 -83.250974350857759987 -81.625847654027097633 -81.699887884701269058 -77.188155731069613807 -76.886536627893988793 -78.867447011656025779 -78.890985990619014956 -78.818477034262997449 -79.180425306081090753 -78.808177789739900732 -78.583929836530629132 -82.273928641402221729 -75.475870272479255618 -81.843128265399158749 -79.954057068395854913 -67.139379822972202305 -78.350123956493519017 -75.183863851082065821 -80.926223187438978357 -81.825004299614064962 -74.240580947035539339 -84.971131905895660452 -72.45173485208783859 -80.612222391969908131 -83.810713699502471741 -79.272168416626016096 -72.237716630128289808 -72.003425497833418945 -78.10378447178983663 -73.127430937343362416 -84.821285894430644703 -72.2711424213088236 -76.785697216940491217 -74.02698848587209568 -81.988583068349399241 -71.413076139698944189 -73.877614611922695076 -75.363554721216473808 -73.583499805886816603 -76.81539880559593314 -77.23297410864182666
328.92987386023048657 340.08652210365926294 333.05367921132329911 345.38578417342654348 327.37071699303538708 334.68179796718209218 347.17729282443673355 334.12664785225081232 354.4380176951286785 336.00701610185637946 331.52319333911543708 342.26345172535815209 331.42403607318550485 327.26400499241128728 337.14853955601000735 342.13631989692908064 333.06659587261555089 323.23204712742904121 342.83708001654082409 339.60080358180749727 343.87625454412466297 333.23162913666419627 343.11178727112309161 326.91674491108398115 353.96898076086034735 340.20448868363564543 325.79248370148792446 340.08794411373816047 341.85803322997730902 353.05190170077452194 332.48406377387959765 349.11230092109866519 330.60000105862309283 324.44394021748058776 342.67272129214455845 327.67270405451949955 330.68222109178145729 330.38526534979268945 328.53855052155415706 346.63777826152903572 340.87261176430246223 339.25402605962767666 325.99800886648421283 337.81504191928837599 337.78023760393631392 340.48627664129821824 342.54587727179438161 336.74870248361560243 336.87061844158569102 330.97156257869130513 350.11800038938963553 338.88427637772446133 335.9640067974419253 333.47602138322940846 336.12088383378369372 334.40058203463786413 339.28867722634862503 334.30786774484488433 332.80924830916319479 324.74348266940342 335.58524030668098703 336.86561479488290161 334.27247689987990498 328.45043294871732087 329.22855569886269222 343.1900523127774818 343.53117317042551804 342.57004026822733067 325.7189129837175301 338.2673597840586126 333.0984615331995542 328.37467371338294697 326.42980629818202942 329.81984822718391115 330.3972627721108779 352.40408544269695312 338.61855985214884868 343.8881302657651986 337.90982245251979066 326.47972259711440302 328.98194535625532353 349.71739311010452411 345.39089900985470649 339.62012878475843536 330.88490314230040212 339.71773782195424474 327.87626014870323843 342.79440598633902937 336.76244217170631146 343.93547837851309623 336.71416787534690229 353.90083774796454463 336.22396940964546275 332.84624463358926505 352.47195219763733576 335.97406686644018237 325.14023392244018851 344.22963582359403745 344.09212382004329811 346.14272452842561734 325.96219116466016885 339.25810502192467766 345.40118073903380491 345.39771983542175349 335.24092166071142174 329.31583634020125828 340.45126063346583578 351.70330384692113057 350.58861005660185128 330.52565053442106091 350.92946373179984221 328.98357692216637815 344.64320925249671745 356.00732868986949597 363.3507719822878812 338.87440145577915018 334.7287480583036654 346.31942162035204547 358.65033419671925685 349.32143363116125556 326.59318519597184149 329.1306960938407542 341.67369377379719708 337.84245226318790856 333.1948613024898691 327.34929497601609683 337.01413237368996079 331.59482463088880877 330.94829917712638689 337.56150566872469199 338.63865944707549716 342.05655986813798108 343.57032430722983918 341.00706954556187611 340.32713940894922189 321.40467301122072286 343.73338854083397109 338.95965314634787546 346.78851618055182371 340.50009596645020338 338.89499577441017664 337.5558326923433583 340.47281741929788268 345.80986125626276362 341.46637776648219642 332.116404527136865 336.18795663131061247 342.67885126295090004 331.32285933244224907 338.21549747328992908 331.10222139693121335 343.85462045074467596 326.90467148696660615 328.88533527308192106 353.2455449272179635 338.53340395415375497 337.35716953720191214 328.97010295941834102 354.41951748626240715 338.58679379084475158 348.12778233669223482 344.02538807877135696 334.21728449247427761 327.74757744441717477 347.43090424095112212 338.84639779179804009 329.99787613324878066 330.78233600559724437 354.42586356954427629 357.65662920014506199 341.34326182147015061 330.85905487719566054 334.37866204976523932 339.78255640991346809 327.06062993437637942 339.81251443281740876 321.12704627443508798 344.60692858814354622 332.03814392735682759 327.34340183136475844 335.37474029944934273 327.16475935038499756 339.39006642235716527 348.70086527070992588 344.25268565012817135 345.45702137041951119 345.23994871611949975 346.75907730973568732 338.32131972205627335 338.42797377761127109 341.03934540327730929 356.95075711004011509 335.49744118333705956 343.77301351100607008 342.62211428238248345 331.32998873760573133 342.27962538236289447 327.55231262166074657 331.76170840347339208 344.70295430454677899 330.4187587489981297 343.46523533963653563 345.70703370140580546 335.34047281787144357 352.70139898367267506 347.89800333156625811 326.93530750276556773 335.48956847635315626 348.52769558267607408 347.66718180956956985 338.53197856593385495 340.83268750827755866 335.77368763157329568 346.67216455296420463 345.0884331575256283 331.65977116692727122 354.28891669694064603 341.89091740754878401 341.78073620995087367 329.81138042679526734 338.96323639528412741 332.27106277148982372 354.42503849296866747 326.2571643576710585 331.618369169431503 342.93598949038300816 339.51119562965379828 326.52475898717449354 332.8902886509581549 335.77383096369561599 345.41491059934946861 336.85653932117060094 332.34634512893643432 344.2155183143502768 349.89369462202250816 345.41074893838151638 347.26901589426643113 333.6689457933906624 339.44849761013358602 344.60216743970391917 330.82414645511357776 346.14289100937327248 353.21302141913383821 344.17076235561694375 344.54634146262765171 346.33902693801974237 351.39797720674067705 335.93397259374938812 336.61407274689537417 337.13736122174390175 349.6231829155020705 312.85380259405320658 338.31693846183469532 345.77064216639922734 336.55272286741251264 328.23200571424024474 318.76398853420937485 321.18475024560012798 341.20563093435941937 329.43039338399131566 333.18617742446542707 344.72239689508739957 343.20236806826397924 352.93022773174936901 348.42717182405948506 332.01874810000060734 331.03696965540962083 346.39067558593211515 331.47255990983853735 345.61009882007635952 340.86023661584317779 342.42553226015638757 340.13853025758794502 329.8363459942904683 335.66504966011211764 336.07718069905541824 340.25031232101366641 326.14109514730830597 348.04158233034513614 328.48044043402103398 325.10138195401896155 346.65083612557458537 323.06725835328677476 335.82202319773131194 352.34479006236387022 341.94809441352873591 343.17590811732537759 334.8168393931403557 344.8123095214129421 343.72158009791064615 340.06123994931908783 346.49663337849221989 333.67156704985745819 336.99626700502335552 339.07371862641184634 340.97818987078278496 329.98812885749498491 327.72786762742225619 331.122330278993104 329.59378255397206203
-311.17167533694708936 -316.13540348371856226 -316.43617941783764991 -319.12197842707104201 -321.25098967620868962 -315.51033543938467574 -332.50631824118056556 -308.23117333769852166 -313.25471430025294239 -309.35782729827553794 -315.93008168947653758 -315.87371964058013418 -326.20963226871862162 -319.09722567307250074 -314.6064328492337836 -312.93367621660831901 -309.16371657687153629 -319.27118334373432162 -318.86660876863106751 -309.22454674240952954 -304.34326732100004165 -309.01027236236046747 -319.94677594440025814 -311.19907524911440078 -323.00474671453048359 -315.09770759391551564 -312.70062004890701246 -312.32036210147560951 -312.10457368718772386 -316.06432013225941091 -311.55577448381058048 -323.81996378073762344 -316.31831752596076512 -315.16252219694041514 -315.33776589643076704 -309.55830462088778177 -308.26833738757824221 -307.09487342293664369 -309.39686608401734702 -311.47153012568293207 -306.46102240768811953 -324.43732866901547141 -296.75944203337280669 -303.96838014281530604 -331.30956598033736782 -305.67351370808694355 -315.34739422191893254 -322.35393187879122934 -311.13779309539864926 -309.23200359261971926 -312.18668411356469505 -319.49678373516610463 -315.2283707993860844 -314.86742318689880449 -314.08163833914210272 -312.68399062058256277 -306.84019693891241332 -314.43844495975218933 -314.25767724741609754 -296.74963299973035191 -313.25330327186998147 -330.37362153151099164 -319.29068174894047161 -318.06035352154111706 -307.70258273002770011 -303.27249440159664573 -303.11747911825335677 -319.01716397723345153 -328.71192407200697971 -303.59757463290623036 -312.08110076072546235 -318.5786755630931566 -314.925350745773585 -309.23108811438692101 -312.23279271910530497 -310.69684188187875407 -315.70220603890140865 -318.35060975975375186 -316.65192432723529237 -308.88097050745108163 -306.94463353991892518 -311.34502542133492398 -317.83498142115200835 -317.45327524694806698 -315.64393039275444153 -312.37247312767249241 -306.20348723856756123 -322.80217422133586069 -309.98705039720113064 -314.82117257152083312 -310.24023132181440587 -315.99733239566245402 -298.591839598063018 -315.56898407518059457 -307.52651491117597971 -308.96649891506092445 -307.31797067993949213 -308.27665567839574123 -314.24293769526724418 -309.37650864246563742 -321.37455850372373334 -316.00822187443816347 -307.41388588228062417 -319.9996361529169917 -305.19058540707823113 -320.53582700303263664 -301.12965689678344461 -317.64286129801979541 -319.83463320812336406 -309.03846383761072047 -309.42720139026715742 -316.41857066592200454 -313.77874749610992922 -309.53409225736896815 -313.60016902531805272 -314.63561041613502312 -313.53906662385111304 -325.36123086502732349 -303.79881539135953972 -322.83425430692255986 -316.82092116756990663 -314.59895134983980824 -313.05452789458286134 -311.20164336063487553 -325.60235980213940366 -320.86880003961238117 -314.25832113326475792 -303.60297389918821409 -309.5800753250392745 -325.16326354808239785 -302.82341141488069525 -313.5388921844782999 -323.97047988201506996 -301.47701746298764647 -311.37835820199569525 -308.62075528649188527 -326.89974220996697341 -309.98080302562163979 -313.79092539945042972 -303.7537216826049189 -310.95956521051550681 -314.74878000043241855 -303.57629596077254064 -307.64358804734030173 -313.04703330201573408 -304.737738340982105 -307.32453477429112354 -309.25046160676964746 -307.88675508006889459 -312.28987689194718769 -323.84294644831174992 -314.87148148433851702 -320.2938064202974715 -306.25189623949819406 -312.84594826370835108 -308.01466887005818762 -326.7984604729059015 -321.04247694036433813 -309.81678757654157153 -305.43471976751123975 -312.76369596593690403 -321.34442501230921607 -317.73741718943341539 -307.05403873551904326 -314.00307766126206843 -328.71557776401004958 -311.24620628760749241 -314.535392829888508 -309.53234490145098334 -304.90784357850202468 -315.76243949604992167 -302.98212024038463142 -330.91915081853170477 -311.03615272812828607 -314.43823659919331703 -322.44278301975225531 -308.05440632199093898 -324.13286966558177937 -308.7645747245990151 -311.7386334622378854 -314.48991158378953514 -316.3624556317834049 -315.02600836394657335 -316.60048075657749678 -313.46481681564443988 -314.93762650672596237 -311.07121965596604696 -313.71893610001558272 -321.13672447581615188 -313.66963374464580738 -317.50336054816409614 -313.95886840695220599 -326.70488718370449988 -320.94350858036102636 -312.47579059890017561 -317.97499609920714647 -305.78347530552662192 -315.04942775594031446 -316.1993994039821132 -298.1145349908461526 -320.92455070893163338 -310.51183354207557841 -317.69054061474042783 -314.48991885490789855 -326.83206563420731072 -313.02561439739059779 -311.06872120012928917 -307.85862399786043397 -310.42374615935693782 -321.86375819980241886 -307.08304639043473117 -312.13215956915058769 -321.56296877656467359 -326.44361222885163443 -314.87353312097309299 -320.89396999801186894 -310.98290899032173229 -312.48403493725675162 -317.74890507984594024 -312.78165241969361432 -311.75618585604439659 -314.43567464521976262 -317.53752371894978523 -313.61576318273307606 -319.39717828431537328 -309.82991828104047727 -309.35627111191541871 -309.53244909137583818 -312.3554252545949339 -315.26698025984245533 -324.23489882238965265 -315.36103078274294376 -311.41334909579819623 -306.34674822012846107 -311.02427792049996924 -321.58328213418985797 -306.08303820534001716 -315.07609072310009424 -324.49451359036925169 -313.28074498177289797 -315.19994373272794519 -312.69354258407480529 -311.91476204782037485 -313.85793846011193864 -312.89561043403944041 -313.11565138897066163 -322.29791741217758272 -313.92901841665280926 -317.6542000235173191 -312.92700378885791679 -314.16215775940759158 -310.99124671758750083 -329.68372017006026908 -315.80002192163601649 -303.46522311579650477 -326.4592776266048304 -316.02357773336069613 -317.86157581157914365 -304.082913733565249 -319.85638445868374902 -309.44081199425750128 -312.45077141542691379 -313.80740449450297547 -304.29295982374731011 -317.91529854853729375 -316.55102994315075193 -324.95351140351192498 -320.21929385830384263 -315.08631336045641547 -309.96701695924485875 -319.18238458250482381 -311.63919470521034327 -324.5952499010622887 -314.91241440728202861 -317.74655459970642823 -315.43390499937402183 -322.93879190967004433 -314.30508060511897384 -318.13655229519702061 -322.1771449579862292 -314.47062558469713167 -324.1956525324874292 -316.80237748854801794 -309.18640074828806519 -321.78126952110875436 -318.63922039940587183 -320.28737981306790061 -314.67321961830782584 -314.14108106107840968 -330.62140873256714713 -308.50965106308558461 -322.50833215965792533 -326.11211746279565205 -319.91621527646054801 -318.75015084974535284 -304.68879967201809222 -300.73624416175721308 -313.95351516937734004 -317.9905836388836633 -308.99411341200521974
-65.726267331505056291 -73.692386319060346977 -66.369926592911355101 -70.992372257140388569 -71.731592976316548516 -68.736533932219344933 -67.427156008840356094 -73.825698416277688807 -72.959387927363621884 -73.956460025243401901 -65.441033223972468136 -78.346670960509541715 -70.854173463353035345 -70.516216648365713127 -76.704076951510501203 -65.766243160683714564 -72.239729822178617269 -74.075406950764858038 -72.718745020298001691 -66.887695004654275976 -70.065846273598921812 -75.370292909211002552 -67.68716424792125963 -67.698558640861620006 -68.696223232587499297 -73.06073764876893506 -67.372971661981679858 -61.212146139634711517 -65.780993606975272314 -72.010290671020555919 -70.852357945310856735 -73.888822181115102694 -61.64235093154476175 -62.438144934460915181 -71.940412301795817029 -63.360499709546822089 -68.371789739257337715 -67.544087158542197358 -65.388652094557272676 -65.744213932274746526 -71.636902318482015062 -65.424296779042663275 -70.371480889895494215 -74.987828224213558315 -72.620010254498154723 -63.216630175554087145 -68.778049013262005928 -76.665685877059132736 -68.187775446228499732 -71.266036090171752448 -80.32756738392501461 -72.907395898369060205 -71.351036629547309076 -72.307362610380124579 -73.24891537798643526 -67.334522025390768363 -75.313433593281843059 -63.240156522756798552 -64.8022969882391493 -64.217333165700722475 -69.71124040598832039 -77.303224684542982459 -70.07667569471723823 -71.911037054698056181 -68.19318900626866764 -62.85824571986593412 -75.978300532403167722 -77.403885953413222865 -70.769721093047039062 -61.697447282865482521 -66.709335829082760938 -67.860694214359270404 -72.969760416152453786 -67.382394540543998573 -70.771333984144803253 -71.723101543689296022 -72.384914872390197615 -72.713569711134041995 -64.942946877937274053 -68.277099236326350251 -68.835967987934083112 -74.149889512464795871 -70.660756252753373019 -67.053546042886210898 -69.227859933701367368 -68.302446927027432366 -72.154909177767819983 -67.209131995731709708 -65.906916640008802233 -70.400657436631234987 -77.580779555907540157 -69.28700649225078223 -68.842323840218512032 -74.961782832042160862 -68.014898852800385498 -63.03745976624566083 -68.252669610218504204 -70.774123186719521073 -70.482809618100759508 -73.469993349748136779 -75.563008520209137941 -65.77975365133397645 -70.088726327652139503 -75.530574583766806995 -68.238419669787390376 -70.075062113036835854 -71.603143972971949438 -70.125306351454028686 -76.02550971859608353 -72.941543878680320745 -68.032479340154722536 -73.273896187713006611 -67.488708646591248907 -68.518098436723576583 -73.266498753711331915 -71.371978529627980947 -72.008658466777902163 -66.696919717887965362 -71.104243578100792433 -64.507469287129680424 -69.647780542842269824 -74.219135847683361362 -77.647148253203141621 -70.637373633811648688 -69.628522172957488579 -77.403094712852606563 -66.261440425304641622 -63.637828711529714099 -62.301073087678702223 -67.719817459115489555 -66.569168238359566203 -70.330737129497734372 -71.552095008358008954 -75.440854663493453813 -73.972687805626478053 -76.035161106684199694 -70.67115788318756131 -68.85775274435049198 -76.184401624302964251 -63.562902137091072063 -69.316975408588248797 -74.818788300422895077 -74.745409738604465133 -66.674574959226703186 -67.191341956480442832 -67.464134288061941902 -72.643732954315453298 -69.764013382815093678 -65.809696122534859342 -74.184261935450308556 -66.815506568302566848 -66.811255887715930157 -81.061987151099174298 -73.332838587867740898 -60.202796149526420777 -66.853690561938563519 -72.631618208231088829 -70.860739246293263705 -69.325919572214644404 -69.095730909430017164 -63.16035064257164322 -71.242234319969156786 -67.70211674041448191 -69.060843572284298375 -71.048903877778187166 -76.360923095671125793 -62.401100464706104276 -65.965472457583075538 -73.870294914053289403 -61.943800762498391066 -70.460037407780021113 -74.483228605409735223 -70.11195553784263268 -69.364654224905180513 -64.79366924440347475 -71.132129370991478368 -77.943350940281462158 -70.146963099157773058 -65.640023528267477104 -73.042207833411396223 -69.634265102489862898 -66.739026114878782892 -63.769028181567506408 -62.909126545562180866 -63.704103552073867434 -60.439760316879578284 -61.975906768848595618 -67.550427699185803476 -73.627410402934287958 -72.278066751616847796 -75.312102205693932433 -68.65809919137684858 -78.483601131997602351 -72.78487418264604969 -65.680930055076629515 -66.816323407007288893 -75.893539633284689216 -69.666180976212501719 -66.670337696453174203 -73.864807474116787489 -71.005208959245663891 -78.842467306416111228 -74.514127873415844761 -70.756193719493069239 -72.508677033198239315 -69.960585960303831143 -76.188548021236769614 -70.65976679183501119 -63.640117331901024045 -78.047012320169045552 -65.84563272845815618 -71.630456181812178329 -73.422963555818242298 -64.267138491406512912 -68.76962128006628916 -64.564478843507657757 -76.045370559149972678 -68.955879245853495263 -70.183993214616549494 -75.085215137329271329 -77.322217831151561995 -72.323389661694989172 -64.601994033402036166 -63.924355705741660927 -72.31346675536920543 -72.72660928030207117 -75.281399756219016695 -76.821114836029181561 -63.458211454430944798 -63.932019109363977805 -68.993803069634736858 -64.410603217737047999 -59.975222458065900355 -67.703628583851866551 -73.877649169995379452 -68.983433194361978735 -69.859943715583455059 -71.002093561946878708 -69.354189738088521722 -71.589174664465801357 -71.655531278879138313 -65.118531647541004759 -69.450449265293570988 -62.899695175496653121 -70.797092468666306786 -73.594729416832450397 -65.992729570216212664 -63.99818169153013514 -69.486607174060907255 -77.304546659411983001 -64.16355005964528857 -75.988406022061099065 -61.531672036077679877 -65.612844701216531007 -76.528699658372516978 -68.759665223768323017 -66.821811227289089175 -69.895533153556314687 -72.647171864595335933 -71.515611125030460471 -61.626984174890480972 -71.89956852852193947 -71.946003755666808388 -61.298054529845423133 -65.476409264249269881 -69.871096233023266109 -66.673042295721401729 -57.328192511139647536 -68.176626240209259322 -72.611021161006533475 -78.03274068491147375 -75.379018182457102171 -73.521845904119942361 -65.268733068084969773 -80.688509099934478286 -74.873847884956106213 -67.80778762008078786 -66.530706465648819403 -76.009387557971436422 -77.333889399376658957 -68.658422446306005327 -72.515378231810302623 -81.694555301146323245 -73.996555164972818375 -65.056429842270034669 -63.088113844395152796 -63.071023885178320256 -75.429766343695007436 -71.413633512867122022 -68.796776006139907622 -74.847229751710486312 -71.815680542332700043 -69.499521475112970847 -71.545965569642390847 -68.745338938249673788 -65.935066009817688837 -63.563136047228802283 -65.861369086070936874 -68.324864052793273572 -71.753065726335563568