128.19774287860681738 132.79459537035413064 132.76579652195258063 130.94272700928792119 129.00314303902050028 121.1020983886243414 127.88929030264505116 135.80622732143342546 136.66583831979301067 136.3128886928802217 136.5421409172232643 123.74018745803289221 137.40658775013957893 126.83860725871683428 132.48533233675050269 134.67321527720588392 125.13017235881338252 127.5430416186624285 127.79734263359323165 126.83828532509059528 126.19832161040604035 134.36599178607269778 134.35406497482725285 130.26681492832895515 130.43375588235966234 132.87923262782797451 126.88819391157196037 135.10658475780687127 132.83486563396041902 122.42883153966862153 133.39338558540617896 128.72820651256375868 120.69995285451095413 135.66439653563955403 131.53944046732422635 130.78395431930678683 134.81779193896150559 127.83610777785547441 129.26875094359942864 127.79359165095590356 124.70328671319290947 135.62232104718174241 137.74786703912801045 129.53276518685061092 129.46250666910793825 124.84484192301172811 131.67181707692247983 129.79885523129078706 132.77633035601991196 128.77446395642920152 134.13299783525934572 132.72152511521025531 143.57977871787457502 133.80906252163839554 127.06011315970930298 125.92402453356174874 136.29395774611634806 139.65732110888743023 128.4372957006309548 131.25173339365159109 130.47016887809900254 126.96847805392303599 136.57690479937079431 130.94878116489397257 122.15144020007316783 139.24965488320543727 130.27881674489120201 127.97879982616348116 128.65581497257565502 138.96137339261488819 126.98208455926199179 128.15854907494318127 124.73396074430799274 134.47458876479421974 126.72825829462669844 120.64512315476952153 118.41157846819668009 132.43571624532577857 133.1664638515815966 138.91375008805184166 132.04199850093812074 134.28341881157862758 128.02742828833262934 129.63668261020418981 137.90152082110267884 133.34707489472751263 135.68845006723915958 130.35734339502280932 123.37719009539971182 130.7399584235220118 123.24193384496477677 121.27482799478964637 127.07416359432234287 130.35203846957480778 136.22711886860363961 128.43569834617494507 128.08129971979565198 134.73729040041470739 131.45922405875722916 130.12306740352400425 123.41554960001491281 132.67122709350311993 134.45944843984116801 135.63606565224495171 134.85855415614236108 129.48283465089383526 135.07371912288630256 137.49295780274960066 127.38282870049562234 125.69591560644730066 136.45500635434868286 132.35514792593369293 128.2847267870699568 132.51768018553994466 117.91103420784506284 125.80116394450296013 122.43662456736083755 126.10203783351090578 131.75727432108084258 128.93712684394188273 130.09912372166564865 125.10130533071581738 128.30581500137799367 126.05193499660838086 131.61163102551378756 144.36243768488174055 134.29445229817278573 127.21996983575381535 135.09450378003805326 127.70856218953161942 133.71878327406011522 130.02635710970028526 132.21765892802329745 133.19439416448756219 124.76439174572770696 139.56074386022496014 127.96827107564935488 129.18025831657539015 138.21046698948310905 128.51723591831890303 131.99755237560904675 128.22339503163902918 131.63721167465078565 134.35626049722353059 140.51530981689205646 134.55711924164140214 133.41391388995151601 134.60708850540979142 142.35226337364034066 127.60529103696882203 134.75102551973418485 129.27918223910518236 141.54386212402005185 135.79560126788967978 126.32103517016970784 134.07814340328295089 128.05068975379040808 132.22385213717291208 128.16619263344671253 132.86597387899024625 143.48755502220450353 134.31416462091431185 131.82500154678760396 137.18949861161991066 136.28932200636748462 138.78610251907400652 129.72255588313689145 122.73979324714203187 142.36627134273578577 135.21471240538855341 132.74795611046252475 132.64927652598615282 136.98197239419573634 129.64274330096748145 121.98029737033188269 139.98320961009056873 121.67008413477074669 126.70587104358118324 133.9906766508035787 128.44081276047043616 129.17607387065348235 132.04587160689351322 139.9446758654125631 130.23712961877743055 139.1339197826820282 136.72777211729544433 138.1212832717004062 126.05494048821334729 126.75856087357713875 123.66646101112202416 136.92872217601455986 135.37367512876156184 136.43266299843466527 133.07835646997557433 128.31394672095640885 120.61202864852128869 124.80961817688073268 122.30435302139714793 134.89644469940122917 122.52116994753872348 127.60254241992393531 130.99355727974506181 119.59784701115516725 136.55080696492680659 138.00880145966038981 124.62962012138892476 142.72851793105419915 129.19987169039080754 136.34175264214104573 134.44493822345003764 129.29346216044592666 138.48145030598050198 127.65208207569042997 123.29716408556203078 140.70125836345482639 126.47644782196431379 130.65063480767210535 132.27785995132813923 127.81860892909557492 133.61933864923005899 125.7849349576994058 132.40093545913290995 126.28942718859028105 129.25273457682706635 134.37381436070967311 133.14156335659581032 140.1453666921271406 138.69479686531826701 131.45924284288338413 131.53630051128678247 136.79609965992594312 126.95646430169051655 142.27568972193398622 123.99840949395559164 130.66635326369097925 127.5493235878216467 133.77830800914651377 136.80350130403070352 134.97453457467432258 131.16814993462728012 134.42838949792420067 133.84550188712273666 125.06600339392758769 129.85120239964786037 126.69588492496885124 132.98865075049346274 132.10186070498815525 141.16543774777829867 138.2024396352891813 136.59061691371292113 126.4113823429212573 120.22786040044920242 133.79345133307467108 129.68925412047641998 134.79145544936031342 141.19915007270083152 131.43108787037874663 126.88096299384498877 128.75229734611764343 134.27276461026053767 134.34321052782712513 132.63444800910258436 128.41241923413761583 135.03210597218546241 136.28726017541922033 132.5545653692581709 135.49980585975771419 134.37717976766319339 140.35670773688656254 133.94709374927347767 135.57668467764457887 131.35995271542537921 137.85087669626389584 132.98660569479207538 129.28997804982117259 133.55580631976559403 135.35786621662194307 128.16632857802741796 121.46222968424476107 133.01461724824031307 126.79122371092820742 130.35067185720711791 132.60337238518960135 129.52804773710172981 143.06842050056550875 130.55793715971665847 140.65504865410071034 134.2505328347366742 124.82152608757280632 132.9243396858116455 124.8069996203364127 130.77932468718682912 133.7145497416659623 134.38550086712663756 124.32810413383126047 125.96863552444827405 129.64884313143551253 136.85283991884728039 136.53744525043478575 131.16426324391198932 123.77771175311268337 128.3317233267113977 137.90097442925315363 130.90003589488262037 135.08857784160340998 126.01584948883930792 128.44261694471595092 132.79119279480110549 119.2576908263145441 132.17491436565379104 122.41260372431932524 132.89758687717474572 129.64116735761305677 122.80041496625601383 130.85871122421391988 135.15826458957036493 133.71422802295012389 120.62164845355059128 134.43933002274209798 133.08665526341400209 133.65512056989717848 133.53028901761501857 125.06945949108346383 131.96732647662153681 132.88426917861349352 118.11686305194089641 131.04957240128197782 124.41920146697350447 127.63639001967885633 131.27330929323045439 128.89593661781592004 119.08209823946076256 132.21261018460629089 131.82178003569248403 127.20552909100661054 123.78198973973712782 131.61163027829900329 133.05906569196139344 135.84387918661735739 129.64270530254893288 136.87968969763358018 129.22424819674426999 129.78931015240539182 134.69975551794775015 130.91453495984285382 132.40226791115190963 139.42823210922239241 130.48006862063300559 135.2885987019505194 131.33351727727327329 130.74650694842321741 135.75712353987114511 130.7919372231831403 138.03485475357243217 130.35159271711708584 134.304691075454258 139.75637518406088589 139.49660963930566027 132.40583973993881273 132.80578822984151088 132.83399170167805892 126.72049485560181381 124.9720155525065195 128.57196820802309389 127.55146307692595542 132.71846628534203205 129.01421491489895743 133.28215606652153724 127.06489226213815869 129.44976223400169602 132.31569445090633508 136.97557849195069934 141.53728980345118771 120.05336727465865465 124.62202968136807613
-1073.1139639677398918 -1051.9790265134515721 -1055.4009470113526277 -1042.4944477609387832 -1045.0647164793397224 -1056.3374933070920179 -1023.29945005290881 -1039.6555344567207158 -1025.7398819501627258 -1047.4176414532830677 -1050.6750081914669863 -1026.7426418715194814 -1029.1283014993296092 -1046.3505537402973005 -1043.4126025676864629 -1020.9789847948123906 -1044.8938839239392564 -1053.7111951549411515 -1039.9000961184863172 -1037.0441094031853027 -1037.2842003385276257 -1020.1848301051620638 -1042.4906788608061561 -1032.6506239550421924 -1036.6907854309956747 -1055.1149981392816244 -1005.7966141529520883 -1039.1248937687721536 -1035.2033450898784395 -1048.627207806208844 -1035.6783243496192881 -1032.5258223562761941 -1030.5646121037511875 -1043.775254467519062 -1028.4530871682352426 -1017.0087699414755207 -1050.5540060811299554 -1036.2076573248336899 -1083.8837647266257136 -1031.0570296179898833 -1017.1936357475843806 -1017.3802430449100029 -1063.6788788988831129 -1041.846521700946596 -1050.6283158030066716 -1027.8218904262710112 -1025.4782567954543993 -1034.2235736891807392 -1031.8091341762869888 -1052.874599764161303 -1029.2154712432015913 -1045.0643536380000569 -1033.762808014620532 -1035.5943061995374137 -1010.3570275072700042 -1030.4614358913111118 -1047.189381474084712 -1037.523339903966189 -1056.4937832787384195 -1044.1841860033557623 -1027.5414828171583395 -1063.4411640028113197 -1061.2237593541997285 -1047.9406668270364662 -1064.8867086497689343 -1035.0901180751643551 -1051.2051328007521533 -1064.8724884402327007 -1051.7262071443478817 -1048.3881846235838111 -1039.3286511603819235 -1060.1204818665273706 -1051.4148324949023845 -1048.5123483239087818 -1052.1149047368728588 -1079.9338495086421972 -1052.9823539290093777 -1038.7655982762091753 -1039.3917748157473397 -1036.3391397966199747 -1045.469545055233084 -1056.5891931461053446 -1024.3467960212187791 -1050.1911078806231217 -1029.65550577154454 -1047.7516777269011072 -1032.3289211244136823 -1061.428015399624428 -1057.2105057390326692 -1036.1617138677850107 -1047.6622433816055491 -1035.2694449325786081 -1059.2959093461513476 -1053.3884670543604898 -1038.334481689777931 -1068.8702799798352316 -1048.228942446512292 -1076.1354766136801118 -1039.0391088280910026 -1061.4434224722922409 -1061.0630459148378577 -1035.850578321024841 -1078.0485233619201608 -1045.6537802439031566 -1029.5300864734017523 -1049.0353496791756243 -1038.0421954306448242 -1033.6441891084523377 -1042.983672521927474 -1027.4959069171686679 -1031.0843492237636383 -1043.5921634267667741 -1038.6986572512307703 -1030.2567329730081838 -1028.737092011250752 -1034.6972918980695795 -1016.1009548604332622 -1048.0961013593191637 -1047.6990694088492546 -1043.4905152280607581 -1050.786069580589583 -1059.2663030866310692 -1040.4274310964726737 -1051.226861828688925 -1023.4235526665897851 -1053.408788365507462 -1030.2642511999233648 -1042.7199882466038616 -1054.7117050365757223 -1045.2986602954169939 -1031.2843986626824062 -1050.8644017351819002 -1032.0684843022715995 -1036.502742400501802 -1050.5671660296263781 -1061.7545018159653409 -1032.8227431468842497 -1044.4003823599848602 -1043.7689843316381939 -1062.8700803145391092 -1031.8000777441093305 -1035.6141797668765321 -1023.2241043355310239 -1016.4861155639919161 -1038.0435801315400113 -1046.3436518255748524 -1054.5097417996332751 -1046.0966700118876815 -1072.1781953739091477 -1051.3465244907040415 -1036.4930865696794626 -1036.6626365258703117 -1020.0129886339550467 -1046.3058709801409805 -1041.8164652780253618 -1057.5788941682631048 -1034.9342133261056915 -1020.5084821308194023 -1032.1627619342943945 -1048.5352529466269971 -1050.686851109055624 -1048.4617892521880549 -1031.1253290874533377 -1033.1461017089281995 -1024.0258404656356106 -1048.4630337503542705 -1037.1624074496589856 -1029.0202752642394444 -1025.5376278202359117 -1022.1327215333075173 -1069.8175725995488392 -1034.4934759649427178 -1023.7293999495871049 -1019.3920920654979909 -1037.384866078619325 -1046.9465675193782772 -1025.6959399010318066 -1048.9752721362197008 -1044.5311037535670948 -1043.3469078286898366 -1044.912782686563105 -1030.4561234673496983 -1051.5917394050850362 -1035.3503847834886074 -1024.9545270979640463 -1046.5875185906791103 -1020.4482971963914224 -1044.6923160177434511 -1047.3957284319433256 -1043.3251236256305674 -1036.2078718930704326 -1055.19756936124395 -1056.3957148027579933 -1050.8507125327073481 -1047.5883454956556307 -1044.5435093610992681 -1061.2154333422970467 -1032.4830898082479962 -1041.9636398853244827 -1046.360954694658858 -1058.7185266243266142 -1020.1457661800432106 -1054.0905507405857406 -1047.0419135820827705 -1038.1334699512876796 -1048.186431934936536 -1030.9801903756538195 -1047.6656828744701215 -1054.2527365418193313 -1060.2501777508412033 -1063.1319721111817671 -1041.6764827074093773 -1047.5350853342524715 -1045.8198496193376741 -1030.3053624628591933 -1072.4249367443389929 -1048.8312570443954428 -1024.8300197211701743 -1067.6378764481164581 -1020.1197409692194924 -1058.7763455109247843 -1044.484278342304151 -1031.3044096842359068 -1059.0201120000833725 -1035.0478127008896081 -1022.2657626287490302 -1042.3433521253293748 -1034.4442620393504058 -1043.0697111892332032 -1034.5464115747786309 -1024.7273261971954526 -1050.3682964182789874 -1064.4417139795821186 -1056.42488207363931 -1041.6366648782811808 -1045.5790318972883597 -1049.7446954318443204 -1051.3891747227205542 -1035.4518153641183744 -1055.4701734617642614 -1033.5089514632911687 -1033.6454068487109907 -1034.3639231971485515 -1073.9827071771824194 -1029.4391722199973174 -1053.3196564222353118 -1047.0141615082950466 -1046.8172428321729512 -1047.929425814836577 -1054.0408122509036275 -1054.8402799913499166 -1044.2173154036345295 -1016.9847844980754417 -1053.8240827213342072 -1051.867885139781265 -1040.9289467798173519 -1043.8524146056893187 -1042.0829501944676849 -1045.3935937519465824 -1038.814402065061131 -1035.3031261424705463 -1056.4069308647635808 -1049.428337962013984 -1070.7891679037554695 -1042.8591244085730523 -1038.4137988522936666 -1053.4830678345342676 -1051.5910639479891415 -1036.3602477691349577 -1022.203960044593714 -1040.0058888935100185 -1032.3931974468466706 -1040.1758103553729597 -1018.2643904392991772 -1037.89948400512435 -1031.5864855414054091 -1035.7179022315840484 -1045.4798968614836667 -1056.6055283331756982 -1043.2525522038060899 -1041.9982820133409405 -1056.9862547703942255 -1047.7722681391574042 -1050.0827034082515183 -1042.8366853079905923 -1054.9814619065273291 -1032.5974646121178466 -1038.7627334889082249 -1053.5099757806606249 -1027.6595198848499422 -1050.9291331527217608 -1046.2151716859934822 -1051.2438189259050887 -1048.6238209307396119 -1038.9210107079718455 -1021.7377046010376489 -1048.9120236607880088 -1022.1672294168213284 -1029.2663353167417881 -1043.2528130666589732 -1063.9817905988541042 -1057.2112520827279241 -1034.2015881307424934 -1045.1210651595288255 -1044.522758566243283 -1030.4265624221225153 -1041.9373582391424407 -1015.953705441467946 -1039.8782312640935288 -1012.9261143378939778 -1032.6455993581510029 -1061.8732623455914563 -1031.1398397118207413 -1051.1740493598961166 -1026.217328077668526 -1060.1894904418334136 -1052.3174705264698332 -1035.0958119173856176 -1021.2114951960860481 -1037.471669877319755 -1042.229754109426267 -1052.224319525165356 -1049.1360795743582912 -1055.9853709684266505 -1068.0275934205590147 -1026.9763633618479162 -1015.5195190741467286 -1030.2928039983085 -1044.9319576745656377 -1038.2641802082362119 -1037.6753440771176429 -1042.875341026691558 -1056.8426097305989515 -1059.9229224963810339 -1030.6053611288439242 -1041.7463469927893129 -1044.5984081553926899 -1045.2258984630645955 -1047.5057652365369449 -1005.0246855353748288 -1021.5581695204222115 -1050.6697324991710047 -1061.2663800401817298 -1016.5035190316525586 -1038.2886610112193466 -1020.8354596637691429 -1035.803749845158336 -1049.2649905441628562 -1033.7378949742724217 -1028.7145100472589547 -1050.2127484722977897 -1045.2335759208783657 -1060.0908777375850605 -1046.2307702570553829 -1037.1070170883192532 -1021.0000853439679531 -1037.9644808004645711 -1034.9341907922362225 -1047.677690602780558 -1048.3540090812475682 -1051.7716771570828769 -1028.6099057754881869 -1058.085454487015113 -1059.8301725073747548 -1034.2514449329846684 -1069.1652335678031704 -1038.6057448624726476 -1057.9290070225638374 -1049.5296157479867816 -1047.4328314822964785 -1044.9553986699440884 -1070.0332530070543271 -1033.541220752181971 -1034.7459146905475791 -1038.4831038713464295
617.61284411141321016 623.70560565667074115 633.10866142447207494 619.9969787176345335 636.46311026925513943 628.97296396510216709 626.67751815716474084 629.09113473052548215 628.67994519078172289 625.40226863656107525 617.73931407805810068 629.44373966563387057 628.15422090432366531 622.92426971321890505 627.6505601300118542 633.56164651793085341 638.21084536252396902 643.51245073266500185 620.01256435857374072 626.34870461015418641 618.33629784061133705 624.58972958982542423 629.63501973004736101 629.55765165324032751 636.89810129284478535 633.13389284978984506 611.27930458043806539 632.00510857523408959 621.06287773280143938 623.22787768815737763 631.65639451254173764 626.7984346206602595 630.05023651842964227 606.12904701727347856 627.41153525524862289 633.46571821472059582 616.39797139086385869 626.64050165923447366 624.74303143932888815 625.91070175414415644 628.01675389721094689 628.02280498186689783 618.21450563773578324 624.0613560081308151 629.35349454596416763 621.52513058737713436 626.94225910125135215 617.98150702081045438 625.23656776170923877 622.19452055313638539 616.94400253058051931 625.40723529395472724 611.82292383264564251 626.80189858333028496 638.19739858275409006 612.05663997677811494 613.12497170924541479 625.20967164418948414 624.24264564823624823 626.60698624599524464 625.08378960932668633 623.42990738452692767 625.15113097197206571 638.68542769938562742 629.92675147968577676 627.12729630634487421 617.14500273242595085 628.27797767375670901 620.48983305162153101 623.97639101582228705 629.08743385936168124 630.30329794595388648 625.17650259759238907 623.29942788095854667 628.93012689207273525 625.05548510851315314 634.71611716860229535 620.52982287089901092 627.83419667922828467 631.90701048848347909 627.883757426640841 627.9240180035423009 634.2519026924226182 625.02733533004607125 636.42553132261423343 631.27413480121174416 619.75122112342376113 625.59469867291647915 632.45169151698485166 619.03991985145864874 630.35884854570576863 618.84675159459641236 624.9697879879950051 625.99773478448139485 628.42504458348639673 626.31700724604240804 626.44049417382348111 619.55041649224745015 630.21235757135218591 621.49774026976933783 624.24215122871237327 617.42274985293272493 619.58363829085669749 625.34446489885829124 624.40965014368271113 618.49804671712684012 618.36925942994298566 637.65309800185468703 621.44270213293089 625.06677428435511956 627.58403260243437671 623.52988404328220895 621.46998103645171341 635.08087524976042459 632.00172883735456253 611.66571763907131754 621.12822242759352775 615.60132408034689888 625.42087910003806428 631.8833758964971139 627.09343472888656379 635.91603586281451044 632.18110079160112491 621.23910230589467574 618.15419931005158105 622.9026327743525826 619.52285031100882406 624.91608320117245512 628.75173942121898563 629.43107703956411569 640.83527810570251404 626.97910048380811077 616.96861401248395396 635.23134013825347211 614.64387904682132557 627.98182390419788135 631.09088531201871319 622.19927023239256414 631.9731491666572083 645.57628946894737965 627.2346769351365765 619.27854964244045277 622.46389464274943748 617.95069832809008403 621.04595619277199603 639.49783036914641343 629.27002496448346847 622.99510983864388436 618.47185975148647685 629.0818797312613242 625.03138297934367529 635.2165997681013323 638.93627182588579672 625.05767246884647648 633.64474256133439667 638.54918088953638744 635.3430977188943416 614.2474322057058771 630.44168959962485133 620.66601922741688213 626.05041022151942798 619.4164885501847948 641.08964071285117825 618.176261087853959 641.61701702801235569 631.37526626559372289 628.96365842201669238 625.65679671869520462 627.63223739726390704 621.35412575825137083 626.45717661177127411 626.12453006796590671 635.86163166474511854 630.45314417301585763 624.89912626852867561 641.67531774108658738 628.70492955070085372 618.45469050450367376 629.93628009046221905 620.55978301350819493 630.83986844841933816 634.81329184113928932 612.6128651992352161 626.92178493049175358 623.62939284324943401 608.31986248602504475 634.68089986867676089 612.99062244566050595 627.26415975197096486 630.65884100084690544 625.67482835158386933 630.08779237570638543 635.09622872104137059 627.4549391432401535 631.09610496901245824 613.12872150503744706 610.23888554290681441 627.62909534340485607 626.52456826856337102 627.56860524083981545 616.2870073517997298 629.88130054122507318 626.65886080433472216 633.64755969335772079 619.29837717924726803 625.8271695032012758 619.71381082826917464 625.07674481695812574 611.3316887400953874 632.24518842474265057 612.56246662842636397 629.14744928597497164 622.28561611426630407 624.71787535367025157 629.6028497019955239 637.52213009239528674 639.51954229817818032 637.35768588612450003 626.04116889364297549 628.32724862759232565 623.64882742460144982 623.16486903125951358 627.33746438864750417 624.19967621756779863 621.68028276707866553 630.33601799940868204 622.90778655618146331 631.0618733163445313 617.73501789633519365 624.32299642525390482 622.16698357136192499 619.79320100220729728 628.32185829635102436 624.92548377600564891 626.18382328353527555 616.2086460196688904 619.59558219001678481 626.4462233140926628 640.41505025578453569 636.23610300182849642 622.91903951589506505 631.05911312361718046 617.06579639610311006 623.23679049146210218 620.89983173551263462 632.33444924555567468 635.24926990529786508 616.57164930549924975 623.06050361014695227 623.74701313038474382 629.77823832583146668 615.10811085552131772 621.78067914137841399 634.59766634914979022 641.67978640533840462 627.6028446008346009 622.42275949566783311 622.23178222818251015 621.40088162986342013 632.09061671943959482 623.79709865691495452 632.62733861223887288 636.81726788337039125 635.49147625442640219 615.58776148555227792 624.59442207127688107 624.61495132474487946 616.41450093938749433 628.31187049990739979 629.87086297127257239 629.71384472676095356 636.61408116506436272 621.86790414518111447 627.26482172348767108 613.7559107205984219 628.26721445269720334 632.42475377751532051 627.07917229068516463 619.87713949330816376 627.64438477844828412 626.37152005088591977 628.16152330974352935 624.49576597914040121 640.10597987419782839 624.81246648721435122 636.78832248963396978 627.05750017178183953 623.5177385699774959 624.76432620156094799 634.45370092738085077 619.29604541407616125 635.59770964218876088 613.37119194391800647 610.53169331009848975 627.32824871563752822 623.10154141163047825 629.11416551773220363 633.04327396997280175 622.40908501186595458 615.83782063067019408 640.84135382583440332 622.66705491952313878 636.25134941818907919 621.22131403551952644 627.75271363533431668 632.08371105721141703 621.67068393785359603 623.35978428033013188 625.27348133281100218 627.1143070376591595 632.18613489623226087 624.64514666627678707 617.98198407314441738 622.69998042254633219 630.44466834330069105 639.12720816327180273 623.59572732563481168 630.179134082052542 623.30852539510919996 631.0464879351612808 625.93972657006736426 625.90145208822332279 628.51105789540974911 633.48881055389495032 620.23481664098324018 629.47063600991452859 622.94995970471836699 621.55033170844342294 618.85794790775298679 622.66520926895339016 621.8570006590776984 625.95919138219767319 631.88675258777561794 628.4989747825992481 631.03772201790479812 638.40954407503988932 629.66327031734647335 622.34916749507306122 637.40270712768494832 622.02979417629921954 638.51331040445666076 633.80862756329725016 630.79862574490334737 625.03989188196010218 614.77146463770191076 621.0327213216465907 622.40400998063512361 630.10700859420114739 621.35268957770256293 629.4732485223319145 622.38963235984545008 630.64052224937927349 625.05714746638113866 629.44205979505522919 624.6211691035965714 637.36047188272971198 626.48666759876527976 618.60929186527800994 633.94944502569944689 620.62774898762336306 633.22003041355117148 624.32681332138076868 626.53707410928700483 640.29252735726299761 632.2357205689689863 628.71410751433347741 623.59345789419069206 616.24685357002795172 615.49008588155300004 634.61622619829108771 619.80530343586576691 612.2755245527328043 634.13069167782919067 623.2330327199695148 628.87381895247654029
350.78191558856104848 352.24046936463383872 344.68545359399564632 366.19380067540981827 359.92123439724906575 361.01471050337937641 365.6223230438094447 360.16393282713295321 362.20810013520781467 355.75895708832558739 353.10260895704197992 354.22904525931824082 358.85487743341741407 358.70893586057798075 353.89161065347985868 353.88720624105269508 352.44082459145795383 356.37994686097772501 357.96456269143266127 349.43446195087545902 358.36418743118309749 356.12554651997044175 348.12772406700503325 350.6362380180631817 354.43929498098879094 362.62042915085999084 370.75790762100871234 358.54079337182866993 350.19279378479700426 341.91468276313798924 350.96780251878885792 361.16399722969589448 361.93204358853239455 358.33730936776908038 363.41711532321659206 365.20679326091891426 366.93683668460988656 365.25406582187707727 353.87124205375113206 367.09340604935533747 356.40569164408924507 354.89113486698312272 356.43672280546621778 359.94554614332764686 358.45687510610019899 352.52955669362427216 351.31498663713125552 360.20313146748890176 346.26880380219432709 364.01488124566094484 359.74632763904321564 357.46852667016372607 345.81812172918608894 355.57791099706565774 359.2505998775604894 356.04453550425029107 354.13265479664437407 355.73355955502535153 357.74587652606288657 348.51808703117990262 356.84120596746720366 363.81992312573078152 357.50903158229601786 349.51209584769537742 355.30376670568739428 358.87133356932207562 347.19072222497101166 350.99706032686577828 361.65554758583982675 351.42117578071611206 353.50031539863198304 348.83533019344559989 353.05078789955427965 350.52864583443664515 361.52333979686540033 362.34354114698959393 352.99659069491184482 353.33151599347723959 356.96035225323407758 365.61671474867313236 365.00435816470445616 352.90923499703774269 362.33250300725291027 359.04441390731227557 352.47377728838097255 359.77115679758253464 356.05300192677879068 341.49182864787832159 366.63908275087061384 362.17296756083283071 359.43619121667950367 356.16850315525630322 361.94549221038499809 353.67318870192036684 361.01846764383020627 364.1286324796068925 354.54312841570117598 354.88744869203679855 366.16416249889874734 363.42660635454342355 364.50568123487568073 351.28489332821021662 356.07519400511898766 351.19074954302323022 352.09493519343374146 341.32080521058395561 352.68189432183891086 344.93663608725404401 365.92210093806016857 352.02352409957961754 357.03695988031756769 365.5969913241597169 349.41715118419961073 355.57684389089456545 361.48651472995811673 352.87547063301065009 348.47653169269045748 350.8016938500292099 355.36311314380083104 354.90446889570034728 364.05272866780808272 355.06928566419077242 348.16642797118856834 360.4747334280132236 351.78351481656750366 356.19848584677015424 350.48664199486012194 346.47615284802520819 347.4004789400099753 361.09809058478163024 361.80286783458791433 355.78675770348155538 360.56360518301050888 350.1459289286525518 359.58056433587989886 358.30014484876141978 356.0211986859467288 349.9121702145191648 355.8192828469897222 351.2176433309353456 354.5832626734560904 353.54936205531032556 354.75634642533344731 353.7644194481034674 358.25858325237203417 362.89450001944550195 362.46951337976173591 358.86777530373529999 362.71770610827934433 359.59394402697006399 358.83711271311449309 357.55459770095382055 364.35935495738772261 343.31525201788775803 355.50170161071798702 354.66999173210081153 348.22904824368970367 352.45757030701093981 359.9925654964416708 355.34649787335723659 357.00439061749148095 346.69283543060578268 360.08804799487467108 360.76206501591502729 353.4666235749803036 355.24071326655922576 351.49952347842059908 362.90105229338428217 360.02416967349728338 345.98348528413544045 353.50187192264354508 355.76900509650084814 350.87816955093029492 361.10727440819874801 369.57696067295177045 348.48104018541016558 357.58200904522431074 360.65680507812680844 353.3480083537245946 357.37347749345565262 360.87878889351628686 359.64403892390339479 351.6418129261356853 350.58584450970045054 353.41449479612106188 353.6707740652755092 364.44049001027241275 350.65835784693990718 353.03310042245772138 361.10276806251397375 349.88102999850991637 354.62691830449750796 356.31323345088952692 348.42961834009821587 359.42618581337058004 346.55079486597645655 356.96581896507422016 352.3695220922130602 362.90525158092953006 349.37168395575685054 352.83120588029811415 362.52172183114765858 350.30195663206967538 353.34382760564744785 353.47945326628519069 359.40524439257171707 346.23694421539255472 356.54316730164958926 353.04866007600924149 356.48760379694482481 355.19386099168957571 362.11153160551310748 348.03695503292425428 347.94384339591528033 351.39730707240613583 356.99200430463793055 352.32166760959057683 358.62529692646631929 365.11631136403809705 359.56503989570916247 370.54702132844528251 352.12417075044521653 358.30034847572500212 343.95513339733088287 363.12001632650719785 357.80248326940824199 349.84355843825392185 356.01999002081669232 353.10939431601400429 362.35280790537967732 357.59715485295146209 354.97739567887413159 345.83168855364340288 359.19659669111439371 339.32861801475587527 357.74745321196968462 359.91129182632840866 357.456655238622659 357.40748251788892276 367.31579389245570155 357.67165766360216139 357.61192386235137519 351.6830460620209351 349.10263117636566221 369.10678864911687924 342.63911185881630672 355.80964386087197227 356.02973086377357959 361.02326101434312022 359.51793667596626847 351.57745858365512959 361.94760287355711625 360.42764659512386061 356.08485431429193113 359.10715120891291008 359.29640045870121412 349.32438195815421977 354.54617863834465652 352.55903269880479911 361.32210676304464414 356.1694342274664109 352.43763002066339141 348.63600162364247126 354.30332631786347974 359.65982358822571996 367.13017731360611151 359.14133738065953594 362.02146690123817052 354.67201030891459368 364.66361526424725525 354.36706120973366296 351.88503156130889238 355.42804132787165372 346.37615398156327728 367.58222634411157514 351.08480081873921108 359.37234729951916279 350.55540710593265885 355.03285558949238521 348.14913465247468594 359.47280601528109401 367.66827916019332179 365.57843001984531384 356.22585595692936522 351.79379857155333866 349.56736884952721311 353.14311913091302131 356.00414797672021905 364.45728542373154824 362.22496160089440309 351.80270484582479185 367.86995654672710998 356.89760922953655609 356.55641537903477456 360.49598520640040533 347.86899571400846298 343.39762759702580297 357.73246434210051348 361.26544541712269165 359.37117652068064899 364.61853828446919579 356.04038587433939256 354.90713302172639487 354.0494040712177366 349.49752009574365275 369.70336073857731662 358.19860538588085319 358.57998691636123567 356.62708956582372366 348.85908057683070638 356.85675474973191967 354.9865724244265266 356.15830314697956283 355.56506926578725825 352.45527432072543661 351.37738616830529281 358.70973392654582312 357.129246104171159 344.33313476644832463 354.82597232054013148 368.46495683937416743 354.59592985530383658 349.84270768944452357 340.96255451116348922 350.46301278541085367 361.13337810722362065 368.02291299462268626 351.12667260292437277 349.25916341646103547 365.44448123231683212 372.03396651669913808 362.72007101639297844 366.96034452754520316 358.5757638249814363 350.89114108636931633 350.96989139235495259 349.14947615286200744 358.60063207997950485 357.57698314581739396 355.73564393999998856 355.86112677955020445 360.20534500033869563 362.56403612738483844 354.30741932374940006 356.89149260400148478 353.20012539340763169 351.39488922919838387 356.08559588609296043 358.20133169741939128 349.65449395731894811 359.36118121805850478 358.38836955301383114 346.79322673886241546 361.36231325647639778 355.95653933198695995 358.86638449039361376 353.89384111601975746 343.66548521686667073 348.84489489802382423 349.17497610799597396 355.00206159244328319 365.39118761517340772 345.38236084237303203 359.61625976217987954 355.10239549343953058 358.68723924303549211 348.39172914610998077 353.91130174431054911 357.01776453561660674 364.27770732828452083 365.38767922879168282 363.25018311162187956 355.82944023325188709 363.727407125330501 361.13194419667019019
-1388.5467204095307352 -1383.3680768894239463 -1374.4191827639961048 -1383.345860301931225 -1368.2321798795298946 -1378.1093753773338904 -1370.7847932482391116 -1378.9034483409207041 -1382.2887423082136138 -1372.3613950538076551 -1375.0587381735947474 -1389.6147110593615253 -1369.8886617656480666 -1373.9126114528032758 -1351.1838561788340485 -1362.0382938110897157 -1350.1907243261180156 -1344.7609401110439649 -1352.0834905182678085 -1354.5860505729508532 -1392.2966052265933286 -1374.7634435326187941 -1354.6309068034254324 -1367.3504098239841369 -1364.8381395217086265 -1382.1602749230128211 -1357.6436005527543784 -1373.1731107657378743 -1369.4244819777977682 -1398.0934054169733827 -1359.4902749139189382 -1386.944128915925603 -1378.2634100317832235 -1399.739564178308683 -1344.7437274519841139 -1373.7614155755584306 -1383.5297897227471822 -1360.0399121558746174 -1379.1093298033299561 -1384.3923828123531621 -1365.7110040287900574 -1372.5329654262743588 -1367.55151361190633 -1390.1162537668888035 -1381.5942624713868554 -1358.7995037056944057 -1370.8492279580252671 -1360.9114358244885352 -1380.3537765322444102 -1371.8117783752984451 -1391.967115237999451 -1386.4263050111289886 -1357.4138565002840551 -1366.3146055851166238 -1345.371451809437076 -1379.8702166527903046 -1378.4386117013455078 -1400.1803479253671867 -1370.5822946875084654 -1381.5124070440058404 -1381.5411235669603229 -1384.5221215620583735 -1362.1374397999763914 -1368.8746206623748094 -1379.9998170530473089 -1393.4787919828006579 -1388.680188145971897 -1369.4979505452160993 -1383.4887761792956553 -1374.4446598926926981 -1357.6441244910720343 -1357.0590185346052294 -1368.0117723217520052 -1371.4021699560792058 -1374.1428543331060155 -1375.7565098955506073 -1373.7926977048816752 -1366.0795701217621172 -1385.6767100865411066 -1371.9076075602265519 -1381.5359342517551795 -1403.3952542663791974 -1377.4834014834739264 -1371.189091067876916 -1361.0399215683539751 -1362.2768611442236306 -1362.7217457386839214 -1367.9208403976026602 -1376.5368960870580395 -1365.0815931772071963 -1382.8077113864658259 -1358.2186825903932004 -1377.3760528778850585 -1381.3777272467709736 -1390.0235275368643215 -1367.265774579309209 -1368.065600779515762 -1372.0064882133353876 -1366.3601358859295942 -1363.9897609464064772 -1364.4344390530761757 -1349.9137341943007868 -1379.6056013852667093 -1375.5365459946187912 -1383.2632096597326381 -1376.7421117924857299 -1377.8306982600620358 -1393.7486353973474706 -1375.0297231566912615 -1391.4460128254345364 -1351.6889280897901244 -1379.9370274555874403 -1387.4728635879012018 -1367.0635789959767408 -1366.6665194564566264 -1377.3036500439591236 -1358.9793078673919808 -1384.3482483401874106 -1364.810876126359517 -1384.1440204827279103 -1374.4829985097705958 -1362.7808499672153175 -1359.3616757032154965 -1389.9958073849895754 -1392.8658623605560933 -1379.0801165055827369 -1373.1210091912550979 -1367.9177832867733287 -1351.864352611143886 -1376.0951401729303143 -1363.2073873846916285 -1392.1302128000143057 -1365.8617976231348621 -1372.9506264007914069 -1373.7404191967605129 -1396.5831345336753202 -1380.5306324777504869 -1373.7947210000279483 -1365.4917647361605759 -1372.8117287299160125 -1373.5770421335316769 -1377.0707801548439875 -1379.3376012642702335 -1346.035969919529407 -1371.415175619111551 -1365.9849484785115692 -1360.0684143670523554 -1390.2170766988999731 -1369.622012922416161 -1384.9111069403584224 -1387.8241568656317213 -1373.4056927525366518 -1393.354284263901036 -1391.170889602307625 -1388.6963722789946587 -1374.71745667778805 -1400.0998532874589273 -1360.0473503147320571 -1370.1622186257256999 -1382.4125095568469987 -1379.006383885869127 -1367.759384091076754 -1356.1577673513515947 -1367.4061674933670929 -1370.8105808332315974 -1380.0487510693935747 -1383.8974058818957928 -1378.8533537176967911 -1383.5984461104940237 -1342.8901867982895055 -1361.0944683850980255 -1408.3791236428778575 -1336.7116942724005639 -1378.5845935702236602 -1373.5479470209745614 -1376.2707288881858858 -1357.7201538493320641 -1380.7433766439644387 -1368.0199854019369923 -1367.5852334586302277 -1371.4312416425209449 -1366.1204938188100186 -1374.4856521884769336 -1370.5985274697013665 -1377.2381811905086124 -1375.6310642930600352 -1374.6095251731146618 -1372.2357238638583112 -1365.8636901060740456 -1354.7085729464872657 -1363.1290875999320633 -1388.0139666336733626 -1375.7053724834204331 -1368.2914272707957934 -1373.6843791613650865 -1371.7736222578785146 -1370.0982950033915131 -1371.2286839214866632 -1383.0796529640267636 -1371.0935055975696741 -1372.2780080720433489 -1376.3499512684147703 -1348.7361835924166371 -1372.6505253024370177 -1378.4781223711368057 -1368.4372275421283121 -1371.9047131930562955 -1372.6031336893470325 -1363.504133818523087 -1374.899771379730737 -1378.3176380202430664 -1387.9684625705103826 -1362.3627644102525664 -1363.4947509417336278 -1394.038215123584223 -1343.8565332493897131 -1380.9294600767505017 -1367.5495521617965551 -1361.4743245807212588 -1390.4376982546984891 -1363.5743194895301258 -1368.6885343199053295 -1382.2655003035365553 -1381.1267385759260833 -1393.8171642749193779 -1373.5443291262495222 -1378.7038832774228467 -1376.3598498409919557 -1376.7789247475434422 -1361.3091976959276508 -1367.3121872875155987 -1382.1274940694065663 -1374.1417399394072163 -1369.8618912376118715 -1370.8576652407509755 -1355.9940489937716848 -1389.6506218753208941 -1361.9169304673098395 -1369.5229808591307119 -1384.3239070398303738 -1372.0462834978206956 -1371.252877599973317 -1362.7995921357237421 -1367.3129107677943921 -1393.8671878742177341 -1398.5837604525213465 -1346.4148594848300036 -1396.8940373596772133 -1388.4269109240390208 -1391.9725823299884269 -1388.9677299516681614 -1395.1377584454673979 -1384.0349866426959125 -1398.9875800387217168 -1367.9365599098268831 -1375.9164289386899327 -1381.4591427953996572 -1396.1297772214782071 -1365.5564509346825162 -1391.2005166920739612 -1376.8305848411719126 -1376.8892358698565204 -1379.0776196577401151 -1378.6251838241298628 -1364.9860603000417996 -1364.2765149300698795 -1376.8701081588956185 -1396.7099081495503015 -1354.8996583115301746 -1393.3697757608420034 -1381.6057290314988677 -1390.4233102428347593 -1387.8105625439336563 -1393.0502608472752399 -1400.9775170556788453 -1344.5194639832759549 -1368.8497148602984907 -1372.4774284325499139 -1370.7050746609465932 -1359.3264580435452444 -1371.4974927691555422 -1366.5438407058406938 -1380.1962708349449258 -1355.6432655472931401 -1375.1693044464195737 -1379.5391429748237897 -1366.6361269375317988 -1382.9975179641835439 -1376.9064470234686723 -1366.7161160280236345 -1375.2368288457560084 -1379.5483180654348416 -1353.9932977282085176 -1380.8599963102656147 -1373.3411941024860425 -1358.5732293405728797 -1369.9807257532443145 -1381.8554800333483854 -1359.1024472128419802 -1366.8774094912673718 -1355.2997880460818578 -1348.781910252459511 -1381.8171202777859889 -1378.9547943792658771 -1359.1548691967334435 -1387.5656029185749958 -1394.3121458393979992 -1381.3657503203482975 -1353.6945188321037676 -1353.6426413560420769 -1353.5349270424728729 -1362.8884462582516335 -1384.4807959951369867 -1380.3465944534439132 -1372.4405328344421378 -1372.3707566674772806 -1383.7317028161919552 -1370.4552475158632205 -1383.9587791951485087 -1374.2960546776130286 -1380.6189633891367521 -1364.405125582105029 -1367.1686879914448127 -1367.3866022958925441 -1370.8824817107138188 -1375.8491358033784309 -1387.3564901192623893 -1360.0501941417735452 -1372.5937057886799266 -1353.0350852285712335 -1380.344042976681294 -1394.1667976775527222 -1370.7898694597713529 -1376.4203058540979328 -1372.2512119003217776 -1371.5126651765338011 -1372.4841911967882879 -1401.0321871186770295 -1383.4497468742190449 -1377.2673561418275767 -1374.2030801655193955 -1391.4823184770073112 -1364.7131471382913332 -1364.8987851595445591 -1373.5565738543691623 -1367.3037725324559233 -1368.212059449854678 -1373.1265845016546336 -1363.3663157320702339 -1358.3885647102629264 -1368.9090217928085167 -1353.4523044605818995 -1358.7618768506076776 -1364.354465966338239 -1346.3108164835782645 -1390.9747962141871085 -1358.4652596133287261 -1397.2103651341499244 -1366.9170130651623367 -1353.7119755018190972 -1364.8213853919651228 -1386.2353351165788808 -1378.2430316501415746 -1392.3036945520341305 -1367.4567853061998903 -1374.1458428205130531 -1376.2970193691960503 -1380.3651828663273591 -1402.8572539021097327 -1388.3817693933890496 -1393.3819046232899836 -1380.8485631866710719 -1374.2675712501379621 -1364.0124568335638742 -1362.8556492701320622