-298.99721250104846604 -285.84770663696235715 -297.55641791371374438 -281.2113140629032273 -285.1558496233869846 -293.61250336262588689 -288.41374555934629598 -285.24745526588026223 -277.63465633812455735 -289.41111947124335302 -295.97305169387271917 -295.35856072413935181 -290.21256929919371714 -289.93269007000395732 -278.99981884171654656 -296.32498691002155056 -289.91289769339647364 -287.13409705594193611 -291.65836076959698175 -294.13249654345349882 -287.07039215164485313 -295.76456085020811315 -292.65556474140214505 -294.21904620062929325 -277.60725295992529027 -287.97731482944118397 -298.87375618849227976 -300.94011256771653962 -284.90642871410341286 -279.2530182231115532 -295.57649139197354771 -296.36951039902442062 -297.18413030301053368 -304.09338873747378784 -280.75016707286988549 -281.31643798641249532 -296.17691645165058389 -298.40117067168444009 -289.22117974113342598 -286.67855260784972415 -291.43879869116091186 -282.48974719943925038 -292.86726911773416759 -300.58086762479274512 -288.26111665647772497 -290.48002823324310384 -296.10904738474260967 -303.84505991853154683 -287.91740924663554324 -295.08801168095152434 -285.83707503165413755 -283.24248293342122906 -294.69773976677402061 -288.48772348937364995 -285.67600630520814775 -297.58605142141112765 -287.36740502759960236 -286.71736452547133922 -282.27133098711766479 -290.77530002049411451 -295.19160321153566429 -277.87720447113008504 -279.77561843222389371 -285.30499044640566808 -289.87147230770654005 -286.96460058252057479 -285.88781429762144626 -305.49475802569236293 -292.47166799730558751 -291.56713974476554085 -282.7385917724269575 -292.20212915960883038 -298.64287741318122471 -291.32087861824936681 -277.89150313228765299 -287.82209096079611754 -301.62855058232014471 -296.58592775419799636 -299.84865173003123573 -285.95236599239365205 -286.60818330304545043 -291.1914381765874964 -299.12714668430459142 -297.58658028046835398 -295.68729541574816722 -302.98604079449813753 -294.54715080350916878 -282.86672649545261038 -299.06366774413487519 -300.7483892742907301 -297.77767975516411525 -299.3040744121545913 -291.0615399424253269 -281.34328752600373491 -295.86002694228972132 -289.06211291897653837 -290.57386082799115457 -287.01822113229616207 -282.11002383844663655 -288.90787616619161327 -292.32736097531807218 -290.86885701206369959 -287.84628020430125162 -284.23690886668049416 -295.08952969136936417 -293.41260791478305237 -292.16781962368963832 -286.07567282178223422 -284.84984868044460882 -284.2367665860742818 -299.9994595142856042 -288.91645522558411585 -290.24416335476894346 -289.23724309619518635 -281.07676986093576943 -301.30458741771752784 -290.35875077632533703 -289.40003833060256966 -277.20031412715673014 -283.06017620986602878 -294.28965189221219134 -297.33022146822770537 -290.16358259943245912 -301.86522587778290472 -287.28027389062640395 -288.532443568347162 -295.57622084716086874 -288.24084735211130237 -289.95769523630809772 -272.27494683270538189 -302.8989938438705849 -286.98246647895001615 -292.85683990449257408 -291.93382448121684547 -285.66250474857918107 -286.15776728051798727 -288.01051953062858502 -299.23458539841476522 -287.74793014495253374 -301.12341049441602081 -288.6632504128821779 -294.09669840801927876 -293.73292982731055645 -299.46381508017640272 -284.44072200736684408 -287.85587472027424383 -290.05813195652820013 -287.43086761709798793 -297.86711593106775808 -288.40714770587089788 -283.68980493086485239 -286.89295659218043966 -288.70774387416588525 -288.91442094096470328 -291.08674746260601296 -296.35952241674823426 -293.69277162908025502 -284.35788704462254373 -285.86963957425115268 -294.13730425328361662 -286.51969552869309155 -290.01271605972630141 -294.03317391307490425 -296.99763644514899852 -292.06358305933508746 -293.42560419275531558 -279.70493325907273174 -291.48972072000555045 -285.61618454638835374 -290.87149148669982424 -298.32708272638063818 -284.90027208923919488 -292.42375820983698986 -289.16374032034678976 -297.25965905819077761 -295.34433451936882875 -285.20393926423616904 -282.61442521229650993 -289.13390349094873955 -290.57328737253720874 -296.51104976687207682 -290.32602414027741133 -293.08396238370801257 -298.01141886298046302 -289.37378593010913619 -283.83133861521537256 -289.76116735781408806 -286.98683854332438159 -298.41830377504345506 -286.77026084969321573 -292.776422202104186 -299.26582985254270852 -295.88216647388782121 -288.69093646230680861 -288.7871719517437441 -285.60353829070197662 -296.97206624702982936 -293.3676640178633761 -289.78305829608933664 -284.2703810714118049 -298.00115482564478953 -290.68627558948651313 -285.28321163953143014 -294.36736625797544775 -298.02073295128985819 -291.17961582976636237 -290.96151712672451595 -289.10162315525303711 -291.86648977247898529 -289.46838398015552229 -289.37572571045944869 -287.82301249159445433 -285.34590676876757698 -283.16369739106448833 -289.31049431371855007 -291.08275893039234461 -289.03671012685811093 -291.11192632628717547 -292.88315205461833557 -295.07095462357500537 -287.06429664795996359 -289.20136904021580904 -294.30021061937890181 -280.71726027524204028 -287.07121430057731004 -290.72876447519331577 -290.8226907646197219 -295.92000995856693635 -281.06922752127923104 -295.03643246830284852 -287.93413562902730973 -292.79821999034089686 -293.2097819525451996 -293.49470709419762215 -288.87872628072352654 -287.22386679924579767 -293.67649145682304379 -294.81741317642865852 -297.44569161551623893 -291.98092626930719007 -285.04698831910178569 -291.69427514394294576 -285.33414741302703987 -295.89435074266964421 -290.39852954432615206 -302.84935445487053585 -292.57988081762601951 -287.55624764435009411 -291.11891680423758544 -286.92730277215480328 -294.92486023299409226 -289.50762791319061762 -284.81991421563174072 -301.17892763357684771 -296.40908639621284237 -296.79138132859566213 -295.45996127947086052 -297.62117064379492604 -290.35745521973990435 -293.0640408382043347 -289.3774542740024458 -288.52141327008473581 -294.05085005813623411 -293.90668251740555661 -293.99607937396723401 -292.41274002358295547 -296.02153178741400552 -296.55930364245585906 -294.88873447973224984 -299.4791798312101605 -293.30169124511530754 -296.1779120478595928 -282.13972681163380685 -280.67409798950757249 -292.6469041011397394 -295.55111680208210601 -295.83262290459936139 -283.31388488761905364 -290.44237927488080686 -298.25715719367332213 -294.3422447389313561 -300.74458654968731253 -288.8663607884443536 -287.53496508243529206 -298.5263248447149067 -287.534112641297952 -295.12287806209354812 -292.16601878419442073 -291.80524408338999365 -295.88068152217977058 -291.03192913446218881 -292.47254154358432743 -280.41651818448247013 -284.93724371276090324 -289.04786673217068937 -289.19778412282244062 -287.41552500631928524 -296.45479972529261659 -292.64715189737296441 -293.30405970258817661
-60.648017596642034732 -57.349054087167424143 -68.254661323233833059 -58.576073281744029941 -63.340370461520990375 -62.629404477641955395 -66.087261563945247644 -59.532892246284028204 -65.744133591658155069 -65.269221273748470935 -58.008539799350103294 -62.43260125138630201 -60.573900312369254095 -62.25012591219105218 -62.066782992301675392 -54.771852824671469762 -66.448601084725950727 -63.05908945664683074 -62.460276086399687756 -62.870274708673967723 -63.09864440620648196 -55.028764940630843228 -57.338687902074255476 -65.510542210502691773 -58.952121798142293585 -60.594809446670453212 -58.387191020654938711 -51.978332356840816431 -57.579462933832544991 -60.447585735414008923 -60.855674135051877727 -65.236589791336214716 -66.420668330624337727 -52.419402672741426841 -58.021869503635812748 -67.864794408414311988 -54.986884875606833134 -64.609863605166523826 -60.998907596966667199 -56.630410856649753271 -62.574872238260375923 -67.032092872793498373 -58.627026876545201617 -58.70045570867748097 -64.198688154798830396 -67.196789413915098521 -65.454206007208938445 -67.804809016596351512 -71.413099686292909496 -60.0136135436023892 -58.666105773503609555 -61.698860606524881689 -65.769020327630272504 -66.223945029180697475 -65.84926518456755673 -63.070126342184970269 -63.195981619631389492 -79.999704702504999432 -69.819485845441263905 -57.203061431833830852 -64.422095109920107348 -60.669175820660392162 -58.197147724169759897 -60.940967927569317908 -63.06082208023888569 -66.069527583992211817 -61.96670991427873787 -53.635312007016651137 -54.5683684190862337 -60.823383611901874701 -62.752645091516136233 -65.393600307707600905 -53.398656305539525135 -65.050869088206013657 -61.780711784921656715 -67.547417690251208455 -57.876101900662391131 -61.661011458026429466 -56.708237719897411466 -62.365908765920046619 -55.399641290384494141 -64.79641515217750225 -54.831000397293315984 -63.519723824206266727 -59.844156723085774274 -59.192782443788694025 -60.610049829055554937 -62.304138186483271511 -55.362245282453486084 -61.08890292490182361 -62.673235886131394068 -59.927929703977625309 -60.605523336926367506 -61.353108607608326963 -60.993911795361832162 -66.174928058824335153 -70.315417762013282754 -63.155787655030138694 -63.850534833985520322 -66.850453971683066356 -60.22863185728738955 -58.586891838250913622 -61.538888688218790435 -60.815685784044909212 -49.604748660140046468 -57.515486491940826852 -58.669697669429467624 -65.590748047534077614 -65.897789862859653454 -75.92729664172924231 -65.223375931034027531 -62.047452130370423617 -66.037574672933885722 -61.633939764700741648 -65.951588878440304597 -57.359833365051819953 -62.537782329792122482 -59.043953491043929205 -64.946809883019312792 -60.038428397389026259 -62.974998839343754753 -65.200027793619653949 -60.009182581993840699 -54.825973631090434424 -59.751070907550371203 -63.47269481326440399 -70.292344993159332489 -65.135974747052074463 -64.975061672086667386 -61.627587662386630996 -54.238045955094392525 -63.880420042145658499 -61.029358942046535219 -62.824255705518972093 -61.163515900703835371 -64.989134876230593818 -63.808972059028704393 -68.121032813985650023 -56.980670001995093799 -59.720601109265665229 -69.123668887284296147 -64.956472794080994504 -62.801086075021835597 -63.909594071903313761 -53.835999921873700202 -61.843445329543406785 -59.576246409622811484 -62.420697070559072017 -62.633660189475563129 -61.129904859789093052 -65.025905084033013281 -60.35437497919615879 -56.367864419420747879 -58.879940052061847666 -59.531546064684611963 -56.923381412036832216 -60.025283377234089244 -58.701297916442896963 -59.654019546567205623 -58.125733477191054988 -62.965728553439035409 -62.82415585078470599 -63.183103534903935383 -60.969897823222972022 -59.539331035175472095 -64.736817372487323041 -54.500833327647718818 -58.523105949789297142 -60.377248140641462726 -55.37907262459765434 -64.791788349017124915 -60.599606097922531944 -57.266240864313367354 -58.551343470186999696 -62.254865901516318161 -54.531840469300291829 -61.653351120621763926 -51.935840612508798131 -60.055172599096756869 -68.894918393173085747 -66.094243952565207678 -73.609118403376797346 -64.345652636408274816 -61.066602148149513596 -51.603569963545957933 -71.212787766703783632 -56.151245823055958795 -60.256720268344849956 -51.134472170107315492 -66.443685427668725652 -67.375847711082784031 -57.927874777304381837 -66.861015538105831979 -61.706030087168791454 -65.061383808353141944 -68.778334182906206706 -60.740813517040933789 -53.250463148212425324 -59.01949270329875219 -58.239675895398178795 -55.218256279821659405 -70.465649427391198856 -67.926404486979649278 -65.915179268199963758 -63.010550087919725115 -54.976384601015162445 -66.142281951825566466 -72.521097299296357619 -63.602167561083376768 -58.89618226953693636 -62.684139215213448892 -63.559989412870301351 -61.257224942295806613 -58.625464579299688239 -61.92406995972621786 -67.950866523967420108 -59.364270844813177064 -69.381684947554788323 -66.594131563111901073 -68.271190400994143488 -59.831536246207917884 -60.974041452792349105 -63.497223591192501146 -63.402975402179720277 -54.944363615170814796 -58.568666040589896227 -56.255501621808271295 -59.870845455335278018 -70.226943587601923014 -66.402624548263105453 -67.33807239793461008 -60.54577539873232439 -56.133269169011910549 -62.110686540207701967 -57.147697869861602271 -57.240040314401689159 -63.704429315074769136 -56.347503225251372783 -62.854312287521231895 -67.30343204761619802 -57.597692544456947417 -64.283007266570876936 -68.746018481263064359 -62.99111562460043956 -61.467362201470891137 -60.660094121349686702 -55.698944741393248137 -65.793664431231334788 -69.010648533375018587 -58.119324327287912979 -63.987572408621581133 -58.018309487647343303 -63.749225045911039444 -56.045889057210573014 -63.69174014673733808 -67.091178415347442865 -59.975978689537207345 -58.189328454099253918 -59.696338975909455371 -62.039382822610775747 -66.299876587390940585 -62.294049000272352146 -59.766705673192859649 -67.029955777814862472 -54.53817341565027732 -66.766272930886287895 -63.624246269053386982 -59.283199066033795077 -63.608155480217938305 -58.457038339115300118 -78.926987763955722244 -59.726058939982586082 -67.781038373115919171 -65.496207059248874316 -59.821129750480245946 -59.608850429367109314 -62.313024253066416236 -59.651828201184358136 -64.412198386454377896 -58.962211178969781145 -70.329445178594042432 -67.06573250253332219 -64.431561389196033929 -70.139527383272863403 -65.019998212292748008 -59.111201703734110424 -64.62601717756956532 -57.75029518665665762 -61.57337273087876639 -60.69418638100094654 -58.483691648824439824 -58.725436859787137678 -56.404708343555924444 -59.143002519703330222 -61.345422141101785485 -59.178198584720263398 -57.162034184676279835 -62.332700303691190413 -56.668632699944112119 -54.349875224488521042
281.2422915299079591 303.07363513387900866 298.20781924349552128 290.88941741611961334 303.76815206191770358 283.43077790835025098 305.83307602508671152 281.76695789884632859 281.59235208445971921 288.39485078356955228 277.20344330967395763 288.11642238794541981 295.44621259859729889 283.66683848423974723 283.91177260353617839 261.47857794032933043 309.88368318915371447 285.87193938807502036 286.20108873702571373 291.2096756840588796 295.20680549558841221 299.74318576891198518 286.50474396818287914 295.37863404210582985 274.03962631078292134 283.48146785591211483 286.64038047785913932 293.78992092885658849 284.22869875978693699 278.14350960413702296 284.70640659951823181 285.15229556679037159 284.1260209383698907 281.66112078507671868 291.72168641831706282 286.83507138426637084 287.74686719974670268 292.58975206892841925 285.17385384418327021 295.29054102566419715 284.01502388515456232 288.01064946211249662 288.54278551265952046 281.06066146973773812 295.87240594809838967 283.35779420786826677 278.23566178527568127 298.73600825033599904 297.1717475656457168 284.81775798190045634 282.49584559993371613 292.27217255874904822 305.07123732692406293 276.88195435894658658 277.61710515728913151 292.98627389269660171 292.33220798911179372 302.61850357620238583 293.96922705956581012 295.36445546859084743 298.41897926591497026 291.26247318266922548 304.50875362245648148 290.46333252286581228 293.38221896876910932 282.56100102675264907 276.04742949300208466 298.71363808013012431 289.50555693967078241 281.7383039362356385 285.72698991061997731 295.76008117328666458 282.67127992736584474 279.69532934657792111 299.63982992042690512 292.68045249563510879 283.57247605349380137 289.2236216831701654 278.37566896825404683 284.61581274859901214 295.58189208820232352 294.18727546605185807 289.76823958805158554 291.75941569524354691 284.04886440845507423 290.74827075637858798 288.48350513152337271 287.13033439626866539 288.5567138487875809 292.04080318956300744 279.34837025850555392 291.66998317018135367 282.29768428831704341 277.7219359727414485 276.99117498193459141 288.33002737395821669 287.47091205234033851 284.41406622781750002 290.6894151156915882 281.44774031482160126 285.74869664441672512 288.44373093841824129 282.69966281812952502 273.77820119405993182 281.22259225062776977 293.84492473241226662 285.92111405191946005 304.2668511738639836 287.52685810164911118 284.71926763936232874 298.61490211974586373 291.24031886139800918 302.64925608598070994 286.5788992945953737 282.69867169734556001 284.1378524622631403 295.9150694196956124 278.25031888581258954 284.97966867800118962 278.63755718047798382 286.24851147390330652 291.67599632364147055 286.08028296620875608 286.66519172167346596 279.71300798245408714 296.7200677284148469 289.0198921664473346 282.27531783355732387 290.58712955098803832 277.20469187173557657 294.97573212776734408 288.01885139820234372 289.45905343293395617 285.26145706362058263 303.25122620181684852 289.446034083803454 280.71005351959365726 310.48656378761586438 295.33056864857019264 299.07798577115374883 275.08888508870364831 278.35156748360975598 295.00777884836196563 283.63604893337691237 296.04491058143133841 280.87593957551558788 277.89874303581837012 282.69420879472727393 300.33800122655804898 292.82994904342928066 290.24301188378802863 285.53822006382125664 282.85728774094911842 279.7312950231359423 282.26680849844825616 284.37795195855790098 291.18307136701190529 270.65102304850512382 292.01194469963110123 295.16146918790786913 304.53094806438616615 290.34800429988541737 297.15599593427504033 287.54388953198639456 291.71893278385545045 290.66627932005383173 294.72885321519663648 298.29970543069856603 291.0181349860470732 290.99282741179183631 293.16377996482600565 284.41796124890095143 294.66914065563645408 289.09145911710390919 277.56326977218492402 286.01560012364893737 289.70517257584720028 290.22370015829926615 287.75000304571960896 285.62957866435766618 291.60438576942544842 294.80623543146151633 307.3248304998248841 296.60437494119389612 295.10006826409482983 293.11552399220124698 284.71442487318688563 308.9505629679359231 299.89173616937353017 279.34999799288374334 292.51287167626020391 280.6721443643780276 278.51396549174563688 280.47438149822778541 290.94059733276435509 285.26980690628391812 287.54260313304740748 289.76881786497239091 275.1513724142704973 298.37367026465466324 278.82910049564941346 301.64373059362014828 277.79142748618363612 297.70357502310469044 283.71442005914656193 273.3252034638449004 296.73174165422994975 293.1855936855112077 286.72705913470406358 284.50834027145765504 275.42339410688526868 288.23482696030197303 290.39947211584660636 303.64717959718223028 299.81456659313488444 293.27654527721517752 291.03833945397332172 296.10425726574726468 299.50046172330712579 285.78854518471780466 270.56247841290536371 284.60186049343781178 292.05933109680393045 276.38740840076462746 271.55989467802288573 284.49634818243828249 303.54226582576353621 301.34025611140765477 294.53836771478762557 299.40394849601494798 282.32149712883045822 283.13679892263394322 284.41784756680738155 281.67120361489048719 296.65535312731827844 288.25292320125532797 288.93344276872858245 295.13488556345504321 278.01005263553486202 280.04903655714610977 287.81734029141307474 294.29523996273627517 299.82979737655608687 293.10401499001920911 287.49422329083461136 276.3808566536626472 284.07812175424010093 296.29947343303803109 291.22805394765447318 294.4519300799736925 295.89327062677961067 282.20048578217011936 285.00022530384882202 296.50652087357218534 303.77655679005380307 298.45412481086100343 280.22334736818203282 283.30637623857398921 287.13104003566917299 290.79413392032563479 280.07108830194226812 278.57647185829091541 280.42294227875390789 298.51408807057066497 298.52036799961274482 277.87126392482895199 275.01858020059012233 279.3423928538555856 289.17591589705057231 294.02770082698140186 302.27418757404365124 301.54180153567301659 289.83569031755843071 279.90035090823579367 300.93931766837681607 295.15977589372221246 280.73640510754745492 292.38810973268044791 279.2613523329923737 281.78575270287802823 283.8977290776144855 281.94982345296313042 287.55061555524292771 298.21672264233876604 284.22864875397800688 291.68541873855315316 279.0203501197947844 282.24039801165838526 296.34765580216986791 275.40413176524680239 307.73696972557644358 293.78894562086310316 276.27009620558447978 288.6925638367235365 288.24262496888746909 274.43570643437789158 291.03498095498952125 293.02674507705484075 286.74863409694256688 289.50871431704058523
-335.60978105308447539 -320.91539913840108511 -320.41300349758449784 -305.22403758341800994 -318.86862479260730652 -322.46564596786032553 -311.66252229750818969 -318.16750444668144837 -326.04924200887165853 -319.52419707045845598 -332.12300798371995825 -302.81742392615325343 -320.20315614371213542 -315.4708767963808782 -315.7413087645963401 -311.49240409409549102 -327.36525212484554004 -336.01170466326624364 -333.40501358648003816 -320.30725410696646804 -326.66535453761946428 -308.5472873111274339 -318.19226908477025972 -314.93837955244651994 -320.66433032258265712 -320.81157062259308077 -322.29342926820396542 -320.77048060238087146 -310.99947759258674296 -318.38028064596335298 -318.1277080529473551 -314.08202116775527202 -326.09883382431905829 -315.28693616576799741 -320.92388007191379984 -319.55777040848761317 -313.96213044702909656 -310.16423546921345178 -323.52627732946461947 -317.82281173854181588 -312.27747252161657343 -326.64875001887787676 -324.45426554915513861 -329.69198680939422275 -313.76710547438733556 -325.39545756705086887 -319.39177436991252534 -322.21140041133503473 -326.58859097656659287 -310.33065388728209655 -320.72221872664118791 -322.35229461358034087 -317.76475443997992443 -335.47092836147635353 -315.84841922623866139 -321.4852084365940641 -324.73127572423624088 -317.87630083086799004 -319.92166654587839503 -326.28706429691675339 -316.42226984209071361 -321.08875630922830169 -311.10274824226047485 -307.70692678642092233 -321.21019932918289896 -314.19377671794956086 -311.45761095585044131 -336.80557351037100489 -325.02138466263198779 -322.83033622553631403 -309.44676045646070861 -322.39584446162302811 -313.6156817338155065 -316.90381566290216142 -334.8539060186220695 -315.16794911759228626 -308.47387209740730896 -316.47263589254816907 -320.34651909987604768 -320.37993222232483959 -306.91722889305009403 -326.0801867042355866 -325.27559430396581774 -322.14709372678157706 -314.71727475163737608 -327.05809982938961866 -320.71206590382968216 -316.35855184389890837 -311.14340270906262731 -331.00796868404677298 -326.33309627507389905 -321.29961421907125896 -313.86730645543644869 -326.50509450954433532 -324.39643591582131421 -321.53042280755698812 -317.72767186570149534 -316.55929255466259065 -321.32485680007630435 -312.76992910907665646 -322.48043525154690769 -307.57846194014717867 -323.26762292615819661 -306.618010689521725 -322.35875341712096542 -314.81020809976678265 -322.15535567818432128 -319.80689977512827227 -337.24896941176274368 -328.17683774991746759 -327.31597777916357472 -318.22777896983376422 -328.67986635997147005 -314.8829778600667737 -321.64475988198034884 -327.62001519168399 -320.62743981160105022 -317.27805133890853995 -325.52484097689665532 -308.21775815078672167 -316.04088913439539965 -310.62625068297336384 -319.78660776372760211 -323.0051092845520202 -312.6269032624975921 -316.49012195695490846 -323.74327214304963718 -315.54091405550764193 -306.65256018381893455 -312.0371574344122223 -326.09086473765887604 -322.83792077787870767 -307.74449503659985794 -311.68567825096153001 -331.95508704112080522 -316.40831893792346818 -313.98207946474349228 -320.12727257603495445 -323.49273432729080469 -303.96767791331808439 -316.11309675745462755 -315.25961244154404994 -318.89754354006169024 -321.04387457047994303 -313.18897480534553779 -317.72794043730823432 -318.68216607712315636 -311.5284724442527704 -326.78405338785216827 -321.97338976961520984 -319.89205783886518475 -325.40184325086585204 -314.38578223785572163 -313.34285411447427805 -332.01202337900707562 -326.08013926608981592 -323.40849884533474778 -320.53413160241495916 -338.46066637028900459 -336.08555939932068668 -332.2046401235486428 -329.85548775105417008 -318.76128568418340592 -313.68533338769981356 -316.80655361974845619 -319.48984679129796405 -328.03765243283851305 -322.68672560194369225 -317.23974395608598797 -311.54066929670420905 -328.47095251014206951 -315.90323774729375828 -328.58571930321738819 -323.69285388486065358 -316.20895353462515232 -322.11880523790512143 -310.22707955403041069 -305.03154445491543356 -314.98050121655586508 -320.95320847755266414 -320.00708518330367269 -304.97184622352972383 -316.33857205284027714 -328.78058677313714497 -312.45036837264206042 -319.07440742675169076 -311.27480357048574433 -308.58255952882950623 -322.20106288178419618 -317.43456539067904032 -313.40677756513804297 -316.56794632112001864 -316.22086817804768089 -302.92881859676782597 -313.70264675855128189 -309.42365177079665273 -309.5012591170004157 -319.59610805392821931 -320.58155809876552667 -325.22094101642267105 -318.76034749620208686 -325.99574676719743138 -321.58969046780896406 -324.95755277957312046 -317.0489264565686085 -321.70669071486435087 -322.07237776613237656 -308.92354906182055174 -316.13775592090058808 -311.57763153621255015 -308.47162995946285946 -320.67799141551961384 -319.65442724358399573 -312.14939540268625251 -314.43989178444320487 -326.41228245912822103 -316.92656635435798762 -320.92743094440453433 -322.13558105643056706 -305.00605885280873508 -322.13891557068694738 -319.99926763663643214 -320.80137500777794912 -311.17376049169115504 -327.86242200219476217 -320.19937030358670427 -313.84804393560631297 -324.70369526813209404 -302.67617326372328534 -309.93811586511708356 -320.81177361792941838 -318.25722638055361813 -319.00544553881377396 -317.49740762025908225 -310.97010914929848013 -332.81955481943464292 -320.09085140609465725 -314.35328639494900926 -310.46318650038381293 -311.30938299513945822 -311.67894515021822599 -314.17001287230777962 -331.14568307418744553 -310.02076997561738381 -314.88217274693147374 -318.42797252196999125 -334.78967652575630609 -310.36682526658927372 -321.25568993040889154 -310.49285816889965872 -325.6011369172886134 -318.58810153478924576 -311.84035591204849425 -311.1543572710596095 -324.56609403641715517 -309.52196995970928128 -311.76842270475975738 -314.36644225524383955 -315.15643611190569118 -330.56746043151798631 -314.44346370170211458 -316.56894877944381506 -326.18404151688787351 -317.41868409248684202 -318.33933379159907417 -319.43828587254313334 -312.59545756141596939 -308.65284927151270722 -328.63308840608459604 -323.34329795633715321 -326.57609964651322798 -312.66049005216365231 -320.19956671190630004 -311.85035587530609291 -313.05722346410112777 -316.35460589973570222 -318.59061899911785076 -316.63398534800683137 -314.25694807620038773 -318.02172146716571888 -315.55053768156039951 -307.65752095353894902 -316.13461384286205202 -316.18574966970970763 -315.37694362083124133 -319.14666959318128647 -325.56805606255267094 -311.71050048954214162 -326.14433495269116747 -325.61909488454614348 -334.22070815914406694 -326.40191397411052776 -319.32081943343956709 -301.49154080649651632 -331.76134328943010132 -323.16020657072004951 -319.44759559562066897 -317.5825239621931928 -317.55292074920657797 -319.32682807180714235
-80.781262262512697703 -88.262231604379280725 -84.79077321752741625 -86.371134973567279758 -90.7101116123903779 -83.533404485659332295 -85.476548628668496121 -90.123925485498034504 -86.272274266843794521 -86.498306051155779528 -85.885637568159253874 -83.341364580100233184 -83.304478687293510575 -83.045488088004006499 -85.529889512241055627 -80.38853508006910431 -92.186036699279554796 -82.212762732473507299 -85.495716540192375987 -90.265167225346402802 -82.983755885801230079 -78.063654261259188161 -83.015297301437584565 -81.929699233380560486 -89.874659601202949943 -89.129800787848807886 -77.176591245198068236 -76.986025037753535116 -89.055688846008550286 -79.665730719284340466 -81.680291534952161214 -83.248549078606671969 -83.281622295637291131 -81.45043831813534041 -87.680591455215804331 -85.996251685211674953 -84.926173375068316318 -81.849741143092558104 -86.492832177294516782 -89.592319844890113245 -96.008356530144851604 -85.276455418836434319 -86.844723880500339419 -85.321575202748647371 -82.383469813781104563 -87.641600865414773125 -83.204386098233356961 -86.974118987159215521 -81.927488624687498486 -79.44356439088977595 -79.627525851105914967 -79.537210895963070811 -83.202056170306804006 -79.611486428870207988 -85.072168607854450784 -90.322171171431463677 -78.408748927435055975 -86.422248134880376824 -81.109332174352815059 -93.1545221480187422 -80.343065245711301259 -83.955458649255788828 -80.449065479736162843 -82.496198693384556577 -87.533313530338801911 -80.684234393502762828 -88.0126189724210235 -85.060714877282734392 -87.760573191983141328 -85.542537299457677591 -80.449046383068278487 -82.111226302943194355 -86.803982756823089062 -85.25173522765412315 -83.728294636202377887 -77.302213295561543305 -82.595323320884943996 -81.840935127464092602 -83.62223537700137399 -89.657800248748884542 -73.19778878629887231 -93.9306506576381679 -92.081634972039296372 -89.133146518491315646 -84.521080011962737899 -81.27380949153770473 -84.801509888695747463 -86.477793074579139443 -84.523583559433802748 -79.901953021993890047 -77.822454996399898164 -74.928828193413920644 -83.632802934506514703 -84.182372153156293848 -83.499360480076418867 -84.953104173809435906 -84.403180278748408227 -89.291140276278682109 -83.810401495636938307 -80.789831594799125014 -89.41969755641098061 -92.303781467301377006 -85.343450685698726943 -83.079141189594267303 -84.737741335608546933 -82.584746234014062338 -82.005103152223654206 -82.357313721417710894 -82.745364255140785303 -77.733033534248491492 -78.700013302983848007 -82.072045405588170297 -89.405446406330810305 -94.085730825372749564 -82.963515630222616437 -90.14270037824286419 -74.527279604933255541 -80.914027821193286627 -81.740694563503922154 -83.66457664590910781 -84.058124060095565255 -89.241016734676264832 -81.640247735656245709 -94.073459683517242524 -73.794382457581448875 -84.845588233253977251 -85.401363233545623643 -82.739984668619172226 -91.480060985741943114 -84.442667152706675893 -80.929451766496654841 -86.185635238504985978 -81.782958889604017827 -79.821660216969945623 -86.748117450595842115 -80.315687116198290596 -83.243678460757521975 -81.093578517395712879 -77.979500262999266624 -87.031948264703871132 -81.539943689243074232 -92.014813236047700684 -80.319714595104571231 -73.199633025640252981 -80.00786797872558509 -82.295792087764866096 -87.523894534863202921 -83.356983721581272562 -82.107053221844154223 -86.488759662427810326 -79.432130867919539696 -85.712370688859522261 -90.183200115193727697 -85.902659700028422662 -83.967950336491554708 -82.162622129360499912 -82.086146482109796807 -83.691187607833583684 -89.590976306264806794 -94.97551692618974073 -88.887560590392524773 -76.629693319525927109 -78.084563694910087861 -82.979625022744116336 -85.809502452222972124 -83.83698906633880199 -81.574233610482906442 -88.356290701705120227 -83.905547598678978716 -89.210686318373134895 -89.077598247507538076 -88.144352472632405693 -79.881487982386715885 -78.091957682942947372 -89.225781221915895003 -89.35906077508066403 -82.064389300807761174 -91.932364619544728157 -74.202385431738420607 -88.127637646511999492 -81.733622446047192511 -89.806979440321043739 -75.896311349804150836 -74.42824287570083186 -81.116074452729336031 -91.250113351499734904 -81.814490986100693704 -87.481187490144492358 -80.738485215730506184 -84.003726744744497523 -79.06653389792006692 -81.911667576976540772 -78.402390514441279379 -81.623269697294560387 -86.791735493049344541 -83.758632078125415887 -86.948795119093958306 -79.215820649409124599 -90.67074860661114144 -84.547107703722730321 -82.853190814441759926 -81.812315040211174733 -89.728636599108725136 -88.47076883974438033 -84.362968777024264 -78.866588622202925762 -88.015810921416886003 -95.421730722472489106 -88.98345007949923513 -85.000181858600697637 -93.727480789485952073 -87.671056725548965005 -86.391377955493595664 -87.45191984014113018 -90.752698453976023529 -85.991338073431649036 -86.937107882489954136 -88.122428403229164928 -83.219679855469692598 -88.622237757746987086 -84.420208922630493475 -96.422785656165842738 -88.234369903722068784 -89.250112617304438345 -84.191680775072939014 -94.578109146377130401 -87.67229560452076953 -81.820894301055517417 -89.683924676019671551 -87.780827740314379071 -80.876452864981615676 -81.28987329534763262 -86.816413605129781672 -82.171740489618343872 -85.688951697700375121 -85.863107973275702989 -88.936069212614100365 -78.993693015543982483 -82.251571848032654088 -86.433658362095258099 -86.785066907332904407 -82.4245686831354476 -84.652165068019499472 -89.225584127997166206 -78.974864371168450816 -78.305018624063023935 -86.152113398128349786 -83.035591136376325494 -90.128214668892766781 -81.646993314780800688 -83.832336298128780072 -82.664220538827748896 -88.051310980073210999 -88.702370697687356937 -71.475443675402942745 -87.980170673874297904 -84.788587893477654234 -87.81298746079748696 -90.858258367862021032 -89.853686844638417597 -91.371823649122063671 -81.079309117340798707 -78.269486523618837737 -87.653844519615475406 -84.172156172424280385 -83.997538159154075288 -81.297190995110312883 -80.260596937382672422 -90.41519724142486325 -89.521297788052208944 -86.477552582395361469 -88.079360614092692572 -89.665404248263584464 -80.912646188390169755 -82.284213576861958472 -84.624908588830237477 -85.809896545099235254 -78.477033211913862942 -86.476369652389962539 -82.282972289526043141 -94.435809646774032444 -79.690544142636483116 -90.563494837404434179 -81.288341423569178801 -93.88400033926725996 -79.727913929500630275 -88.745470020576789238 -81.855666386905966192 -84.507753227165082421 -90.101015770981959463 -88.79918264500295777 -79.107692851196816264 -77.440192938910342946 -92.121873060358325347 -89.32166461436860061 -82.858309939520907506 -87.968938953317703522 -89.446531032764397651 -85.765873849500678716 -86.024489014639243578