-133.95323145489092553 -135.73616294156875028 -129.7557771826319879 -130.74133430213959173 -138.93244232213956479 -141.60484730132469622 -140.22672724933417499 -136.5058673826334541 -145.84260206498768753 -142.22592337645957628 -144.11694220558555912 -154.57743864863991234 -148.14108570154141375 -136.60705158764568523 -140.58664824148584671 -139.41713237076507426 -152.52774401078062283 -154.58246213462226137 -137.24549104634121477 -137.29325155082261745 -154.53262444523286945 -138.30124287380593273 -142.69662040174983986 -146.88050696917542837 -130.34619419096543425 -132.66930497836727909 -139.83987462128121138 -133.43577946248825583 -140.55931226708537451 -149.56971527285244861 -146.22512709777069517 -151.33918000647588542 -140.72068061710913867 -140.08930344635834331 -139.80053333488913836 -130.68358460911531438 -149.90470387023162857 -131.59486662817238312 -147.90172951219858533 -137.96659100696160749 -139.53577888875733493 -135.65134452142581267 -153.515898670110289 -139.86414919697747905 -145.46034268979298076 -141.44712119953825891 -142.54077994155616693 -139.47217329742048264 -137.3371713197433337 -130.50817465610867885 -126.07374982539103314 -134.97864412242645926 -134.88783647161150725 -128.81515188903429703 -142.26819311880583996 -148.16882540674120605 -142.31880499481994207 -139.07523886218180564 -132.50930692129657018 -144.69286218638171704 -130.92549186795207561 -146.65715584044227171 -133.57786152500014509 -144.06415156766277619 -136.38701137900281424 -141.68707983309570864 -130.7267582490897837 -150.2194127218844244 -154.09143030814777831 -151.15773094235083818 -136.86982341329843393 -141.95051181962693931 -146.44443655265627058 -145.06257024341962847 -124.39514006462785289 -139.46026680330462 -150.42061560792109276 -130.87498895168565127 -143.26011178910712829 -137.24338657585656165 -138.06518586750874533 -148.30856539545794703 -133.13345813471198653 -142.30014272491519023 -142.55849166582811449 -141.62731034891120885 -155.12408082522978248 -129.97759591844697979 -137.00273987661907427 -136.47100571412661907 -137.0523290669176788 -138.57606196295216705 -139.46250403400895834 -139.0921480781930768 -129.84891887972179347 -127.69518580181437528 -146.02495053024426852 -132.8260918074842607 -141.72154169456229056 -145.99110443980814011 -142.679536946691087 -147.64548368231336894 -138.24678068188831048 -131.06812772053748972 -140.33771215987837877 -141.84817307635123029 -150.7545928345254822 -137.09721911681461393 -128.86847501759075385 -139.99792506426061323 -142.56033024276945298 -141.73736861484786687 -120.99194523740364104 -139.07336774919636468 -136.21932982836776205 -147.45245853541612746 -144.94776529841485058 -145.72833511154772168 -142.50293441410235573 -135.42435576522862561 -132.32144486494902935 -144.53612978364080277 -147.0828840357763454 -135.09181093338941082 -136.79155840958236467 -140.34464530319743858 -140.27106606884953521 -141.67379429267867863 -151.56595976872466736 -139.22077991649567252 -126.11690250513045441 -125.39701307623354865 -144.97314717737720002 -129.15222861818892852 -135.99727371994214309 -135.74712838635932144 -140.30994911986073248 -134.46638873119059099 -136.39623845693614612 -145.10424338032197511 -143.33749741187847349 -144.12209795822977298 -139.08776552492824408 -138.7485995559988794 -139.53928075485956128 -144.71259914534013546 -136.69351696135737484 -135.55303885884399051 -148.95585938873409759 -151.34247264155433754 -145.06091814546888941 -132.28962918587859576 -139.43821862234713649 -154.07581455910980139 -132.9122761857473165 -146.64952220954779705 -131.63188286830725815 -149.65541363851622236 -143.64553447889676363 -144.02804358966633913 -134.21254794515394337 -144.54946246736039939 -145.06821113910586973 -142.0702288693817934 -134.17241306850965543 -142.52165840897401949 -148.08955173472944011 -134.53255741692271386 -149.26466491685360438 -148.61373190947114153 -135.17251434115212305 -140.89370390543047051 -156.66055032162799421 -142.21251723899058561 -136.71494712282981254 -139.16655958801450765 -141.92207075156915153 -162.72391514808290935 -149.85012003875476694 -145.60067013876522424 -149.13945712791314691 -154.88814979228126845 -143.16852357094100512 -144.33251707821131049 -147.53695085922899466 -140.84739609964509555 -146.78201594585596013 -142.08927129844713022 -144.71566484815443232 -152.03844114850039659 -148.68983944682412357 -145.25722137484717678 -129.23004903726192083 -141.63015529844241769 -141.27128393841832121 -140.89204645318415032 -142.37941366736626492 -153.4241603283755353 -154.68927081508726928 -141.04093908057774343 -131.75154088193096413 -143.76760790488589237 -130.93847965798690325 -138.32330377140803535 -149.75784056483470863 -131.27425809627607123 -141.71389763464389944 -146.70798193317475011 -138.309868035481486 -140.6205712772938341 -139.51171111207594322 -147.1072090336007534 -143.10961575173132587 -149.37270840179962761 -141.40300930857461026 -137.04745850773335292 -128.5582431821324576 -141.12778423345480405 -139.33389427557233375 -144.03906880476296237 -144.64383207101627704 -139.58046447163334847 -135.72880597597173846 -130.27420109406642723 -144.01716858937203369 -148.66546567324161288 -137.14076591163765784 -146.40534736680615424 -156.36237446593250411 -148.95553954994622359 -146.90023987556412521 -135.72051500688286296 -144.67404742869157985 -149.90224578544251699 -140.60011560138244135 -147.47254951595581929 -140.01322642698650611 -142.31523360581923043 -142.60257815558401262 -141.13228509794086563 -139.21835419214104945 -138.89790992320519081 -161.06302797041368535 -145.39816781159754555 -136.42703945974636781 -137.96147610972525399 -156.76274512118533266 -144.53437738067185592 -145.52043041995023032 -151.79777807555382196 -142.23420507788767964 -140.99593761933201108 -142.33043005434223005 -140.40387933709200752 -136.55775116467137309 -145.23968800715942962 -154.03528421634663914 -144.30828820305782756 -139.78172535162383383 -147.37210437334874769 -143.22272510236138032 -139.36419366430027367 -149.34316320492374075 -135.3055240612928003 -136.30358771078846303 -130.15958280017423476 -141.81459390638104878 -140.99008101379402547 -151.7440840426842783 -139.60103030837862548 -142.88190844088902054 -140.86171439144874284 -143.84276518009892243 -146.94383305120572913 -138.251307558206463 -150.86575083789037421 -149.43584883933513652 -136.99989811439650111 -153.75607166472175891 -148.31883262878196206 -158.5232343956689931 -134.65574663487504381 -142.21982349664205003 -149.11461867243582446 -161.34884584813067931 -146.9964149372287352 -142.17798570395328284 -139.77349238842617751 -158.71144689315465826 -138.42157240906175275 -144.84448574669454501 -134.15652770814926953 -143.33724501532915951 -147.56869689933827772 -141.73447286557652092 -133.70088445545627565 -130.01613077788871919 -145.39591071204438322 -138.69570289189130108 -141.54043545843464358
-21.41295846312468143 -21.659413002833144191 -13.614351406862809313 -19.358504521036412171 -12.993854760997937348 -10.741550789761149076 -16.728994781303143213 -10.457250354782564372 -15.17913773353884288 -15.885541944688140958 -21.426370683272722317 -20.015568834751814364 -13.480507731402539662 -21.350453402268726677 -22.391116118358681319 -16.485282437651029852 -12.38981925304037901 -14.386242331707480346 -12.638302349712974504 -19.911999269429628612 -22.972077571778527272 -17.990500594462638162 -13.687942510480725744 -13.115754913854770436 -15.985510267409383189 -16.993574113850542062 -20.476478995778037984 -14.781276993634715922 -19.2607810374360362 -10.855328437765317418 -10.662761405095720235 -14.565003550804490828 -11.58029340375344951 -19.898034922967710258 -10.992558964424246071 -13.907923911673584882 -17.138509960270251753 -15.1835444265093642 -17.299051233223668333 -17.303446754663472262 -9.313131761661878727 -15.683286386127401002 -22.887569564702022973 -13.680528585892369975 -17.585972150410562165 -16.154260235930863132 -14.153124307434870488 -8.7083532323449297508 -21.944830873703388363 -16.630952396104596858 -15.631503253452372348 -19.48510053509581752 -22.176576604752231248 -24.302815001880329504 -17.758947462872455958 -15.161456676268064925 -12.427032898639758685 -11.150239237515279456 -13.419184223522751864 -22.955765790389516923 -12.508293467089373507 -14.890986944784030399 -7.0445570887712722907 -25.861995347261856892 -15.534352212976656915 -15.460805320803320484 -9.7625540059660202985 -16.744155417609256631 -11.891706924066909323 -15.576928107669031576 -20.785935587378883582 -19.286395716362832786 -17.481357203192015248 -20.709979481061399298 -15.427904898117169807 -10.709085976190506173 -13.191983388140656075 -21.372899691401563871 -18.712251955423635508 -6.5721492426267200671 -13.15577125116505286 -21.051889045479132534 -9.428579278748753012 -20.34331722190246694 -20.8449741327098792 -13.67551480154780208 -17.26922902851062247 -21.265643452788886236 -18.050641620700837109 -16.947283124908882002 -17.23546499436102053 -15.515815600446249078 -14.109860301875642108 -19.569087870864201761 -14.770755036657677195 -19.23251259646487199 -18.21343363317114239 -21.402450373575064191 -16.089668663373700497 -20.910130918509032938 -10.295409312521874412 -16.653129976381343624 -15.057331802161758816 -14.809932622952036496 -20.635092039139415476 -14.193844356512990146 -14.487379342247896474 -21.417621804346037351 -10.735358627893342387 -11.537749575349700137 -18.128842702263177955 -13.164081584285185045 -14.205955121086256909 -14.419057946151157878 -20.021974177722270838 -14.527536908528137616 -12.514611634723468825 -22.331421513796321676 -14.324451670704513973 -18.59351150818741516 -18.598979855280052931 -15.85087396577470642 -20.674183469309006966 -20.753638745627604578 -24.99665285984696439 -14.493427140671643727 -16.162188641680078405 -20.368126074218690036 -17.809169300791406698 -14.586605507480326693 -21.446622202874980445 -17.192314950555665831 -18.870099822691738467 -15.986222796106812183 -13.852910919769030329 -19.223379853803919559 -8.2268898074222107653 -16.023922528575852198 -15.386634947829277209 -17.137302890725894855 -18.346659165693484539 -19.325554803706101126 -21.928731608891581573 -16.417443585233353787 -24.024605553288257198 -14.359916566426878859 -22.303512867075692583 -20.297823975501380289 -14.23090188186346694 -15.512167444994901189 -12.256693266582811219 -21.972546323930490786 -10.739681307172542546 -20.754098555365217749 -20.626403818395623091 -8.87656642856515532 -27.868740188051958739 -13.53707902607142799 -17.942613706194634915 -15.240564507806451999 -16.61240885798193645 -16.564646878530616902 -18.03033017236083424 -17.096005543052058329 -15.756173486271361384 -11.578652640423598541 -21.830290012439199643 -20.895119395499950343 -18.50012644756363045 -16.005844453944156669 -20.675953508963203831 -16.456044425357017502 -15.378966307063326013 -14.084617634422713195 -18.029558252551566966 -19.86976977215964979 -25.096630394766552996 -10.62479128552791785 -17.211088031864903769 -21.875194143988132112 -22.00694745183103862 -21.091387866045632649 -18.17018476991870557 -19.627082540604959604 -24.946526463755958503 -27.147851209632751335 -18.086186443184413264 -21.556212103666819502 -24.112388339583365138 -18.796453819174722355 -20.755824298219842206 -19.864196119826303288 -15.951170519846124662 -15.54186542751693878 -21.048456399329879218 -13.434484422277668259 -15.201950575378843311 -17.026795547935360986 -20.915545668398642931 -7.3404630222975910669 -19.936076259795676435 -13.718265479233050286 -18.153784310615307618 -18.128029432060419168 -27.505968515020295939 -19.259338085504587923 -9.6310818810312319727 -14.917427054636645423 -13.32568091047246206 -16.244122888127279225 -21.183186427056575951 -17.976610939711559212 -12.563153523597438976 -20.704047443128658301 -10.773970515514772472 -20.741280788214844222 -20.112234504719928907 -20.154698188226547018 -24.966890705267847039 -14.323537378566623346 -17.44226935103367282 -14.598149801031356176 -13.823136226204823629 -10.701387374715245926 -22.840632425680311712 -15.671313217340468782 -17.668922497156025031 -12.307468313988355391 -17.800663742241489729 -18.6495902092847885 -19.417028190208796445 -12.699016821454094384 -12.646222927704718231 -14.418214450942796745 -14.454354318462492301 -19.864032938444992737 -18.359222079243284753 -18.122335465402457544 -19.27848825290497814 -25.443566316561273766 -15.228081163538417897 -13.098802610257072487 -21.469410635121665365 -15.387513187638631962 -10.690427579715091611 -17.660679752972136214 -25.460624327303875702 -20.629731853674044828 -14.564297525558078661 -20.548104901076847284 -20.623209770182349132 -19.539828211692771731 -13.834575150915487285 -10.440508155018001446 -15.356887469075441999 -13.9857326920119025 -20.787202638801879573 -14.299505757180966725 -14.148620399508686774 -11.900538394037354806 -12.759734191613468113 -15.462234819663832397 -19.221373139153719478 -15.992743799704184582 -11.398248542496446589 -20.305659773292322967 -18.288953759357546858 -13.64481847665563663 -11.655560763529212664 -15.568084997673269143 -15.206561467679911459 -18.425834807123408154 -11.935350797255379618 -14.58435615349988268 -21.864983990832072891 -20.634138976909248697 -18.873646730120267279 -16.283253944356783194 -12.241298394710973696 -18.608535333588591243 -18.100826083209639705 -8.7603457982287551431 -18.29377304550083494 -15.528524020989975085 -22.181867022030271386 -11.605691332986552311 -16.086720916030550654 -16.537738836966621392 -11.692507595598820913 -18.767435967296254518 -19.981934100390176923 -19.428313919145992372 -15.472263859207316727 -21.122920136336134078 -24.876015732062835895 -14.175669823351785936 -15.689325466573663448 -23.531113809325265862 -17.846076613469627148 -16.644284619805087999
104.23191879047990938 114.01790598850638503 103.45177519402788846 104.83562355737369387 118.75666831295491477 97.276319240670346744 119.73055151129199203 97.028108015159688193 105.48204498189049616 113.76377752958798339 118.9302019313272325 121.77912762036319805 116.60144175046679038 106.02227137669621015 92.846195824180909995 116.199096237074599 98.98777410232787588 108.51288073713611482 110.3035857673359601 105.48014753622341289 106.47104442540104685 122.74435315350484643 106.84524968739361839 93.087463033174429938 97.976096283081062666 113.71290868841565214 109.00468135363234978 96.371490457968874921 106.54553262656533263 109.41656382930631253 103.32265920904860934 112.68221205885357961 94.869869664869085568 93.051735270783268561 107.36753986067050448 104.42672276882612437 101.10669558958934999 111.74904108052287199 108.59842390656261557 116.98710095964177924 102.40435905698312524 106.39209789167233566 92.901122203097642682 114.95008014377093275 104.26608831102608121 108.77703663921445809 112.58310073455388078 107.73539806503627858 109.00826172849544093 102.29789056395860314 105.60379572906367684 105.89949854575992561 122.62268040891875387 96.48152008145518721 118.01041230137262517 107.47756890399901408 97.927130043669265547 115.17937814144340791 114.70944504264342356 119.03627957058482423 113.07611106538809054 123.7330039109253903 111.14764460719217709 131.03360522513844444 116.04946962210374295 114.18825375024482582 105.40372275426945237 96.385238861860656812 90.820026168974735015 102.15037078180878893 114.91588890018630309 86.137594271270302215 107.063747930095019 116.1239883423202599 115.41007714566622155 107.57923468427564728 103.18877947382651428 97.471560377944726383 104.2296762205099725 103.02793406624324746 111.02535447701500004 120.0248485859908385 110.42758308906067555 101.8905151993524214 110.13239075929891442 107.60502163553948662 110.94303370730303016 94.873148545919022467 107.68373277225074958 90.583553971556057149 109.66110675447346523 105.28610322657269194 105.3850400137792036 109.15885567281627289 113.403184250535503 116.58811310215233448 109.39688622279473407 96.475392960328520076 113.0937181008542467 113.74812511840868012 109.79752606979077711 112.12552952059272116 98.636161600075624278 89.996324721254467249 106.70835095994827668 104.23177358230969958 93.827862250969999991 116.81004731051103818 89.327571975283476036 109.926270468287683 114.75512158049590994 106.21374382677001336 96.90864710722959785 105.89729012925228346 114.16495447747109893 110.96903399957392367 107.2534162913365634 92.341869010873878665 116.98710227086766622 103.99032071181943593 112.21960480011681227 108.96310913010833588 107.17634258905094669 104.71346074497179757 103.26275090623700237 120.2758053755953398 104.1456158940469976 106.53578222044839663 113.01088620777673555 106.90649810805039976 102.05811334051968231 109.46262233933907737 96.163386279182901717 112.71160878876898437 114.52847423052152465 99.958396270128659467 99.132926799418029873 108.1678518574606187 112.43743102517427701 123.54626923894043955 111.40229440189210663 113.0573927725013732 117.17389153799386747 102.42192033921044469 108.77147439778173066 106.35343637654537474 99.179273321256246732 109.61783558586986942 106.85336138999556965 109.0081428595654387 107.70915316089883618 108.21939147359832134 100.06514341838233406 98.447150780324960806 99.069495190072530022 99.061392535684205995 103.85239624900967215 120.07860077766750351 109.4720926894237607 108.91611741519618306 94.522989348998095238 94.92344947393694099 107.88701621568563382 110.41629722157249205 115.42696331674069654 114.07808093138505967 102.8148578953064316 114.66925447064039645 106.05090148192799404 97.058623693947410516 108.67323491430133231 90.534984830093307551 87.98579553561914679 115.70617422126611018 103.88409998147477609 105.78651484631262747 109.93821484600562144 105.34956634835062061 112.84291807253663364 101.54925446678164747 102.78423090396870521 93.745800797263370896 110.68185866459153033 96.263844924269065473 104.37367193592803005 101.91991222630899472 112.90936886320002941 109.16672652399145704 99.649091377897107691 104.74378682916865557 106.13277063425297797 108.34006330371126126 100.22229654695513545 114.92526279327168481 108.61222238946031382 102.84284049831906316 106.5831431255088404 111.24898804611474645 99.200788848536134878 99.018301010495477499 114.73617129453471364 110.1430721631056997 111.82038813213999617 118.57805900345513805 100.80426714805257404 109.70493765057312885 98.891376611591539358 106.71539192523079009 107.68170324852761155 110.81515595633356952 99.91492448553051986 114.52868379419858513 110.11519488021522761 119.77745477226378057 116.86353956848429902 100.14236470546843805 95.794292692656881627 103.51327155500446509 115.59565827516526326 97.491479223857197667 103.82957077656557487 105.05329814746617956 101.99968990353514187 93.231288833797336224 98.180768807785653962 116.67503924971435936 97.572970658654014642 102.78953041038940341 113.78443940014527413 98.487721934098217957 104.10290933007446768 119.46529542203562357 107.01535728706842576 122.23058668670427096 107.19527389104987947 101.78205151309946075 116.30679426567856183 115.88944484488945363 90.978440042692426459 100.23265110615598417 119.05896376505062051 113.36390903641498085 105.15826957946414666 89.485547601370313942 103.09129782420282595 99.401866020175063454 122.4034528928178247 108.06796079972305336 115.73663598861458013 98.739778115061596964 96.589172284614804198 101.98169872017072635 94.538318878677131352 111.07611100542025895 118.80840724031259015 122.8063658021070097 102.14924648854113798 111.61091688250941445 101.04848028413312022 105.31954424321943975 117.36907051988137596 104.24447520524074662 105.44561290764352179 111.24313747670780117 112.00526006463638851 102.01087142177999567 105.39577241031719268 112.27555562022479307 111.02294480866942195 113.0366563118494696 88.611085059842821465 104.81265934612041235 115.35792026687883549 109.45757222419069876 102.15883772931354656 105.30930195890758228 105.74618170383305937 99.696401059906733622 119.13457038660794751 113.23393361201095786 101.35344455778692918 97.941329783179369883 112.28318514860029609 115.95982215315756036 105.89508901116735728 95.39303732431211813 119.4079176037326846 99.361299954266385726 97.041826821834035854 107.96517385772392572 104.59736606314532992 103.66945770181146713 114.94248631138087546 103.2191507916518276 103.46613343161840248 105.46135906185961062 108.2151726966895211 115.63737280221045012 118.32773440530529285 115.96383547997892549
-158.4794373560573888 -155.28207315317379766 -158.27142415452144064 -156.45063317850176077 -149.18446826527036819 -156.00488094475284129 -161.37130418382739094 -145.82567243959357484 -159.51041889522304018 -145.88557137691793741 -152.02578050684863342 -154.14804768674787283 -149.71936990037426085 -153.61448809187430697 -161.40174117795584152 -151.18067783902517931 -146.44912956886574307 -162.02586117429365231 -152.177114609462933 -149.74751587668683328 -148.91699465748001785 -151.6140844734614177 -148.50934750924395189 -158.38303123266115335 -147.82080886091353022 -162.51535724596553223 -157.38145703523267116 -154.45500627425064977 -147.21525542411373522 -152.22759549305311566 -161.89901118523658852 -146.45475793514145835 -148.81135009746296305 -156.42170788818100391 -149.49617950207971262 -149.25076322655348804 -158.40711337982736495 -157.82299523838591426 -146.85003469875485393 -150.305105428675148 -153.51684522206124939 -142.37977433941657068 -168.76002603637766697 -151.08297143757962999 -153.77867693425611151 -156.60528497027763706 -140.62336408769007789 -147.83616576780897844 -146.07915715484941188 -152.77801235648152556 -147.53376135488514365 -160.93351685267870721 -147.58559847602836612 -142.99812781857062305 -162.7063618106467402 -158.66074707105636321 -155.67039522120808215 -155.71600506191859381 -148.60328212896533273 -142.0586798442444092 -146.73298829149996436 -152.18808808196675386 -156.20709059418572906 -159.64720216919184281 -142.51316144677574016 -161.76456521187498083 -160.30473396290605592 -150.71598548524789862 -147.06082484894284335 -152.57434650749556226 -149.39832922931756798 -154.80407114918830302 -146.12460938285948941 -136.3224429953814365 -153.57859224617939731 -152.37961486884182705 -157.07106096565175335 -160.96135513717572962 -155.2612197568098793 -154.85153519919211362 -148.80858446766569614 -136.50339449488595278 -166.40397744178181938 -150.57783959822879183 -145.03437993593740885 -146.28554553072751787 -156.02806385604512229 -144.01565055855007813 -153.24417669115445051 -156.11919697251590833 -149.09363097919793972 -155.07013668765080183 -152.27345404939634932 -142.80087440878062921 -152.11111632576464103 -162.15656148394168667 -154.55851085805420553 -144.43147236531348199 -147.24866549736046295 -155.45227456461836368 -151.68116671824833475 -145.57613804247580447 -164.40763906631411828 -158.30998956812970846 -157.3647406061662366 -158.40022225013851198 -145.36365628700025354 -164.33163899946433162 -162.72390244700716266 -161.94302241766919792 -158.60511564375656235 -162.43889818890266952 -156.88622206749226962 -162.2857281349500056 -138.21911338838449979 -143.97854692535355525 -155.67277795998299439 -160.2479617253599713 -149.50014744002623956 -151.82951931217127139 -144.46874806894805943 -156.00489013018909645 -146.30890515251857664 -152.74760968699848718 -149.53514083166788851 -158.41735105164727315 -153.09560562471546064 -162.75417870910609963 -163.39213333718410581 -156.32680583183207546 -158.68277275955455252 -156.77654246206321886 -148.70147956185374483 -153.73901773962626294 -159.19727519934875204 -140.48368488854794123 -155.39144765132581938 -165.64279848421662678 -158.30794669467294966 -144.23091473555678022 -151.33823855397287161 -153.91373806555623105 -154.21447493079156743 -155.61473843238763948 -151.97483008810655747 -159.22699670682322903 -139.63129292404656212 -145.49166604341704101 -158.24778275978633246 -144.68831372970643656 -166.10668405701406414 -157.46373227459073973 -146.53473296567241846 -151.57119134116470605 -154.97569074448182391 -152.97676526370443639 -148.45908160720864544 -143.43695547962721548 -153.11702362944166111 -149.11520098641747722 -144.59888151943493995 -152.11132904962721568 -163.09355058262818261 -156.76085459013893342 -149.24663447954372941 -150.51811856919331944 -136.80776063390683817 -160.70358347251689679 -141.37964169351099031 -167.6168823526709275 -154.39681533423004112 -141.09662890243265565 -160.30071022247216206 -173.02232458130151826 -142.4597514125575799 -157.41140751462222624 -155.64015947596928413 -142.43349990129425464 -147.12018473642004324 -164.33776377491457765 -140.72222161130733298 -145.21792794402429649 -149.40770078364042206 -156.7416631966939633 -152.56769847124610351 -158.16230598982434685 -151.52208174609043567 -164.42130553271135796 -156.87909632384756264 -153.30851323600262504 -150.48490602774185732 -143.55270865870366492 -153.25813745822162559 -164.58422837644417314 -151.98364485426478154 -146.7655816364939767 -149.01357237760726093 -156.46005756101112638 -148.37261001902720636 -159.45286915757893098 -156.81872828483500371 -151.82897363207666785 -133.95339415802808958 -147.47063250361517817 -155.43989522199726139 -159.16756864031688679 -159.02344087383792726 -163.61366959145448163 -159.12719954853525905 -156.0072336601195957 -154.59432095825496845 -167.65148278681743932 -153.13927417931080299 -152.45372795034973024 -150.39684547768624157 -162.99773232434887404 -150.55771511561272291 -151.65756692901118186 -160.92536839353667233 -161.15696531094425836 -156.0965642092841108 -149.50130403728149986 -142.00965474153630907 -163.89843802597113154 -146.20439878589007776 -154.02697894653297794 -154.87575371449977979 -157.58674765322567168 -155.28288116565525456 -162.3518428746139648 -155.48606592624378209 -150.20433721440724639 -149.92215329194831952 -154.19538826131744713 -147.96719978095299552 -166.34909049573388984 -149.63073949628230253 -157.24247064649634353 -152.18964026770683517 -150.76440486329985902 -158.67283727405302329 -151.449147375175869 -155.15124566377465953 -152.61302462008086422 -156.32091268185777722 -153.96797596980186995 -152.69080344727089482 -168.01105198141911501 -150.1243179148215745 -150.47324519414490851 -170.41496454678951977 -158.28541367303100174 -146.02365177642187177 -156.90708468196174863 -145.38083538799168082 -149.99243519748711151 -160.81782210956438917 -152.05744864875762801 -156.02987483391393653 -150.19806480660338366 -165.33775653092070002 -156.63720159258357967 -156.72895977931963785 -155.56311186409089942 -154.5976247766283791 -150.3705659438768123 -153.19160531140593662 -139.18207994802747862 -156.20979721618385838 -147.89681868692389344 -165.04711193591705864 -157.73032688718416239 -154.18552973505433101 -152.55557336316971373 -150.60068918500638802 -158.19156968609107139 -156.47441479316225355 -146.56918086657776712 -143.86151736713188143 -150.5940940873406646 -148.35457013015732741 -158.73160179494070121 -141.8325195940769845 -145.97895444677442356 -160.92342783077035051 -136.74509725165634677 -155.39028418790147157 -149.33505357782181022 -156.45754208911588989 -157.56484296135678846 -147.65255078621729012 -147.23667145720557414 -154.29010255597853529 -152.01212913839498242 -166.75647247097563763 -156.97492661353953736 -147.33962730241952954 -152.9229906817480753 -153.94944915211539183 -147.23006727952750339
-0.46741911859848883637 3.4892931787737273552 3.4362291768510813128 -7.3616808269470208614 2.7088161676652031673 -2.8805626865293785244 -0.16940322261047757735 5.9132831300217576498 7.1281088034671080678 -3.4509413347366075797 -6.2588641453068447618 1.5198277344279937928 -3.482145997224094458 3.5351687704544909607 -1.8544845731924795018 1.1823142478951940149 7.7729139655936281272 1.6236077652101492674 -7.8862297634949243275 4.7874287454297990152 -13.530253742130648575 9.9758274645577351691 -0.2579202186698879018 2.8194440560691713671 0.88435651786015867515 2.8148567036314720013 0.24565280332772765348 6.3472773520172838246 -2.4734342267880151667 -10.843837681920273752 -5.4353445996411755559 -1.1027939083485953642 0.36206126478412326009 11.47252355446059191 -2.5544630513113748549 4.7951077871054987867 -6.2178519957908404692 3.8184098875241421212 -14.384260590294761784 0.65972812114420253948 -2.3864808165131661255 -0.87401180328556016264 0.47911489063108136932 1.5376201104445170742 0.32860938619140789285 -8.5364472989265607339 -0.25302437908660557753 4.1044453071122291021 1.3411022326872021893 -9.2665132935897247535 -6.8042831784269974804 5.8500906463463202556 0.33066270550659648819 -5.8331363138295397874 -0.72056875446309742728 3.2378690218998347206 1.4551157975088573338 -0.69639391523793214844 -11.187110059203140722 -1.7927382687196349309 11.75433145428675985 0.038321657810245213227 -1.4477586584958892502 4.2976474738888015281 2.2495137321783591489 1.339789686418741077 -11.53358763675897336 -4.2119076505934165411 -7.9342682295548598859 -1.6116038344225218637 -7.4317824687463627242 0.25498031849794422499 -6.9202590083683830358 -8.7466396705752558205 -2.8113504302926930478 4.6175834257848391573 1.8523019802942766177 -3.8122619359456333399 -7.180605471756528857 -4.2464195304783896034 -1.8524536632288910454 -3.7532940003191321843 -1.600618393004641149 -0.177294878872543471 -1.8107126433866740367 5.9821855433074011543 3.0726155366217433595 -2.5011792908357097787 -2.0887543551707556944 0.69422907490906116124 1.6284113983170076523 1.5640655479247675963 -3.0731496212708577787 4.0534335013472269083 -5.2565251648556881037 -10.719943185900449478 7.9760639754614199859 6.2342967684897141467 -8.0188228930541001205 4.1156525777473849104 -3.765234765063472544 -5.6782248538498762969 -0.53414021439159498073 -1.7219111821210879576 -6.8630468927627799047 -3.437155003171371348 -8.2801428753161410157 1.9374428235637182194 -3.5046588350331653317 -2.4332534713296070095 -8.6222801879662824831 -2.1381747033527500612 -5.3175421667559197303 -2.3355787692724137017 2.2595139346530030977 -4.1682454382073057531 -1.3656861180516441934 1.1973416219660073523 -1.6784686427193591385 -3.934781344629556088 -9.6242021545819476103 -2.5758508140667935038 -4.952651075282613391 2.9887370668877610846 3.3559568494215499257 -8.8838405053929374589 0.96365194848256141569 -1.5992410997004711248 4.5770025728969736534 5.0079684513668230039 -6.9223582884463326081 5.382651703193490178 1.7810846851156441062 3.2849322997498173748 0.83455912015746980259 -8.6814898877339707894 1.2394710544483515946 -3.7906982067080576826 -4.9249853460017689599 4.6491847526973391069 -4.9980597612950550257 -5.3394307720456106736 3.3414652571683687299 -3.405288025767882587 -7.5141996236378334473 -6.381454497693108685 8.6680848483478278865 -3.327536183315971563 -4.1235465456691997588 0.099285754281450699921 -1.5289370728918627584 -6.632418227379246467 -6.1782332853221202384 0.32476180413825961324 -4.1214778888204310903 -3.2761646198868694668 -2.4848944620897626123 -2.9949424399634132499 2.0158288008548934656 0.27987140407211796855 -5.5940113114262866034 -6.8264106067781682441 2.0544341598428736972 -0.90900776731165322531 0.81095930806076621522 -1.4449040330067162152 5.8310687370690894582 3.8526636706266179644 4.2863173155764098254 8.5548497996247441222 0.93919281850119640254 -0.49762020151282815306 0.10378887250819879284 1.6308085246021732928 -8.2630881252510928192 -1.2222372631027660361 -1.364524350171948619 4.4469366426925640567 -6.4529461781826693567 0.70991463098184492964 -3.9808294943842259528 6.2936580535361628108 4.6104456419627020125 -9.7135102899008831656 -6.3392120810845931089 -5.8136910529407384018 -3.3980735839646989405 -6.7426593539774337671 -1.7336601493400367602 6.90752692177183647 -8.4596478793833824739 -1.252340362720267386 0.10273363805265933735 4.0808216378661468227 -1.9138917127635299842 -3.3750537361599430852 -4.6937555763863834102 -0.14536448482632380319 -8.6451804383730213033 -3.7536550317961143719 -4.4297450096783848039 -1.8236759911915498833 -3.2071458842546771706 -8.148430335825619153 -1.0355203232614353936 -3.1064125573886318676 3.8867382933427325753 9.8841667064231177875 0.85529868700832079043 -0.28359741482794387224 -8.2110461393191211954 -0.036335274402957473683 8.4853257170071572091 -3.4300533342988703822 -0.51286270782772014343 3.2539739479370490827 -2.9605802419036706397 0.81598436676891950015 -6.1879865534448903475 0.66625402186696192075 0.11121077805078005696 -3.2737871629978387844 -0.61407883748978964178 -6.1928325052931576522 -0.231965728500507673 -6.7898420616079615542 -0.85488318438520494169 -1.321978241174605273 -3.9309304184509086255 1.0699041711943366728 1.0713068942852812526 -0.76636653173493218816 0.84107165899362668071 -2.8732047100268580664 -0.004665804741660117827 -7.7453706621933342547 -1.0663939902761203626 7.3723888044125143182 -3.924085120421564099 -4.9657961029052906099 2.5816026651317667273 -3.190185308603872727 -0.95959157868128830415 -5.4793393927131788246 0.99211095322118403317 7.9127482619643618733 -4.3691760519192595069 3.7064667966301918511 -4.9429900445509638018 8.4517810761003371312 -1.3987610626354900489 -1.1327574260926862593 -2.5864238023454593218 7.6159159789409045516 -1.6971732521907600955 0.91177359122337087172 0.39484596324639520404 -0.7138754778138025614 7.0609639976214202406 4.0932461456951196865 -2.1879944880674662144 0.045493535478421165408 -6.4261769791302381094 4.4996498585120985325 -2.3619199308496874323 -4.7328876565072057758 2.2103984417865554235 5.0620107839304733233 -7.9626173543574543245 6.5509317982182668771 -8.0405283577074708745 -7.6707503458345733804 -1.1066904129015684433 5.6150804352284566789 -2.2735949007412767919 -3.8005859788577431857 -3.2144484425535928551 5.8874072318095862499 -5.4347914311510443497 -4.2200496955723307835 1.7652759879165271784 -2.1949470184049859611 -8.8544376036444827349 4.0083690542332801598 4.2782595339198019602 1.748440596749489373 5.3275619530996500828 -3.2087836259443864861 2.9157151511683343514 -9.9573427116155528438 2.4296605478234027942 -5.8304635933346142806 1.4451518385739658967 4.83601675946581544 3.754315628538153149 -0.90814938850452175956 4.2318397605015558582 -8.5916435174540417563 -9.5925144498306096352 11.389662026144636187