96.829018306731200028 100.99569765923342857 102.16935881961364885 102.99720594507468263 104.01809316927490556 102.3962517454749559 100.94518277805032369 101.93625010349038007 110.46576638623223232 97.152236946143716523 106.61314708277689078 98.461464110416216045 99.062933771698325813 99.981738291205886071 102.07051148618648995 107.30359995034945086 96.149014908987979311 99.787708052076595777 96.146449388952447634 98.488243295451781023 104.25399446248606239 109.72891016683432497 97.242292600000467928 95.284117881279087214 98.188165432275596345 95.413403330216510767 105.95350446781910136 103.36497393940145173 110.27240571070542785 99.150583850968729394 106.07037482465243272 101.96259109859302328 95.706671522046093514 102.88664439187213873 102.2607596193635402 104.16601741452433316 120.72463107659893922 104.25491455351854597 94.573299996660423972 100.91369750764611979 98.114577119525392845 94.43557759427289966 103.33738487396661299 103.69168017895549383 101.20316214932282151 98.565042572102399276 96.138405531894818523 106.61864570465817792 100.03511132652860738 108.25484031804100482 102.60242976314879115 98.09714864052421035 102.32936793776367779 113.86773786843016865 101.12484887917000265 104.7323613183831128 95.339356816951777773 107.8937915476701761 100.14572333479955546 100.38268513583793151 105.2712942393985287 111.45302196074422341 105.75041205012362866 103.56472782947466271 90.251480256175682371 102.63157190605443247 101.06896790032743638 103.07218673256328145 110.1355861159880476 110.4438068410865128 104.7182795865273448 98.417919602775583598 105.15704602504237641 89.841841662505203203 107.67514023632189435 108.37348292191624921 102.80012070168444893 114.84787566039049977 107.83220178135900369 102.98855197535974071 93.652036271422900882 99.109228828473263206 101.23829115038913073 101.77447649410264319 102.42347771845632565 108.17161784642769362 105.88428692888014382 107.77869318161047829 103.51201474034775174 104.5431568967285898 108.14603149911778246 102.38687813346177791 105.47059132073343335 105.18397001236101573 101.39772598293835415 102.92347134623103955 101.96020568579396581 101.86702950029341253 104.61694869912436445 94.539155243679431351 105.41034990910711144 105.59985646988548069 105.49896632275044794 114.11829914551486809 95.479379109973336881 102.0834475624628368 111.40951341233849803 99.742054439987015257 102.06804620355093505 106.81184650679870174 101.55462008191496182 100.66204741291326741 104.43488841984886051 99.405462656433684288 99.298837783866360951 107.63112234946332535 99.279702070474399989 89.399109078058046407 108.23326479663623445 104.64975988833296583 107.03537247990001902 99.269873531207139195 99.965369249636651716 95.116070894848775197 104.13738381815413447 96.596973870066804579 106.28305402113203115 102.14365366559513859 99.409610781104248645 104.75229617292413309 103.18733579124588573 103.2612175561665282 99.496925395134780956 104.99207261571024219 96.044964405525973916 105.15251509245749162 109.88025268051518424 98.283631061495555059 101.19118232039285488 92.813850666312504245 101.59110321890433681 99.599421670421818931 98.868599894702370534 102.48436851044175455 103.70048365729860507 102.78758438668322128 98.991720149862217681 105.2626832928301468 106.69585095315206047 95.551110841391434292 111.15205739339727131 94.763957337032536543 88.989403441274049555 101.70817425900906983 95.894547968016155437 98.779090285158105189 101.65741298880061549 99.041871185061467031 91.004877666637327138 101.84949899165658849 93.865373010977378954 104.76949737398618367 105.04062352443648365 97.145424082221651929 106.21318444268550252 102.77774614132803777 97.030606278378485285 96.749363606878389987 100.15454905060602186 101.15346214730810459 107.68794656035690593 97.758405746758512578 102.20541221057558801 98.681401570020753411 103.0909588428384609 106.32044733884984566 100.45164463247073172 102.57960187910940419 99.314754651839251665 104.20627681663390263 100.85910035808598195 100.65185904074098744 91.912089408514987099 104.94542770172185442 102.39940580741537701 94.788202666085396686 111.19303987597379546 101.81929535215573424 109.64499043310576099 87.775771876380076719 101.30482303520471987 101.86713740719991961 106.05882941733830194 106.21625511575750522 101.38112131498360213 97.429636647632150925 108.31016107624198241 105.91825808935212194 105.79368077421041505 97.939227782915907028 105.00568297810764307 93.995544054202312623 97.766882796947413681 104.33345574961539626 89.909630453153965846 91.538027080093300469 106.49803861327903576 99.80241129744111106 103.15628789927259845 100.30670531184473759 102.58147535966062946 103.73810404289906728 94.318935212382214672 97.008414052466719113 102.7205726792732321 105.10996542618904925 92.960829907033186714 96.791170849811166477 102.63719319471263702 107.30095090578758743 90.195169554829078606 103.44466962626366069 108.9021692131987038 106.70533854796127571 105.5288688720806789 106.18136066608036572 102.38503700698959165 101.85793407736075267 108.40744122389595816 91.989573523233687524 111.06972141417726618 103.90814151842465662 92.41971546244913327 103.37221525449932358 100.84991569936529743 93.52432076843217601 100.91033419777249946 100.81426779006898187 104.39797110334083641 108.22112093961392532 98.056107526951365116 89.348266872505448077 97.14116341589507897 87.479970960122599877 105.83905601892361403 104.06054937871238053 104.00276583430856192 105.30350851689104275 95.112517724661515217 114.92227987916675147 96.203589885304907625 99.632328403777393078 98.342449459260194544 103.3657774565026557 99.129092834788323785 100.46261707813062003 104.79324723692798216 106.60787585125098076 95.979267729592066871 100.93604074619054245 100.38808273097447454 103.64386027056382034 102.89438667390689375 89.280973267125418147 102.09287629959247568 99.194120930806377601 99.951129560894514725 113.23518738494384195 92.20407597717691317 93.846576115786263017 102.236692395757089 104.9699674913905767 106.66272385279148693 106.31274281070423626 110.79487262906144451 89.417129879048445673 102.86953103584230007 112.51077267881507282 107.07605706286054215 101.05987022702223044 104.3008223560715777 97.201583575256023551 101.95632159959041019 95.892300265083065369 102.49528615884716487 102.0093326500750095 109.75015309139347153 93.697283668108212851 97.785887052104342843 105.07634567628892341 91.217143154491225232 94.884989734488030422 95.591445729540780007 99.261622766698678788 103.40167610462928849 95.830393237564777564 101.10052015748057386 107.360514183072695 104.14694944148567401 100.341079600646637 100.84354825798091326 97.200356822388783939 97.851163424069881103 103.24124022506849485 97.450390262330202518 104.8129497066400404 102.41905215892896308 109.68294759327892507 96.020862998177008762 108.17686726589448654 105.75648982487446403 98.899908994724953004 98.911713816681498201 93.298655844114307456 99.84557390931551879 105.13187174374628796 103.6955293926831132 105.83226876709822761 106.19784282879152215 98.190430433137720456 99.846599887837570009 105.11983171387402081 103.05046315361731502 101.66437380668944002 103.20658219359819441 97.580696895878645591 103.50713908792121742 100.92109500495188001 102.47256736517581999 118.29889889178721774 108.71829451796969579 101.99462263995447131 102.71342791395257166 99.439263936014157252 114.64277758496112369 92.359201233312660406 101.94883158529246714 104.03832444032833848 101.77220966769678512 103.70740023106026229 108.81591561061939899 110.5585411523155841 100.91417448960160641 111.19865017071131774 98.143525475233929001 107.70282502531881619 103.26977147703308901 109.9586037544820698 105.08314724428086606 98.43073587932009616 100.09371062534040675 102.64953472532555168 101.93704072377522607 105.40632336212395614 107.02675277344111748 89.353788972073544983 106.90971675641250727 108.24443327726524444 112.59160337585963418 109.12053940109665007 94.43058363152258039 97.508693513650229079 85.900912424080360097 104.26902403925467411 94.112035851405153153 93.512802365484532174 93.330620357584237468 99.952533133987955694 94.880856754833104105 106.00743194007453951 99.417197821491839704 106.77891622425099172 98.251871393448851677 104.97079621298891539 100.19201015342217431
-942.58868604101849087 -976.04487897320052525 -968.79260923949334483 -951.53554948583530404 -959.53449573556304131 -947.38671698587484116 -959.42376792526431473 -963.74299657918709272 -968.51787481175449557 -978.5616185226926973 -978.56800150524588844 -980.42269054892949498 -986.73523702315333139 -959.0942969861517895 -950.81008141308348058 -964.7633451860921241 -967.51680177930552418 -965.66102326581949455 -979.52748852952379366 -982.80457072726380829 -987.14926333223502297 -954.16078810072076521 -977.13470033993098696 -985.18759944742316748 -965.04180760441329312 -941.35813247203941501 -961.13048049570681997 -973.43551514515070266 -972.65503615003478899 -968.38829015155761226 -974.54249040647221136 -954.58890775844008658 -968.88818761605796226 -950.00437471484008256 -946.19852251487122885 -972.17716487604434406 -960.19645372952857088 -977.50715111251611233 -963.93247522884678347 -971.9699003476806638 -973.58343194703968493 -977.51870707609612055 -948.07983046483946055 -989.30835700490354156 -971.0721333897349723 -972.81237490302248716 -961.56717295052953887 -949.37397043633825433 -963.84674828646825517 -972.00586523922049764 -967.74106867857108227 -982.79245237722091133 -986.94543890247257423 -938.831122121569706 -934.16578480677594598 -948.6522378693302926 -954.73490857127285381 -973.9924441533312347 -976.42849151300083577 -978.2208433613403713 -974.70628556270264653 -957.20030032037686851 -964.2272814941602519 -975.26193241856765326 -971.05831302878709721 -993.50067603322008836 -963.90325021770217973 -962.70732401544250934 -947.92923977267639657 -960.19086178693851252 -979.72991703613172376 -994.98542879306432951 -979.50900270861131958 -968.57312870593534626 -975.35404986955938966 -984.45337220281442114 -956.72049646103937448 -976.28197438901997884 -970.41092222131078415 -969.3129976720799732 -968.66167009446314751 -938.93465529050320129 -969.29954903368491159 -978.14153445749104776 -955.92743125423044148 -978.43861480308635237 -983.53365229470171016 -972.21496449485835001 -967.5582580835761064 -959.85579064112744163 -959.11777312734000134 -966.87803538018022209 -984.73219562159886209 -975.62393783920697388 -974.0352047935380142 -954.35331132472174431 -948.54327502919159087 -961.90583151421208186 -967.54467114751071222 -945.27685996443926797 -969.41187205701157836 -980.4127081586237864 -970.44171195281603559 -948.76401767778816065 -980.76449616443153445 -997.25593204743972819 -975.93873955082369775 -967.67838430183121545 -968.25381629870685174 -944.70068687353671066 -951.77233650697257872 -962.02045960466909946 -981.90349411017757575 -969.58063874804065563 -967.53702068718939699 -971.04459934957981204 -994.00971663776806508 -957.67909863971010509 -958.84265860850098306 -964.87510169734218834 -975.2099896220448727 -944.7297144107396889 -955.94657635759608638 -948.03612339824849187 -990.24358547378153617 -976.72575311985895041 -968.18071148749379518 -960.62106086980475084 -972.22511483400921861 -954.2235601961770044 -941.29559654863032847 -981.68023547955795038 -968.31481323754485402 -962.57971302627981913 -984.25137975233224097 -988.8685247502811535 -980.79488274449670371 -970.64960698226741442 -963.06212326829881931 -988.39042264771603641 -969.2881551762318395 -975.17498693938648557 -946.44383323821432441 -946.22694229153898959 -965.21735242461249982 -966.38937704196541745 -961.20458472411803541 -969.66145985724563161 -979.53564766948989018 -957.14584576181050579 -939.85210087622681385 -981.71488305245782158 -954.72536812672910855 -967.10749557851943337 -964.97822943678943375 -955.21655584034897402 -965.27003649642688288 -943.60309369494268594 -961.67936805106535303 -954.18020029627871281 -970.14497780294641416 -978.4955595709886893 -966.4328543982373958 -955.81487031805113475 -952.59989134025909152 -974.06590970150239173 -949.33169362712135353 -972.61378785641852573 -983.67678726844940229 -966.24828362841651597 -944.13178659702896312 -967.52019229449570048 -961.07281843794135057 -965.26175262364711216 -984.70163880378549948 -960.7710610770304811 -978.20797967263183637 -974.60625800748073289 -964.86859955819761581 -972.79105812242755746 -968.5072749062605908 -969.36981995132214251 -948.889422224539544 -981.79457458002264048 -972.76348266786305885 -960.04490656331097398 -984.51323676546246588 -990.82782104013790558 -983.80746063721551309 -964.15374037560513898 -974.8736019130724344 -963.7393936642575909 -961.84688897402349994 -987.52103440739119833 -948.6031889964021957 -951.94224494580566898 -979.91295794712641509 -954.30292841068194321 -964.83288469783235541 -964.95843984407292737 -977.8361923527942281 -972.86029016385077739 -973.22769608791270457 -991.74020861540088845 -963.73618009188589895 -976.46365466700592606 -946.88417159794312283 -951.22155643153575966 -962.16972865943796478 -967.76955952395030636 -947.72868828557216148 -975.12934236478838557 -970.17810120084129721 -972.95697940194122566 -950.47839742464407209 -970.11494658046274253 -962.25062922634708684 -958.8202297109266965 -965.78705197270789995 -971.98916807667706053 -965.13833797065353792 -973.97420929935822187 -968.70099625091904727 -975.17109515364541039 -1000.7017648802350323 -957.02010778677981762 -955.35416117345926068 -967.79998960516115858 -957.70236825564029459 -975.69925998814744617 -960.90992138923991206 -966.73656437223814919 -946.60484617078429892 -979.8713910434544232 -978.42564924090186196 -979.47371273141209258 -971.24829508157642977 -969.35498306039949057 -972.66352342992263402 -986.75268148370514609 -964.11421942900801696 -954.30884088841457924 -983.56488283459782451 -966.12749842910159259 -987.60090010689214068 -969.51285203780230404 -989.17705141576414007 -943.73683227592482581 -931.01205906104871701 -964.43690783913939413 -980.02655015193693089 -957.02966832160075228 -965.04564663059341001 -974.98725487962349234 -983.35188687847789879 -968.24484204126440545 -973.35194976661114197 -977.16086916879362434 -977.16765182184155947 -962.23594480143685814 -971.76797081325094041 -947.11253358648150424 -974.19428393353280171 -941.07013109629906467 -954.50169270683079503 -960.37536811548750393 -960.05243001679878034 -977.53164617722666208 -972.7886426659507606 -967.65718109463341534 -962.4473881627955052 -951.98655228883342261 -963.77855644119108547 -944.74234543755983395 -952.33157394524744177 -976.41710978738547055 -972.05046642923116451 -967.12119646803034811 -977.86761993369748325 -979.71357690769445981 -977.84001844580200213 -967.36004139684007441 -965.46478943009174145 -971.35389368846745128 -972.4403145358509164 -966.17260610798120979 -968.08485874585073816 -957.00187578111717812 -966.31007583298639929 -980.5104200045568632 -968.59270640806607844 -969.34873281050977312 -976.76586564227875442 -980.33080032845634832 -967.99058004869766592 -966.39579085612729159 -970.89334415708890447 -959.5275357038317452 -964.56701012881933366 -971.81704400907460695 -961.23594709618612342 -924.21372244779627181 -948.5684137650808907 -957.83233309817569534 -956.6258355007702221 -964.59591999056601708 -980.14873808310358072 -977.36542575424482493 -985.27525776718914585 -965.40680376186037392 -972.34790418445913929 -988.55297547438033234 -969.43586876345921155 -971.24994253696013402 -962.38972051087330328 -967.87511204777865714 -960.38045308410801226 -971.18097305639685146 -971.29014796509852658 -969.22258567862206746 -980.56213915300031658 -981.7741078362674898 -976.12858473808398685 -978.37949487643913926 -959.87780401947486553 -973.48183123799503846 -951.59382001008953011 -978.88711027970691703 -952.4954095305423607 -962.74443782156822635 -985.15691492941448359 -953.94599647972381717 -962.58480168211565342 -963.45621775473671278 -974.56107441688004656 -945.5956168382612077 -969.91107148211131062 -981.64232886791285182 -950.20187070607823898 -977.98660756493097779 -955.31903992202478548 -964.39114458125447982 -942.43299334620292029 -972.82977444502864728 -975.21304760377529419 -961.03860304703448492 -988.18616461706665177 -986.69092841003259764 -953.55472394624143817 -989.10743151515521276 -956.26313140459592432 -961.03098539225698005 -969.40140338613230142 -962.65947764174597978 -962.89370282062282058 -994.55688096696167122 -948.40966709076303687 -977.27083570020886327 -943.86407080186370422 -946.15034783071291713 -961.34236452571201426 -966.96198590456435795 -983.5706363335051492 -961.86970935625106449 -973.38447878387603396 -977.6187577231277146 -963.85455862244691616 -971.4199385885809761 -956.29506059132313567 -963.58694417353171957 -974.16110543013360257 -980.83233312499351086 -982.22644457967703602 -999.39127486891300123 -954.34110019454624307
496.243490238965137 488.75575926007383032 489.93677941157272926 493.59079277423609255 485.2868801274360635 490.03145633321429386 495.16371994619862562 489.68524054051437133 502.77444997891029743 489.62751007746601317 489.74576393418732323 489.48482644095975047 496.27864908648444953 503.70993222388443655 491.54183057402764234 495.35946505174882759 486.94861446933145999 487.12470135034965324 493.82397107248999646 483.38231135729733978 510.39758647315181861 496.74528494266832013 494.78519128295033624 498.58235781600706105 494.29180874141354707 496.32671003266079879 489.74407549442673826 491.00466704163284248 505.82966884449342615 483.6135835990888836 480.54149009961219008 484.6081271917434492 491.042007438676535 499.20585244816498971 495.57225449472133505 485.79012218468153605 505.86970824182253637 500.63469931996615969 498.02742694460943085 499.64246893519958803 490.41383329634322763 493.63158862800378301 500.78354148965485138 492.1154124825526992 494.68860170685030653 492.05088332004606855 496.2111797452532187 495.49536812309526113 495.72782774488638324 491.52228226845261361 488.91828664477816346 493.90418668877902064 490.92818067361429257 485.01941346411712175 503.59744168989186619 485.10992677228273351 503.90373220350363681 494.24324764944589106 496.38027852779805471 485.59156681121959309 504.68345309638903018 495.46973948456843573 492.04932479128297018 495.19532571713881453 496.91984187378028537 489.37694437802895209 488.8415301001291482 489.24316612792159731 488.07447193986513412 483.65166613879915758 482.33401619645957226 487.05623737784384275 487.23537840361638018 489.43713545763887396 496.10620506657625128 489.14765296419028573 501.2865204988540313 493.01501484441820367 491.52080597636881976 482.80522017534394763 495.12059917159342604 492.30044350677081866 485.57571299802532394 498.98456193151685056 493.41342794656924298 489.48143979701495709 500.86310442146941568 478.24185309561079293 488.43827742012996396 496.07568329648682948 499.06595607150234173 485.13583146145015235 485.96673382253260343 504.80628010321083821 502.14384905514913271 495.94699848565733191 488.47800751166028022 506.74955236628466082 491.84917652830415591 505.24655373370961797 483.50687916660399424 494.43852477445705063 504.1843970560979642 489.52570670334068836 489.10587390529445884 498.90244950316031236 496.43728770125233041 499.93060712287626757 484.85693378236743456 499.06988060581107902 496.93258242333155295 498.32692634298643952 492.01139783670970473 493.30529326641186572 500.17617204797937802 486.29256255571192469 494.97542222418974234 483.88894891142848564 486.87421061318167403 502.04590976624695031 496.14623492875506372 489.754685353974196 501.62799705826188301 487.02872534071030941 487.78167225664026319 502.66255497030635979 494.59817849480043606 494.19429840027879663 499.2745848529742716 496.12867309054507814 487.47784293913321108 492.15649236273219458 493.36867063687628843 478.35321203266477141 498.59543820473186315 491.03818398700155967 489.47339063912812662 492.33798450723850237 507.9621210022816058 490.29587446694046093 497.91040576039910093 498.99583282770373671 486.9503839662446012 486.20692896874180633 492.9667074697474618 496.26898782138380284 493.91253215831920897 498.00526198831931879 489.141904216383125 489.08616641861573271 492.51024355830685408 495.53799574814888729 491.88350615912111152 477.97268733265616447 498.60046922238143452 491.81471238050085049 491.16982552229740122 487.0070101753834706 506.36534673095275139 496.67736807380714481 504.30806249153397403 490.84721704829399869 487.4671631950782853 494.87432338867358794 483.18199794602668362 487.30577905836145192 497.26951094579834489 495.05869654836124027 492.09978429623407692 495.06941394999574868 487.4989352234956641 491.1513796786064745 491.98743661474065902 488.32386967695532576 491.26149498511381353 495.73194054454808111 496.96133254453695827 508.04525647508887687 496.10797993601960343 489.60581482237364526 492.4279644483666516 479.14638664352258957 487.91974454072959588 476.86550155575616827 482.72920141487190904 485.81242935124618043 494.99012374539444181 497.27899178845814276 483.23288948911590523 498.81052178389649043 508.29617606711059352 490.38503931094300015 498.21599666952153029 496.97414345172950334 492.65456933895916336 476.46891301562487797 500.91108819973919708 503.96856294309361601 502.07817686355718934 500.69515895440804343 500.53181543928593555 497.84713340828091077 493.47597607977263579 491.36690264643959836 503.4973329991579476 504.86780548813800351 493.3594891318184068 489.26771624546722705 498.67327077363563603 490.12288768396814476 486.18525815572013471 482.07637597663915585 487.1775934643555388 494.21161503016639926 491.9050556806307668 489.31810789346940282 503.51805140631313407 491.02172834498543352 488.91998012672752338 488.11096923691178517 505.59317675041887696 490.33236946399011913 494.14002956843256698 490.77381459265183139 486.48337377073460175 497.60104363921084314 501.42314882391548281 488.02658812988545378 485.63773562097276226 483.4576347958985707 505.12701181450154309 507.1736425947217981 486.87752864244276907 500.50293887701099038 492.14392713816346259 483.29831204709489612 496.95597853848283876 493.33497703639579868 493.34773685699695989 496.25781970440903024 493.35753044747701779 497.08787195616264398 493.698756510841406 488.64556609360278117 488.40234763212339431 493.7937949291251698 489.99165772693498866 499.44296429655207703 489.63264629285623641 487.2204269099735825 503.73794285281093153 481.55719374753448392 486.38966053942800727 496.02944993319670175 487.57327000513868143 496.54577275535933722 500.43290371686418894 491.21790760456576663 496.84833344738621008 494.7662257906718537 502.05792276956884734 488.23166246648281685 503.24667154785419143 491.4115333692840295 506.51204405724888602 488.31816657427441442 509.48134314053731941 490.14273884330208375 502.62496841002825931 501.6184787691209408 490.75893736328066552 493.57559395358742904 494.8684926093338845 504.73761127972659324 493.95035922423460306 497.75757666881781915 508.72507219244312182 505.14747374521078882 500.04150685572943758 485.72200224270181934 494.00832285844080616 498.94072458193289776 491.02620655157880947 488.7860375876936132 496.15998200753091396 488.06512263811049479 499.03161166191364373 489.23720252893974703 493.84595368228372081 493.02011472523730617 486.35812206707294081 497.58676084360047298 493.83290001702636118 496.81666456006490762 496.48001295293227031 498.58130584181071754 505.38562976388732295 497.21066982191450734 492.33898152722457553 496.81664498775785432 489.80314919440974109 493.96935781786027064 491.59311811390921321 493.40382229714674622 494.4144721397681792 503.10513581744555722 491.24014712064450805 487.75628379374722954 496.86414431232981315 488.93647303940025495 497.7202668400160519 495.65501416329010453 490.21446071655026344 507.51059129084171673 507.67558177254255725 495.14375761587228908 495.82336407162438263 494.93707846537353134 485.79333082188094295 497.6438643670198303 477.73890746608083191 505.60579153323720902 483.32924511106898535 501.35701879754526544 482.94422564233155981 493.29540872034584709 498.21717464237661943 488.06909624209458798 493.34005104126856622 501.71702553332318075 495.69829410424301841 484.73540764881357745 486.77935718497133166 495.96203275996953153 489.44180604301209314 494.4298310701372543 488.37591329048115085 495.4199680251982727 501.1450051692391412 488.98401108469789733 491.57423443211712311 491.3403344235395025 492.7907204977656761 483.65623251636827717 490.26120093194776928 494.70194718284784585 493.19208330180612165 497.39440694673106691 497.52026112581444295 497.75129362429333924 497.47019819418392217 492.82064805701281784 497.69649100512583573 488.03547319830533979 494.14618462242520991 497.21092615361754952 488.94454985911693257 497.9730107314916836 504.06998571975213963 497.98749674917911534 500.40193705087892795 500.72408209414516023 494.45772067284309514 495.76472219410476328 503.4241388155179493 482.01189720062518518 483.54420037751657446 489.65096932323581314 500.82505279969888079 484.26517213005200801 513.27166356765997079 489.11383327217430406 497.39265767509868965 492.71931186200180264 492.16465576032857143
251.29860245468563562 251.45411742521173437 258.06962012226182424 264.04025816612721655 251.16112637727246693 264.33653660900074556 263.1331393583859608 257.57293506955772955 244.06220225025882087 254.77628301036054381 252.68443748955539263 247.4384584858757421 258.06071974211675979 263.60752267312943786 261.0565267604993096 260.64617627712055992 248.54586877623520991 244.03533355642952074 259.96495908319985801 251.98201943165580019 250.42717257281327647 250.90724154757592146 251.39250720186109334 253.62152947443635753 247.4786472955905765 254.61757808136678705 260.88750853834449117 253.64271437194219061 246.00762793129436545 247.01137951350631283 265.43005997267800922 250.5072027573482103 250.97270938626797943 263.56553765822735613 259.47072083024272615 256.07482873103504062 255.57981744405216773 242.60067247002078261 259.82067198805134467 253.44088575371984007 256.35597969793587936 264.9507704453782253 249.70398892625703979 255.04092768500814259 266.35279927564215541 249.61363004558802459 257.1394765985912727 262.01512546304292073 253.12130409596971958 255.45614838741337849 254.68254567217155682 251.79226415044723808 251.62849808056748202 261.69386452804343435 256.35411809207079159 253.59222180497135923 261.85794999111425341 247.51847726552571771 260.18185807809499011 251.60187117735276274 257.69854593336322068 260.25715298146030818 248.4192348119009921 250.9665007811400983 259.37142811486427263 255.77333008009847504 258.25801974169593223 250.77194655453169503 259.36052238313243379 257.78714379280989988 265.92964391559519299 252.09171309961726593 255.36890232133217182 253.85830880291740641 264.43981600700703893 259.62422034400105986 258.27876686639882564 252.02113430894135604 255.28549111725675402 256.99133463668039212 260.78956598443835446 258.33485823378435953 246.48875031980153949 247.37160059129934098 250.14468683052530196 256.97285619537200319 258.85218870705705285 257.54336244205620687 254.72608551253540554 247.59125953111805529 263.12837882859037109 244.30636265984816191 253.15659088055653569 261.08465163667978004 248.4648691076978082 257.68302816705755731 263.91353148698675568 252.61730603337477419 264.71691709130215031 247.65120609099176363 247.50808953570134463 254.21122382965089059 267.37240106324173894 249.56054977305436182 255.29269458443167196 243.44809206742900187 259.54727913338217604 259.38644546704716731 261.35725465419750435 260.33636939678342515 244.88968934470713634 253.98708893957550004 256.70202617613358598 248.03856111381125515 255.25667590427508458 262.48649244070509212 254.14006405017042312 252.64750101867750232 248.74132197875317729 268.1991097136133817 254.77062516422051885 263.32721389804311229 252.62224467454507248 252.83166910220785439 265.64688167274164243 248.95382767777431354 253.91695648939648322 248.0716614533963309 246.653067408768635 258.39640617215121665 249.74886837034640052 259.4450430979200064 250.56415538934692222 246.98719298177525161 248.77722771272001978 255.81425065004680164 255.12038572654967084 268.39794805821190948 266.87777466485181321 261.18982942849049778 250.92788099687402337 256.45636658837310051 256.73125407678196552 265.69086868432719939 257.76766559192822115 268.03146429558711361 250.96991211514608722 252.84725907667225897 254.21050359172721755 251.26904102638457061 251.06590410111886058 251.30770511103804665 253.69206892233171402 260.04019643572871701 255.4477380046964754 259.90259349935439559 252.68150801020479435 247.35124397464937829 261.54884540272831828 265.28707787978606802 253.17683415889192133 261.59280197142334146 254.72357661701514076 262.91062385345969687 243.05709030817109806 244.42676456209349567 248.37866633033058861 245.92873985810945214 251.0373407840951927 247.07925471559286734 263.14945125973969198 264.67636894150450644 262.83292788532980921 257.21901686166836498 259.80533380891256456 253.9986690914491021 248.07591233115059026 253.81001457648176256 263.57178232756513125 249.22781629873620091 248.05263148541712326 255.66899675399866965 257.86502075956889257 254.66992698205964984 259.6555651528275348 259.86380087388323545 260.53724548767843316 256.24997394425707853 253.97478161096464078 264.32565060800766332 255.54890552909222379 261.11562082128062912 257.30026586820315515 270.96581445609945149 258.131764660468491 256.16165250149924759 252.20862627531124645 250.15986650662773627 249.43681563289894143 260.63699605112208246 254.44712634524961459 248.70082066573704083 258.27817554145519807 258.67142402006942348 249.67038134843937769 252.78436116638155795 249.67488091282172036 258.9920143739502123 257.28252138134899951 261.79173474290416834 246.57354202831524503 257.63093144819254121 262.10644883949106543 258.21873035570223465 247.59172082811198834 254.45622139514836135 258.8530217309546515 250.41102875381704962 249.6293282582877282 249.4901531022011909 247.98148286909059834 250.90546773079481113 258.73177777589103243 273.92400453909715452 263.94525927464496817 253.69632220604898976 248.22008099338376041 262.5495625048371835 252.44073460240750251 266.42664893811507909 257.03595937938365523 259.27691776853447436 255.41951082719418764 249.04545267104927575 254.22880230408850366 251.95842762027683648 249.47325703973589839 249.06924253391534307 251.21797193358395361 250.62943000876663291 247.53002849691719689 262.60701141872118569 251.0919432817489394 253.20879415101310883 259.8917660914577823 263.06056467927868425 252.19360245492961781 242.38672698852749932 252.63550271184840312 257.7984147993504962 250.00939452897142701 253.81102229029738737 246.2898832610887041 254.9630940724740924 263.09831068896022543 252.80237794205478963 256.59896848225753274 252.78756575051241384 257.62386482813855082 246.62050881616121956 260.31994408785539008 248.72526105630265647 258.61190961906220309 250.12419741933769046 252.57387707717768421 247.58770506532005129 251.46679264665814912 258.95188649973380279 265.3465672758249525 257.50233693840846172 259.56791214071876084 259.66200271450657056 251.55509113854466818 259.57723625324575778 255.67635701613099286 251.21671970210971381 256.67702146085593995 259.18542182756908687 242.36092089725778465 239.15618746621640867 258.45803685705334374 257.72525383498538076 264.72014880022402394 258.20802960255969083 259.64960075747910651 257.12512886147243307 263.89344709050641313 261.58162819152369138 260.59652824619047351 260.91512698941465942 257.75800806873792226 258.26447657865833207 256.3312548016667165 250.23046076891068878 253.52391410793512705 247.62058860776534175 257.2913769087472815 262.45304898552114992 260.07781646663926267 251.34269704657120315 247.09355939030709237 256.09007232561828005 271.19182520356667965 260.90418187622918822 261.19030487304650023 253.81283690348135451 257.76829680143725909 245.04101238042972 257.7766634312559404 256.9656359686931637 247.94804871636691246 258.97765466472247908 253.78881153020938655 248.06425050396131837 246.68133145731204081 254.56931018382957177 255.43019627794436133 251.85887659334181876 264.34725292599563318 260.46661967953997419 258.53344688982656407 260.74188477079991344 246.58003564087752579 259.53572118845568184 253.68933265123155252 259.9480275586866469 259.92030912459807723 249.37702836468710643 261.15772515812898291 246.27426624627375418 253.32388957744691993 250.14370408269945756 254.73296254092551294 254.58737850865432506 259.76281959147445377 267.42428571649679725 261.37909451609499456 254.6899227357908444 257.97437655518348265 245.78757437332615154 256.09637215741958016 256.71864983131933968 259.52360337988403671 257.87659398743193151 251.30719011539812868 260.93720732677218166 260.73485361649659353 260.7577278891790229 256.78691172990704672 253.26294645505785752 253.89141975313782496 242.22696040808372686 265.69903349555005434 244.75829305988906981 257.60863083473020652 248.52169892902654169 251.92447977876869913 262.32372305476303609 254.41650669378356042 253.35913607845347428 258.4731704369546037 259.91958030517281486 256.56945995540780814 260.43119015297043006 265.24692236312398563 254.05260178320668274 247.3506893217703464 256.52388989007710052 253.01226534820548864 261.05242724346180694 258.6828553174613603 263.6421010057561034 246.72754747565437583 257.50132135764914665 254.17104132306391762
-1236.2543427659152258 -1229.7959350813825949 -1254.1363786979425186 -1227.7364831996655994 -1248.2377551370293531 -1246.8282854543381291 -1272.1658986969853231 -1265.5168317823411144 -1255.6836368479596331 -1251.2600664679796409 -1223.2022736652008916 -1252.8780117587848508 -1233.0407647420520334 -1246.2457372054323059 -1247.3086251930528761 -1244.1029839941193131 -1227.0174561000010272 -1252.075413318077608 -1237.0199115979260114 -1244.8611755504846315 -1237.6127570710095824 -1259.4084537112555608 -1206.4054602776973297 -1246.6479805647290959 -1234.8753479396655166 -1250.959612881688372 -1271.026792739379971 -1228.435751998144724 -1263.9490648969433551 -1239.6977774705308093 -1254.6002307661817667 -1261.0958350909436376 -1251.9756506462808829 -1247.963551768041043 -1217.240951061949545 -1250.6952413642607098 -1255.8132460240960881 -1254.0352506918861764 -1251.922200266317077 -1239.6007978312595696 -1262.330651839365828 -1254.801366350404578 -1240.1066918050125878 -1233.0899891703595586 -1246.19959238669162 -1246.5154160417798721 -1243.2334856854097325 -1269.9872120290942803 -1265.7359575975820007 -1253.0541069778028032 -1219.36793461636762 -1234.6638402617111296 -1223.061584487789105 -1251.1284018237597593 -1248.7396415254188469 -1245.4594919752948954 -1245.6532130929233517 -1265.7415319910523976 -1240.8907227846718797 -1219.2131452655839894 -1229.186338914102862 -1239.9282711579539864 -1225.0836009750310041 -1256.2596646727820371 -1246.6590054808714285 -1228.161608841833413 -1244.7054392495631419 -1252.2442883270259699 -1240.1656629035517199 -1269.2886898609249329 -1242.1283888209193265 -1258.780802062821067 -1244.3229883452804643 -1232.552704730594769 -1235.6841841220987135 -1239.7026160536411226 -1228.2019904317946839 -1257.6919255528791837 -1241.5503578366572128 -1250.1173302279948985 -1231.9946498011495351 -1266.3395753754475663 -1257.803724949995285 -1266.3039433501539861 -1246.2843158894111184 -1218.8906193667025946 -1258.7155112383507003 -1245.8290527758597364 -1242.8339250443914352 -1232.3396311011135822 -1261.1351294949197381 -1284.6184056701185909 -1249.0636684960627463 -1243.2550654774922805 -1246.6016612328548945 -1249.0297957103982753 -1253.598574528062727 -1249.1288201623351597 -1276.00605520746808 -1250.0121548997931313 -1245.686066203275459 -1267.0409117882429655 -1243.0980840567031009 -1242.4843619861521802 -1241.6085170729807032 -1230.8486959138392649 -1259.8666861167196203 -1240.8867967141702593 -1257.321314368653475 -1229.9257522670402523 -1260.9748648173822403 -1240.7416378408613582 -1242.9681713442557793 -1234.0882194526063813 -1237.944508596322521 -1249.6197922338853914 -1268.4664124246137362 -1262.0157910235500367 -1249.4110326116890519 -1240.9114462346310575 -1234.3100125509349709 -1254.8416118355121398 -1248.9459610758283361 -1253.7902148560249316 -1248.971642548350701 -1235.3804003210050269 -1250.6990365939821004 -1244.2120499866482533 -1269.0463330002417024 -1245.8645971642506538 -1251.450526873982426 -1257.6251823490147217 -1257.4720819482820389 -1236.2118907618041703 -1239.2260657873393939 -1238.1823355023245767 -1259.599620227322248 -1254.3796796229262327 -1238.7574160563781334 -1258.5328445137781728 -1262.515639118015315 -1249.1971365607223561 -1239.7085182456603434 -1233.6049510600455505 -1255.2714201788298851 -1257.2441248938689569 -1241.5489393039908919 -1251.9906351578883914 -1246.1633579210536027 -1260.640537382707862 -1234.4596540715583615 -1221.7171384070579734 -1265.8975317419317435 -1234.1747339305995865 -1256.2172582891491857 -1262.1367908609356618 -1237.3972933393592939 -1264.2791875427549257 -1251.1044811030567416 -1233.0019736715851195 -1245.5933973953801797 -1259.6599670856919602 -1264.751477358657894 -1248.7980781975700211 -1264.6817743527017228 -1250.0136611602429184 -1244.0149325039856194 -1259.4286799692042678 -1232.5801884932106987 -1225.9276571643449643 -1234.0089667163776994 -1243.4638474380069511 -1258.0981627234805273 -1254.9655706789842498 -1269.4064021165470422 -1234.0812239307438176 -1255.1671156915592746 -1254.258652245076064 -1247.5033766376520816 -1253.3558830087490605 -1260.1294233829796667 -1243.4184462336404522 -1266.358371988677618 -1237.1588125168268562 -1242.0527598213645888 -1245.7485074682599588 -1253.774500666916083 -1245.5219291322837307 -1263.4666459035126991 -1251.429037898663637 -1260.8243636256929676 -1244.2464483573701273 -1255.6589136901075108 -1245.086308679810827 -1241.0503117971786651 -1230.7002685704708256 -1259.0206456532876018 -1256.0270766303951859 -1239.6632455780750206 -1260.9105514526486331 -1243.9916573036744012 -1256.0354826578641223 -1268.25450567779626 -1246.7547851474976142 -1231.62783138030386 -1262.9780178563109985 -1248.9023323682135924 -1234.3971950814927823 -1261.9238395556360501 -1251.8291900969127255 -1262.71899463683053 -1241.248270328317858 -1226.2823251685056221 -1243.5840508618416607 -1239.4023267883478638 -1231.0470600687317528 -1216.5268502691710637 -1248.642079308276152 -1235.1827069427340575 -1250.8562215136105351 -1242.4922522360905077 -1250.2084727880189803 -1246.0439304374717722 -1228.9172360383265641 -1279.4834113340705244 -1249.5789803984930586 -1249.3919924976021321 -1236.5939664354739307 -1236.5082186770346198 -1234.8905084351549704 -1249.6970183034882211 -1263.1133612640155661 -1247.2711131062987988 -1255.936164383824007 -1254.0482750607211528 -1230.7463831142069921 -1215.5597006947855334 -1227.592960389955806 -1253.0297757499392901 -1268.1916064147785619 -1248.149500536375399 -1266.3400553126359682 -1253.4278880472218134 -1278.04463450565936 -1251.7071617806134327 -1270.7985566120021304 -1248.6319518607729151 -1235.2574710322489864 -1257.3932137524263908 -1263.1320873195927561 -1267.1261785080987465 -1237.1149227772621089 -1249.2158106876763668 -1256.9075177680431352 -1250.5233221331347977 -1255.4314730441844858 -1230.2429058845632426 -1241.7982864747764324 -1253.4687004907566461 -1274.9065571761034334 -1249.4688994446553352 -1266.5950829019145658 -1228.8364905497783184 -1250.7748473576734796 -1248.1627084436267978 -1230.9701832855612338 -1212.712489738731847 -1235.039479993374016 -1255.1421859151039371 -1237.7962878320822711 -1220.4023643374562198 -1240.8154651252959866 -1245.9524088430489428 -1233.0254278149202491 -1264.2711267746572048 -1226.0731030298384212 -1265.6808821420484037 -1237.970161431490169 -1253.9241056342771117 -1228.0506342452756599 -1246.7777289949169699 -1240.247073654404403 -1238.0522044695730983 -1232.9205871402787125 -1275.0524392012403041 -1230.8250591186092606 -1270.7469389628527097 -1244.8431177472541549 -1266.9197570126289065 -1223.315933894544969 -1275.091007978586731 -1269.5421777570984432 -1243.3447942457560202 -1241.6637040057087233 -1254.8995193031503277 -1224.8925095540532766 -1261.9836186483339588 -1272.3061425040389167 -1239.3947421758400651 -1234.6117858323937071 -1270.7707658278388863 -1241.841477953913909 -1237.5028840582624525 -1249.516280820718066 -1260.7435705637992669 -1246.1629470149046028 -1247.8674474322449441 -1268.3723867383032484 -1233.6188165351536554 -1247.8225499556331215 -1274.0495155021485516 -1226.8000933940070354 -1260.1616587863140921 -1248.4415983134454109 -1241.7296907660224861 -1257.0238994306080258 -1242.4625185557542864 -1235.6722458309934609 -1254.3714521792176129 -1227.079193752570518 -1255.9033171562755342 -1258.344414816337121 -1225.988990073707555 -1249.3279872655000418 -1242.017502768578197 -1245.2604917450719313 -1231.3998864500940726 -1249.8885851171739887 -1259.0594062259485781 -1246.9392519209836792 -1246.585940790512268 -1226.3196202100257324 -1258.5383547241474389 -1255.6618226090427015 -1231.8750229585773468 -1252.2580285316439586 -1245.9950828833459582 -1241.5987469241761119 -1239.8214717111723076 -1238.6919754492321317 -1251.4093346492659293 -1267.5316548835571666 -1243.2558067238135209 -1262.4279313182726128 -1250.9620368193504873 -1254.7063493763789666 -1255.1466231655401771 -1235.2712873403122558 -1251.4027385720635266 -1253.0449021846909545 -1241.5916631322556896 -1241.3844266996488841 -1222.7528357042667722 -1265.30617231755582 -1234.392190552135844 -1240.4464049594585049 -1233.9327188967331494 -1246.5708791141198617 -1280.9117164880171913 -1253.6618209674604714 -1227.2237460805490628 -1257.9014705094618876 -1238.5053195507391592 -1236.9203465536272688 -1248.3924594683933265 -1254.3084457514644328 -1232.602076795858693 -1233.403937936449438 -1261.8413380968841011 -1250.8308085304468023 -1250.8463130492593791 -1239.1276749551784633 -1257.613655382750494 -1242.8583235916114518 -1255.9456019973390539