91.092189740384540642 84.544576638241906608 75.352300527010328324 76.514556641167061457 83.581418192300290571 92.447777294846048335 89.410737412053308049 77.582874255122248996 84.240341792010383415 80.256808547852870106 75.82815862250154737 72.206080861227178502 75.463888536865368906 79.889133423907153997 77.014231011349139067 75.734847132167033124 77.022623899487626886 78.88076644455382791 79.271893396378501961 79.25134148024329761 85.504404258710351883 81.006054732838634891 81.774008440387902397 76.240441517457753662 67.78360085302522009 81.917683654622422296 79.526943302379592637 82.407116275411041784 75.866252534693870757 78.826691869897985043 76.215161231554745314 79.669286472423024748 84.570284973222939584 74.444508132077359619 75.263533109600885496 76.469722390677347335 74.930872613742351973 82.833125903131403334 83.058045323615445454 73.018464293434035994 75.349610485264705062 77.895605429225128091 81.87750052830857328 69.244567576298621248 77.257505435636701918 76.622082647645797238 76.092220056099463932 70.294381706916155395 92.172992773813660961 78.754535546640923371 68.324398987572166675 77.100748370189037928 76.580362109779855473 83.398565212102823807 82.050467583761374613 79.127654236617416927 82.329052753296821265 88.046582906007159863 78.316295729427380934 89.591720597190430908 72.558296165106781928 82.600852767309575597 73.266295762646976186 84.609047617677987319 80.985656472652948423 73.963883602708804688 77.398223112275886137 70.45616379550176589 79.138567763822862844 80.623919229796712216 82.247483725195195348 72.811940816953793387 84.687268961127685429 80.555108245175361503 66.436190802628374286 91.98396877123707327 82.503549005489219326 78.049797876516691986 85.496535774781193595 87.415247640415614683 76.863644974674869559 73.740985639697697707 80.682420177707840026 81.527259091936258528 75.996456811507840712 83.085273272278229229 76.930184720413294031 78.945505899815287876 70.237946041586553747 86.06158881221794843 79.779897216945144578 76.135856369703247992 82.181334199391088191 84.177673092137027311 78.465503570076236883 88.157796577592634435 75.567155054072856046 86.476041676414439507 82.769829134557099337 88.628133092499183476 91.030832595807240182 76.626843749066793521 83.451172479425551387 78.843720067899226933 81.601388026599394721 75.087308554692114626 69.355825060957599248 74.985425319693135293 71.537291458084325768 77.186899938099799101 84.387907530231245801 78.969022811499442582 76.397371493935622766 71.382996142320166655 77.285152725105007221 82.653085350837926626 81.018408333332061488 69.435497779065599389 78.879206537325217141 76.869851987887898304 84.607842981587069175 75.539092713832957315 73.324846546538836378 79.512696641445188561 84.610484792722459702 75.654163534573669381 70.09401494271682509 80.80995648842029766 79.326020483879261747 62.498661497546677879 76.710066404910449478 84.996724410476417688 78.028650723718968152 78.466043885932023727 88.884690915867608396 83.453008406180529732 77.208285717878354149 81.243240767280369141 73.5335824128938782 75.873486851138935094 72.484541197354474207 82.081279189390130568 73.863439967667645192 82.235865109295829711 83.419957592508268363 77.287899494790636368 75.070887004169264856 68.492629305660443606 71.626720422716886105 86.132631284054809839 83.134585560247899139 89.378234629658194876 75.966295759572560087 83.604841944500108752 76.984082407670854309 66.933128344196191506 69.610363702227402882 84.838980627205060614 86.211974064412203234 88.582106110467606186 83.111399334851554954 80.710238478298066411 81.105844803109363284 82.583870336449578531 80.093882966162084358 79.913295001525540329 82.721420345384217399 64.79590524681493946 74.733501490022447911 83.514752808079009583 77.225981770440640162 74.806732290235842697 79.891117568569868013 74.167354916651021313 78.851257910448737221 86.623414618823261435 72.998346934885603332 76.43393870170555715 80.566431836595000959 78.752678027092159141 76.081950406919219176 78.075507733173864722 81.512950589186701222 85.823638008716343961 83.389795513148953887 77.969701425936548844 86.925970554807108215 81.896566790889863796 68.470916814543528517 76.618042537765916222 87.676581181647122776 79.337736772116215889 76.498761797870230339 79.355032648917401161 78.320277289120866726 81.500464991707559648 78.614474585810512508 78.710506010836965629 80.474118963403881821 78.336872847582640134 78.813759086265349652 86.319177467335350684 76.431051842077692982 91.722329313489908031 79.761520876373452893 78.427687468289761341 72.87236500502059755 81.151207877239059485 79.871368118875437858 86.278888208815118332 67.33316108334364003 82.627350882159646517 75.925279410820039061 75.62379704504877509 76.349543262127781418 74.209534764399379014 78.906675760595760494 75.944229495551851983 85.743132745042998977 85.183896796588442157 75.045037720301465356 71.936430808946624893 82.707518490361763952 75.526062928182000178 66.399975745025528795 75.691642980557048759 85.460486512308037277 84.390983884029424189 80.481753194042155997 80.05607927291369208 72.786053288496617597 78.555120621522775082 86.078360205665049421 80.30651793124160065 82.977567513926501874 83.700241488516695654 78.52080367382922077 80.597679396980069555 72.591826712292672141 86.425544523195384272 65.169214804655354101 73.757630678700152771 74.710903128200826018 79.554860440209196781 80.941197453576791077 85.564468521840638005 89.232316131309133311 82.194172512075240888 76.991948605148408546 86.013249860929477109 77.558588732839425006 83.571714552457976311 83.766017304563902712 80.93563363683767875 78.198206503159639169 88.555706116504751435 73.581816729215248074 79.447938415076620799 79.568455833966339696 77.118366430940938017 71.634830524576386779 79.02775155602168411 73.186507554194065506 81.179102040388698924 78.715746384569115435 87.306342290056477395 76.678444755425545054 67.50525992411493803 80.615281121473586268 78.326135774736499684 74.847469797644379241 78.040772144260870391 78.757052150797065337 76.789038443849349846 72.272700208721360582 82.957176286685239575 79.580698874917231933 82.541356169625572647 88.638957949104707268 80.438893034032830087 79.292159635667800899 80.81092881275348816 80.344728173209432498 80.040855415276169538 80.450822576221952431 78.857973938240490952 79.861949701770186039 75.662385967242087759 81.296457796278815522 80.136325265109917382 83.791977507497819033 84.436063528671610356 75.319893725734459622 75.834997182092834578 75.39915100440394724 79.393145486345886752 73.191109355679330406 77.306491300719201831 76.697190531561048488 77.659943468514626375 80.037147258614709244 81.141023706022735951 81.211714293023021582 77.65924743883114445 79.765709972719434973 70.491745139142480525 69.533426145118852446 82.674587242741367277 78.832354928786813275 77.598533899666875868 68.700266970349105122 78.308976885062151041 70.665013908729420677 70.612766258342162473 80.190653654173829068 75.019535341322736599 71.929338024205094371 77.941544231813352894 75.132105081658096424 75.809806468531405699 78.358433809121407876 76.031144304467503048 78.823933918029638335 92.28916911100181153 70.125817876126333772 81.858546774947527069 86.40831919439027331 72.872494735017284029 78.193329538877890172 73.500352431911139206 78.743118502444673368 72.051706797898290802 82.756549403138038201 82.748786390164241311 78.342164452958940046 78.545159399823376134 79.143694564301739547 81.881232203767481792 88.463280722268692102 72.062953647210662211 69.640937440532894698 75.327078650575259644 78.485853615271594208 78.812574106961704956 77.967130521257288933 81.457550575688159711 76.218606278711661162 67.643054157104188562 70.314672790970192295 81.004576585068349459 86.162773934580727087 77.59401929836359102 72.199882466943876125 73.840455546588032121 67.442499307834637534 76.135225934042310314 82.739266499955846257 82.474206316811560669 79.555279098796205517 78.71273875769031747 73.130610076013823573 75.596143099603636983 87.472930534061973162 74.487304579033803975 82.855080437473247912 87.686224730126426152 85.301460688660355913 77.512543940579732293 70.291631128498664793 73.305671798971289377 78.993934856121285293 81.935035817657166035 77.325097935734305565 81.75089986099106909 85.754312951701976431
-1162.2004104293189357 -1155.3735226050325764 -1160.2990303881638283 -1188.1805201307035986 -1190.8320258578280573 -1185.8606002994401933 -1185.6748479680995843 -1163.4273156529386597 -1171.7047287319269344 -1187.7660245633558134 -1179.2897530003285738 -1180.1591938849337566 -1176.4703589175187517 -1179.7521002453156598 -1199.4207848850026039 -1159.3219276395161614 -1161.1934698332815969 -1185.719927686652909 -1172.5789039259655056 -1151.554965863576399 -1184.1700217871293717 -1175.3994217184085755 -1182.6084488417288867 -1165.9704235295389481 -1160.8030739888849894 -1226.0650856368154109 -1180.7617238442742291 -1179.9141374380260459 -1202.669779358561982 -1194.7835581717179139 -1183.822272108254765 -1203.0163624174945198 -1163.1758820051093153 -1194.3868091676904442 -1182.3690040447663705 -1190.025084771273896 -1166.2041549887437668 -1171.4399220233483447 -1164.9331883477514111 -1178.4205385464476876 -1145.6594217825813757 -1167.1537989873691004 -1186.8543400808937349 -1179.8998889221422814 -1183.6473670297091303 -1197.6386286248157376 -1195.3145706039958895 -1182.6598745392516321 -1200.3295434937174377 -1199.3187806035587073 -1196.7155087743510649 -1185.0209694421623681 -1190.9249326510046103 -1155.2934824410174315 -1182.5578097181517023 -1183.1236252437834082 -1175.4324379610075084 -1170.2261299962217436 -1165.1534809323616173 -1172.144618509410293 -1188.6538032744558677 -1160.4827359625205645 -1200.7243125140369102 -1182.592179252373171 -1158.1205963242650796 -1200.7827209212582602 -1181.5154471681373707 -1182.456207024901687 -1190.9637856449285209 -1196.1069450803299787 -1170.5107002127156193 -1182.4287371155903656 -1198.1727699629520885 -1183.6794159675607716 -1153.4382395388497571 -1191.3169337162628381 -1172.7212405127886541 -1175.8714000019617743 -1187.930402465893394 -1178.1439568465796128 -1165.0638310661222476 -1173.2078318351543658 -1178.8097419331731999 -1165.3788911266703963 -1165.0315726981693842 -1199.4385123544320777 -1147.6980992496746694 -1174.5769467654113214 -1201.2614693279610947 -1196.9303348296459717 -1171.4135776488981264 -1174.7425238787482158 -1175.15110696789543 -1172.4816053045403805 -1183.9985968112714545 -1197.0960162948974812 -1184.6144076313555615 -1171.7816458598886129 -1195.1367421389120409 -1168.052639052084487 -1198.4992701483620294 -1200.2125477355668863 -1162.8578045597780601 -1168.0363609419291606 -1146.275694999025518 -1180.2313461692931469 -1170.6151754701970731 -1178.3814954762513025 -1179.8590970357290644 -1174.3719231482841678 -1173.5099831768670811 -1183.4565194894491924 -1193.6249180674533363 -1162.3147064100091939 -1193.940225973874476 -1182.3078023861507972 -1172.9989306690933972 -1194.1553839596142552 -1177.4614051305838984 -1178.8642720997640936 -1182.7108863145074338 -1156.3746975207943706 -1166.8865772935732821 -1188.6708226999000999 -1188.4359405744360174 -1211.3063180732892761 -1180.4432010938041913 -1161.9509437469619115 -1186.4913344977867382 -1201.0210146197887298 -1171.1149544262218569 -1151.8859121952457372 -1161.1990669060012351 -1187.0183216187340349 -1193.5761608489785885 -1185.1935572163552024 -1195.9638513583809072 -1200.1470123500937461 -1200.0288262957121788 -1172.2062946836838364 -1144.784537221288474 -1170.5022308215152407 -1169.1189018355919416 -1183.0540346399027385 -1169.7026795510612374 -1161.574816880616936 -1192.1884393941982125 -1174.1634495429070739 -1187.8828894542139096 -1180.5648613373132321 -1154.8899428308047845 -1162.1414318743218246 -1176.4701635293367872 -1166.2153860173571047 -1161.7770346920294742 -1177.5962380346243208 -1184.0774567585849582 -1191.621881658152688 -1151.9157829829405273 -1184.306409756665289 -1195.557863747972533 -1196.0536351267221562 -1155.0020116335981584 -1205.4676552926712247 -1188.0919805470082338 -1185.5316889117323171 -1180.3797951886861028 -1179.4523930308130275 -1164.2385338763317577 -1187.6696370255547208 -1176.3772208710252016 -1173.317480615849945 -1198.3988606935286043 -1194.8036487840549853 -1190.8509768852472916 -1177.1029174928698922 -1173.6015697784491749 -1179.9947643067196168 -1173.0954630272688064 -1182.8372997276785554 -1169.0447112517272217 -1149.4959071210930688 -1180.5326570625700242 -1172.9086990900923411 -1181.7926440812493638 -1177.5501076313346402 -1188.1570882546448047 -1178.2324790505579131 -1175.2866659749415703 -1188.1071437291377606 -1192.773000919046126 -1175.2620387751821909 -1182.0757000300293384 -1153.7472902536242145 -1161.6517670139267011 -1183.79817679009534 -1185.1106696431131695 -1189.1826814032870061 -1199.5254039243518491 -1174.8267633573686908 -1180.2864723333532311 -1190.6348908855804893 -1198.3091423505265993 -1180.3251539634538858 -1199.7510810902044796 -1184.0288549231972866 -1193.0132129066994366 -1193.8569227179780228 -1190.7993822901275962 -1169.60315740985925 -1188.707041181851082 -1180.542777560555578 -1182.8751624758519938 -1197.0343620938326694 -1166.5287576684297619 -1180.4848917025808532 -1192.5652955511411619 -1183.4075077716524902 -1195.0831422654432572 -1194.4233716532000926 -1185.1024036427684223 -1176.0053696241266152 -1181.5407862646784451 -1178.2147271119213201 -1170.6190659515912103 -1183.863393748199087 -1183.1413173393723355 -1190.1992842122551792 -1194.9325636307357854 -1181.1120266313469074 -1159.1256671052854017 -1185.0234355752363626 -1158.7174934344220674 -1192.6788575418167966 -1175.9967775121558589 -1181.3383619014566648 -1186.8855038055030491 -1191.8366073433780912 -1191.7332291972297753 -1185.7218171176955366 -1176.0133763444778197 -1172.4048409457245725 -1201.8470868801421148 -1176.9749783946429034 -1185.3790028367020568 -1185.8159415903201079 -1167.9144436861165559 -1206.3250445939036126 -1194.8878830307628505 -1186.2652368068743272 -1206.2225622115493024 -1180.6229694719006602 -1190.5154001228754623 -1169.6964977827708481 -1182.1576676629458689 -1184.947481664574525 -1170.9474920499951622 -1190.0262944724511271 -1185.7882088901178577 -1182.4377555821442911 -1178.8968351224823436 -1181.7557609897421571 -1156.5688899707740802 -1187.3855399578681045 -1172.8426078195993796 -1171.2362108990639626 -1188.0143778961180487 -1156.2036785725890695 -1194.1895124704406044 -1162.0335382084776938 -1179.0262268793480871 -1179.9859950438039959 -1176.4343510669250463 -1161.2750571078699977 -1180.973130079203429 -1155.7611750230460075 -1185.3309523543673549 -1167.5791284895103672 -1174.9148855306518726 -1175.7973567235369501 -1166.8777686156297477 -1179.7396737638462128 -1171.3003087472811785 -1177.0196240379873416 -1190.3396583902335806 -1186.8979097867431847 -1177.1618771299756645 -1177.9197160852245361 -1169.8956884787173749 -1164.8197911773361284 -1176.689884127303003 -1180.695992720591903 -1207.0069621377158455 -1179.8057984382328414 -1184.2617882502158864 -1175.2788401691323088 -1163.6376496950661021 -1172.3821709161218223 -1170.2629776740798206 -1169.2110663992814352 -1179.9869626276301915 -1184.9845532190681752 -1177.1834116636284762 -1163.7894328777992996 -1213.7871111882031983 -1176.7066237140663816 -1162.238116483271142 -1182.5561586930427893 -1152.4167537996531792 -1186.9492734044033568 -1193.8910507689847691 -1190.6370492767284759 -1191.3067517122776735 -1197.295877954127036 -1197.3456468528409005 -1193.8320008100695304 -1169.3423652624446731 -1172.7525929988162261 -1197.6354338299890969 -1187.4603723706647997 -1175.4542874351072896 -1177.3164395602157128 -1185.8418924845482252 -1174.9355534865394475 -1184.9621556609349682 -1196.9836804656915774 -1165.5524883305183721 -1187.6786699875485738 -1190.2256408727557755 -1195.5163530171394086 -1182.8576403173344715 -1185.5831074851791982 -1177.1232018314667584 -1179.305071506761351 -1170.389715707734922 -1171.5348272296182586 -1176.5096981020078601 -1187.0375099725224572 -1184.8453120610704445 -1192.7055852825096736 -1182.6774091592815239 -1194.8231341956204687 -1174.2720462263666832 -1197.6946289586057901 -1181.4243688421368006 -1173.4415344206493046 -1179.9533062112668631 -1201.638237851394706 -1198.0060054306163693 -1164.0600512490800611 -1170.2359580610730063 -1187.9438859029257856 -1183.3475902696568482 -1177.7277114696723856 -1189.4525822587784205 -1190.3645577734650942 -1166.2134500523770839 -1165.5858852504015886 -1174.3494451505550842 -1159.0599994127046557 -1174.9764928141837572 -1176.3208756546800942 -1169.0517501401182017 -1181.8944192733999898 -1179.8642402290724931 -1191.9827433414734514 -1176.9002296660942193 -1181.3210792400589071 -1180.5527472101039166 -1172.7942266354109506 -1167.0500753680109938 -1176.118169070758313 -1161.1433823879488045 -1163.4604550603150983 -1195.9570191114248701
438.16894820889632456 438.49677684398807287 444.64128208784040908 451.98194815837484839 444.61816837476231967 443.92626848249375371 423.25352869057820726 427.52398384773039197 422.7471033975825776 430.86608305851081013 437.18091558809379649 427.94517437968897866 452.19595621989435585 428.0891011754620763 433.87740875995996248 430.13147962470520724 435.36143120064832601 423.57530297280254672 432.65442310874669829 436.28781610647286016 422.25794695310105453 450.19407106830703924 447.74614197644206115 445.48935450791037738 426.44336562809826319 437.08212346262547499 441.3397812523434709 438.89109418856247657 443.31243185294664499 431.81169306044142786 433.35497962922596571 425.49814136818224597 449.43564648352969471 435.91908611084227232 423.71970037348091864 441.63171159368062035 437.44251643515821115 456.91040378096118957 432.31592961086494142 434.16607777892966169 430.90513586893570164 442.92207303175405286 435.2182073020039752 428.71904271478706505 446.83680860868270202 434.9046241784931226 431.28243833619939096 428.64139801413824671 437.37784113947947162 429.26094039904990041 435.8953575537730103 444.84249562420546908 444.33890636944443031 433.27508797818620678 439.80009779410005422 431.6192242920912463 436.08332509367073726 430.39169947514210435 434.34112936552565998 441.38309086415677029 439.99384456013666522 444.47719992411509793 442.79902764341625243 437.79751301141470776 440.26167757629150401 439.87892532541440005 442.55520101847554315 437.54755484564589096 447.2134966414413384 434.01177133810858777 441.26682700912255086 438.36164632292388887 430.72151209070659661 445.68727586606695468 429.9477602171435251 450.93190987290665817 438.83798273481772867 439.92689097014283561 445.50551331033199176 430.19407684793532098 439.86053121639133678 434.44004729769443429 442.08930475963785511 440.48536133353746891 416.43283597394491835 436.00811634562666086 440.87187450072138972 438.6196643099171979 434.37289780184102028 444.26862775090728519 434.13317023683976004 430.26941531077216041 435.17159692336650778 442.68815713072933704 444.73675860346821764 444.82618569982162171 431.48649393778958938 442.5089613095005916 425.80560408284969753 440.04160061367423395 426.4497936637213229 436.3485068048102562 421.4086879865260471 442.41940876470277999 431.41594786055969735 433.74636452561338729 432.46533780375870037 436.76894527595260342 438.34812412790461167 444.25636880028167752 446.03359723144819782 433.12645098905500163 428.66823627439788424 434.59188489031788549 439.76663047034480769 433.30453679294959102 439.97381079080810196 441.1180038791465563 435.83460570333710393 439.91725782964067548 425.91252584847205753 430.16453260496888333 435.30513908199048956 445.67669465445021615 433.78295037540851808 441.78642892608291959 439.99660916927058452 431.2437586687128146 440.00330829970357627 438.35706338338655996 431.63829002075902963 444.63039085678946094 429.93728496281681828 441.1036437888063233 443.28589274166904488 441.69673237361803331 448.51478098807962169 447.73152191996916827 427.3675606914415539 438.39695362745317198 432.90036895449247822 435.36689426190525865 436.09898334845576073 456.05697120331944916 448.22367993509101325 436.5375133051666694 429.39540924674440703 437.33432948407579488 439.91553759767498377 443.53584847055503815 436.1187055026358621 437.10895765400397295 433.93968346997053231 437.94793134025019299 435.93313598552708754 442.27518963922557305 428.85085729585620129 439.19060195022882453 424.96108678808576542 436.33424622934603576 427.6384952510079529 445.92333652708913405 431.99075220975657885 438.29655382117374529 434.44784411361973753 447.51729095765756483 448.17525957320486896 430.12399170569335638 440.50404830907115183 433.40627455072956309 444.51091561937550978 433.29017491210800017 434.28189699790743816 437.35891858274374044 444.44055223300551916 439.68408016076477907 437.28723826260602436 440.4286659337240053 441.28163319525498309 437.63650624532141364 447.40406583998151291 437.80923036232354661 431.29866820016928841 440.84756049888227381 444.65090867170141564 443.18412088162426699 435.65247030767432079 450.56925096526441621 434.85142964510919228 438.87890174207791461 441.44615103219223329 439.07930864160215378 442.34815995933502109 436.70112967205244558 442.87359234723822965 430.81505983924711245 448.51145961190536582 438.58487783205208643 430.9592521417096691 434.51412606384832316 437.93469765052077491 428.49747477235092674 428.28791726426123887 433.00768780412221304 442.50591554120831006 439.85758291494767036 435.10493967606180377 440.12300502578756323 438.91026151616347306 437.04319103299997096 424.58602883618368651 431.09848609264560082 421.46749860797410747 444.66165482469534709 440.82698739047168601 432.2394268462163609 431.45959957594936895 446.79218763767443079 435.0672681236567314 422.39320797997731916 426.98708158412824787 436.95531665290673118 445.72198688241957143 431.42305917244686952 427.11229015473685422 446.39820763640460655 438.11061798230923614 431.65880538929081922 431.23323177630391001 440.52039244793456874 435.12736724190398263 434.60075649983065205 442.8075965028290284 441.36155459911378784 425.48388558341446242 447.15836945245411016 440.87528939210420731 442.7425614635598663 441.72813111131364394 437.37696637196694383 433.30144991129748178 428.11272846251762303 440.62481703510803754 424.58948938365210779 436.05958747198820902 435.45510589834339044 425.62611653224655583 446.4200942610108882 422.86306788513860511 447.28285629352257047 427.57896719019186094 433.15976480169467777 423.02550765935160371 433.52595773365112564 440.73200941501903571 434.5035177950158527 441.15853624840173097 432.24899915105692116 429.86971928110335739 434.53384975376184229 430.05972485007202977 441.73347913587861058 422.54207773286361771 436.97400891007487189 447.50911405732335879 442.56088808147939062 433.44659168021229334 439.88752260165193775 434.52931040783710159 430.84690522821608738 425.60283218167154473 443.68533088559951238 435.83619508338784954 419.68588350335346604 440.99796499074801659 427.07464827245900096 441.29088507367993088 447.25874092089128453 438.15098757260585671 436.12749327659594201 446.43088884376624037 439.28985736210228197 433.68513167336789138 429.26228406251527758 440.31623476196494948 437.59087688480366296 435.18436799930930192 425.74991701165299673 445.01259255668782089 440.4284817684510358 444.58594480101533009 430.78498311288905143 433.49631715832720147 425.72551131200611962 453.77404366957773618 445.22988030279219629 429.6613529281445949 433.27564166193405981 429.75765076168323731 445.09290736968665669 432.65212962583615308 445.27130788800769778 450.36497134739164494 436.61531049585573783 449.89894982535844292 432.53160061673452219 439.01303185633088333 442.79251301461044932 438.53338015172033693 444.22879157345579415 421.99687855357257149 441.80438483450427611 442.57644140374736708 443.85783198784758952 442.69369168124194402 446.1658580191737542 440.03182337203418228 431.87293429421731616 431.25566189957288543 433.74124020084298081 433.79086197669010971 431.23810449168701098 443.10862440547862207 435.61484031600861044 444.3064770635030527 426.84362001484311122 437.67785486623876068 425.74929995051996912 445.85205408862105969 434.4706293902482912 440.24122228641527954 432.61454537466414649 444.54053168268376339 441.80842226503068559 420.13707950681282455 434.50497631720543268 448.25291785883524653 431.23170878436849307 441.93819807816515777 436.23925282298040429 430.77739105710338663 433.86967894073069374 430.82564557701647345 434.64056251505485307 429.03632734326902209 435.68140599915614075 439.42700026390468793 439.46338240695354216 439.78102330574455436 434.55274439193453873 431.57530830698237878 430.15999348982273887 440.30228075416380307 445.63519553941034701 434.43388141768230071 433.70234052626142329 445.96671431850694489 442.44762600704092392 441.97738355590558967 434.9214799776707423 435.1156971081823599 439.7403576374231875 450.49300959258442845 440.63666116234463743 425.65365619193568136 448.6141702774035025 442.12744133390009438 446.41902019555828929 449.48735824337336453 435.67987033421320575 424.41713000802468514 430.77419692253948824 443.88305282832817511 448.10272159733546005 439.79431523903065226
214.41198086253709221 217.78770952379582582 221.93171380208011101 215.2599142093149851 212.50959288139148384 208.15624505341969552 211.92164941553380686 214.53607801410907996 209.31220708415926879 212.54400345607839995 222.64908931117420821 222.21910219074504766 220.55866801598850202 227.24399447798859342 225.48580935831219563 213.70720778857395317 226.18586924771634017 207.57158325023007706 222.37583281080546271 216.77696252942337196 209.55888974694636318 218.07520906153447982 207.97492126489396469 224.49812065874326095 223.78424469874485681 212.03900705709656904 213.67721793622777682 207.03252854277587858 213.77735166550675672 217.03151425811756781 206.60722316908470475 213.92260259043516157 222.71191396244847738 214.14369052840939389 211.81946084486258997 207.07487826687659549 214.5892231388903042 223.24815339483728849 221.65943488004492679 222.2502178276239988 220.37721939422013406 222.30000935611795398 214.84410957802705866 215.76240595553636581 212.65932236630430907 219.35783571257880453 207.60796725585871059 215.95337173042383938 208.94429991083788423 217.36067893585448019 218.08662889058933843 208.99504852646467157 226.2884696783032723 219.49858100251546489 214.64887015477887644 211.7467509794194882 216.03480861491195242 213.16912930333566578 226.15939651756292506 209.52278578346454196 202.75008342144366225 218.2574896112488716 216.05763751333799405 210.76866909049360288 208.83471566206824832 215.27717458896921698 213.22609041453208079 219.66547989280556408 210.16365458507706876 220.38934784674754042 211.42507500791612074 221.58581908610821642 207.75051893256528501 209.29195360871904086 224.71747629654620937 203.56391269825098789 211.96918134572376857 216.91307998326803386 220.72603330929848653 218.94184404084572293 223.83293671382719481 220.534260011646154 224.51456350303396903 213.52588267386815346 218.41134542898623749 216.26705409468010544 214.33103950159525652 210.20631917213577822 199.01310258801160558 213.03848545148633775 203.23684668751857885 218.53526507821246128 224.89259685882996109 214.88023973249417509 217.70789375632671181 213.36803465235362864 221.30132305176121577 225.99616145434632131 212.17339982068210702 207.43804808927777117 208.46956683857723647 210.78489560097347066 213.20295802578954181 216.22629964613926745 221.1755254626648366 208.28632042197307328 214.45210027887273441 206.45131533206745189 220.33142838548204168 221.54264606615797106 221.37991627792828808 222.06866957456642808 214.99760956333824424 206.03523292785683907 209.1026976374168953 208.29961016776778138 213.39364519623606498 212.69244225407280169 224.44469332018866226 225.08690169673363357 212.13962919705068089 215.51644932817066547 211.21574849381326544 211.82065095515227426 213.62151951413324014 208.38259398173869386 220.29585975214396854 219.34348654910249365 210.72996701990459201 207.44857793547632241 218.21372606134332273 220.02678877495455367 212.47663174989423851 208.99517728887138901 206.90652535352063524 226.71058834197660303 213.59669506849630238 218.1022350985414846 210.48052776586092705 216.51734051043393947 215.63311541231936985 218.81005365890911207 216.29419316321997258 211.32513488303965232 224.60150027418046648 222.19964266755792437 209.78566448153165425 211.93545600622061897 220.23939859479818892 216.85592226414692618 216.69330248333966438 206.46970791558581482 219.70011574831275425 216.12571645006178755 208.02987369070910972 221.01772542694283175 214.32990900937932111 220.50380054922189288 218.38800967992619917 208.46755469196997979 209.46133529681728191 210.88403614156868571 212.5201927953775396 203.84008559218440837 213.62703559732861436 219.60165787474016952 215.98542267802537253 211.33276108778960634 201.70604370091533042 221.29212535306962195 208.09855100785026139 206.08863030350201484 225.43017668914447427 215.15366680533432486 218.29766358250506642 216.3574685318655213 218.79676655993361578 226.18267844516122977 211.10232074340535746 215.38388408238469651 215.04321753917506044 213.98900968165918357 215.20659917720345788 213.22722025105844068 218.33328596748424388 212.60876536384148494 213.23760435646693168 219.45706822253686141 220.00836732273739926 223.70577729506254627 218.97725015604089549 217.9604779326430446 218.55932403283446774 206.37915201586682201 212.70494845080185087 214.53605453079438803 217.52052542537600743 225.89959565364577543 209.29023763833052385 206.48893372639011545 220.96120463152135471 206.83393212227187519 219.65851943990728046 215.54229356216077917 225.68898562810625208 211.19668244672322999 213.29216278045785771 217.52743655308862003 217.47976161449949473 218.65546735501092712 207.43993951316119251 208.91701974341592063 228.4002295888528522 207.98425196380443936 201.93021961504274486 201.77489011264466967 212.3772423748510505 202.55097177215409943 222.85493880203560479 210.48480418750989429 207.67409786407401384 206.17593808716040371 221.10300264069397258 219.81684000570888315 211.85134638022637432 214.25127559965412161 208.98999816051721723 221.43304127359402855 213.10692408551571475 212.7610549999000682 220.13653860472558677 215.37403177690993061 200.13793450600039137 217.0669736990301999 222.60790866516117603 212.32515019543390622 222.00764416812225477 211.04605316422774308 215.67045585889394488 221.96417064246594464 216.39037696468506056 219.70719635144004656 205.05637012523433782 218.69514751295608335 229.07333646259306192 203.60868235436038276 204.96276304605663654 216.86175508731915329 219.05772182717987562 213.73946140774378932 210.24656421844505871 206.51176248397283075 223.60498269292327223 216.1684066879311672 214.91887988382924846 209.00151233385804517 208.07988014568306312 218.73167072043247572 211.5556642066258064 217.42585970898775827 211.13222067097160561 214.49232640695140617 218.56557251052811353 208.70368562416899749 218.23964242944688863 210.99890976458007685 207.45061609113574264 215.10075554099856276 215.29331454937434387 228.26471858386074132 217.63058749138792791 211.19549553429428101 211.89028134582008533 220.99522365699883153 216.33952276881348098 218.95664209880575868 216.83913844595937803 216.57043106898152018 222.19241445322006712 222.32898803110856534 207.59692544778928891 224.78167194826090736 227.52910754327962195 220.78562131357205089 214.12843047651603001 216.03448566539904618 225.55837418627979218 220.15586164516631129 223.72189655520844553 206.28636984974514235 198.5957440752492289 215.08881968549982844 209.90300781372599204 210.08215816726047365 221.66902554101346823 202.32598108887719945 221.76829184722430455 207.55417186711048316 222.59998542777120178 221.08695598443873109 210.45759776169916222 210.98195367776105513 216.54432029179747587 209.84681434695653479 222.05385337190625705 216.02563860775887861 215.47620614070550005 223.0933318307777995 211.21138480573236507 219.70019119394126506 206.10811489967497323 219.15223481135160455 221.52217616435177661 218.76358381124475727 206.68937553393973872 209.58059396024719945 218.96303406805159852 210.78855671339945843 214.06383101125194912 216.77470786656974155 218.09387180142994112 219.73496880049006563 211.34364730086082318 226.68853553584366978 214.96334107506288547 205.16698129356853997 207.88497644634421135 210.88160028955988423 219.72166514313946095 202.47444907542586634 217.69220111919148053 221.73024228633778421 212.45881345255361339 222.17968272859715739 208.53214608435371247 224.77556155631575052 209.20417403925549138 214.62115916300885488 221.50428201802520789 211.91381464256457434 212.25660341019707289 218.00318368774935607 200.22751913443187277 219.14724422540152204 208.20554847447871794 217.06633146780890797 221.30010518619607751 208.40940724003505125 213.6161497558217377 227.1578756722621506 209.29468972924212267 207.60052841292551307 213.26201860684568601 218.29722541142299974 215.59582304774761496 209.4580799417829553 214.88019670626292168 216.18723985246037955 208.26397845936301678 225.34924076971836371 212.40200995509138693 214.2796699925734174 215.44605245768960344 223.15846022164174656 212.62582307329694231 219.07673805220861141 217.40814929755606499 223.25346664110020356 217.78127418998835196 221.2894766989026607 209.71908468618244115 213.49295203673955257 222.91077669634620406 214.0148284694917038 219.23094473445823382
-1538.8930222231988409 -1544.3827241085903097 -1528.2968202023512276 -1528.151492515532027 -1545.1397299234654383 -1556.0787471665175872 -1550.8746084191670889 -1537.1481092726735369 -1546.0618560217235427 -1542.5576293000001442 -1525.4344366246023128 -1541.4759925718572049 -1520.2902839969249271 -1528.5197446496747489 -1516.2924014091354366 -1536.0428860461829572 -1519.8093736994330811 -1530.142441382940433 -1534.9229574251191934 -1514.573687992405894 -1548.4726617407841331 -1521.5961976131161464 -1563.1927702491789205 -1567.1663607204513937 -1559.6969739053756712 -1535.7847222496552604 -1556.2999419356190174 -1531.6055314771779194 -1534.0055961467489851 -1515.0186578118002672 -1561.1990668103669577 -1537.9641870576574547 -1551.4380718252023144 -1535.9623485343181528 -1542.0395357540528494 -1554.5629559373480788 -1534.1943411651225233 -1541.6563118478607066 -1542.9475618640244647 -1538.8158612635681948 -1541.0546579373808527 -1546.8074318238707292 -1536.9377268630942126 -1538.8687776227168342 -1537.8427268775647008 -1530.623470098082862 -1514.79657762754141 -1532.6346833882398641 -1514.2908814831878317 -1538.8491202333909769 -1546.4177056107571389 -1548.880621604087537 -1523.990386333452534 -1556.8326029445290715 -1524.2690908001995922 -1535.7891281612828607 -1548.2082872233556827 -1521.0832730437157352 -1527.4123955634313461 -1528.9427811668529102 -1536.2310335131132888 -1531.7113937588057979 -1533.0189633355291789 -1527.3857855313233358 -1547.8819806634712677 -1540.4766219716839259 -1544.1871531695085196 -1542.3589432807305002 -1572.5746995874719687 -1543.3404754386735931 -1531.2848767667146603 -1524.1536221178603228 -1549.7700355649158155 -1538.6381364555734308 -1536.2302651949773917 -1506.6623345932791835 -1527.1105687146239234 -1538.8147489663615488 -1526.7574046420354534 -1539.4641339913000593 -1534.3022841076294753 -1539.9621082720457252 -1511.0039515914775166 -1538.1348675607171117 -1552.3383961849069692 -1539.7338594182938323 -1542.737402677477121 -1524.8546651394626679 -1521.4817383215131485 -1561.2635942176218578 -1528.5021403251691936 -1537.5558787808392935 -1539.2304782914122825 -1523.984437308472252 -1526.9703054397996311 -1538.7212611224688317 -1552.8471033710534357 -1549.0057149310027853 -1536.0402526849632068 -1536.2408917327393283 -1542.3335193755276578 -1511.4692020152897385 -1531.4082957004591208 -1536.8034055901771353 -1539.1216901216546376 -1536.2453830072822711 -1502.6334285971752251 -1529.986108666373184 -1522.3335990735411087 -1528.4104451230446102 -1533.5002155550573661 -1530.052603155132374 -1539.317535133645606 -1538.7842589160964053 -1515.7130657036186676 -1519.4386973778455285 -1530.0299519922762101 -1553.5639298412431799 -1517.4030089638233676 -1536.6204501768097543 -1529.8129515166797319 -1535.0054963182385563 -1518.9126682428588992 -1535.3752575597898158 -1530.9934800211201491 -1526.7042822297723887 -1512.5064870300464008 -1545.5919106674577961 -1549.3670900095914931 -1532.2877929158944426 -1531.8424466208846297 -1528.5025388887020199 -1541.0554634525890378 -1538.7902659367030083 -1531.4337780677094543 -1515.7272175002719905 -1533.6137308266190757 -1560.4502622406264436 -1546.3444465150703309 -1541.6485078390653598 -1529.9143487949552309 -1536.8637648454516693 -1514.0194788136218449 -1521.5131596465141683 -1520.7171214158854582 -1524.4716496247078794 -1562.0891456658682728 -1531.5018669924925234 -1545.6762174896150555 -1525.9862652137776422 -1535.9554416860012225 -1535.9637314688302467 -1540.8024322727744675 -1530.5710389489845511 -1546.1731007453811344 -1543.8085215183245964 -1522.5516185180129014 -1529.5846907247359923 -1545.3649363099611946 -1504.7331182841542159 -1519.3754493152332543 -1534.7268339357563036 -1565.2808538042243072 -1535.7847072860311073 -1545.3821193173130268 -1547.48099862813865 -1526.1370788705355608 -1537.7424853221748435 -1522.6086656093259535 -1549.9881613235127134 -1548.0261883983932876 -1536.4761705578739566 -1537.6539148240092345 -1536.8883121793337523 -1514.0285265123618501 -1543.4636558042384422 -1541.8295669832814383 -1519.4533146227154248 -1527.6586116524276804 -1525.4138972098708109 -1520.1575245560316034 -1505.3741439950772474 -1509.663842787008889 -1539.9495708767399265 -1548.534250741728556 -1519.3421081601022706 -1525.6584056423055245 -1517.8139265215745581 -1553.5701271223151707 -1563.8773628563130842 -1547.80283187770533 -1541.0809595468747375 -1527.334316658595526 -1524.8023900811379008 -1513.9554890130009426 -1535.8985492015390264 -1516.4189435642692843 -1535.5323310629348725 -1538.7144148275917814 -1535.5955223840219332 -1538.0018355801296366 -1542.5445836326809967 -1535.287394977013264 -1540.9136575428296965 -1540.3092986075050703 -1516.3302437478109823 -1524.8186782489487996 -1505.4968823723254445 -1532.3706336209691017 -1540.3147458200037363 -1517.7345260369090738 -1553.3519932167330353 -1510.4976334309199046 -1545.0795304425566883 -1526.0389161548539505 -1544.6797923288131642 -1534.1281662383041748 -1528.030292135883883 -1512.7827015763966756 -1542.1114722251427338 -1536.1089911979222506 -1508.9763687616905372 -1530.4492280205004135 -1530.5626547064587157 -1538.7121744737726203 -1555.3133425532980709 -1541.7155984917662863 -1513.3818453486203452 -1533.245820343799096 -1544.9593013479163801 -1529.1586260378769566 -1543.1848210356467916 -1524.8208490814502056 -1553.8987905133765253 -1541.5156672349219207 -1540.5250803323181117 -1527.9656401989843744 -1514.2269575222555886 -1522.547812329989938 -1541.6324255993592942 -1542.1929702194352103 -1513.5022556490298484 -1552.2571769840290017 -1525.0465807121199759 -1538.7372819279162286 -1532.3918019437871862 -1522.0261172197588166 -1524.4869335989878891 -1524.3384381838764057 -1542.4001939583322383 -1520.9533912640974904 -1509.1718365668627939 -1546.1778894027331717 -1540.8405821527960597 -1529.1284778067451953 -1526.1594569358001081 -1516.9607214902207488 -1512.8356121809074466 -1503.5505875912410829 -1551.4262470979956561 -1541.163650848134921 -1541.4863623306648606 -1531.9304353355219064 -1544.3037734062168056 -1519.8175381680368901 -1544.3792872533499576 -1537.9477323410358167 -1526.1642981437000799 -1544.5485727907951059 -1537.8376712282395147 -1537.4080900848698548 -1516.6933253779563984 -1539.7225722660680276 -1534.3794686987416753 -1556.3088331436158569 -1528.7511110609229945 -1528.2458493783644826 -1534.9431367994845914 -1532.3248165203237932 -1527.1564156177346376 -1519.256469201952541 -1521.3045669131831801 -1515.955232986703777 -1540.6391112591982164 -1513.9596174863847864 -1559.4157544749939461 -1531.7253204921194083 -1538.7847467082547155 -1523.4225155789188193 -1505.1310430318412728 -1516.9642416753306406 -1518.9431740762111076 -1515.4762822487518861 -1509.6918631293051476 -1537.9739118298114136 -1536.1520011893862829 -1540.1553914543260362 -1528.7836358784481945 -1520.6798408779441161 -1530.9743979711822703 -1529.4065847284211941 -1546.1499071661248763 -1511.7284132521454012 -1558.0565203585865675 -1514.1689246046994413 -1500.0149551382946811 -1549.8654673237417683 -1527.9659385475456475 -1542.5867133785657188 -1536.674597705123233 -1516.5834350369193544 -1555.8501182380739465 -1516.2986418068046532 -1525.7135123184955319 -1533.3525849895927422 -1550.6129359706797004 -1537.3345943120100401 -1520.1055859612852146 -1547.0045276106188794 -1544.7764823794977929 -1521.1427730669197445 -1531.3860602337201726 -1550.6102369042027931 -1516.80482589353187 -1521.4524156392374152 -1523.536594796485133 -1536.6048521992863698 -1515.8997847871260092 -1553.0237809679704242 -1521.1818810976051282 -1529.9368142264249855 -1504.2309985790718656 -1550.6802137740176022 -1526.5709830068894917 -1517.0878567705885871 -1515.2303945095923154 -1523.9809609614603687 -1547.2635808596107836 -1554.2270403613174494 -1534.755950481316404 -1517.2425369797165331 -1524.4786093319760312 -1520.2521764457574136 -1521.343227880547829 -1524.282952860991827 -1511.3447167924107362 -1527.8107907314706608 -1524.0760893604924604 -1521.2510970697367156 -1506.1452987825205128 -1539.5970356930408798 -1510.2065165143169452 -1538.0385104875899742 -1518.7429460750245198 -1518.9702306003582635 -1534.9859974968846927 -1534.8005610781647192 -1530.7756662046908787 -1537.6276360415504314 -1522.8035991973433738 -1529.1326844435020575 -1519.6864804593762983 -1508.0148536973485989 -1529.80368327463475 -1525.050948364460055 -1558.2871269507022589 -1542.9986049424439898 -1518.5222055295587325 -1534.3233318420700471 -1510.7653640982716752 -1527.0755492195016814 -1523.1340163455881793 -1543.2735646045541671 -1534.8355343969603837 -1537.3608687464836748