-150.19606713430877676 -155.99348497821520709 -162.42892879063731471 -157.66469557008682045 -153.04263655652957254 -156.64849824789027366 -152.09696227041007432 -159.03470027428983258 -149.75556289801016874 -160.04394577591992288 -159.73646282183517542 -161.00086696082775006 -159.13423021438566707 -158.52406196040215036 -156.23969342284289041 -161.19765799347436541 -152.72310375383636938 -147.36188366669591687 -166.62323343365585515 -156.74556342869527725 -156.00437585628830561 -155.96866298593258193 -149.55746044060535382 -158.78677937534558851 -169.1030272120863458 -167.89301106473763525 -147.96669438750024028 -152.49294321469108127 -154.02102279496662618 -162.85050264618126903 -154.02392166609408264 -159.1485522778169468 -150.36948592436309013 -161.03290279026802523 -150.65040831396481735 -155.86018317980824577 -148.38138491321225843 -152.91884294039616066 -155.67396311203560799 -155.53268520420499499 -156.48097844630834174 -158.5919840377553669 -169.70280652557684675 -161.49870449726142851 -146.58492168056417881 -165.31471888594521147 -162.04408365995348618 -156.73888850017317509 -167.38070391323424246 -158.44387721789726697 -154.52192826617351784 -156.80913454514012528 -153.07945451419345773 -158.70385143350557655 -151.859887384160686 -154.1382473884015667 -153.83215757104065347 -161.13179808101364188 -149.39529490282785673 -159.70890727183487456 -163.30559567971732804 -156.04220967905072825 -156.33431585762934901 -148.35444953202792817 -155.60841709430164315 -147.85913993684377488 -154.03635995047753227 -147.91535430730527878 -161.24856075784919085 -157.16362624937323744 -151.97861416257234168 -156.11187395566778946 -160.26746351390494283 -161.3854759975580464 -154.33735864878966026 -157.98129713529860396 -166.81392434186886931 -156.30611173741215225 -148.98170375444385627 -154.1495663397368503 -154.61780665772144516 -165.82251070875850019 -149.40709009113624006 -160.73757468280390981 -152.74126454007435427 -159.9004003376998071 -160.94234190332360868 -155.42955272807120082 -166.85944298106966244 -152.56782365433295467 -156.16223338514288344 -160.05040169488870561 -144.00522900109532998 -158.31783039190094087 -158.77349159122175593 -151.65861845816482401 -156.54651844448409292 -154.9649894571171842 -159.55210386599171102 -157.54227244708090439 -154.02010805444285779 -153.27351219016429695 -152.43319836724714378 -150.48645246941254072 -160.90694887253403067 -159.16051773405885683 -150.05035388164608889 -159.24394641391049277 -151.27639452093620775 -150.0348162874239506 -156.88151475271973823 -146.0817364183037057 -151.85255865691817689 -163.25194498907106322 -154.75923269475129018 -143.14275987381782329 -157.55452955415969996 -152.58690527217598287 -153.87587976935000711 -151.76438651413255343 -164.18857710238927439 -152.32699794100474833 -157.27231710938511355 -153.58768738982470836 -150.07217253383112165 -153.41059598442743095 -141.64879100940049739 -162.47519207477151326 -161.08704004739584548 -153.99251256143071487 -147.67431302024789375 -156.60657640728967976 -152.44134710834001112 -163.89140833884226822 -157.38679830909251223 -156.26367657987051984 -163.69653458885434816 -146.45107852320930419 -160.45269172131540358 -165.62519241782794666 -157.86182909727563128 -158.96693031772883842 -159.24290789775758981 -161.68276538367024386 -162.26573405593507005 -164.44262769057766604 -159.50909641802059014 -157.34447999699281695 -151.35987672525055814 -165.78530542311287377 -161.9861457221717842 -153.98102133070517539 -160.04960214578829891 -149.27494933276761913 -151.00613055029148768 -166.63875507821620658 -172.78317973750239389 -166.29077382367705695 -157.66252661077353991 -141.64831475506156266 -157.96529465260027791 -159.41946290607910441 -156.91983621172818175 -156.63283403308520292 -157.30086623540213964 -158.29796681734035246 -157.66321942789505783 -162.7865224093664267 -157.48480191902899605 -167.21675664978147324 -148.24805930258540343 -149.11282775085913954 -159.08717122432994984 -161.05984806213126603 -148.45892590834557723 -162.73856873909898013 -150.2040838060247836 -155.89837708873002953 -160.50004048052153394 -165.81001254560851521 -162.56035480605837051 -146.88290845372125659 -151.73734454123410842 -167.1238824295098766 -157.67487244894317655 -162.32427746959683645 -156.10599688609875102 -160.33551659427018876 -146.20728033420442671 -152.27560913666846432 -155.49176337767653422 -155.95631702849681233 -171.42984641361644549 -148.90079007346488993 -168.33410459409552118 -163.41736107977772008 -156.90694162410781587 -166.03146833714902186 -166.49646518279286056 -151.34819557982055471 -147.83216290179422003 -151.22292655786787918 -160.27161252709845485 -157.25962980409227043 -166.21845543379947685 -147.22918527043009362 -158.35532552326088762 -161.04646515893909964 -159.34321227540598898 -153.0907857815489308 -158.74755558224211427 -148.6695808788547879 -155.75787964054228496 -155.81137503486633022 -162.86180912900232443 -162.00790623875477081 -154.9422472585825119 -149.95519781822380878 -157.97085040836466874 -148.64457861754661394 -157.85176143051177178 -158.48366862302091818 -155.88224616196600891 -157.93256222122803933 -157.44102210028543709 -164.16785413239313129 -153.57803723564009601 -147.30660699018946502 -160.57800637310913316 -157.0409247044772485 -156.42910334636414404 -152.36688441138610983 -152.47502172269318521 -160.14290478242671156 -154.99100718866523607 -155.93763309508128145 -168.5795931983189746 -145.89751422317277729 -159.16731945992088981 -153.54624839626777089 -172.84811889481861158 -148.12876291035226473 -162.82882081863183998 -163.48819055573144965 -154.58611986864787013 -154.71434062104307827 -146.68164361534357454 -143.5034689607643088 -150.67038789529541987 -162.39613528753434935 -143.85032381913714516 -158.93304846130644137 -149.76617572699231573 -150.38533445533460053 -149.08062317834500732 -154.45198896529990407 -148.51626448747495601 -147.44959629450482907 -164.14208669259051021 -156.7802293986692348 -158.54567151606983089 -150.8127078978449731 -158.69085469198563487 -160.70651306898619737 -155.27966967806821685 -155.98697344679089838 -154.41022291568543778 -159.39558922575193378 -156.61532255516885925 -149.91351422115852188 -165.34199342820787137 -155.48622970940292021 -168.89086763102088184 -148.31664514630966778 -159.70395945152142758 -151.2549957509071703 -161.57909362449686341 -160.3882835180416464 -153.70465449771879207 -148.17178116087342232 -152.87774902426409085 -153.02415093791324807 -165.05447312136291771 -156.65412044627441901 -147.29616741939364033 -166.86706084542691997 -150.79125550695533775 -143.3481224421763045 -152.04345610063330696 -161.08487029677425539 -152.20969427211994685 -159.79643486990227075 -160.32115300042923423 -158.83984587361101148 -160.1255799510926181 -153.47999846195517648 -153.71108831307691389 -154.51119394897429515 -163.6600170806450194 -158.97012907455987829
-8.2372466376282531542 -12.815147158986652798 -8.3157942860251417017 -11.525031614230137222 -10.082847794584267831 -19.977582058389621977 -10.58649929785528343 -7.0929122169330796055 -16.444235994031576098 -16.619619600254857517 -11.474759079972862708 -11.956061278931692016 -11.845197326960363426 -15.217823659598167296 -3.5115525827392550795 -6.6019533847591951314 -13.445612551913528776 -8.9703240582429071281 -15.365512608726699995 -8.6005952092636874795 -17.064300312512649782 -7.6027911761565203363 -17.494475878301159355 -13.677260475948703089 -13.864440976878189105 -11.326462149925095702 -5.2618106286426904461 -2.8963657436296497139 -14.140438985517475246 -10.791080557770703408 -13.953915400965090754 -13.501990622126724517 -12.907429184506264974 -15.581898825653404117 -8.947104408702060141 -2.9010653105124628581 -10.662689058847085732 -12.218861075459244603 -13.777361893519474378 -9.6410272673845351932 -14.512273389368425924 -15.38616320486920408 -8.6133964464131551608 -16.810052869949309695 -8.04983782366297973 -9.7132178692122010943 -8.6126791669799587225 -11.624964245883273151 -6.91021164052587622 -12.3497812573954171 -16.179659773006516588 -12.3357646538383392 -7.5981038679135606273 -7.7747351934527966222 -11.941211546273548194 -17.008091188555898299 -12.30197414553130919 -14.142621137259045128 -15.429685804138792093 -5.9556557308584840982 -12.306789017385698415 -8.5526665283790457295 -7.3721489667290818204 -14.544995063236658694 -5.3492434354085798276 -3.863988344690078236 -14.959228254321947915 -13.369127244118573117 -9.4221302637654940071 -5.8479330546509054045 -5.1987394446325190245 -11.353492498006932721 -4.7059153484928666344 -9.7038559899632215178 -12.742599519925079221 -7.1753074912745322678 -19.864339498168156695 -10.3745012837540731 -8.0251953262279442924 -12.064908954104726746 -9.4922738708863310109 -5.4220367232696657922 -10.739998933026415173 -9.5949766643825977752 -15.39328704075334997 -5.0018950544780054202 -14.772345957818203033 -10.243009990562695677 -5.7478230477111917907 -12.839235309660713469 -6.801133865221332897 -12.674908985078765511 -11.543674676584322114 -13.954302508774622638 -8.0913701602069423302 -7.8307957428718779624 -8.0587368261633720579 -11.305009511470526462 -7.8513027249773816862 -16.981001478937145066 -14.717232579410884696 -15.689190845418352183 -3.5303162638188796407 -10.51315600028177677 -6.2326056310907063107 -9.6095561869638732588 -15.463500884304341554 -6.1262851515750185172 -12.592125240924412211 -10.546077500798867632 -13.186794089036350641 -8.5107783252796327389 -8.247348243427925496 -9.2128491297810644056 -6.8235702917646978705 -11.581192413912120287 -6.0602955153347437545 -3.3123275192210943629 -16.974160697931637287 -15.073200722865230716 -4.1869923918511666727 -13.350393449389031275 -11.496732062337112978 -7.1375180677822775976 -16.75204659888131431 -10.870104161440620416 -4.4937776380413545496 -15.351188456590673326 -6.1933637891516362117 -12.949339744250467632 -12.298335265666795024 -10.758172779048788215 -14.618553385010127244 -16.489401105033856254 -22.494812361549477941 -3.4948560553237602022 -1.3322542852502969879 -12.930713504181037266 -12.61180297005479467 -14.662870108616651521 -9.229321964375344578 -16.400043771629366773 -8.6902759169765264602 -11.711788470698078157 -7.6388251676107863375 -11.26279092685830463 -14.906611199333113404 -11.067962040965795723 -13.646758227655151785 -16.608786189814637169 -8.8537956114640739003 -15.0945888410754403 -9.2958394191266435769 -7.7446323708194242386 -14.034553920888633627 -11.087816075437672225 -6.9648271859601331712 -1.8506819200129118741 -10.562471078733295826 -10.964568251872146121 -10.554023941958657673 -5.4016631592527595274 -15.276462873456136293 -6.3253503090457137148 -16.519360201940983757 -12.392627594604803676 -9.6663729819314507807 -14.389667503987908503 -5.7863167447533250254 -13.5327932552688317 -18.249238813291388084 -20.293783983214389366 -8.1268081345558869089 -7.4492185089400990705 -6.1372926886372063393 -10.168327671153770453 -14.099108389232448246 -7.717618061628654047 -14.05812606035907919 -7.3748817521128486874 -7.232095847812153977 -9.3635085249530334295 -15.999648702507823117 -7.7790389876369427924 -6.7247490462755976637 -13.031894595137975656 -12.912579924097325801 -10.857769295999679215 -9.0809977414737694801 -18.020390184994379723 -13.729264918556753017 -14.553263899242429247 -10.764293904400812352 -7.9054812130097404932 -6.6659022076924587807 -15.464705636855956783 -8.1137156918602073574 -13.017447341734944999 -5.6785702410704370635 -3.8210839808889520697 -12.892582384374602356 -14.83602908806700782 -10.452232840352410292 -16.3030265004152497 -19.150278623157163338 -12.728261187288500977 -10.386807547332576718 -12.282250307159241487 -11.289878025332008349 -8.1725432230762713459 -16.097641396722092821 -10.213643429031293408 -14.068689045271767668 -12.417773281187900025 -5.9092755981479516691 -8.0539506234451749833 -9.5415460750750096253 -12.800585071104123358 -16.107772427698343165 -17.113271781517088499 -12.963154245889150218 -12.778654546899295141 -6.7931566850189701867 -15.014105626206607269 -18.88002573966926434 -17.087243887760330097 -5.2985469249866801178 -13.936410651622086476 -14.420768629226675017 -11.784294513994032272 -15.57500753816790251 -9.6290714703592161783 -8.5706175281699028545 -15.505567429468303686 -10.452909767087401605 -9.8062726189342459548 -8.0259308113739091795 -6.6657704869416942728 -13.718501145962360255 -10.179533844271395182 -13.675167087609551686 -12.933351813026540356 -5.9565556591646409146 -12.999005442379598207 -11.431369277953233876 -13.802135017149849361 -9.8733458469560826387 -7.8921465455152226554 -13.579374236715851865 -8.0639912056461717782 -5.8903485772600507886 -7.8455774662074553305 -4.98212150450288771 -13.195066134720192963 -11.509772010603915859 -10.95211691837633694 -4.40653359692084301 -13.654205195220882274 -10.285044707249586082 -5.7412335610380518247 -8.9101942466455597014 -8.6550309730266725694 -10.209102995649999457 -7.1461414867132173612 -5.9311747525621250077 -14.669452945289060963 -11.598703466466544043 -8.6951516147268694823 -17.499586758349430227 -22.539182782801066907 -11.226075020922747782 -11.561431894707638435 -16.829321917000385156 -19.008167263824994109 -1.8964576982558298823 -2.9484404394343499689 -11.311180545723320989 -7.4306447448230805719 -12.647015509847799208 -11.292851943503029233 -14.18818105244906036 -4.5555598337717917445 -14.449095934827369092 -12.297247685913966109 -6.1237833668509740193 -8.9802768765909313231 -11.890560751583137744 -14.377701809584351622 -15.250167633668990419 -10.69448732160054405 -9.0969068425621397722 -9.7677116650150637156 -10.366434230516793136 -8.1109068510032553689 -11.626468598394119169 -17.350341545534043064 -12.661874794361821728 -9.9189126542293344357 -14.279520476066643653 -6.396455215517463877
174.41545064074753668 175.59573459737944745 169.69027735760272435 168.0304121400962174 184.35633261925985948 159.14542303820641678 176.926735673143952 187.39898603786832609 165.31093161325566143 165.52287300155938965 176.5433930006834089 170.99128565186228457 173.5707159541622957 160.48439427691670289 164.23646160208483025 171.53542628333423181 163.72439272932052745 170.6271787168277001 165.53315831599275043 177.49091855034345144 170.150790786082041 173.71487331174472502 169.8933489318630734 168.00255053080843481 173.56141437861870713 170.24890872856661872 155.52336605038053108 179.23434875614231032 173.74120313562033857 162.15392214942130522 166.48312763708713646 151.93998804514478707 170.43442560822694531 171.73283294145267064 168.28309652474143832 158.14210178676160012 178.64276145382467575 171.40607518876220183 186.61011809794004535 166.99702113122219771 171.38967969185122797 175.66312212261058789 173.69106073811599344 165.82665562176526919 163.59743335275175014 179.92265366443263019 161.0074722664884348 176.03987712999116866 170.05896927365813553 153.16726514097277345 161.93382562616000087 166.9758239409399323 168.02760163087523893 182.72818181777731184 168.47196935616906899 189.44711696156684866 175.36267608964192277 183.3141120002960065 163.72753151246828907 167.24280580496980519 177.01036476342693504 177.38155456265084808 159.90241339875137783 181.71393564951097233 183.70883122025838929 163.87940403889567165 171.04356959913781111 182.82308994675247504 177.1962491145912395 182.78714360384921633 171.40746583024781557 174.75343250608952417 152.56595043543714496 183.68284922539322679 177.70887083207568935 181.30328878410921334 150.96019387808482293 179.07159062318467591 168.08835704698321933 182.5970330799588055 157.83396078991023614 176.06595995172764901 174.85817412579544339 160.66623681888876263 157.7168101326899432 168.16699433374267869 185.3788569270237474 166.14880481322848027 173.24198769765595785 165.93615438436972909 177.24997100081662893 178.38885161076728991 168.74531860097607705 178.30088237296831721 172.02993152974599411 169.21904209108825512 174.30898935849589293 169.00892675981947377 158.35221342552574697 178.14234059226225781 172.74075549351363179 178.06221023522849123 166.5869795562650495 168.14754831017415881 176.38718117831686527 169.95979375165222791 167.89426304099382037 172.62794476177060687 168.46212823081984311 157.9667510094213867 170.49164141880694956 160.04046867325106973 184.15347123871171675 180.07436294910456809 170.6336165172838264 181.93588502550983321 167.82093918652768139 195.01528230322756485 168.15154968840451488 164.07927715405787694 174.15406685379736018 168.13210286394010495 182.89489904124593522 172.74631074450107349 176.32172535455674733 163.04916148746139015 166.22507026300215216 159.09493380557509568 187.38892969888362927 175.8976005941402434 169.3590272944648234 169.23848293470132376 166.49145424355876344 169.77522780048309414 163.79042943989085757 178.32477576399753616 170.61449053563933376 181.48119088119659637 168.4332968094579428 160.47225947209815899 184.1723048121939712 185.15929382568722872 154.43740227912053342 180.34505908045105116 169.3340805004676497 165.60545305672417271 163.88877951880326123 175.3820880153182884 171.61521210245228986 182.38342977775704412 164.58692390964205288 178.22790830950361851 173.45956717516315848 173.71046900656523349 166.60168711469674463 156.25114122710866127 150.74705401547038264 178.57985374490044705 160.51567301698321444 172.48171994047174849 157.92152736336379348 190.83489387562099182 158.49565975575427501 162.5888796400338947 175.86978908759402884 174.04268875432271102 159.94505526925897243 186.93344796321790113 150.06584830312408485 178.48747994161067254 170.79461926376427527 169.30038493735946759 172.5957964257817423 176.55580603233084958 182.70918273516977592 175.60933818009019092 169.16418000011782397 169.15544897459983531 167.78653728978463278 180.06507135042340906 164.56818666766415049 194.69413043709042199 191.74213587497047229 169.209748951047942 169.74379061473274533 170.43875185781564596 172.56582131079827036 184.4862167780599691 177.46975346691993991 167.53459028911163387 168.12552658582404774 167.96476516160294068 171.74704827145947661 170.39206006160691231 179.2688177896087609 184.49383485063668786 191.65205936034325873 180.14421843813522628 190.41099826775328552 165.47636980266139517 166.36132278573600729 175.16250046649298611 175.12280257142350592 175.25063677622566161 185.14510099479593919 178.06537567747338358 175.01448536588526395 167.4231726791164192 163.61266831674123523 187.50484452285223824 164.06179768766517668 164.53036339189659998 183.96916765100158386 165.45121825780029212 173.68286557587484253 176.06432014073203618 165.99133702551580427 173.19744666363700958 189.40988048706577729 168.38993873168664095 162.3100841770373961 162.70530147392469189 161.64645568240604234 163.57565635527893733 180.85846691459346403 170.61638622230358919 173.66241307579866771 185.77131141926233227 183.47268187410463725 166.7052408078718031 182.26554481447683997 179.78151765463687184 169.55640756095297661 180.36598784037099108 175.34440827498065119 173.26249378478485141 172.98027413155728027 164.45666520167583258 170.06008791573395911 177.76033557309023081 172.79640874860632493 177.20914868967523148 183.89915474443580479 171.67505964460707446 174.42058918650840837 169.39599381028097014 166.73089273652664133 160.38690709251969224 178.24522302177871325 158.84708202461152382 168.25270604319098311 168.09332738571652044 166.15461784371518661 172.27444641352622057 174.81819882930668086 167.92616537488220274 166.18369873640324386 169.30666337355287965 184.49281315953822968 180.63827417047738777 168.6172249955153859 172.22369023404951349 176.64846872105965758 169.48809087913119242 174.34365974129704568 164.13770158835302482 172.49924778969594286 171.84542580717021565 184.64585448534600687 174.77473246111003391 169.69627428732405861 159.15957836204700016 156.37653669411037072 158.70312279284306101 173.50861784996834558 176.16495038324887901 180.16484990740369199 174.03201597824318014 176.08754487005532496 163.44913967585537762 169.39440526322641745 168.99950232120119153 179.23271013500556137 164.62718658123063165 157.71990773327399893 167.04804257523758793 184.35845813844619556 168.78650802573014289 171.27898081440639544 174.2104105929459763 174.45503765089702597 172.43728152247348362 171.37729437714023106 178.84023795459097528 162.37976373391387597 168.64706008241037694 168.09486530093667511 160.41594642375119406 184.02683739686278841 150.8727205814219019
-126.19869694661873893 -134.60041164275921233 -134.7069304002581589 -149.55976385064485612 -136.36535803785841381 -135.24855462092762082 -126.9175706397404042 -143.94626195764934096 -150.85884925624526431 -134.26826685384338589 -142.77096192615465498 -141.21705457831382091 -127.9548223492768102 -134.89948914339296948 -149.55375411937578178 -139.29114973794202115 -137.18617619340415104 -142.47124939488068662 -143.23825956713247365 -142.28758885149082403 -141.43238802289971545 -135.12283027327927698 -142.19304399885407975 -139.04029515072284084 -130.44781156564525304 -137.36164922614369743 -141.34435030416841528 -132.88262826080588752 -141.2494594179078149 -129.47732687144312536 -129.48850251106787823 -139.36837974740373625 -141.82277361916453629 -134.82739992699930553 -132.71675749116971588 -137.81508911640557358 -143.34008328257135645 -134.83533206514343306 -149.19909882557524838 -128.33697842674735057 -137.22328812656863306 -137.06719358360538763 -131.88370287801498648 -143.1383498286816689 -140.80130115763211052 -130.71537558228163789 -137.44413759416792686 -149.16432571871590085 -142.6796520446030172 -142.11252309362561164 -135.76398524511589017 -138.34505600536027714 -122.74611894481961372 -133.33293657518186137 -142.98517259133734569 -138.96129450218674606 -128.90285799619505269 -132.41038291727656429 -122.26799228125386776 -137.79150984002430391 -137.76450656716954768 -139.71319297959365713 -135.56615311860772977 -137.77516053230618809 -134.64263671160318836 -140.71606378072723942 -124.49907498695239383 -143.37140595447644387 -145.16758952389301385 -148.5605378739348339 -138.9617926367325822 -132.61442567654100344 -134.27422628724565357 -128.19601419164433764 -143.01934658807229539 -130.67014533902704443 -134.89190766573329938 -144.89682904216715542 -149.1471423446459994 -138.48141595475360077 -132.2221386002188126 -140.30840230328726648 -147.39081744729404022 -145.01536123645249177 -137.83232567481991282 -128.33098465679407241 -132.77613516906296809 -144.17641884327821344 -138.37096661482277682 -142.61269753249251835 -141.33858730074220489 -139.79367345493190555 -154.38355053529875249 -141.43833093612897756 -128.56683225996434317 -137.74861073006590573 -142.57819062825080891 -135.34285355289469521 -140.55392896006290471 -147.92770215480086904 -131.61192161156802172 -139.41151985190543883 -129.03631177328500712 -148.15059600655138183 -144.8180865829546633 -136.74608729943500407 -148.75917639860276154 -132.29542438935231985 -153.77207063297555578 -133.64819977258579797 -135.66257609704567244 -137.70712245860758571 -143.97352185348640319 -139.12665099590611817 -153.46416231715673462 -141.21015311624029209 -138.03403295890120717 -134.78469451844884475 -134.77601665874814785 -141.52189457362720759 -125.50104516340346095 -148.50577644691003343 -151.93677232772012076 -128.97153967276923936 -130.8004050032584189 -143.36995024629206341 -141.33396166913573211 -134.89164420595622573 -148.7220310164839816 -135.75663823260748586 -139.63813451934123577 -147.7088923138326777 -152.39865322748030962 -149.36117706702233932 -133.75640982452046046 -140.47670723604829845 -138.24529929305668929 -144.76623274379343798 -137.03974480998124363 -150.5522877593204214 -134.02584250643346309 -137.70887639853580708 -137.74002623285326763 -133.44172939557310542 -135.82918199106768498 -145.51182538161341995 -140.10251613988407371 -137.68688286708953683 -128.6528760219648575 -130.10554432450564377 -124.34530324028570192 -138.58058471943550671 -135.18038570022352474 -126.44866537276151064 -139.90731735819926485 -144.88422120607506827 -149.39142022408753974 -130.61034160048387776 -145.08317425353862973 -146.64007506370964506 -130.23987011554805804 -141.64886022646132346 -147.18669921584626081 -142.45925400590201093 -138.96018358986728458 -140.42743982480880049 -138.76195638331421378 -137.23726671212941142 -132.74047398987980273 -133.65700643231676281 -140.51163959782527968 -144.74292873484583311 -142.39796321003373691 -136.53778085990344948 -138.94656923677905525 -136.41169987632488869 -139.65068439172813441 -133.15299891839325142 -132.16108238012111542 -135.92634271743318664 -131.8991290264820293 -140.0691071664120102 -148.15965155062241365 -122.43835802704722937 -130.13532541103441531 -135.05792954402360806 -136.6394407372058879 -137.53612750871249659 -128.87365366451246018 -145.68825874772153384 -148.69199625327945569 -118.40442245025330692 -141.31598885895851936 -128.84159870713278906 -145.12390990090614196 -136.97575291999868341 -146.92149490767349107 -125.31881056438146516 -140.53011804628746972 -156.46750558951194421 -140.13985969096003714 -140.78226125030064964 -143.28927421327577463 -135.93102050482920617 -142.50840694579687806 -133.69943065073383082 -145.67223721130022795 -142.8688253158016721 -126.28449245022004277 -132.82796454549020382 -140.59294019263373343 -148.41547873832394089 -144.29717793189053054 -131.18430794598185685 -138.19935245119756928 -148.79914723373519791 -137.65188465017413932 -139.69884426977267822 -140.86722202054903619 -129.67711262514418991 -144.21494894171931378 -139.0977951326742641 -141.39017623317386096 -139.27537904122439727 -152.1279870480811951 -134.242750272387525 -148.1767891429863937 -140.03406291970586039 -133.34000854660027358 -127.24227076523864355 -147.8541363573235401 -146.20736134315407639 -131.60392103274227793 -140.49424919180461302 -144.58577945162878109 -141.21483680839008912 -139.81612958024879845 -134.09493954587273379 -135.85146201691247825 -147.04457346826839625 -148.92657019003510754 -128.94042974013248681 -125.13986925457342636 -140.18389531325661324 -140.81549984264390218 -131.81166743962012333 -140.81505261688022301 -127.54786643493417841 -139.90920482207704367 -129.93151870577210616 -143.47004255327820488 -149.78295919304343897 -138.35287827066412092 -129.18197673899393862 -137.35046438634634569 -153.02042383136773651 -144.45951003069339436 -147.35210542817574719 -130.35700308061416308 -133.78325716076642493 -148.37579584144185674 -148.62672286160989188 -120.97317944549669733 -140.73602639653302049 -132.20191719836486755 -128.65641895759515023 -143.8164230074298473 -139.42745347240921205 -145.59801473846769682 -137.70586241207598732 -132.97428431198261478 -135.70899786407750298 -152.17360967701748109 -146.87030191505348853 -125.70768691946686602 -132.27122989021637522 -144.0166798749047814 -146.3035905839349482 -139.39645093288993394 -135.98519469027647233 -136.56006129343506927 -125.12880041148513044 -137.97901327584807518 -129.74125822772754191 -136.5466220923673859 -146.16167707621858085 -152.3031656400897873 -141.04076248842142149 -133.37512493324027218 -131.93238805003488778 -150.98959902988943327 -138.69098600900412066 -136.39165831994634459 -144.08449571922017185 -146.45680075226570693 -133.54555059189837607 -141.05973901557484851 -138.85039034695037685 -147.21234640472121669 -120.089102181712164
-24.28030491503121624 -26.650135409504130735 -21.855614465269244562 -14.066409428941538451 -16.777938744562550966 -12.624768131280909245 -23.838017628043424168 -11.444894562272697414 -19.249541017940472898 -19.783650376008758087 -20.439236513973188636 -21.462921612861460829 -12.405449354229229897 -17.883530317672789778 -20.876680262240395081 -16.840694442249333207 -19.339179721479670349 -18.179894008718754606 -15.276887668096142292 -19.941325175359608579 -15.51584411184921386 -16.725178782230607055 -23.223849560720665863 -21.475293165118596761 -18.243776716050447817 -14.339364094026516128 -12.792990636625912515 -16.602225756378391708 -15.297124726168330966 -12.126725852531039962 -12.529830748702442733 -18.979397136347408548 -19.009942265796453853 -12.373168113178047989 -20.310687246973319731 -16.415053534983130135 -10.677447466427631539 -19.610024816718983232 -11.934090613645643941 -18.489425206008309743 -11.75567694910349914 -20.714706962332677165 -19.407057959210124665 -12.331915497632877532 -15.755253140630591346 -21.146125615297712841 -14.880564324775871654 -14.368996255857217292 -14.999545932221032274 -18.066797535297560273 -20.043878985198471554 -15.680986196781974584 -22.256536670313035842 -14.312074972074027457 -23.977909601592081401 -19.446055895531724644 -23.628861427836611142 -14.334452202548998656 -13.419859978924938204 -25.670561713350640076 -20.636837856386534895 -23.3763838607367056 -20.676964178087644086 -19.552814095305706132 -20.02151705364090617 -20.345284717436708632 -23.024070417939491051 -24.85907894629723458 -17.744299270402621005 -18.689793859013892785 -21.258671200527835765 -17.499308272232990902 -17.93423381636102576 -13.012214128725615225 -10.757033892185781099 -33.518169642993647983 -20.033138977702506622 -20.093495229318982354 -20.710364358072276048 -13.53398051222861298 -16.333861989388438474 -29.464521995726755677 -12.408709650547242731 -12.976053107366460893 -19.133242250187336708 -19.462567660095174915 -19.332328015999326709 -31.923314793088181318 -14.727821274082959491 -8.6599485366449613366 -17.305512729616257417 -21.990207451974040254 -17.668262544544099057 -19.9978560092428026 -22.714838598473061637 -21.348797312981730556 -16.054357451662486511 -17.56286362206830276 -15.598975259017830552 -18.325318550892266245 -18.914146937943002058 -4.1515501353464738798 -14.56417078825261413 -25.483277288592983467 -23.638056818971271866 -17.342149371312476802 -16.786337027678975176 -15.229618030705848852 -17.381158670324534654 -20.034740260338328 -14.976557175117203968 -15.200376038940847323 -19.130436734882593441 -16.930512595138928589 -14.465706535739466077 -11.344607123916617297 -17.75081684690625039 -12.506609434354240662 -13.588173225197863303 -11.825689093943051233 -15.341295076709361211 -16.97467711708614857 -16.392997681973412227 -25.049710163424528275 -24.012505302181974542 -15.788352478768606701 -14.825144126193853467 -12.279449066819978498 -19.213527192104436381 -19.992963843272178792 -14.600647136860120057 -22.20602757318546594 -16.356210036372601735 -24.494353789383993103 -12.411563208378574075 -14.795028132433113655 -20.366186001127719152 -18.125259433180744395 -22.23579708997993265 -10.894396484531569058 -20.053279002185696811 -19.45711066562205005 -13.604330563023225409 -18.974339685823519375 -21.45843258525573205 -18.631626535212237883 -17.887328621994925015 -11.574588849697436288 -15.192638864050014291 -20.797682989286577993 -16.310374122249740481 -11.150373100956732841 -17.540219007851423072 -14.941967915413984613 -13.030270648010858991 -20.70436702035975074 -17.686220190425824939 -21.548245856055689984 -19.286595364824780319 -18.291006732002884405 -13.935317402135035891 -23.865044579238514189 -25.286855493919468074 -21.119934638822289941 -19.470907698031471256 -25.81761974191096698 -19.122642822244440453 -19.598500460892548602 -13.440815960562945364 -13.624879746661383351 -19.642401585291228372 -17.719242626467430313 -18.198026030476402326 -12.210639362283151499 -14.54199088209645474 -20.187921687414768002 -14.380689760829875823 -0.69485369041334354989 -13.65531608843927458 -15.590043844664631223 -25.047904701448295839 -10.026867434772277932 -18.463877478133770893 -17.301155956336309316 -25.152802923273249291 -9.2896956856019983206 -19.23085871943883518 -19.011508134207261378 -18.543409016430164371 -18.372638730041256139 -16.180549957932349514 -20.395444279919221486 -18.557104650930462242 -16.713043463901247065 -15.099769883426553463 -17.096074190330782017 -23.398811235190542845 -16.605545053343647055 -17.288829148931746715 -18.720733546333207187 -16.12664228010925882 -21.450795445508482828 -19.058147789150268636 -24.428025306902682701 -16.967428855072547833 -11.072590747508236575 -13.803987637011733369 -27.471703732728681047 -22.470973069249225773 -13.803550507139977555 -16.870746945127692129 -21.503023526645137053 -17.1850177738686547 -21.723856654862267135 -19.832840469687873508 -19.210692681783811508 -20.565303095673144185 -26.486150816796630636 -21.576846554501550202 -19.13368165904256557 -33.859681669834792217 -20.847436676777022058 -17.795698038949176123 -9.9370614499711766854 -8.9178381522186285224 -19.339236501258675105 -17.764523584780086196 -20.938151568699112204 -13.708006650620880862 -16.541007966508789906 -15.932117469944135024 -20.799555774549233433 -15.189587289495467104 -20.63667779248184786 -16.134040233332399339 -13.888392266495602101 -14.202905171014446495 -18.728227919425101788 -16.079224605738286158 -13.042573441099888143 -15.757759591533613275 -13.376544843246886529 -8.1091173317776110707 -16.294882382302326107 -24.779985573276100297 -18.945027235151179923 -28.065637049569357231 -14.928439086831327032 -15.988076936721359544 -21.128508308358696866 -18.716993329031019755 -13.781186123304514979 -26.344893249890994014 -21.801335929582897677 -23.350440635214095408 -18.787581396794472255 -19.028543852141062587 -15.342882329140346442 -14.033599411092316345 -16.473010962551065006 -20.64974931604349706 -25.824004894906785523 -15.913353538431724843 -21.600341747090872957 -15.376712589251695817 -22.614126442579973286 -15.905015708576636158 -15.342581597741043353 -18.610985557534704071 -19.19990388050259611 -26.45739325279764742 -17.976929781224256999 -14.50998942484568488 -22.381286523515576903 -12.404657068439401968 -19.929851058085176874 -21.95768026235374748 -21.834096228981323407 -16.580609428656437387 -19.784622766545432171 -13.799620782446123002 -22.004352143672811337 -14.873620193654470967 -19.56057293135043551 -13.092513419561253585 -12.046897354566644012 -22.266374723094184418 -17.042693889921388006 -18.425092389921733371 -15.256117619774435923 -17.932303292256534633 -22.287020249377619052 -17.297898992466340218 -10.8879675948753043 -22.754203149847683108 -18.688633458692031297 -18.783070823631735635 -18.505820410510978036 -21.799471552036838062 -15.104401379021229701