90.367321852567073392 99.367961302532677337 100.20077506941473189 100.71397281790643774 102.64604493461776258 107.49996948875954672 86.783791547276919687 98.206337968380623238 104.35804104822892668 98.824433543000921532 104.10971602335672515 96.480460480806399914 98.947857717831169566 95.610661692670618095 97.062623676533306138 106.96483160135102253 101.29508132992224034 106.95093883462247675 92.810157123427515558 111.39915578849176825 105.92241329409348793 86.706003457423705072 112.25646199676799597 100.31330859207120909 101.22929812967392138 93.370087544156803006 99.66784416506935429 100.43988071362379344 101.37907295012534803 99.122745450301280812 103.80092642330095032 104.69883930893352897 87.660272495459039988 99.4563243234431269 105.82080477638629645 100.76838975288254119 103.83638025061772225 104.65278322941210831 101.71377492873568826 103.34995147496741197 106.50072075506822955 97.082969718589865238 108.33702128651522401 101.24477530392289282 102.11707705858349016 104.78442212066268269 101.40980615363075401 102.60842789041254264 102.58196342890896346 99.757584102269419191 99.579438242196431474 106.82764502497167314 112.22369020227343128 99.741980352434552515 99.338730483231699964 101.86961166638775467 116.98813794501951691 94.638460880481616755 92.301967977597641379 102.863655890832419 99.961208607129265147 108.79347021800218442 105.00584163014003991 102.58364904022892006 105.98915683268953103 92.46020719194862636 95.588018543241688008 107.61570153972984087 95.910409193965520558 98.506514259754453633 95.573279662451753325 96.259329971874819876 101.88001512505751123 96.260274966499622451 100.39172066283420293 107.31221825950241566 101.38465702534354307 100.42451575399897479 100.21169277835291211 104.45747495061500842 98.326349395173750167 104.77506575892424223 104.78454479659386323 100.50333410082123464 102.47276953709352654 102.38003375904638403 98.968118933249982661 93.836957190941774343 99.854898268617603208 98.532363425413961977 98.268327279710987909 105.06308413297395532 87.982237550391715786 96.978098714591837393 107.88560086386355863 96.151138438182812251 103.78999143650881365 102.14462249895900925 104.13921164929104179 105.35484032888160755 100.14850590661347951 105.17292547529228841 103.74081688810318269 101.2200861869199997 96.335580195606681286 96.516263885624837826 100.08669621244841608 101.51608874660446702 98.522147728321940008 108.20290872703579055 102.74112432240710291 99.704659706779395378 110.10267415355048115 91.354116515467694626 99.960095372040896677 92.752024072277933442 98.564981286424270479 98.403786011573728842 98.072076615322046678 96.390070429043319677 104.813784896767757 99.754524348652111598 94.316217958954226219 101.83430256579791262 101.46369544430818621 102.65040466691861809 94.415096206578766669 102.43421585352184877 103.53456091802958383 101.3265001119212485 93.116557275875308619 94.882232558912633635 99.283736329714670887 104.47217489345929664 98.245553727403404309 99.14033619807835862 89.550367049149500076 100.79831696858092016 103.98471360254251294 102.89420847554208649 98.269508807555865815 102.64099842768914073 92.379276231139073161 104.3164026419491961 102.38837257307315554 92.885807160947663874 100.98394599841894603 99.32079964190921828 99.777500210618683241 102.85308655597135896 110.95528163849833447 104.70787355679384234 104.83306882851496766 96.572561306269165016 101.06958140859495643 101.88174219865300074 99.020659730480034 110.32331324917349491 100.09941286422130702 99.818757604168411035 95.977018115950414767 99.937439431062074391 100.21591973859776203 97.501812771997180107 101.14663836806623465 98.577131377746042062 109.2701890356504606 110.35097253754777569 105.32723824252424549 103.58785334916770182 105.97172381363421323 104.77494586743415539 106.30000298964209549 111.42294947919610593 105.01166210545142121 98.024808852076390053 103.1108688871535719 105.08999434139533946 88.884787906074791408 111.6721822064854166 103.38566039315595901 99.565039412225445403 102.69179401411764729 104.90526740395665684 104.98030247770688561 97.898400601837238355 111.17153983632564973 93.922203866807763006 99.938669087616631259 104.41160548814940512 100.52670116729265715 104.32591294040499008 102.26600416512134473 100.97398890734679355 105.96428579967417249 100.22754720132797956 108.25174840960426081 99.233531863328025224 109.1985308242356183 97.543985151674831968 102.99568336829139525 97.195761225391308358 94.863407300973221936 102.52855350334986895 98.663095878470514322 99.973789142769504679 108.23971060992462867 102.93736974892910041 102.3138196584396411 101.71280942525983448 99.502507082577153597 98.924766272674418133 102.58872336964097371 108.34808788476338748 90.87785204170214115 99.36079855680110029 103.1442371709240291 111.19108577144857009 105.48734235960986894 96.994684905913544526 97.28626117478654578 109.16979830717309596 98.014470552388985425 105.4091368748426305 95.321449079755268485 94.498853225924463572 94.500608448362726222 98.247369029268014629 94.03404892025353945 95.667221791618487714 99.281428476981545828 110.97129563061676549 102.94562175451920893 103.67654619628162038 100.92316262521472936 104.35812884325224559 104.6941537685050605 104.78326904841760836 105.32060338492613027 105.87977162551592869 96.592903194568549452 85.382422630258062668 97.24411353017212889 93.677606221419480903 99.262180903850563141 91.450360055715918861 106.59852924156670895 102.47359120966984847 100.78663707272910699 100.45092205444088052 107.92980435942678241 100.76589140361780039 106.86178244105030899 101.49538365904078319 103.36399320555049997 107.92167456913743706 97.601578127881126079 98.761956887432120311 103.30134965090152832 97.098155465839951717 104.5774060397162657 97.883389269170493208 105.14043480137601705 100.17641226770132334 98.705284499729330605 104.45845948955032156 101.2032081499895213 105.00789630205467517 102.64664888204815441 100.17244399051088521 99.03792931760170859 91.03028387811937705 100.27698106100497455 99.16629834085502182 88.161724730160514696 99.964067580384465828 93.588206034908992592 100.16438915444005886 95.348900302203091428 109.54368689055972652 108.54136589548549807 104.10764614757732716 107.49696556025790528 90.619735570078560727 111.93994483462351752 97.803662613202007492 102.57360531195618591 112.68587797235164771 98.110654041646156998 94.135019851020715009 98.739125319008223869 96.375250076442114278 101.85103940163315883 96.741270127228645492 96.310292305236217203 93.578318298437380918 101.59493811390495921 96.768989169755343482 98.053027503758244166 106.15085285333391596 103.8827998827933925 99.409818010341794547 100.26903989096767589 102.156218159987489 102.04482833043138612 107.78966478741830315 94.369394092204728963 99.586780597819284822 101.03951817411818581 96.225840340712906595 104.67517767981978238 101.92493727786626323 99.909100296451924805 102.71030625794149671 95.33782942766848123 109.42953529607886765 96.447956716200849314 103.44636071235437669 107.92995998069923758 106.97202336436195935 93.797973242603944755 99.509753976578437573 103.94755745033351957 97.821759190554431029 100.28888335279013688 97.650738935147899156 99.662635327331202006 104.44955265729375071 101.24073624584127629 104.65472270372937658 103.10022887289109406 99.437272964025353872 107.44613348437445666 95.449496383205399752 103.02887121984744567 100.60945920409909604 99.161270199571944772 86.912352939944298669 95.096581337448071736 103.09515080314844226 96.771069351341679976 105.19943039438031462 97.394897637727936512 113.94893144830366793 103.49947398846087765 96.914709982043717673 96.419521440053713945 100.20070362476502623 101.4124545360310492 105.81528835498156127 103.00771746316152644 97.239346817066362405 95.054693666752186232 101.22432097902671444 103.96182624071815326 103.12156522699831385 103.85529526128861733 108.25638351793202219 100.17533314512782283 107.98104285847870187 95.348513846142367356 114.12674898376093324 99.183611642571989364 101.05148682850283137 98.876215369974019609 104.78709943360148316 102.57757641414991667 98.500095200570825682 99.861324162634460322 89.39942677770902435 96.119640446975580517 106.9742272453436982 105.9494676994377329 104.21634502407822254 93.839669614626345151
-1564.0518513060260375 -1550.8354116495372637 -1551.230468467139417 -1551.6458630112333594 -1569.5495530161142597 -1563.2017249318696486 -1559.7602871239330398 -1527.8422605107357413 -1570.6725393126264407 -1575.622961229245675 -1530.1867282991040611 -1564.3247107467479964 -1563.0945312959804596 -1545.5128994320634774 -1550.3802475577638234 -1577.0629796148730293 -1563.5351088176430494 -1563.3520308066965754 -1560.1966356836917384 -1552.3484032730648323 -1564.2392200788940499 -1569.1804868387230272 -1530.0972224679289866 -1564.4186873455528257 -1572.2415199315266818 -1569.3153249704314476 -1582.7015495753216783 -1567.7332904907534612 -1554.3594274901042809 -1564.9759954477335668 -1521.8725304212036917 -1551.6354030156878707 -1540.6526963718670231 -1534.3269995730352093 -1567.5435805211609477 -1558.2561237015443112 -1544.6066049303988166 -1553.522782565459238 -1536.6104067116755232 -1560.7710809686564062 -1551.3852319560905926 -1563.6031562162654609 -1578.8602673345769745 -1574.6142170311118207 -1527.4193418518900671 -1562.12879118177284 -1569.0281644936360408 -1562.3722905204842846 -1557.0840435229754348 -1559.6396007848777572 -1561.6984636007350673 -1553.050070250523504 -1579.2895579648049988 -1544.3797017735914778 -1552.1748117144973094 -1569.2632457292315848 -1573.0238687112403113 -1557.8197746725977595 -1569.9624103064595602 -1563.863447147623674 -1553.353343776563861 -1540.4431735188077255 -1567.492668906109202 -1573.0826419839252139 -1553.6532136612386239 -1557.9276659730444408 -1571.6162671528707051 -1554.262550062285527 -1571.3610444852440651 -1552.0675115747083055 -1543.1762733737614326 -1565.298134099769868 -1540.9075697504936215 -1546.6792229813067934 -1561.7865739437279444 -1544.8073044026064053 -1551.5708350589593465 -1573.3040911141065408 -1552.6686578279666264 -1546.4154771137227726 -1563.3752239686780285 -1578.405861723188309 -1550.3860552489709335 -1532.3113453740409113 -1540.3832477024195668 -1550.3620467440423454 -1548.0284349282069343 -1559.1563668758549284 -1549.9144689622014539 -1566.1996327286503856 -1569.0802905553121036 -1551.2450213947638531 -1548.5060430441074004 -1555.0537836744110791 -1551.7957796225746279 -1557.2167849742140788 -1539.1018275487620031 -1560.3159275584614534 -1578.6531918192449666 -1562.1084874378111635 -1556.3798577410577764 -1556.0803902154470961 -1564.9205784363332441 -1571.2150828982589701 -1558.2246225625308398 -1549.3998622117946979 -1537.8009641800133522 -1573.2898463474971322 -1526.1284832007586374 -1565.0362661228782599 -1550.0974240434604781 -1558.7374480696535102 -1555.3741930757214504 -1573.5892231219643236 -1538.0427489334415441 -1564.4449088035432851 -1544.6197367959812254 -1535.5483501886310478 -1554.0378999773527084 -1561.1791236406743337 -1559.2903130565493939 -1554.8528120599196427 -1565.0293949435101695 -1550.9560599104934226 -1575.4100738259751324 -1563.5181110346466085 -1564.4446431485025641 -1553.0415543050864926 -1547.0335919117389949 -1562.1404003745594764 -1571.1008757780923588 -1560.0714329627519419 -1569.5021109385716045 -1547.3879777796644248 -1573.0009293549564973 -1541.2173169348966439 -1540.8066452699363253 -1578.3784459499622699 -1544.9549722272777217 -1539.2315057978521509 -1550.3271304710110599 -1551.2194690296503268 -1540.8758385950307002 -1555.5865723374390654 -1556.0572015411071334 -1561.0437932662034655 -1521.0269136355875617 -1558.8905753465658108 -1580.149187223360741 -1555.8527416913191246 -1567.2379616360174168 -1566.8088365219646221 -1565.1451402796449202 -1555.1773334127308317 -1569.8106944950607158 -1540.3031558762536406 -1556.3717502872780187 -1542.700091711144978 -1569.045328996936405 -1535.2211639887032106 -1561.339013669676433 -1587.6641040258061821 -1559.3348345043068548 -1557.2565149909789852 -1552.2305943264354937 -1568.8038883348610852 -1553.6024264643599508 -1534.2061542726571588 -1549.3911843837245215 -1570.1993256747884971 -1549.2352637117023733 -1579.4251131923469984 -1562.3466633386483409 -1567.7724863747291693 -1563.320368626659274 -1540.1381294641946624 -1535.566788220817898 -1565.7906877365401215 -1568.9631823830825397 -1553.5387063971927546 -1567.3059246716729831 -1555.3549896911908945 -1554.542694614274069 -1551.5217317464553162 -1557.8508105907378649 -1564.3819731499029331 -1569.9429964142013887 -1557.6756360808442423 -1578.9954312697718706 -1548.6010863940405216 -1554.5723568460387014 -1572.1117874548824602 -1557.1627459334240484 -1547.5272819960362085 -1554.1689792097174632 -1555.3190852715704295 -1560.9467970914729449 -1572.7916636727568402 -1556.5916763239938518 -1551.8688210958964646 -1555.6266026056939609 -1559.4051359108473207 -1551.5984576096984711 -1556.3654036961706879 -1569.4120298422055839 -1546.6801272994787269 -1548.2908062690610222 -1556.4267721408748457 -1536.2443038428402815 -1552.0915921130133484 -1549.9892843454742888 -1564.8965327424250518 -1567.3905805013541794 -1544.9310384343905298 -1571.5854352015387576 -1562.7088340438801879 -1582.2040266238266213 -1563.2191311936073816 -1550.596871206264268 -1566.9558147466707396 -1559.6223856698818508 -1567.0457724488596796 -1590.3364117459441331 -1549.3152790965111762 -1573.4310480668191303 -1560.8376376153501042 -1578.2964955063857815 -1570.7413643937295546 -1548.2760901024059876 -1544.4872254436788808 -1541.2906308407179949 -1574.5231636001158222 -1578.0030400080738673 -1545.0196127500016701 -1533.9829186917204424 -1528.2283821421931407 -1552.2358774536621695 -1532.2336429349531954 -1575.4653256869949018 -1548.2703769827146516 -1546.7269786777235367 -1543.9881129096236236 -1558.0039028509181662 -1541.1036949517585981 -1571.1512768122454418 -1567.9273313584433254 -1545.5947378066598503 -1544.3383711548262909 -1553.8350585459554623 -1546.7908464998533873 -1558.0362934299498647 -1531.7763484919228176 -1547.2469784743602759 -1575.9373757895625658 -1554.7207749412320936 -1544.1138494631493359 -1551.5003093747361618 -1575.0591137335479743 -1571.0114458615419153 -1562.8277348482263278 -1568.0922002536126456 -1558.1498282804354858 -1555.9213172565455352 -1553.0706727622959988 -1544.5531122335403325 -1569.1173630521404903 -1594.1944782906718956 -1545.6736153775782441 -1564.428067865831963 -1558.2525749245776296 -1559.4554434807578218 -1547.6285489614019752 -1559.3676108654917698 -1543.6879383333316582 -1541.1867637913151157 -1564.3751973785065275 -1545.6737920998155005 -1552.9456483290700817 -1557.3602436320609286 -1551.231046645107881 -1572.7622297823377266 -1558.2900815041134592 -1558.3376870700622021 -1591.0314588968644784 -1581.2803452050325177 -1540.3177207781207017 -1545.2367413027222938 -1557.641603484894631 -1552.1202272196453578 -1579.0014625366284235 -1550.3444009573015592 -1563.8550072581783752 -1558.2895482419796735 -1571.098578943600387 -1541.6611877194081899 -1579.054073408781278 -1560.4874217887370378 -1546.5592440703524062 -1560.8096787466440674 -1570.1942187078998359 -1547.5927435000148762 -1586.1065774995313404 -1564.3258901898907425 -1580.4574433121265429 -1544.1454547893943072 -1555.0472357782177824 -1552.9962919996467008 -1548.1760184035083512 -1548.4479715748623221 -1568.2481339302894412 -1540.7458347246492849 -1552.1872089147400402 -1568.948150226002781 -1555.5731260221377852 -1544.7083770900940181 -1546.4453590017153601 -1553.6497191532200759 -1578.9741402713993921 -1550.9670823138681044 -1544.9134064202953596 -1567.1009693539438103 -1557.6385540006094743 -1580.7997320251129167 -1542.4362299375432031 -1524.3041165898655436 -1559.7491783225370909 -1590.3517258027334265 -1558.9780038173782941 -1544.0087650779869364 -1559.5756123933674644 -1520.4269468705324471 -1532.6997522744504749 -1556.2699717192233493 -1557.8200702627702867 -1531.3489537463499346 -1584.6437592961756309 -1558.0993422610699781 -1566.2947089453396075 -1579.8011940731641971 -1552.2903504129615158 -1564.9238677673110942 -1552.0003902579485384 -1549.3826110159429845 -1561.3587852073012527 -1552.8455058217111855 -1544.7615176505460113 -1546.6172721218117658 -1571.6224598374567449 -1570.9911232830552308 -1553.0073163698332337 -1563.3066853998154784 -1555.4083751585608297 -1546.7938858456132039 -1573.7992479150673262 -1561.0847576857327113 -1584.8600953990435301 -1537.4044762415651348 -1558.3470670993408476 -1564.6248591861831301 -1541.9800832718647143 -1542.8645351752950319 -1535.6965363307074313 -1541.070586073603863 -1561.0363980903607626 -1537.236726988300461 -1534.8247438646963019 -1546.8005380639942814 -1570.1602288346591649 -1578.5977495924778395 -1563.0737803388271914 -1568.1393938351088764 -1533.7621389539124266 -1583.583154690692254 -1561.6747911798095174 -1539.2737120107576629
600.39478152476613104 592.78653126089977832 577.53256060586318199 583.1952692820352695 582.99046888058637705 580.07971216660735081 588.17953932548573448 588.11627387226110386 587.92234353031597038 578.31047220207142345 579.81520336363348633 575.52191352826741877 583.67468628366646044 594.87019826461937555 578.1224919844547685 592.60158132783828933 577.81789173158244921 592.54449084473901621 589.03005604586803656 582.19655062095296216 571.47149571060367634 586.0706792686105473 589.02103395881704273 582.91231867540705025 589.56919324280556793 590.4805591626389969 581.62727146340330364 579.68730468773662778 584.66439829565149466 570.56402754336886574 582.80359305794002012 579.64555640563116867 586.14667352872277206 592.89636523073954777 586.96891174742916064 584.6601819471171666 584.76015083271795447 581.57112663951284048 577.34645116517026509 592.77919246582132473 585.95233390636781223 573.60687170043343031 578.45187607222339921 591.55720063331852998 590.00721141715064277 588.02672133226371898 596.55514983206910529 585.94863015473868018 591.90159780988039984 570.14645893479314509 588.58287965352303672 580.45099506225983532 576.76915390558031049 592.74248245797753043 583.10951311871724556 579.12541625667984135 573.52384959754567717 588.84090199675767963 577.37909372186118162 586.08380011453118641 585.99984701655580466 579.83891786220078757 590.12478486460508975 582.36663898492861335 573.65895790020897493 586.07865584094429323 587.08647649541910596 586.12205833444170366 583.01129160023708664 585.66370370311244642 578.96083610458003932 585.73598207439727048 584.29011242363174006 584.974243773864373 581.84988174555235219 595.20580700101322691 584.47250445127929197 581.22952336393973383 572.70309334655166822 584.24902655621986014 580.38122569783070048 589.18540516299026422 580.01485354576323061 569.97059412730266104 574.19805144680731246 584.38280110797120415 583.21987277842447384 584.49092709970477699 582.96498144062127267 579.49094991799472609 585.71648014012612293 582.83299116321131805 594.52795292196833543 585.54985576374883749 586.64192730159413713 597.8876196182059175 578.76968047290881714 581.55883819923030842 593.35639821714835307 579.52632903185667601 589.79544806971455273 576.40853260149754078 581.06898221603819366 574.97388314921488472 588.04127594325291284 585.51879521046703303 569.35904901757714924 576.95654755885755094 581.88314945777858611 596.2507130695187243 576.2650092166562672 582.34968205519669482 585.09551601583939373 576.96992391773324016 577.1178559486282893 588.28914817852160013 579.65716753630317726 582.51359346835488395 565.91817488695562588 595.69845037689117362 569.86210787415325285 581.95280826723319478 577.34407676967305179 578.57219370507755229 583.41362065698058359 580.14786186096114307 590.97663311146936849 574.66135553231504218 578.60803592937361373 585.49284110308587969 588.42016328068746134 580.09989504923191816 570.95561572118856475 581.69823529466054879 589.83146314422754131 581.49061403288055772 588.55678973419662725 572.50002092640033879 582.6856265092171725 592.1397006441737858 568.24857701947212263 580.22249762209855817 590.63704666662113141 580.6218851628457287 589.80815370046332191 589.46789906832839279 592.20543013992028136 570.2916404686234273 575.47489330075700309 581.30012133236084537 579.32971523005608105 582.11077027767350955 586.12371572811912301 573.45025059227521069 572.82119346899514767 588.49414069253634807 571.93943476606648346 576.70374210236514045 582.43920971486625149 578.04002840669886609 585.94654543441151873 563.50906463779108435 589.40736320661744685 578.43500107886040951 591.63016668550335453 577.30326679109703036 587.04990623139644867 581.76104146524687621 594.52040243069825465 580.62358421438398182 577.46774004616622733 578.50461713794686602 590.87522518374839819 583.5916030848787841 583.58321549762706582 573.30813864682681924 586.1224641600601899 571.83503121237220057 583.94596520784728 583.39368835123741519 585.29403058373952717 583.2052434502709275 580.23432965804022388 594.77732814714420329 588.79686775829270573 587.71403408173603111 578.43020563412017054 581.58293486090258284 581.47124731107214757 581.04623423802979687 595.38982868090738521 585.36237728921162216 584.15450959530426189 591.29930285155467118 589.51899092197163554 579.80901679314933972 579.28968006608852193 575.31989561013813272 583.67064895417138359 583.48710664402426573 589.02346515206329514 585.71471191623993491 586.04283893111255566 581.06455188082293262 584.31550769862485595 590.28315721409717298 573.72338811244446788 582.53614637359260087 581.38560863700308801 568.25394444696098617 581.1792298476779024 584.4585646791159661 593.14349272832760107 589.36603737630139221 583.66536922384295849 582.66350047625769548 588.49579346046346018 592.37818876255334999 596.94372981704793801 586.5849052673835331 589.69623366226778671 586.03631566294563982 579.95614726443693598 585.52843082521508222 587.71543893158138872 583.3699473645656326 574.76504425984933278 589.70477888666107447 588.16846985134452552 579.45523245942240465 582.18180099575715758 584.603734284814891 582.30206212846292146 581.94452031551065829 585.72739308623226862 584.36718785334642234 593.0359841607493081 581.22522165216048506 582.34046205367303628 580.76452795038346721 580.52170461119544598 591.16538113537933441 584.65967174578224785 586.42619871994577352 583.64344338105615861 584.16124282435430359 582.75079207482815491 583.85168223284779287 583.65990443031898849 584.64194352131949017 593.15897708695899837 590.72712212664873732 574.70363759858275898 588.7641607577004379 588.97505703848003122 575.74242074687435888 577.27471788949117126 595.08101370828978816 579.76461616152334955 588.0087771487592363 574.47224048975817823 582.29789924165311277 579.14272586978927393 583.57224583794607042 578.3793739570278376 583.03819319966851253 590.99686888932535567 586.66519612815557139 580.14346871707937225 593.30027868989566286 572.40159733534324005 575.27374439690970576 593.20705883052721674 592.00512644171533339 594.38522000401121659 580.21273716085693195 587.52333929739711493 584.37915781530955428 599.44006266026531193 575.10895903307664412 582.17302294733303825 583.46648296529906474 585.19967799683104204 579.30375353757744961 580.15399964077766981 587.26460188518058203 587.16738853868776005 575.17054576182647452 588.1594722404586264 585.9967633870469399 580.323275119618188 577.65236798707189791 582.94833670064508624 590.63382634137724381 593.03505931373035764 586.02562551358278142 594.73238573921275929 577.78040692837362258 593.20647929025506073 583.27031616604949704 572.23922131494282439 579.81491267075125506 582.23748369654299495 573.77711186682097377 588.20545645904678622 574.06312289427557971 583.84714419273416297 585.530244155575474 591.12017047626943622 570.76461970882803598 576.65107574741102781 584.42001154840920663 591.05426100554768709 582.51134855447810423 586.0711355295533167 589.64447447307736638 582.57604832423419339 588.3584906917689068 575.9170263225112194 589.22029442602968174 588.54759004717027437 584.59265340165734415 579.22086475155344942 573.30230454748982538 589.37189247224966948 573.04280401751759655 570.59950995845144917 584.52311612436767518 587.81004304946623051 585.82088728035500935 591.62605279243405221 578.37360286873604309 577.95053090876126589 592.02959115281930735 582.63578455080312324 595.19408047660022021 574.56473645956930341 594.38928916866404961 590.59984969384470332 586.21536853833833902 592.24028364395167046 586.55026349511376793 575.51882009376106453 585.98630216299636686 589.88915046673116649 592.65265417008311033 582.73037279032610058 579.77191736726945237 581.7979052876841024 592.56485687219981173 587.36665397079752893 579.80460718304561851 573.70582162407197302 595.19047681503593594 574.47855692977918807 580.88317853083003683 577.73304483800586695 580.5405298964060421 573.11871942141976888 574.60861832176715325 588.64711369100382399 582.27525335742257084 568.73613907221374575 579.85791611911395194 581.04522598345317874 597.64385263490180478 593.31441840215859429 579.72198098542980915 588.04724894448770556 584.73876784855656297 590.06011015598051017 588.78419209946355295 580.57230692624307267 588.59412047760315545 579.80717047267137332
201.95959899921038527 191.0759959047075256 196.12874688707884729 190.26121015662991454 188.63399816187515512 186.8101010639673234 190.80888242810505062 196.99446414513494119 210.75204819121438504 180.79721379704074025 191.00431678427071347 183.07685389521674324 176.46435991580804625 190.89669807179080863 208.95400714375756479 196.66688514210588323 194.5024648078652092 190.78689282878363542 186.62843528623633915 200.56675645606202352 188.5005546337721114 194.14020966643187194 192.44801819159400225 183.03732306220285864 193.37328139942565031 182.61576165489810819 192.70688023055214444 193.39284109140484702 190.32973245433151988 189.69547112298454294 194.11334279773933531 192.33354273196050599 197.15792641129345952 185.84626462354674459 195.70818393300993421 187.49525278328025024 186.97385160286182781 183.05642890404357104 191.56244428800434321 192.95003824041415896 194.53767584404886293 194.22179861904547238 197.30051472028935677 196.56863171365750986 182.59667439766573693 191.99227548955502698 186.55564606785969772 186.92599803226715949 200.0182641905975629 184.65010081185036483 190.36511894188004135 191.76085847799186013 202.22133372817722829 199.9026930291384474 198.92456891065481273 194.67009106408531238 199.94467724369837924 197.70372609853922086 192.77720786645846829 188.57720148513706704 196.8864262216667953 189.98465630103405033 189.16668834806827704 197.04438514162490037 182.47855506510092027 191.05172825834139871 195.23774289487823808 189.03926493403724862 196.62972703591105983 197.59915923871420773 196.21408720341389653 190.24549967083981983 195.83382305123171818 199.22786089468351634 196.79109649173537377 185.31174309857493654 187.15005129591042987 191.81478396910665651 193.09604893256670266 182.02346607923979604 195.85028206470980194 180.76711162226840202 198.45847071383468574 186.4554968141549125 195.15431197677233399 198.06875023322470497 198.4068769936195622 186.70056914264472425 185.98823722668728919 200.3310253383729389 196.07575099757497128 193.36063834683824325 195.19616537609977058 193.73747489245656084 195.60716235811975139 187.98717431227245811 191.34017020490031769 186.12707095853201622 191.12106399492901687 189.25211603058721721 193.95395265461183953 200.40929487399569098 192.5071043117520162 191.83600246250688315 189.52660850188544828 183.08931806674340237 187.21295938640881218 203.88179903154045292 192.03983160348118986 177.96641762276783538 183.08154217480594639 193.05367812608650979 193.98184406840314864 182.22966114372604807 187.73557297268064303 192.28445660779573245 190.95588279505702189 185.11182050137290389 191.22443625677180989 204.15974887433347362 195.20084937500919864 189.88369200426677708 180.98015766797348647 186.78725215362572953 201.13424756757876821 196.69849610979676413 185.33536743646453715 191.37535886194012846 207.4887898604114298 185.58902370409339255 189.31981262428362811 197.97130383810440435 191.77879564331684037 192.77052657390726154 192.84723151873566849 192.37702935165268059 193.10141047318003871 197.47898719315102767 199.36593866709864642 193.56793662739357842 193.92983490236787247 195.90262483361365753 181.08092919867797832 192.2995558515990524 192.09734329136529141 194.64359357999680356 191.82121857057819625 201.4064807797801393 199.39037508741995453 186.76842855360143858 190.16988182508217164 188.11494973356172977 183.60354012349574759 192.94539106193349198 191.2865507508859082 192.38577829507588035 192.2643849103282605 188.92169274369422283 196.91098761858708599 196.62896625064863088 190.57226815931178976 193.25727659032023098 199.80803818377702896 205.63193882597170159 200.35719546335207042 185.14283931566774299 195.97504818105579716 202.10194889993081802 193.70070376448018123 193.06416645778375596 190.5246177134528125 183.91293452256550722 183.86790279681042648 198.60958980110410721 188.33015626666730213 196.45491795946253433 191.33852749312225683 191.42374078610993138 188.52202235912884021 181.91211775994884192 183.39147968832446622 198.02924519638764878 199.90440174121872019 198.09131373292035505 200.37633631797416456 196.39254925904944571 185.67941888936272221 191.78692806643780955 187.05362647432869494 194.9330942147636847 183.03376135713986628 189.50986828549903862 193.68574303588889052 187.52209995930201103 191.52986703391874812 190.23198007740495541 197.1324389026971744 193.79787034417972791 193.55721175857047456 180.79925413466247619 191.83015348240351727 191.48972158144505329 188.14995210922418778 196.37668035614893824 186.30672866867345761 189.12853802080886112 191.26663418395523308 187.33930928174331143 195.22378662146016381 197.8276196856066349 196.01341397549518319 190.49433568350875134 203.06351199681091657 193.92846054502561515 187.52153629946559477 191.32639920436827197 195.86417385928729118 193.29529927756024676 194.29597478071863748 191.96102996187676126 192.68361411172901398 198.30956587534342361 188.32414165602756384 185.35221607707694602 199.57611400894560916 191.22274051215251234 189.04086184091966061 187.15010048715370772 188.35428031408429206 207.88293023578415841 187.96711954750472273 188.56794641031197557 189.18808860597903276 192.47946754572052441 177.19195944295830714 193.44283382095730417 185.73603227308888108 187.16980018200959535 199.47294924543973593 193.2871323466082174 191.29945022586693426 191.58559059561335403 182.13726910230565181 197.11814435261851486 189.89283446082410478 199.77981777327309487 197.57593743836943645 188.16967862635530651 193.40014340031848405 189.348086594608219 187.89755532015092854 197.25409128452406549 190.95931938881182077 188.09372670547159601 197.66253382203191791 190.29108480743104792 190.30897682119530145 193.11495500350852694 202.02903200353401303 186.03471593295518005 198.41672491029908088 186.70968112140175776 182.50833864134841633 192.67489500192175456 192.21060300915991093 188.80203880769695957 192.66453034081951046 191.19672866720685533 199.93253325974160362 196.46354101287579397 202.85897283575610572 193.46734098902771848 188.53650944348726171 192.59669041073973972 198.02602357700592961 199.13982643040034759 185.70243443196210364 193.62791047787919751 191.91534547258689258 200.25234336102184329 183.86143813928768509 197.11540102317155743 189.20475722162390753 188.27110231652955008 190.13064527861874353 194.09598573184345582 198.00315039735616551 195.29018885525283622 194.2438027084749308 195.19438361365126866 188.83219381096319012 189.10816987566801117 201.63595728566446041 194.08193739581034265 188.61868998829564248 183.66687680750996492 184.31249782287213179 184.67596808824080767 181.62563692075227095 199.67875216479697542 185.27636983550615923 194.15662586511371046 185.30712951157295265 194.47370262809386077 190.88724850402613242 187.89835046086346892 188.12330722361690505 192.54649813809371039 185.00595399502279292 189.55644332733675128 193.36545367738165169 198.91892100831796597 188.48746931009586092 189.89605545814788456 196.18373555688188503 192.39564680424382459 185.51679124836334722 185.6048489310026639 196.76772086931316608 187.61753580086681836 189.71131583151571931 195.76352941803074259 197.21988730315462135 193.98595412433510887 187.71511178474190729 183.5255953438649783 205.30418013888947826 183.9283165969564493 194.28721571355777087 187.51721715153894365 191.9866961105468306 179.28231624401044542 189.22973148375609753 195.94475804383108652 189.22492524214868581 187.60180719544501926 203.07830688837168509 194.78390925587018501 194.01311684189028028 192.42144840932448346 207.65715435850603399 196.32881475024598217 199.87994059344347875 185.96187252257431055 190.51291164046747895 204.35631481847150326 192.43731293912719593 189.35411334548135187 196.10588520145910252 189.84651745860165306 190.68045644955560647 179.83854723923766983 195.09793709044319598 193.35079817259634183 186.44527640206337082 189.95129291284351325 199.30142575271040073 187.41347465618153478 189.29586097990741678 176.89801879303092846 186.43964071781505254 191.29885069541202824 187.50978182591191512 174.2294585636555837 192.17373702328347918 198.41269086798359922 194.32187150272474696 195.53474916626470304 182.18754495530987469 191.88785621706739448 203.5754362167147633 194.7706000705384497 183.63406103893288446 197.08724741343195319 193.27707635137656439
-1748.3099762631698013 -1732.4743353648143511 -1750.288329372307544 -1765.9286604698256724 -1747.6982384369159718 -1767.8567239435712963 -1780.6426772242705283 -1739.9199794295345782 -1744.8765207246219688 -1760.0301052115041784 -1750.3898065414946359 -1761.5317304278685242 -1739.1559934456156498 -1774.813338149194351 -1758.4250801939112989 -1757.9718602018840556 -1760.0813995835433161 -1757.0127122856085862 -1781.5904040184207133 -1737.2256210464533979 -1743.701376247939379 -1748.8966356335865839 -1762.2014169957108152 -1739.4875676029671467 -1752.2099794765060778 -1779.1655579387715989 -1755.7254828489230931 -1761.0872219635211877 -1758.3213284173784814 -1741.3699667266846518 -1741.1223753983849747 -1756.3520473739297358 -1771.0951673143240441 -1722.8462129368499518 -1760.7262653672889883 -1745.0171948790655279 -1739.7946658362720882 -1757.7210941962987363 -1753.1785420266598976 -1732.6904477142375072 -1765.9493034263250593 -1736.7529710343444549 -1762.2141884538336853 -1748.3755577889194228 -1752.9066882992763112 -1764.9700431764608766 -1747.8225094302968046 -1747.176289046823058 -1764.5092407965116763 -1755.4886740677422949 -1750.5233052689743545 -1770.4210386100164669 -1738.2465531736979756 -1754.0499099488949923 -1740.0785175314347271 -1746.9180615525995108 -1753.859745352343225 -1752.2775724947059643 -1764.783052136481956 -1766.1947870726294241 -1746.0305015514845763 -1769.3789348360878648 -1735.7867911843147795 -1745.471468858111848 -1758.6861512644966297 -1744.6725804717912069 -1732.616319637996412 -1738.405871063120685 -1751.9423603197237753 -1757.900129126071306 -1725.9649688463480288 -1740.8510732402232861 -1771.0250113759711894 -1727.6589951486107566 -1722.6777523118853424 -1761.9872768606724094 -1742.6348057424872877 -1761.8828228288070932 -1755.616625507824665 -1737.7345854926802531 -1742.4465420513006393 -1742.997957783622951 -1726.3779951374256143 -1742.1858301852223576 -1737.7448546302487102 -1757.1443981997822448 -1762.2636361328873136 -1762.6973919222739369 -1762.2943987661515166 -1742.1418402743554452 -1763.0047397603038917 -1750.0707338514739604 -1730.0264189953697951 -1770.5708593452964124 -1758.4110842252262046 -1725.569530954701122 -1756.4046121369533466 -1765.6764377025763224 -1749.6171720324371108 -1744.0044686997161989 -1749.847747561459073 -1752.6599082226346127 -1758.3423522933362619 -1765.1546269590894553 -1739.7645375442873501 -1731.3367412455743306 -1763.2720609376879111 -1770.5573774376994152 -1766.3327235879676209 -1762.3021344941157622 -1750.5181481529816665 -1737.585810816407502 -1747.3717890307257221 -1744.0066496178205853 -1769.5320594078223166 -1759.7913749002436816 -1760.2719865829569699 -1746.0399922797432737 -1745.0824258434386138 -1766.0004393806443659 -1746.7907259771932331 -1719.3690123628716719 -1760.50083623090336 -1748.4970262329311481 -1771.3839788739744563 -1757.5778874189738872 -1738.9072841175091071 -1759.124634864356949 -1767.4062218467979619 -1744.0218275944280322 -1744.0816370842480865 -1760.8988411144894144 -1744.5212064375473346 -1737.9043849869790392 -1736.2305078568613226 -1748.5812110407225646 -1757.2346478217154981 -1781.575649573722103 -1767.5952689726032077 -1758.7525863808789381 -1759.3321249304387948 -1752.1410661881875512 -1772.1489911674009363 -1751.2822900601522633 -1734.980430046270385 -1744.0933305122443926 -1742.5460598647566712 -1775.118303120996643 -1762.1116670944420548 -1743.0257668557987927 -1763.5129500360376369 -1752.5019120709109757 -1784.3546620484371488 -1759.6379984930451883 -1759.8298258878394336 -1744.4743655365457471 -1759.3449979374056511 -1759.1978362984882551 -1760.4731605269018928 -1741.5122205762743306 -1777.9188551462923442 -1749.4556141584355373 -1748.0530045508235162 -1758.3995899011902111 -1757.6689555571515484 -1740.1764588128926334 -1757.48628434951911 -1765.1414520906407688 -1763.0338000011352051 -1722.5581596086065019 -1756.9155200208572296 -1740.4189120776054551 -1742.9151836222802103 -1773.2502700838715555 -1738.2582167514563025 -1770.360548700229856 -1792.8048170889712765 -1764.8375943638043282 -1748.5854665303086222 -1746.2030295605413812 -1775.2606693062050454 -1759.3778584737337951 -1745.1475880369553124 -1757.7207426155523535 -1752.3992576110349546 -1763.2323085053837985 -1735.231161658536621 -1756.8247373099379729 -1735.0705567124039135 -1760.3957195113532634 -1756.4655161116718318 -1758.8818949943772623 -1721.243399995926211 -1751.760164673037707 -1755.5019360669821253 -1742.2982397723651502 -1742.6716388252007164 -1776.8959662226604905 -1738.2392372082852035 -1758.5336025296296611 -1750.3097055503985757 -1742.4351153905060983 -1773.0869466705612467 -1761.1742325204909321 -1767.9464300907982306 -1746.5273166264598785 -1739.7381530615496104 -1720.9621958578907197 -1760.7130205689052218 -1745.7383857205343247 -1738.5360950059391598 -1736.4450529194878072 -1760.6398244103629622 -1766.8867503508731716 -1749.0719866525112138 -1735.2413207963472814 -1742.0735970864132014 -1745.0453861598271033 -1744.395069712546956 -1761.6975214970141224 -1749.2752610430472942 -1765.7034018583833586 -1747.0370676343686682 -1737.6269743460331938 -1748.745624678750346 -1736.6504949141663019 -1746.6516200033879613 -1738.0795407704965783 -1745.9256707938941418 -1770.8484636428352132 -1763.2713885033549559 -1753.1440750135432154 -1786.5197027069530122 -1757.0675165844847925 -1767.0542700302403318 -1744.83038187338434 -1750.9967205803204706 -1787.6739180791848867 -1756.1174488954859498 -1764.1848144048303766 -1737.5888091258677832 -1771.5069830290121899 -1746.2760195388557349 -1739.7543157447714748 -1743.4720957986480698 -1764.5494440615789244 -1758.8887386724161388 -1729.6203291267659097 -1753.8785591434238995 -1754.9993223515500631 -1745.0078673017437723 -1762.2755401622218869 -1772.4765041640559957 -1762.2718445332486681 -1772.3222270905996538 -1760.8698362687316603 -1738.2117559346756934 -1757.2718298869160662 -1757.1642603298614631 -1768.0089768995596842 -1783.0272395052047614 -1757.274063473220167 -1742.5157249612818759 -1771.1652058033887442 -1747.8677191529884567 -1748.3233936371889286 -1783.7576548779850327 -1741.5263232758118193 -1744.7139963353697567 -1733.9059820796555869 -1768.530071905224986 -1750.9003932932889711 -1730.9233255318931697 -1744.1722115131731243 -1761.602696101254196 -1728.6096912341213283 -1758.6636020747919247 -1775.5786143891468782 -1756.1231984092971743 -1735.0284694513572958 -1763.4411265643097977 -1732.7597022458085121 -1749.4142931868011601 -1758.6029931712785128 -1749.4818628709913355 -1768.5015723711710507 -1745.4846712716928323 -1726.5005804308434563 -1754.7918156945477222 -1742.8428793279167621 -1733.6337708057676537 -1766.8773365921003915 -1745.4257568803811864 -1741.6335925812256846 -1750.8965132510036256 -1740.9146097065529375 -1757.8270597602283942 -1753.2340270550378136 -1739.9485711373420145 -1757.4432440268851678 -1777.1383031227164793 -1763.4094155705881803 -1770.914290124446552 -1765.6894325286891672 -1735.2545246862123349 -1757.9726827141853391 -1728.4748148813212083 -1744.8908192610092556 -1735.4156091978977656 -1767.6416516793840401 -1741.9768771631165691 -1735.3164186005531064 -1738.5677188472407124 -1752.622172979261677 -1767.9693900855402262 -1756.8198130316850438 -1766.4639688490667595 -1757.1363561968450995 -1766.8845775458246408 -1751.7507966748255512 -1767.1678960311164701 -1762.582567302260486 -1741.9021882274644213 -1753.9394029806164781 -1742.6199607421667679 -1775.5292362676298126 -1766.8314040473906061 -1724.8212776199845848 -1741.2107025231493935 -1755.8340175502344209 -1778.795812301523938 -1759.690493524987005 -1737.7522137943756206 -1746.9372098964656743 -1784.3977552694477708 -1747.6757526432440955 -1759.3077594771202712 -1748.9615134700050021 -1750.4981709170647264 -1748.1173186255573455 -1739.7311915823911477 -1743.0198825296179166 -1743.1284457976751128 -1732.0869748118111602 -1765.7523536354342468 -1733.7322767522687172 -1728.1315698387199973 -1760.0850948256411357 -1740.7393197675646661 -1755.0808477625955675 -1719.054754928085913 -1751.3106177479555754 -1759.7723028250966308 -1760.7989480158407787 -1747.9857508700304152 -1779.7787467174352969 -1780.8232010321180496 -1757.0346798522666631 -1747.1129359932140233 -1747.4241352280030242 -1733.7330491088555391 -1752.2381664393988103 -1759.6527827803261061 -1732.0886723187552434 -1742.2691530991107811 -1753.324619334518502 -1755.1947071350568876 -1745.7797335676148123 -1711.9477245280645548 -1773.6468302817334006 -1751.389067419167759 -1761.6608511897773042 -1744.8003488429244499 -1756.2839434354548303 -1756.766478094100421