-158.97921339580210542 -157.90460068652458858 -163.13342929862139385 -158.05249058733809875 -156.76328710848292758 -159.45396582138494068 -156.61124263234486875 -164.86076163378311321 -165.28444809777209912 -159.98376007009699151 -159.76827845357234992 -156.31957482188749964 -146.16926398943033405 -156.56869630513361358 -157.45009453939178456 -160.66136344025036919 -161.24673378175003791 -164.54926288496912434 -152.57948681347571096 -148.69686572961325055 -148.99958066743653262 -156.2851718118392057 -152.77607489243322902 -149.20543774416645988 -164.80470536327609921 -154.0217217023863725 -158.34103279541304232 -155.98526414614292435 -150.20834958384932634 -161.20822537650161621 -156.18587571220058408 -161.07649533923347462 -148.50490010511592232 -155.47463061175938037 -153.19090815488007706 -158.32561310077707617 -154.22367161610316089 -158.23354984495017561 -150.01806440010764732 -158.11904641716432707 -159.77505236925617282 -158.0167775351586954 -149.43587115187037284 -168.86855373281483139 -159.30036042103608906 -147.53965808097578361 -153.85335997260463614 -146.59335873343181333 -160.13258408651367404 -156.70141041791953285 -159.26329636536127055 -160.68613005307241792 -157.73707903953177834 -148.91918704960943387 -164.59928877999681163 -154.56105265965510398 -160.2389175826406813 -159.27252357354697665 -159.57937388161968784 -154.14622229448505664 -159.26606792293887338 -159.62353309820207414 -155.18526508387009244 -160.92222109688660225 -150.16944290740346446 -146.30771804583565654 -163.55140489074045718 -162.25753016642377702 -156.4954154514957736 -161.694211184452314 -154.40279313937568872 -153.95151523867113497 -152.53857929211031319 -159.71142371130488868 -153.77536830696922721 -157.65006703829442358 -155.60420566992675617 -160.24387214389693668 -156.95736182175977547 -149.41481883438683553 -153.49883391826776347 -163.61577680403263457 -158.80340001052491061 -151.52712885392415387 -162.38302700987335925 -154.04088218109117747 -158.72992669896720486 -157.86377414143018427 -152.90105021692158971 -159.28921504851302871 -154.28238201144029063 -156.25536218808753119 -158.65285299236273886 -150.24034544411898651 -149.96141719046892149 -155.3177779617035128 -154.6456759883585903 -155.18755180970703123 -156.96251075149007193 -158.68048363914829224 -163.30619390285363579 -157.85493058871523431 -154.81062040391000778 -157.21346409666153932 -159.63359536303576647 -165.00698847785596968 -156.08431779224011393 -149.60982832124716424 -152.15418120700169879 -162.84167778873381849 -157.09206076684904474 -156.49614195562057262 -150.31349750917780739 -156.41656174423820858 -164.70082987617945491 -149.84568640499358594 -151.89680355782161314 -161.68705128750769973 -158.23015235647415011 -155.76296922144388191 -156.57522920721484638 -155.01089380455746891 -155.59610337983372119 -159.48044019760394008 -156.52245792032715599 -163.38752009565047274 -153.91106955843517312 -153.68321395351190972 -154.14056293083336868 -145.93664203260209433 -159.91510516414095378 -153.8417349957027227 -169.91769810114953998 -150.97058349848265379 -150.82265511724449425 -149.2036913655653052 -152.38741351868867469 -156.97146008947734686 -162.28333950396998375 -162.145559543834338 -163.1042479300750756 -163.22978756445155568 -159.3338297865006723 -157.97184232875244447 -151.92282445939210334 -154.31185770262911205 -151.09702784797084973 -157.36312645345716987 -152.27221875508286075 -149.33142835560809658 -147.59751961339830473 -148.87364972297169174 -168.95529692314840986 -147.62844013138905552 -158.30931042674970399 -160.13655674163501885 -165.43418758000785829 -151.72223137225498135 -155.8638348217950238 -161.23910718470466463 -160.10864099853466769 -158.65002291657270916 -154.2240718826698469 -157.21856270185318749 -157.67127869394235518 -166.1213107150595647 -159.33859245753748723 -147.15452107857137776 -157.49220321996065763 -151.16963497843281061 -153.58317054815074698 -152.76229394793693928 -150.50324776956298933 -154.90716907121284862 -151.22594194033959525 -157.98393606427725899 -160.71210345439746447 -155.71268016339612927 -164.21511173421168905 -150.07913667890395004 -157.08482300311172253 -162.64184510386036209 -154.5794113081337855 -161.71505885680647907 -153.36292367439637019 -159.71964262677255419 -158.48400372666029057 -159.32747699418587217 -158.03425001490643353 -157.52460236692419926 -162.25270249956088264 -164.28825120810591898 -157.70867327371007605 -157.43555704308295162 -150.32592627554609521 -165.5551638897943576 -159.12368508532463807 -155.11455822964381923 -158.1212646483069193 -160.00774131010433621 -156.14837162245120794 -167.06107815839089881 -152.2609387951322617 -158.98555799295220936 -159.73534309610960236 -158.60751667598435688 -163.91417682647852416 -165.02476059491064575 -154.48081258207270139 -160.50532334155928993 -158.13423565485254585 -154.84234354996345928 -155.38661917743979757 -169.23422597782416688 -168.99787823776713935 -157.73191987057606411 -163.29798485141583342 -158.68417993124600684 -160.0610118209381767 -155.78711831168337199 -155.25200781309195008 -153.06770790809153482 -154.15775180201097783 -154.78406938721306574 -164.2574824453682254 -158.59005918107226307 -157.4464766369798383 -162.07334093339881065 -155.57801376833108975 -157.82920862464487755 -149.15562898266162506 -157.68513557553342253 -152.76738980501150422 -155.31594377242805649 -159.65663280266818447 -163.18440407701132244 -154.65605320952255397 -154.13010028230814896 -153.39483074364284221 -158.8173983750537559 -151.38018060297127931 -159.94825559902130863 -157.33611826417956081 -156.66023549205993959 -161.53338178582859541 -159.15908436854417118 -158.20874719226856087 -152.18351769782665883 -168.85739246365992017 -149.33263247937316009 -158.92678470084214837 -161.67014137731842993 -165.34962473178674713 -157.45645935908848401 -163.09598250773876771 -153.17119025574868374 -160.94200884867834134 -153.68558998707945307 -153.70102672278713385 -158.29775107776254117 -147.97076072080730569 -148.5257855345543021 -158.15002198147342938 -157.82323421609100933 -158.6604541324454658 -150.38484571200658024 -155.35258778200696383 -169.52871037245103025 -158.8735520189364081 -149.67220300167167579 -163.58722492481592781 -163.62610870594761536 -157.35965199626969024 -153.03419149541682032 -155.17491430638753513 -154.37685563122167309 -151.33954330683391731 -161.08338575931264813 -157.74185978659821217 -154.48054890017661478 -160.76955385511817553 -159.69936102507691089 -157.93324367498991023 -156.78849860293993856 -156.93382745331868477 -158.87788273746784284 -153.8101916635525015 -153.20249609376392641 -151.83325738756445844 -155.94967949539437768 -156.4040647663946686 -159.7099863749842541 -152.64596074914103951 -146.57271752241723561 -152.46858066173240331 -150.92005887611423987 -159.47210750235217347 -163.03363116252356235 -160.03935247095014915 -157.85052168832049801 -160.8916756920297928 -158.85335924255463169 -152.02104367359584103 -156.37818357765712562 -156.04600783594727886 -151.64084481601440757 -155.35363209412838614 -152.97202819039665656 -155.29209450062475639 -154.73411144516953186 -156.66802050329357598 -158.38536828120334121 -148.91588503236258134 -167.90666484606893505 -159.22105217704563529 -151.22970465459951583 -153.82151977499310647 -152.59384008764101281 -163.0790847291126795 -163.00628870916193591 -155.75264243111456608 -154.19287807399820167 -158.09848961611757545 -160.80524417079666932 -147.19287638322413159 -153.60378026602765544 -143.27092718005343386 -146.77706235428397008 -164.68654980150409983 -146.23930301862540659 -157.77010671470659986 -162.02038572328987698 -162.20870374574917605 -155.03142243487451424 -150.4282294580623045 -156.93419125325883101 -160.62227006962342557 -155.6905740210197564 -154.13070133074583623 -158.33012426994386601 -151.78932904127694314 -151.79926452044145435 -156.51174507845570361 -159.46880555849921279 -160.74097987329915327 -155.8705765607467697 -155.49849154639778703 -160.53164780548490853 -159.80915242608247695 -149.01862490143577133 -158.94104489038835482 -160.88578062402791602 -157.94465862034681436 -143.86987244974224609 -162.25979421370334421 -164.05206345442005045 -156.86375378403988634 -161.69521541021350686 -160.06108010731037439 -161.40192816808055909 -157.17493549122391983 -151.24866358375351183 -149.52557619411632572 -160.93724537198349367 -167.16185181638508084 -160.74254670771438214 -156.45213972546164882 -149.40337883679222841 -160.54051621060528987 -149.44545639752683996 -164.3333140248843165 -153.8836419271549687 -167.12348427494879388 -156.83831631371921844 -152.78851359838304802
-1231.3350317875642759 -1218.0312065315058589 -1190.0735749082707571 -1217.887257096788062 -1207.3492227835570247 -1220.2298001244125771 -1242.7765648095162305 -1216.3060959677861774 -1202.0678854899301768 -1225.1728259242456716 -1191.1360397853036375 -1223.3302751370752048 -1227.8453703360280542 -1192.1112672550282241 -1200.0463465584020923 -1213.8502266111217978 -1251.0522520243971485 -1210.3892455546920246 -1213.3540818334290634 -1209.2444889825683276 -1226.1861322273646238 -1209.7473245169360325 -1213.8071720396787896 -1248.0864188938908228 -1221.0602231944235427 -1218.9021792184971673 -1224.5449475146774603 -1218.6680551016895606 -1206.5634324163258952 -1229.9723098439108071 -1199.1107197577200623 -1224.4125029827891922 -1210.149383325755025 -1212.5145475091894696 -1204.3305519489686048 -1202.6100750236835211 -1218.5912906330061105 -1235.8018180258986831 -1232.7535205542485528 -1211.860918310609577 -1203.8210595990958609 -1212.6109140712958379 -1205.9000762755906635 -1221.9291397472636618 -1222.2930205022357768 -1209.1315122354142204 -1204.252248208232686 -1215.1237608149019707 -1209.3279210190210051 -1223.1558148120752776 -1203.67216620884642 -1219.1621008105732926 -1213.2279949381381812 -1210.2534505469441228 -1213.8547958786145955 -1229.5518125856167444 -1212.44532816433275 -1203.5841359367450423 -1213.3907468308109401 -1226.9159553422184672 -1204.4852453949547453 -1219.2104950683133211 -1229.7341873337149991 -1242.1707974152989209 -1217.4224392160494972 -1224.3780443045313859 -1226.7944632403684864 -1193.7950041035496724 -1213.0931963589632687 -1206.856693219814133 -1202.8438296360852746 -1234.4548953388296013 -1224.1271142466839592 -1227.2647576736253541 -1210.6529024155629486 -1208.1067153329972825 -1210.7388870457768917 -1198.3376377596234761 -1226.8368401571888171 -1198.8653401043702615 -1214.537731202568466 -1236.9136172364044342 -1211.4480956813426928 -1181.5035807757301427 -1214.4402398547658777 -1217.0751061491482687 -1218.4509391157253049 -1232.386530305792121 -1204.4214942911564776 -1215.0009411126611667 -1237.7361580897245403 -1217.5645307145978222 -1226.784766355661759 -1198.9925143107323038 -1195.0090725073393969 -1202.7410979335759293 -1191.3044310379132185 -1199.7083352453664702 -1216.9121030239061838 -1209.5848688524779391 -1210.4252085597008772 -1206.0359593633197619 -1211.3824523235480228 -1223.9017801339768994 -1205.6144602600211329 -1224.2315960311443632 -1198.0419742668359504 -1185.9574534780756494 -1213.5893575538393634 -1207.4521638043470375 -1210.2828662432698366 -1207.2146277371393808 -1203.0000426971198522 -1206.6029114772061348 -1192.0254017598608698 -1189.0570171811418732 -1195.1005056554386101 -1231.4762641129962049 -1225.0464868981623567 -1214.1679851693220371 -1201.0391958264176537 -1220.2893934728112981 -1196.2612170039237753 -1233.2911041776253569 -1219.1321180078730322 -1187.109536488191452 -1203.1829121169307655 -1214.028578561077893 -1222.843791990353111 -1200.6788329661194439 -1206.4363873790518937 -1220.3497958608115823 -1209.7844737090508715 -1211.372730332489482 -1211.5313150583820061 -1211.4366559313143625 -1210.4305209268882209 -1209.6448560680382798 -1211.7425330584205767 -1214.9838919422995787 -1230.4953279929393375 -1199.5650435891486723 -1228.3484571524597868 -1196.6503370793129761 -1215.2100051767827154 -1212.5168260228260806 -1220.6339322141382127 -1206.1527313541184867 -1212.3320207999649938 -1206.4351323452215183 -1232.2401626990122168 -1199.0095926636165586 -1224.4832309418479781 -1204.4525423705140383 -1195.402488557228935 -1200.5486412854465925 -1210.0642328435167201 -1201.5285963235244253 -1188.2240046188974247 -1188.3275954692196592 -1233.7916944684366172 -1225.6457857744089779 -1229.6248033068202403 -1224.4433269347773603 -1201.892476761281614 -1237.8477575000092656 -1203.9480923783678463 -1207.9168073127793832 -1208.4933676865459802 -1212.5396867597473829 -1196.0389779802712837 -1215.4619148235526609 -1216.4929450494842058 -1204.7444420375602476 -1219.4061525816464382 -1221.7285621537673705 -1214.6539674267933151 -1222.4313126729532542 -1207.4926960816044357 -1205.8912546409869719 -1214.0067462951656125 -1225.9143674134570574 -1216.2580951170064054 -1227.3029630072101099 -1241.6623673211552159 -1205.5422016906602494 -1214.2533728291341504 -1207.3119651310637437 -1228.6012164689811925 -1209.4076061983935233 -1212.0611188111490719 -1231.7360867222639627 -1212.324041243665306 -1189.7672020584943766 -1238.8735015847214527 -1205.0180248256021969 -1199.9944684427489392 -1201.8926299856213973 -1200.1767244026209482 -1223.8391739128087465 -1209.512675046411232 -1212.7500383490034892 -1198.7763643906339439 -1239.0038153480854817 -1193.3167139763527302 -1229.0671168246678917 -1206.9859306449923224 -1180.6509838835527262 -1221.6590528708154579 -1204.7354729354246956 -1198.3958000463801454 -1246.9404575779167317 -1189.267454444044688 -1210.6155031062642138 -1199.3096784628539808 -1234.7664994854455927 -1210.4003880625175498 -1201.1466608145781265 -1205.3465132349685973 -1235.2982229596311754 -1190.7961445646583343 -1229.5620191518421507 -1206.5303048089717777 -1211.6322263945025952 -1199.1709231165868914 -1239.6021129604937414 -1209.3468785676334392 -1199.2012664599362779 -1213.4697876414929851 -1205.3168114448426422 -1211.3580532123582998 -1241.8076410386206589 -1221.9972671219015865 -1198.4766463433272747 -1217.8843210032880506 -1218.2735969671130078 -1213.2521187205670685 -1199.0091714931108982 -1197.9669167077090606 -1205.1714322632421954 -1206.5333077429772857 -1190.6603815790642784 -1234.3162080406261794 -1230.4159825831504804 -1200.8025222155488336 -1217.1295401403817777 -1196.3681298013109426 -1208.7206626612658056 -1212.9367434775517722 -1202.2650132200212738 -1220.3135113637627001 -1217.6136249959301949 -1217.3049237820375765 -1207.0032490098526523 -1235.2560682238834033 -1204.9853268493154701 -1202.8839992665994032 -1216.615672875137534 -1229.7050584878845712 -1195.221591034359335 -1202.542927497699111 -1197.5914140038580626 -1214.0527624594583358 -1195.5517292485540111 -1229.3516509503897396 -1187.4378375079536454 -1207.5240758283539435 -1244.9043280350788336 -1219.0321783984950343 -1211.5273664368589834 -1220.9763449906686219 -1207.4576848561100633 -1197.5386077861751346 -1202.183646422056654 -1193.3722657699163392 -1196.39110550020132 -1191.8439209208193006 -1203.3753282583993496 -1212.3580485931247495 -1205.1095907413080113 -1225.7912174832733854 -1226.9526945064685606 -1208.4216772927313741 -1208.1346174411141874 -1212.9631851091801309 -1176.4172535884108584 -1199.2614677205529006 -1233.71783589146753 -1221.7282178801024202 -1220.0153247702894532 -1211.4400760414785054 -1208.4012949523144016 -1220.6274822969003253 -1215.4815794940645901 -1210.5311054375222284 -1206.2641587690484357 -1228.5814116328972432 -1217.3949233090013422 -1216.8953689853292417 -1227.8419345520176194 -1200.8731968701222286 -1231.5144538730537533 -1238.0516762444719916 -1189.0633966469492862 -1207.6215884902890139 -1213.9212507380018451 -1221.9424790579398632 -1207.4678293997903893 -1210.859470893621392 -1206.2633675407350893 -1200.1502395930351668 -1229.3442641916228695 -1199.5386495164266307 -1207.6083388769425255 -1216.931104760663402 -1199.4932290233357435 -1203.5972859910978059 -1227.2436676560171236 -1197.0302727065445652 -1243.1658667502647404 -1236.6349305259650464 -1203.353756668567712 -1203.1024038255629875 -1230.6304269437684979 -1186.6300006755536742 -1196.2617843536008877 -1206.5275114737785316 -1200.3937618657205348 -1210.3206677309267434 -1207.1824294539030689 -1196.5985409327818161 -1199.0787209970219465 -1211.3937374261813602 -1184.2749666375773359 -1207.28367992116614 -1235.225696034450948 -1190.2951814493201255 -1195.7727981983875907 -1215.725233295294629 -1242.5849693115724222 -1186.3706963590648229 -1219.7093962589751754 -1225.5239754837568853 -1243.6536561896041349 -1213.4268182575369792 -1212.3275220111218005 -1219.6001004070592444 -1200.3296941638118369 -1224.387226200557734 -1200.3854192311157476 -1217.3169133948929357 -1187.2053536821429134 -1222.5070488145615855 -1212.6190134900775774 -1230.037720929034549 -1214.7215741339848591 -1183.9611551515135943 -1214.6923211576186077 -1221.9501825230279337 -1211.343405375587281 -1221.8659201259436031 -1202.4783845080928586 -1195.0707465580451299 -1228.0386988772593213 -1205.1161957830572646 -1204.9278221748543274 -1214.0774842563077982 -1215.781735117723656 -1225.1501656147527228 -1213.7576887421103038 -1199.2445445227665459 -1201.0768632301005709 -1222.66088688617765 -1211.2874946723768517 -1239.0321191240095686
418.81090306580790639 404.21829823172959095 425.47203012059344474 417.44423716973648197 426.01011995914433328 417.6840433405885733 425.41575902638425077 416.66781164877477295 429.33752454502513274 425.53872212067841474 417.11243295602668013 408.38237264758390666 413.0606074224364761 416.50767123130663094 417.87100124681575153 414.3625292639664508 421.69080685913297657 404.45231789376958886 429.07299198427534748 427.86861597847399707 411.03097832711875981 404.04851541258813086 428.38766841038574285 429.95427268859782544 401.37823675381616795 419.80191023764109559 407.3907266983782165 428.73764050076528065 414.11949357679191053 416.88355582787187359 420.25881463015525696 421.46602272863322014 422.64004708979535962 414.96466488706323616 425.83052394704151311 415.01356566114287716 420.84870501342146554 424.99752497906206372 415.12848338441432361 416.91902565378217105 412.5260204629609575 414.42672805852186002 421.3560184197539229 416.21814195563149497 419.02879576241633686 412.1942784489642122 401.02133359503261545 414.97527569543416348 434.44285241583332891 427.59260049286717731 422.01562310073597928 422.09999153640814029 418.94469573719089794 434.19996254649356615 409.75611216176383778 416.186709694472313 411.98167942223011551 424.69524911737482853 410.95396738077209875 422.16318026223012794 414.80957979418451487 420.31576839979379656 418.21760841563082067 425.58370896761533686 422.46678495393058483 422.65282365365078476 426.60462898666582987 420.32516029200172625 413.30061250769460912 424.22658537069480644 431.05752334191964792 414.68317922724457958 418.22466493684260058 414.95788565936805981 412.44110244930124054 410.40677825436307558 416.93818754619508127 427.45648740141973576 418.14688869691229911 414.4423262783041082 422.75770859745904318 410.28437196611884019 427.84896399441538506 411.43379439572521505 406.61359169669970015 420.52145835019308606 413.8529778452502228 423.80590643255163741 421.26863374053192501 409.20703670242403405 423.19289270452350138 418.61250824964491812 421.51076638366248517 419.76171253624244173 422.62982669965077775 409.08997606687097459 417.15476406529273845 422.55271447163966059 409.05209062455395497 425.87835181954199015 412.58974303782542847 416.22646530051559921 413.15448335286635029 418.18729989810833558 421.00422599333762719 400.15658650585839951 423.63210332537738623 407.12889863672580759 429.45818423651269313 427.90607068659369361 411.60782246849828425 419.99369204976829906 418.98699457699302684 409.91605716978017426 423.42498589490310223 416.13808411950623167 412.34260873090812538 407.59308231004393974 419.52199279501490992 433.47190923384425787 427.9541824492696378 415.06601171392009064 418.74489488381038882 413.12824168047080775 419.79741634612400958 416.77048289614526766 422.25854456070413789 414.65028804973917431 411.47553539546532875 424.26008582074189235 419.62638534497290266 433.49680192008730728 414.06063780926797335 421.10789232772441437 419.1671669128372173 423.99683561113414498 421.35000658802482576 412.03122772638852211 420.08851003449984773 423.23603382424727215 425.59672018485088074 428.09125942145169574 426.65579588114826493 418.40844231585720081 416.45663991458138753 413.55382075517786689 434.19062532109114727 407.47515826387899551 421.19920473326095589 413.45195619407530785 407.68294883958731134 409.96450849584539355 419.81380691475538924 403.92184247372608752 417.91141234837999718 403.98036055826224811 417.34995722498348414 421.20199159379473031 427.45103719316006163 432.26524300038926185 423.68845737488993564 413.21211320018664992 421.71130243630148016 408.27629065765199812 419.01263728058097513 414.55183119881445464 427.197010616413138 421.77095262500813533 413.51837457749621763 403.09669200483693885 419.95454461011519243 415.6292149567664751 434.71459666238195041 417.6324069319785508 418.80983063864209726 420.17234155318857347 416.14420261905576126 427.57750688501465675 416.18602074830050697 410.56006910083175399 410.81784416946055671 409.84898208977426748 424.28132021374131 417.96623011256997415 416.70968293878911481 417.82636073092936613 407.5460433542410783 415.45503272541822071 423.24375544184130149 416.9359013780228338 414.29328122076969976 413.82616322145918275 414.92236031834255527 409.85989247932269564 419.68579836217764978 415.47710713069960775 419.62319748865030533 429.92265443875504616 416.62749947982086951 406.98883837552534715 411.95239225299866348 416.15333896196261776 414.5969707913768616 417.17730528225439457 426.75668057693371793 402.63380408597271298 411.51278339807095108 418.75273184370064428 428.46868059987036759 417.2029533128218759 416.87029569075360769 417.03317265364910327 431.58186929773370366 409.30383971583216862 417.20679181032306815 422.51586433155557643 427.42928610150198665 414.77706780544713183 408.8865919958495283 410.88971882481848752 417.14277541812498384 421.82151055272117901 418.90607172023993598 420.45458060146103207 425.13174155440793811 416.71984964530287243 414.42513858136106819 421.45210838623506788 411.41415257206722345 409.4793920960705691 407.80063506156272979 419.4228893193066483 423.9188537873212681 419.44519984766907328 401.04246662759419451 430.06465626920731893 412.6957986033414727 424.57625238992477534 405.92200507022795364 401.76735949915462243 411.81380004405326645 426.84358987234980987 417.46304131199065068 423.33260291111946572 415.52443630823881904 406.15374579751994588 410.52413808813503238 419.28528578874477262 412.93600705527205719 422.52964675016630736 426.69472051665024992 411.84823652510800684 421.9656515108503072 411.63272174254990432 412.03160616450776388 431.09224647137398279 412.2356499716601661 415.62310937043940839 418.05128896871121924 407.32625594357148202 418.74701288781682251 423.55361098326812908 418.8146237069321387 420.10679231743733908 411.51639250740299758 406.38331398558619867 410.82063697852117912 418.73268448868219593 406.99764056944275126 413.26742613091499834 409.90188281366420142 418.78096298011519139 410.13590487997072387 419.76359675685688444 420.64034777295199774 430.99650347139009909 416.09693067039506786 421.35376666449496952 417.70969009002618577 417.05604993822640836 418.10568346651649563 414.95687049746578623 413.04851952953725913 413.02467724478628952 397.47397922950119664 421.55442586441432695 424.49724281071388532 416.74323629000537039 416.66409091304615231 409.40774675287377704 424.0020470289360901 415.89623908853513967 418.3025414514863769 407.77510365032156869 425.00231088462510343 413.41367135705189639 415.88661418434134021 419.50056568254001377 415.74883235029625439 425.24514579546820414 400.56963253616612519 416.12879505528587742 416.43305350124251163 418.49975605381308696 418.28015131363338241 414.81580728140960446 427.9383039188425073 415.28611346563189954 423.42436950698078135 412.66839402624992772 410.98598369625727855 424.8310486897590863 414.23257069756158444 419.32967303771937395 420.72753857376949327 411.79450074554756611 411.2994029417941988 418.4199584054494494 410.26983225726166893 419.29545991771760782 411.404735885901232 418.82831631817970219 416.30663292846253398 411.6101293436899482 414.14341511864222412 419.317946798036985 418.55353365408103627 424.22259086415579077 415.67410563987209571 424.52327891997816778 413.5768780975481036 422.24324362882578043 421.2536932308440214 423.14226768823601788 411.61502143615877003 436.00184677645700049 415.05151408555894932 416.55191636387257859 418.41293003569160192 425.68182219062327931 420.61493167330206688 423.92248778793054953 405.09174621347335687 415.90365527690187264 415.48003460855488811 420.3980749449537484 410.55266819898315589 428.4405121751139518 434.47944596357598357 405.81367658204339932 410.7684198946741958 421.40450800566287626 409.16735525186140876 422.56888002900990386 419.63924638496177977 404.26381241765983532 404.51596960566183725 433.64288084045017513 418.77982160933788691 409.18295148790235771 417.25440559246101202 419.42022688471706715 412.7097922911519845 409.189063245527052 423.82619458953729463 415.59801871012672336 420.57115440738402867 420.03339214347874986 421.04375437924227299 411.81550044239497765 418.5628821249421776 405.5806248794702924 415.19086513252455006 413.95830649780867816 410.47865023601241319
-202.56335587777951446 -204.93518760931735301 -193.19824470900709912 -201.49999410383765053 -208.94523989145599785 -207.52121756065253066 -189.83882847672168737 -208.62115838007036928 -191.65539805711290455 -193.65750671071342026 -204.74670849935796468 -200.90426688843766101 -203.73982492121550081 -197.92314707613994074 -190.73886544017668143 -202.02551272986585218 -201.50586800115306119 -213.81162397530943053 -199.04514303965558497 -207.22279614571110073 -203.15949354902753043 -200.47052647945542958 -197.11754193168710003 -197.14491639605756745 -203.61268939849483672 -202.74037946798117105 -202.8860868330727385 -202.74743554863641748 -204.54329754864787105 -200.20354312973117317 -206.33998211582127169 -197.87555846703710927 -211.89413657928199086 -202.89754009437876903 -198.97350578195897697 -200.54142730562998054 -195.74972278491003408 -207.26219529892571813 -198.27641289659922563 -196.31184600478744073 -203.28624527610119799 -194.31955340726773329 -205.1370755623289881 -194.56474438235110824 -199.1527421919783194 -190.39025314799116018 -190.60069339942532451 -217.8207775107437385 -204.80739957097213733 -200.247372510170635 -201.21351283204279525 -190.71774350314555591 -197.11860092079965057 -196.60947313815464099 -199.17252719792702464 -202.25545716421035536 -205.29630992179403393 -203.06432905960758717 -197.43415515666086435 -201.73257815327590947 -204.61159376424799916 -201.26442121847588851 -199.04458765922680641 -199.18125580055561841 -199.17124338645203352 -199.43780147983841289 -196.7699492582940195 -201.22361032070287479 -207.78580519158740003 -186.87670928637601264 -201.18833775984208501 -219.29882141111619376 -196.46834141336563562 -207.8385664486357598 -201.02891716761243401 -203.90402356071513168 -195.28922371287987403 -203.97363114654029914 -208.42690205144330662 -207.50679209816996718 -204.78662561580279089 -196.7716744041619279 -195.20455894125342411 -197.54822940740041304 -195.06049509540082454 -193.69141633095696875 -201.00147824355715898 -193.68285571934848122 -194.58634744622059998 -210.29347445168616559 -204.20171241347367186 -198.7153165996486166 -193.65590589787763065 -211.10264142068808724 -200.98862013093673795 -197.80653078226998787 -212.10323998334453677 -200.04550553559482751 -202.74243928243328128 -185.59800814619666198 -205.12177259843710431 -184.06468723309265556 -193.25112458224302259 -198.48600841675471429 -197.50210942829352234 -187.70350940606488166 -202.43150919390797071 -200.16449702419868117 -205.12716972857589326 -198.0155292031403178 -180.69525218318960924 -206.24734770958906438 -204.14271249099334682 -202.59257167139321609 -197.9386700606719387 -200.42921859686740049 -194.32563631865619413 -204.75923296048077304 -198.08305850292407513 -193.91511375623599633 -208.04702694389226281 -201.05680853322880353 -199.17188870633222564 -193.71384326247158469 -198.88223136026044813 -204.87442612897365279 -193.41449681131709326 -205.89704973810404454 -201.94847944452629918 -187.68568193088515272 -193.75094562814291521 -198.94915747693286789 -202.22382034995851541 -199.67689660796310136 -201.33829685097808238 -195.50187795445293659 -191.33424934843304754 -199.37939028130267616 -197.36319423821262831 -215.56857759149278309 -191.58546221894260952 -202.572721896292677 -206.49489075991652953 -188.0522541127160423 -191.36660410398570775 -209.86981795453135646 -202.16471512195428772 -192.7100890241426896 -205.91759004788465859 -203.6868744114213996 -200.75458703955118267 -193.4100655858564437 -197.30586153175624986 -195.27252090514980409 -206.2024393029381315 -209.2688211992424101 -216.52311806325556631 -203.10988401062445519 -194.24447023244277943 -198.37592709094545285 -202.83475146620600071 -196.76542689440626077 -205.03675821599105689 -206.37977219666635165 -201.10331403678429751 -210.12268545653125784 -200.58018606192473499 -200.87311975821239685 -196.31937164382924266 -196.75601487820438251 -198.88647303930369503 -195.78619333582082618 -196.06308514915704677 -200.23209074704567456 -207.70544532307161489 -193.59384477839037686 -207.49010079085471148 -210.34910850253402259 -194.08638411447424232 -199.55369710635406477 -202.8393053818654721 -206.92302119550407724 -191.73892689788559096 -198.45448088178403623 -201.94124811829081523 -207.76286177881004846 -200.46198205369071843 -209.61154830458502829 -199.76838244587551685 -214.29363005125136965 -201.87036910036047743 -204.57656660579851859 -205.38934558584281831 -192.47232884389561036 -192.56022181120957271 -191.75289179133784501 -205.78348746527512958 -203.15675219266188378 -200.79235731807128218 -199.61537137907643569 -193.68592431850836988 -200.27751026390370725 -195.76830790528805437 -194.86548099972495152 -210.67772620104381076 -201.19106175357569555 -195.37125265833321919 -200.32318112377336661 -201.69929311248881731 -204.81210676645719104 -203.70862531998696454 -210.96257531027760024 -204.13304834947726363 -203.7115176060827082 -202.39933636293281438 -192.20332372318139846 -191.77153204518793927 -210.22112865319260777 -203.00461440595566387 -201.23550720133727054 -202.17135151012413985 -203.660336011662082 -200.76178359521045991 -203.63419673332205662 -195.02428949337758013 -202.11667546225828573 -192.86579723545696652 -200.9917758388282607 -191.89142754154417503 -205.5038462857306456 -206.13994916768726284 -203.34189258577046644 -195.32991028045859139 -200.88967809750610627 -199.61347642632469501 -196.18692153870608763 -202.58607328893452859 -199.97546922092342925 -198.54693386137921607 -196.54892668580436066 -194.05898253349636207 -197.99505741604428977 -205.09222677849390948 -192.34654394426976864 -200.84572651495304285 -199.6049070928021365 -196.21535031607780297 -201.71079856818306553 -200.91689636362411875 -206.86336963217459584 -196.37979175974783175 -204.12544179328273231 -198.37278427033098183 -193.44748302055339195 -202.32431259516593514 -205.73090553443680051 -202.36473850895183091 -195.29857562725189268 -209.5379548442633677 -198.36440958657095734 -211.34537045127169108 -204.05449914218445429 -196.03475068586641328 -193.55578741343126126 -200.32174973839005361 -206.28017375445040216 -204.24058396948572636 -191.35111989576972746 -205.03391081424621234 -200.89007722491362529 -202.34808417286492954 -205.54401156097546277 -199.34925650431796385 -201.85186953904428719 -192.0573822058166229 -201.18368727623089853 -206.03747278608878446 -196.15094707186392498 -188.38843856591810777 -200.03458483395672829 -202.64533460866644532 -196.08288465080585183 -205.45097362143525288 -201.85274395295684258 -194.49924856737894174 -196.57607582792104495 -204.15825080748641085 -194.67878467523394193 -195.32961976778801727 -201.74780475854328188 -207.05208854497075777 -203.29737914977971514 -207.67644699879588188 -202.65276508654682175 -210.79645762642309137 -192.64654911504834445 -203.13143838164256749 -194.25625280678079321 -204.0971709353796939 -207.97821028523173936 -205.81204087989817708 -204.33645583380689459 -200.83000790127383084 -197.5391666093497065 -198.99370239487680578 -200.23603281080738725 -199.76769046076046266 -201.10564053779012283 -199.47149001176069305 -203.8086339151416837 -200.17011876453776154 -188.36956927321921285 -202.0155185931560311 -194.78166340462428252 -191.86701287619010259 -205.47823354086821723 -201.24049423354460941 -203.147327519427364 -201.60877720348631215 -204.86996113186418711 -202.10511768854482284 -200.55965855109164409 -183.63002727929799107 -195.7617848313684874 -197.58888921747632139 -202.94275756348255868 -207.49532533397123757 -191.80620242161532474 -204.82907411745523518 -201.17156181404502036 -200.10532733671800543 -200.09558893730209661 -196.15994721165159831 -197.92069442663489554 -197.784591145783196 -200.59262902992196587 -201.26438129167189572 -189.91935510488684713 -201.19012867563114355 -197.40278344081772843 -203.74340598989917339 -205.02403269175840705 -205.19879047956374052 -198.68460330272452552 -200.47522674225507444 -193.73933351695688998 -193.00381516109976587 -206.75661104863723949 -200.73286369879272684 -201.48032428521963766 -200.83468313176160791 -202.86041621732786666 -205.54327857056935613 -204.36302966396112879 -195.32685720889881509 -211.53771993324374989 -198.01729011462481367 -195.05836252457140745 -202.02213009373164709 -200.97736656483382944 -202.04722608174188281 -202.07850377549249288 -196.27849673833966904 -188.06742245053479223 -201.78383883912613328 -198.06785906694202026 -200.33427047516448738 -202.95789235713078824 -208.35692692794009417 -203.01150539165453779 -206.51634126170932859 -201.70550881425714351 -217.40101763891883024 -194.89083006647058482 -200.43789861582899903
-1163.7263384166692504 -1167.4336764536858482 -1160.834316825571932 -1165.3442443515359628 -1135.1008216977086249 -1168.4318296823714718 -1134.0153577113460415 -1165.6962989711541923 -1171.5007808616944658 -1149.851536137310859 -1174.7721052801646238 -1118.9597280197015152 -1157.4316963579328785 -1133.589424261681188 -1175.3616816809599186 -1159.4311044610831232 -1155.1399821837012496 -1170.9295682213830787 -1169.9602202358680643 -1164.7455569893854772 -1163.6894649191676763 -1178.0696761030988 -1143.1759134932960933 -1174.2781921863797834 -1178.323002952298566 -1145.387387245725904 -1154.0729696086980312 -1185.0122709489489807 -1148.7961586478199933 -1147.2342967081694951 -1173.0462723582154467 -1139.0725176113176076 -1139.3016178240834506 -1168.1809025137461049 -1162.1416308478164865 -1165.4866990736852586 -1156.5027269284273643 -1163.0013454151501264 -1158.2567781063012262 -1153.75368687057221 -1172.4032749320863331 -1154.0569732180972551 -1155.5564061473592119 -1142.6572932964620577 -1158.328675176450588 -1176.1571395941414266 -1172.341503353794451 -1136.5674622779802121 -1157.7232199468633098 -1153.0167243015218901 -1153.2528147177811206 -1159.0681621710198215 -1169.3113337158174545 -1160.2338678703638379 -1154.6319123435150686 -1136.5181266149143084 -1158.156760568532718 -1166.7878523683664298 -1161.7711173500829318 -1138.4879653906418753 -1160.7534457759525139 -1162.3682046481255838 -1157.728165060721949 -1162.9411176271737531 -1135.9317019803004314 -1158.8994069002096694 -1139.2352014348496141 -1152.7865872572683656 -1153.4130264034026823 -1180.0362801947062508 -1165.7435459029268259 -1157.5993935966403114 -1161.5994024102531057 -1163.7567663848726625 -1150.2277073555217157 -1157.8454890182940744 -1177.30723806758715 -1140.6110643131644338 -1159.7092365938715375 -1160.2847965949626996 -1152.5509519320805794 -1177.4337733368161025 -1167.9030368243804787 -1169.3242906368623153 -1140.7550325575637089 -1185.7165207437956269 -1142.8605890099854605 -1157.627312484962431 -1155.543935880871004 -1154.8238518231062244 -1159.4196615180608205 -1151.6050602661466655 -1162.3388849710026989 -1181.8677920073632777 -1184.7614979005068108 -1150.9927458064196344 -1168.6487346680503379 -1170.2722088814466588 -1148.8175672216782459 -1171.8162430420011333 -1168.5886474227622784 -1162.1304604266460956 -1167.5323442233068363 -1148.2833127297994906 -1172.8361619465117656 -1160.0750574573085032 -1172.0957692339138703 -1149.07813941583413 -1172.6961107824379269 -1169.2935039964202133 -1172.2396160869463984 -1172.2097188849918439 -1150.0565616317071544 -1151.6968917844471889 -1189.270067611761533 -1166.6427918107465302 -1150.2620714949273406 -1133.2585828788091931 -1161.2853432588626674 -1161.1425619024935258 -1153.5451688443747571 -1188.6965827959686521 -1165.7404511620270569 -1149.7740801749814636 -1144.8291822155756563 -1169.2214365150616686 -1168.6533805386950462 -1141.2469473332057532 -1193.5584600277218215 -1158.0410221883723807 -1161.5581492499461547 -1158.5229848804408448 -1153.0501842274402406 -1156.3394428671517744 -1166.044502631088335 -1169.840502860180095 -1171.0151487178518437 -1165.5255841977118507 -1158.9557380599376302 -1160.4320908313823111 -1174.1654751059538739 -1158.9796242756938227 -1165.0957432421676003 -1143.5751626393864626 -1156.534918333288033 -1156.2775503124446459 -1183.2364045232191074 -1161.6616665062497304 -1153.9929280024246054 -1169.0252985515696764 -1171.9960687993841475 -1149.5313503566751479 -1161.8750541175768376 -1153.5501999972723297 -1150.0335206293891588 -1165.6238868933405683 -1151.8340325389915506 -1163.8398993187122414 -1166.8352946634820455 -1137.4747173632385966 -1160.2473552935016414 -1150.3034501886284033 -1146.401076069577357 -1163.3918523186400762 -1176.1183827221357205 -1164.4395635805922211 -1158.8925475077044212 -1165.846193831321898 -1159.1904063093081731 -1138.620351625416788 -1156.5635133225798654 -1135.4308906801195462 -1161.7441902547984682 -1145.5188651862474671 -1166.9157407546372269 -1178.3358726462852246 -1153.7310434918404098 -1168.9030770211568324 -1163.3868758001033257 -1151.227637162312476 -1183.2259329979331142 -1168.8863737814206161 -1171.987122149534116 -1147.1565661767231177 -1161.3666393508126475 -1172.9428935589958201 -1154.4568928702090034 -1141.1359329526608235 -1140.9889905586960595 -1178.151432718156002 -1178.2934150799087547 -1162.2797221990533671 -1144.3853931896694576 -1129.6026536717586168 -1186.9577942860009898 -1134.2403437034874969 -1139.7878151337633881 -1186.6724733615196783 -1150.6868807208520593 -1151.4752641795173531 -1167.3198885469971628 -1181.8063376693185091 -1195.9466659443958179 -1159.2629832659304157 -1154.6524414836292181 -1173.4031352783736111 -1149.2809994181197908 -1156.6690707784184724 -1164.8440322672979619 -1156.5175986121992082 -1152.1038315855389556 -1162.4250988203393717 -1165.8036750672110884 -1152.1153259504253583 -1165.0545379975887954 -1141.4726797869489019 -1172.9002318599700629 -1170.8075172829219355 -1129.9195851332988241 -1148.1002793828181439 -1165.1872114575721753 -1176.7701508547161211 -1123.630402439282534 -1178.3321720432386428 -1165.6431459499058292 -1148.3624783343711897 -1157.4198109812386974 -1148.519826613380701 -1141.8891366479786029 -1138.1223665644890843 -1151.0431549594095486 -1171.0377008591678987 -1139.2981320823789702 -1150.13607317553965 -1158.7155016146159596 -1139.2398974927227755 -1160.7088937572621035 -1163.1062865431190403 -1164.3392718595953284 -1174.2344925476377284 -1166.8280425841396664 -1178.2667366213290734 -1137.874542817218753 -1150.0467101272438413 -1182.1059052921493731 -1158.5407655208762208 -1156.9057014932186576 -1174.9575318449903989 -1165.0216494920075547 -1142.3954768952901304 -1156.6678881760119566 -1197.9693388135185614 -1154.3696698152884892 -1159.0944290404995627 -1172.9587369851526546 -1152.9568618261068877 -1165.3457480107826996 -1169.9455289221250496 -1174.2465619852723648 -1155.4810753259216654 -1169.5691126744341091 -1145.0677635092233686 -1183.4861924093168 -1170.5562341747495338 -1136.3683866807616596 -1166.360398131297643 -1173.7397799340328675 -1166.1070476622442129 -1171.6295579487007217 -1144.1462933433303988 -1153.210202282074988 -1153.3779939123683107 -1169.6135157173926018 -1156.675872012696118 -1169.3334443519174783 -1169.7891121037598623 -1164.4826534606643236 -1168.2426943114023743 -1164.5553520205030509 -1162.2015098843764918 -1190.7386778199174842 -1162.978922460210697 -1154.4028356110588902 -1170.6096725878967391 -1154.1566040796885773 -1147.0062423645629224 -1173.302031353864777 -1147.1338162869192274 -1192.0452426619401649 -1155.3668435852723633 -1148.2739059441530571 -1155.4044863168492157 -1155.1463746265221744 -1141.4089212081385085 -1174.4179260880471247 -1164.8976578809142666 -1152.3118520602083663 -1165.2643818003907654 -1171.0935989682141098 -1166.7563011482141064 -1136.8563461421269949 -1147.826006588057453 -1161.9007626973927927 -1170.6659069459205966 -1171.2287524181506342 -1144.113091618567978 -1150.3992514105332248 -1170.5978986666614219 -1136.6250329291433445 -1171.2203288757668815 -1140.7579279910778496 -1163.412720364802226 -1171.5405379388896563 -1144.1872666483911871 -1158.1879600648644555 -1149.3288379802506824 -1158.181232568598034 -1162.8320904028050791 -1178.9539353107625175 -1159.5082541114279593 -1147.8859704449266701 -1149.4209551272881527 -1190.3321913168761057 -1167.8854044089459876 -1148.8111565236970364 -1173.7102688751544974 -1134.8950731830882432 -1142.8596984201878968 -1171.5276973121049195 -1172.4761566374845643 -1151.1924273831593837 -1154.5963750900646119 -1175.1927317230538392 -1160.6510431867634452 -1136.7767421351429675 -1149.7205911840412682 -1167.5915858089874746 -1160.6460158174156732 -1154.2075112108593657 -1167.9905631291501322 -1151.3585115098685492 -1139.77067733281865 -1143.8289175149704988 -1164.7190621095396637 -1155.7899267310999676 -1154.1168848571096532 -1180.7261752425197301 -1145.7071095550954851 -1180.878828653262417 -1155.6601295161542566 -1175.7121934148174205 -1165.9591860758835082 -1165.4351478270509688 -1177.1542193341681468 -1147.9023146466754497 -1170.3953657583861059 -1165.0906532632673134 -1155.4839679963583876 -1167.578384686277559 -1154.9139059556514439 -1145.1713944918467405 -1144.2081414240678896 -1183.5668858465519406 -1165.8544100012004492 -1174.6454036497098059 -1185.6340836234276139 -1171.7761725563532309 -1163.7893504081359879 -1179.6003970505446432 -1156.6173552446605299 -1151.8707068297987917 -1175.0346579797635513 -1162.902850847049649 -1158.0239287547001368 -1156.5272344606296429