82.230431168127068986 88.44735883309807889 88.452899134073831533 84.338949922553922534 86.280086903788131281 76.522856515785278475 83.939183950710884119 75.660855803120682594 77.675999852887414932 78.976654285459986227 86.048750360242067359 81.242648383474858065 85.441408001832343189 87.316260181140364693 76.813041889557950981 84.721441587972336151 74.664184348487864895 85.639656936203138571 80.824413072234577271 80.056089138786774129 81.815393438845077867 87.464344456366859504 86.217052087735737587 78.61312302219496928 82.314156758714545958 95.176564592037095736 77.271210343566167467 88.503588982397076279 83.427913084739600436 75.972972807696990571 83.552341464739029675 84.198383971879962928 84.139245627670590011 78.0986057801846556 82.719262299212772405 73.489056315487033544 89.589380577705043152 78.867170900104767384 74.698959635735079132 91.130387026364289227 79.220003022590717023 80.63625378087490958 83.282433848914109831 85.982186773327185847 84.172995817732839896 77.373960782255537083 93.691550491781555365 85.581176662925670939 89.231631636055453782 79.327155547664077062 81.266390777131704226 83.2233435844638052 84.202953475366285829 86.576236024042955819 83.861813285240813798 85.200298138798501668 77.410477656969248983 79.707454741628737338 82.948127012652534518 72.161941430263198072 81.46778266116263012 96.968346406847302887 87.520645602364169235 85.281447201451129558 86.390337237645951518 85.869369110386273292 87.694117856238662512 82.639385119223433662 90.637418119401090166 82.047843045368267667 88.339424768932531151 85.072131429125761315 82.277661657446358845 82.486553034728387956 92.213195580325589162 82.369715366037894455 83.690248663537744278 85.012719076840809862 80.10120441924134127 82.701435910498318549 90.206124548750082681 81.801215194679329556 90.64862938290268346 87.727127018307555772 86.968819250750584615 83.689790096996929947 97.148020698076777535 83.476387929467577464 72.228136878177593871 87.033047969044758929 89.713435242723562624 87.122652696566490249 83.033035839984336235 78.464629211911784523 91.958624214066531977 87.545499056177533248 88.618267521858911095 79.576471882335567898 90.536635099761326728 85.238871134132168095 81.069361155532931207 87.037470592268448399 86.288852968289049272 83.264129690146191365 84.67743274155520794 91.923188876029527705 82.530719070918564739 90.666180802930767868 84.920291670286545127 81.216235009228000763 87.795876107075386585 74.767987953286052516 90.328844347718828089 93.481568314078302251 79.071888674632447191 84.930651612873390377 86.288218860642231789 85.64425748451580489 84.176080290997262523 81.535535271077549169 86.542076627690207147 75.358360993753279899 90.309599168384053769 88.95157755623792184 82.804525343697108042 84.504607058900433003 89.606313564115836812 71.697016274466164987 88.897251780398548249 88.992165423505994681 84.677756465443863476 71.875377736389708616 83.571441033960198297 79.768310594326948149 84.966961596379121602 85.867388374484988844 82.607967429699741047 81.080478089577695755 86.327998500626051737 80.786466941728789948 83.426819901826817727 80.184493450585293317 84.182108813476844489 80.078254060678645487 80.357925656745948118 84.926289742756651435 90.150167923197798814 84.391933179783393371 80.079106609201446076 81.60121520070050849 78.871972689707348536 86.976602728410114196 86.305773593405831434 79.445314650564995418 85.501717824444099847 85.010829653530407768 85.42484486556438128 78.22202344000682217 85.971756633312466533 84.700512563863668447 89.697566506699587308 86.739028432830878046 84.268608198706928647 86.707505963835572516 79.853602646445395408 87.395003668194490842 92.675109664105548291 87.872864253017880287 82.735129639900748089 83.227516319217741625 86.011790486342505346 84.766234409731112009 96.000946563430375136 89.320016959147764624 78.622859766873517628 87.781025458922997018 83.85578284223001333 88.322968562568902939 81.194050339615586154 83.578699902308642322 85.894455791144821433 80.463989903696202077 79.185532181018118081 86.747709619059179431 70.488962042486647874 81.465215022420181867 84.336841682693233224 94.702320591604220112 83.396539544264385313 95.424275730380443861 84.477724055134913783 86.477945975997386086 75.59876451088454985 76.422363363103741563 84.219773769855805767 85.96291767432916231 88.909983903694239871 88.655280321018864242 76.656322375073969511 83.914765165614795706 78.213640649958932727 85.569404725162726777 87.026995617177547615 85.173383843121357017 87.617704054578382511 89.181046962698857783 86.918534794060676063 92.543284491988174523 84.198380334556659932 88.943663666727857731 90.837658369626637977 87.09682364706310409 83.873826794224356718 90.357371505075477103 90.168316265121148945 91.067003207233668149 88.206160050250716154 80.415893872923660979 86.198691905580162143 96.95085586066910821 89.142695986346453196 76.307636386178685939 83.729386500723137488 86.375505999296947834 85.899251026805245601 88.055355862411730072 80.258467491912924174 84.633896415072385366 77.458109438659604962 83.571174448216439146 82.002391955436650051 81.805939307294423202 82.022229595176781913 78.243853096654405022 79.541549304954486388 82.448396892750878351 79.497258522011165383 83.694608324245123754 82.587992517602785369 76.370158088204220803 83.800933041417650315 92.09947427401542086 77.852928199992533109 78.954846657471705385 78.978033853817152021 86.352906737888645239 83.668749054571193824 84.846466697696683923 80.174899227152081949 88.790989871879389739 81.957531405483763365 79.986914428225347251 76.611704797580799209 98.962339763433149642 87.963256452918159312 84.746490035446029765 78.959855671837516411 89.406328350977886998 78.248373653752082646 79.702754723227641875 81.429634570707563057 92.551183292909414035 92.471627965493823353 77.369757643769233368 88.002191518088508815 84.53951459155807413 84.787228035239380119 83.060285263573931047 78.837987473909890923 81.02297285153854034 83.821349785110015773 84.331060726021490837 84.436225155960542565 84.66286362797120546 83.219092039416125317 94.768974751009636748 80.4156197328972695 77.422315181440112042 86.857731093085689622 88.479898027065772226 82.756888466939358295 81.131607171350822227 89.721915900776039621 88.506183912302574868 77.892048660766235457 78.924474180000387946 84.38351778705028039 84.419745584418620865 75.207022721730680814 81.165120256369547747 86.494565036594110552 83.257058256032593135 82.579395056486646354 81.293790653762556531 84.77924627671818314 71.72116639314248232 90.074182889894856885 82.608999914540177656 80.465411217716322767 78.884199416066493882 87.123629039351143888 90.381900626939099652 80.472260481301802315 86.105361177225773872 89.386299509975955857 81.78311307787433293 80.804199140776177046 86.009180194623240823 92.639899509559526791 83.682949496335155004 88.725160064787573333 91.199603438887066886 83.355953414351333208 76.132965310208234655 85.563917144330773112 84.433980350462348952 85.417996376542731696 80.679329272301814058 81.621680979733383765 87.910269954533404757 79.1399853427063249 85.458427909698158942 83.774875602025005605 84.961022015171735688 79.475386161374657945 81.692025953118459825 85.069245161754992068 82.50038611594014526 83.109862267340218978 88.432074943244913356 92.588493076481071853 81.982000482682622078 84.4646134743221495 84.003933904643190544 80.356387283999936244 93.39514778360980074 88.047483515601683735 79.681856571637325715 85.191748187385385904 82.85835995099321849 81.491325473239385246 82.982509418477690133 94.564646991020282485 77.782430800231679768 81.452403697958402518 90.596782234405864642 83.89034224999147682 85.685537805845839898 90.822157917477369438 86.999612374741516874 77.829101905971185715 75.576295568388403012 82.199440654405734108 89.201598654094411245 83.300744063488494362 88.127645673790865999 83.758061117552671249 83.391080424046492681 74.013132166643998744 78.9172577844962575 97.275497632772868428 81.848048998487826111 84.105711133750958197 80.16835675295895669 91.320920691478576714 86.938208663337434245 84.135979903060800211 83.550898431121964904 90.593802249562784823 88.909925968060107948 78.514682001669385158 78.517313436413317618 86.969955320163123247 86.420735006734091144 89.715386761084872091
-1625.3746220114496737 -1623.2839936896989457 -1625.0244039081053415 -1602.1788580452134738 -1654.0839052138112493 -1630.6039718137367345 -1607.7712300468931517 -1635.4509135969767613 -1641.9326417283755291 -1601.2810223918297652 -1608.1889484791283849 -1636.4901867634957853 -1594.9011036979889013 -1617.5953556261756603 -1617.9028178774713069 -1625.3600115430767801 -1613.3436164680617821 -1635.8287919651995708 -1626.2871640168614249 -1580.9124263035416789 -1622.0265736769040359 -1618.173228267102786 -1618.9718559071584423 -1638.7758393423423513 -1632.345291288147564 -1605.1440395662111769 -1613.1826782090568031 -1598.9447247575319579 -1613.1100486032337358 -1613.1675856356803251 -1602.3497031037752549 -1598.286678998447087 -1628.9595472393148157 -1605.5781284500792481 -1628.3149398505854606 -1633.1308617533020424 -1632.5887888936242689 -1610.7651153466576943 -1613.6901765754773805 -1616.1187026135937685 -1599.8202390538160671 -1626.7943288330686755 -1610.7360329814937359 -1626.8859555756394002 -1623.0560241620955821 -1627.8654995554632023 -1615.4643372049395111 -1635.0480907493288214 -1605.7061714720518921 -1606.8600311108486949 -1631.7715601193076509 -1617.0878555357435289 -1607.8047923645576702 -1631.9717931730283453 -1619.8516813995386201 -1639.6628820946480118 -1624.1835663628030488 -1606.5540871612261071 -1640.9121953625651713 -1624.6886683294237628 -1632.3023138110595482 -1622.2064380599083506 -1632.4165260669594772 -1633.1608126824630745 -1610.4028834649104738 -1620.7694386618586577 -1602.6806863754386541 -1616.8804957321622169 -1614.8363018752963853 -1618.8526186593173861 -1625.4158817393897607 -1631.8611483808081175 -1612.7243337832283032 -1613.4227177080886122 -1634.7534797895048087 -1620.8946842432392259 -1624.8124487435252377 -1619.1742387327174129 -1626.2970112255063668 -1626.5964917159944889 -1634.5864236414824973 -1602.9339611465331927 -1637.3933696068856989 -1620.3079532401527558 -1634.1290235792889689 -1613.0709470735785089 -1636.1117176838240539 -1611.515631180159744 -1629.5188973960084695 -1633.4531457190760193 -1626.7604951525904653 -1613.6686495773171828 -1620.6784888651950496 -1607.4737028124977769 -1619.2199098236317241 -1588.6115697294012534 -1618.2772232374306896 -1621.8769008243421013 -1623.8771495855935427 -1617.8955175712676464 -1624.5238387253866676 -1643.7103268735427264 -1604.4594098581499111 -1609.8278251669889869 -1609.869846077384409 -1643.3695235886775663 -1613.9646865289196285 -1619.7604368051338497 -1612.0417169099259809 -1616.2047484440747667 -1630.1260987539410507 -1606.2114104495799438 -1599.235096188318721 -1594.5093349636495077 -1628.7692844593923382 -1619.971084766421427 -1599.9579752082192954 -1622.3731014084139588 -1632.7154779099419102 -1633.4129664488968956 -1601.484582920061257 -1611.9376316687475992 -1626.0550436437149529 -1614.029610763097935 -1628.360290862986858 -1633.3374332687988044 -1586.4168299565289999 -1616.0868373573123336 -1618.5995759553384232 -1632.1475983453892695 -1607.9830281114836907 -1643.2292606694891219 -1618.0986908956149364 -1616.8612308344795565 -1631.8262549035780467 -1612.6866696930803755 -1644.8400308015841347 -1628.194795460580508 -1641.7123036046345987 -1638.2007423164457123 -1597.2338199848247768 -1622.5631199571521392 -1570.4456153334720057 -1608.8111874757419173 -1608.1577795687790058 -1645.1255623352499242 -1623.4246462507073829 -1619.2896922978313796 -1617.0660222514932229 -1600.5368624206539607 -1618.2001915151295179 -1624.4168005030837776 -1614.8566870309080059 -1621.9269754499914598 -1643.1356877980069839 -1630.0002344833878851 -1608.4313511998814192 -1619.5487102447905272 -1622.6276379289481611 -1606.6920273088664999 -1642.5468194658478751 -1625.3774634558201342 -1614.196640893770109 -1615.6594987570199464 -1620.1636417698366586 -1632.5571917785600817 -1627.3041545432545263 -1617.0736353674521979 -1617.7323532654033897 -1615.4759518836976895 -1603.9439007942653461 -1598.8289426566241218 -1620.0302120488784112 -1614.091356082605671 -1606.7895155296466783 -1612.6230014679779288 -1618.5405715646634235 -1627.6383624126672203 -1616.2284445093155227 -1615.7989315513066231 -1615.4238188610595444 -1619.000894684875675 -1632.3483963681319437 -1618.2392420963026325 -1630.8863576656447094 -1639.2878524010020556 -1595.886141365695039 -1602.9982291284554776 -1632.6555122466065768 -1614.3685358720933891 -1613.1705994547112368 -1619.2266566935359151 -1658.7312150105194632 -1634.8033854280415653 -1604.8477907562457858 -1631.2386563772615773 -1614.6296704863993909 -1637.6781950422350747 -1617.6977205366845283 -1629.8846567480056819 -1621.573178163225748 -1611.7072666858909997 -1625.2726934807731141 -1626.8895442810473924 -1620.5627641954238243 -1615.9519078590922163 -1626.5623874979812626 -1595.814128357214031 -1614.2933589717124505 -1634.361420531618478 -1608.8776673631693939 -1619.3306096567723671 -1637.6887561395315061 -1623.9507907961451565 -1628.9585918118430072 -1621.1111075863066162 -1617.0072269010902346 -1622.9537901636911101 -1596.0572981409054591 -1611.3726332962730794 -1650.0471924523160396 -1615.7178115604488085 -1610.6254644089453905 -1617.2883051517437707 -1594.2091362209134786 -1619.3646803215908676 -1611.7228892193654701 -1643.9479502634353594 -1623.6296045513067838 -1619.777178905986375 -1613.0081469745421145 -1618.7642583897911663 -1625.79777542257807 -1592.6545056173849844 -1633.9121470247284833 -1632.4976384771839548 -1596.3763864057295905 -1636.7867764272029945 -1607.5037806014372563 -1617.877497930771824 -1626.1430395717322881 -1600.9616178006338032 -1638.9304063366435003 -1607.7361761213012414 -1626.9162782452069678 -1628.6973715998353782 -1629.6639060712648188 -1634.7169211640409685 -1603.7884697156773655 -1624.5407725242105244 -1626.9213337086760021 -1622.4239845345616686 -1616.001760649560083 -1628.8809358773471558 -1607.0421017566507089 -1647.751919101216572 -1630.7975478855132678 -1619.9476314811306565 -1653.6343116442972132 -1634.3707080283145388 -1638.9327426192978692 -1626.4237517463154745 -1626.4508775021547535 -1620.4329178670764122 -1617.2302970458763411 -1651.4236761245952039 -1603.6719013861370513 -1636.4743515144587036 -1618.5896050573192042 -1629.6153704697130706 -1603.2900707702615364 -1619.1115338681847788 -1629.1918787614185931 -1590.3580794722784049 -1609.7569665910737058 -1617.0971214269056873 -1602.7430458510509652 -1611.4990523478857085 -1612.3951996661976409 -1624.4259042481289725 -1630.2280139660219902 -1601.0559973251190513 -1620.8849806745149635 -1599.0379351749718353 -1606.42372902301463 -1604.9134088453779441 -1618.2623432110328849 -1621.9426540288509386 -1621.2339464901308475 -1634.6153542840154387 -1637.8964638174370521 -1608.8982414751521901 -1600.9608657583912645 -1612.9383492505846789 -1595.7824160065865726 -1609.7905545847436315 -1632.5238856547830437 -1649.7810250544762312 -1622.9901092884344962 -1619.0017847040494416 -1620.4336577415851934 -1603.5506984684452618 -1618.6843307738163276 -1639.464898075449355 -1628.962672391036449 -1619.0190009694524633 -1629.471007129588088 -1631.325850750745758 -1614.8356423250534135 -1617.1327478389389398 -1615.8443942833164328 -1615.0332250622375341 -1614.0808152873105428 -1596.2830320545460836 -1611.0351876346635436 -1628.4007646212398868 -1628.2201183434212908 -1634.0665362270310652 -1591.3956353949392906 -1617.0414317089166616 -1614.0650198956398071 -1611.6120039032214208 -1627.843885166090331 -1628.7805513130876989 -1613.256793988612344 -1600.9639497285079415 -1616.8185787991199049 -1618.5147023487395472 -1622.9230559679754151 -1618.8683135273395237 -1609.4008552957802749 -1618.6199295153089679 -1613.3455738086220208 -1629.727189075948445 -1623.59185084921819 -1621.5388698605322588 -1649.7253894482528267 -1606.9891771926081674 -1631.8440041748672229 -1618.3550630432177968 -1624.2801137947344614 -1611.7019341824816365 -1632.3468134621616628 -1627.8016605176469511 -1620.2332809986000939 -1619.6918788814919026 -1634.3754845234448112 -1623.3862513116557693 -1618.155693786259917 -1630.1221681422255187 -1626.9357086044740299 -1621.6020296428300753 -1616.5455273750476408 -1621.6254180391788395 -1622.9554324691812326 -1628.417107651002425 -1621.5063408810556211 -1605.822810223756278 -1630.6024716134211303 -1626.4194409499116318 -1602.2154994816025919 -1627.0297792570440834 -1650.4340161147413255 -1605.8508832489008 -1614.2870245154485929 -1643.4592493585173543 -1632.9795243441853927 -1622.1034752647483401 -1630.7408765234515613 -1627.0537589149537325 -1617.4767949510885501 -1620.2901927277509913 -1636.1413593452873556 -1625.2002319365021776 -1626.392420838765247
571.3057832711122046 563.01459692012872438 551.46378188284870703 559.17480390194054962 560.34009972543026379 562.02677432104758282 554.40613931795928693 557.22499369800345903 544.04142220041910605 555.74587270032861852 551.63329384438929992 548.19911807827133998 556.01495199158523519 563.20127838374287421 559.02201333151231211 559.92271325588353648 543.46538292926538816 549.85107510213686055 558.19485518451654116 566.64330731320035284 567.14563601311363072 553.04517548142678152 562.33266401288244651 561.12060068480968766 547.7070385028085866 542.77476391345965112 545.71121666286830987 560.88002203280245794 561.86377454680564369 573.74696792084102981 561.91897614785580117 556.34681917583293398 542.40058644668954457 560.5415296612803786 550.8080187246589503 562.34694538987127999 558.95282367556444569 558.44445065723414245 568.32351460014456279 553.39014966420904784 556.57892534404084017 561.62914839385416599 557.67023353236731964 553.09943622821083409 569.67978635989038594 551.8345780341446698 554.37885083817798204 555.44579691499598084 564.7133491447882534 551.43410726134879951 559.34945390920324826 571.88687109273962506 547.91112601932866255 566.24878188474815488 549.77879821181886655 554.87846236989582849 556.61810552247379746 564.8037364171950685 556.01473462427702543 549.04401146403995426 549.10158558960904429 551.41055970293700739 553.53585796183904222 553.04826609755252775 541.87084873368416993 562.78475050710630967 556.81470058007550961 549.8912740608684544 553.38248340747600196 565.45238073297377923 560.07513575507107362 557.1763003254055775 563.57722220249456768 563.02240231212749677 562.13787524061058321 548.8442766270680977 558.40086632906229624 558.10729407958865522 553.60632466068045687 549.77613688565020311 547.91207306896205864 572.52506472855702668 543.97465222721245937 569.17695600417505375 550.00154894709771725 552.13339013575409808 549.6819958011625431 552.78040288320380569 564.94766830434002713 545.48474411932761541 559.85445812174009461 561.86497576603835569 545.1806689724340913 559.44350420796240542 553.14481763426931593 554.33987656814213096 558.26426515153514174 562.40104509177604086 543.66146404159655958 558.26332741438136509 558.83092229300871168 554.42384256983416435 559.22101709671460412 556.41316686869595287 552.86962531913763996 570.89969660543670216 551.42884284060767186 567.96552415780820411 555.01481913246414024 561.54580221894025271 548.86373510950977561 545.62552282073818333 553.86318466285501927 560.65815030926182772 553.87008877887478775 545.87816915121800321 556.17415283289744821 558.16202276603132759 559.94628380014046343 554.96411160498291792 560.81537407258190342 551.53769439763550508 554.25462374951416678 549.423983717577471 541.18796684169080891 558.08470150827133693 554.70401169908222982 551.30229725834703913 555.9933289308453368 552.79319771922382643 556.59367353519917287 554.73787915218167655 565.44695342348256872 556.22868258161349786 530.58474051362099999 562.53007067223506965 559.16529784969884531 556.03473964349166181 557.03550796282650026 556.53965892603059729 568.032391698397646 555.52804671446074281 543.92659342298293268 565.23463951275584805 551.70350299191602517 556.37496471601116355 557.0617887102584973 551.68015874074706062 541.16291597078463838 539.66491230147221358 551.52929494339355188 541.45422869943615751 558.58626544601327168 566.93303893912752756 545.63853206756175496 548.46318031555756534 551.43336220075286747 554.57293588777054083 558.33331915626320097 562.50815241442842307 545.65860362680041362 555.13450919643139514 544.61078293728871813 564.81594157244910548 556.52872721660128263 552.29011778777680775 551.44660129671660798 559.98273994060866698 565.76691560913639023 547.10995633708944297 557.04785236003442606 566.189447072926896 553.27985671498345255 561.77458013721468433 548.34547751211471223 548.52271121578951352 555.36815615886905562 567.04787105203820374 546.39607270841429454 555.51448340548984106 560.14224612332293418 547.12740267766946545 561.59156940757145549 560.4353825861438736 559.09232394675564137 555.14035442817555577 555.50360566932522488 547.72714469693926276 556.90887052050311468 547.67818972320208104 553.79963486381052462 564.98518460818991116 571.59717815091232751 546.9367009137132527 554.6503582561034591 553.30096466204111039 548.3892199140179855 565.39976952285144307 546.84556659433837922 555.23358642896596393 577.35579834344878236 555.77228740527948503 558.3444903273187947 566.2499178039928438 559.97469654764427105 556.86152144786308327 542.27901067894106291 560.32771606928633901 560.36878250536153701 553.80414318745170021 556.8348749202111776 560.72658164079962262 558.77589557881537985 572.25464021219238475 546.40325041248559046 544.9662515119729278 551.84441846948163857 567.36416489019939036 568.28946131720431367 545.93431432432259953 546.78082316991469725 572.68715417268344936 558.13840235084978758 549.60269718649328752 553.0721081964077257 546.27863659652882689 546.71067665987141027 555.22020193700279833 547.64338721603110116 553.63678615164451458 552.75593186424487158 558.58887603891025719 550.88958765676875373 548.18110245589218721 560.76566543572789669 551.3928319343702924 539.44534432145371738 567.034551113925545 554.93593398523307769 565.69575969020570483 552.82664427055351553 554.19661186705059208 545.23010844811165043 547.86683150988289981 569.57320914428396463 551.2271500818203549 551.73886030846620088 549.50816679717377156 553.12204821651027942 561.24141030128146213 565.51920060996803841 562.18773133500690165 543.22042723295089672 573.54499886510996021 561.77990262438902391 539.21357639524808292 546.30249712498152803 559.32177508897052576 540.75501130565430685 547.04934274038748754 554.84637640326445762 558.28877849013701962 550.58008878265798103 542.34541774995875585 560.95203399834031188 553.2916778028961744 570.67497169043872418 555.29282652065751336 563.02144800058204055 555.3420089228463894 560.32729560872576258 549.3286912672501785 553.24388113766849528 554.63045511796849496 546.33790442088809414 559.56247908261616431 552.40054615487201772 557.01898064654176324 549.17392094138256198 557.78531381373329623 544.8878781023644251 556.3522410317715412 558.11004045496133585 556.42760822785658092 557.8956733122793139 548.12331134265377841 560.36181630764008332 563.14050284425002246 546.88024627106665321 570.10707265462667692 558.39079601749756421 551.38509017734509143 559.68010157717242237 573.37793880065328267 559.76774352647419164 550.05935519570448378 549.08336945119253869 553.51354820340702645 555.71897811012865986 551.70196155126575377 552.47674085840924363 553.00687777222344721 557.22830005099910977 553.20955277129485239 572.14518885932159264 545.46611730375286697 559.62625177802533472 554.08663910783582196 567.51013129739135366 562.42735833397364331 554.84705967553657047 569.08445176553755118 550.72301606877465474 554.0908213269707403 557.49373613506827496 546.12986813105044348 540.84158828173099209 560.39317331307722725 549.36936473055106944 556.79852856916090786 558.1968772184656018 555.79989808880725377 552.45914328562946594 556.96888759813828074 553.40522245757870223 555.20227919384331017 546.91178610963493156 567.96911863202922177 536.91748908783097249 550.94180227713934528 545.94538681503331645 553.37274788433637696 545.21680111871751251 551.71991571604303317 562.26853244742824245 556.96366044410592622 555.6472450111375565 554.1288050610303344 545.57953831303700554 562.99990834947266194 560.16103701991312391 561.07112590854967493 561.57507591481601139 573.14109761359918593 563.35477313430624235 556.89466190296366221 554.34951539558517197 548.2118528851034398 556.17524293146936998 561.32241459455110544 568.67365979878468352 547.06502290357855145 565.46918183304114791 563.96750720821432878 562.4907561282958568 564.44828683450737117 557.12433597519020623 559.12409021637745354 564.46874021518704012 559.16004656024324504 547.59108605711253404 577.14771228731490282 548.77939176300560575 566.85675473010701353 569.35397383142935723 554.95245247725108584 560.73214735073088377 560.50051014174368902 553.56572613323362475 556.81223255715065079 562.9502319675864328 557.41134023072766013 558.20335562252614636 550.05497715834133032 555.04419791484110647
181.82573763350447393 184.0207836696812933 188.11984806876904486 188.33798987296381711 201.84323307005485049 191.57756218481796395 190.94102020015446897 182.68159142950247542 179.83205763788174636 193.77261873671108106 185.19393047115619311 186.41999690545389967 190.12643455309981277 186.11836889593510591 192.64557306300582695 184.53104082261117469 191.63928905834367811 178.10247751735067823 191.04664391839975224 187.22191949042141346 202.9897573858862927 183.03281387865555985 182.92800217557888232 184.01987562881348026 191.23931514365025919 194.81540011495729914 189.87873180851315169 183.51396833149962617 199.50848164580241928 190.86476466696791476 178.20270038052049699 185.90509543783568347 186.17693066561355408 186.21154091253782781 182.76181604146904647 188.01543805086305383 183.53783593123253581 192.04280021449292803 182.13637027617096464 180.5550351766424626 198.02922839350171103 198.07288522675011677 191.52090251510855978 188.08094480298186113 188.04857291928809104 185.95778542370891273 185.75752855147231912 189.01536949259616449 196.93000748634185015 185.56645028492863503 182.35433361578549238 190.98490255879767119 183.58377664181119826 186.49211737049347448 201.57804523219084558 193.16371853475669695 185.96310985197430909 188.43197143750865052 187.63215140751734111 193.68058746075411136 193.85201347842669861 196.58227583302789299 187.27830281572448712 192.86267225025636662 193.6851022152441999 191.98888761759590693 186.46340849677457641 194.27716098155093505 180.91541179775049386 177.3706599202861014 185.72617080889696695 193.80068854309263315 184.75225441958585293 191.45816653834424415 182.9062577367961353 197.02813708929122072 192.19533631851103905 187.21954752338089634 199.01817607323522452 187.74232791737222215 183.46472889912411119 208.38698379474112699 188.74933278120397517 189.95023070239616914 179.7217515977465041 189.89988417018921041 195.62626138182363889 184.90108052562078456 182.35060577862552122 192.2320559212147657 186.72150324434772983 188.18059940091899307 187.08786698475850585 186.83488297000175749 191.85848459441888281 192.69139543872063314 195.38354027803853796 193.72697830587333101 187.51739161525009081 198.0661714706631642 190.16328946073053885 186.72156323486254337 193.02830555670988133 191.83167884148741678 196.45159133918295424 181.58290345358236095 182.02110289985012059 192.69264972412543102 194.71227710521657173 189.94011637406958926 190.39863730508176332 186.1831159267089788 189.46158361627536237 181.47032876686176905 186.88129468240816777 188.18791510440877346 195.50225119197085633 186.89453203161104966 181.31055608276810176 191.07839307637593151 184.9056205536813593 183.3704172124716365 182.97027040649726359 195.98175436073205447 188.15799677015741054 185.44240489169163766 187.56171534347350871 178.04388817440616322 190.52866195386272352 183.24572413406184523 194.50906525818476211 194.18004696090397942 179.53819309110616587 181.79545340197313408 190.43692235453431749 190.13639753160870782 191.42379789190903239 192.06851554327525378 185.53523013363351879 189.67426468548632101 181.81559789959450768 186.65481231965728171 194.07916731098566743 189.09315591083284858 194.40787060537991238 190.54519433912628301 186.44058824708713473 190.67658009790480378 193.87511941930134185 180.6079503806383002 189.69594810876895963 193.40145659275276557 196.46329327674723686 189.82794614371010766 197.60641471941482905 187.21575949177551479 193.39582872963245563 187.65218694858504023 184.27045422954375908 197.42131417411428629 188.2773523032282128 192.58278814529734291 198.53720960049133737 187.59159767686929854 196.38799347909778703 184.99633997273474506 190.03266431150427707 194.0817818044064893 185.92193939046796913 186.47124228147436042 189.28375126337627421 193.19018100573026686 180.12636453776508461 188.55934656799254867 181.9329184441421603 175.29827021640323892 194.51626785201236203 185.12971110852467405 194.70670795589865065 193.24395757472120749 196.40079458895789344 200.25249587482784364 189.86058505763583071 176.84262526300284435 185.74212546122976164 178.74692196250538245 197.03861220603755555 195.29073296274981431 191.66767823427923645 180.5838781223741023 188.91548425312464587 182.7015165348325354 180.95903066128860814 179.28445204131665491 190.82576218239023547 194.00082308041186252 189.62856184848445196 188.1775562213235844 187.68801157349503228 193.24211225744022613 198.96915468656879966 192.84253438542950221 199.62137630478417805 192.32478581376216198 194.47191437998887409 191.71634194869969292 183.73633733645041843 187.79842286613799729 184.43717039504076638 191.20720756211383673 195.44021242196532739 205.38040365819074395 184.63706994876238809 180.57071891488962478 185.38673961181305572 177.64677993923154986 186.85137508063453993 190.49366863644516457 204.1824869945258456 191.06786516675279586 175.11394266044129608 193.10409880577859099 192.06893940303527302 183.46062274343131548 174.25155942576427037 187.75835024581570565 195.55018157752869001 196.56952748065518222 183.78016313227314527 192.66565775031580188 194.88478863533956087 188.88780761420221666 186.24015094358787792 193.97433605067482176 175.41556243900072332 179.20176727218529322 197.00970996103836796 186.61604223556619786 205.29529873305756382 182.5852160814754086 193.58336704058692135 193.40172671300049956 185.42257349460828664 190.87863664075297265 185.89645821379676249 187.14500960251166362 188.72764832006109259 188.83483492406983828 193.64206474824788984 174.92125403624427804 192.83718168120799419 188.31243401525753711 184.6450536064920982 197.19895421998646157 181.47232417817755845 183.40431977139857622 184.14257936827206663 182.29927643742141186 191.46028831202596621 186.62549155948951807 189.29502337441729765 186.39911096860700468 195.2273222223948892 191.28463970935001726 187.65582542370296437 195.3702425809813974 182.20585112654009663 183.77658630920302585 186.78433919559068954 182.82899402616260431 190.43568942670449928 194.51602386075580853 196.9482428957638831 187.78546032417827405 189.80645747531104917 195.6786632519853697 188.06127749513237291 186.64765801345362206 192.40313074619203348 192.0067476234681294 182.43001840669856506 185.59870763297152507 194.68778945103929345 191.43103056598286571 186.98421728479752346 183.55670612557770482 181.43391223696539782 194.22649040056205649 188.4689398172957624 189.4284139409537886 197.61149441923595305 170.64950682746004418 197.54581389789052537 194.60050622953968968 185.99389907138717604 185.5430429839576334 190.86856540573333518 178.67608314446721351 181.05510556078843365 191.84191289634148347 191.99218118349500628 195.16308173811188453 193.57848798070659768 197.16317672764483859 189.49900727570161507 193.35300206079975283 185.55650639153671477 187.16900789009218897 182.96932987611171484 187.44604505308637954 199.53176104412497693 189.93775493314805658 190.38845877827267827 191.94623610203163366 187.92090837068090536 189.31433284631123115 185.76743055789040682 188.4340849898484862 183.72965799139581122 204.28310443003192631 194.57687904810381951 188.40993855831601422 193.7979132532106803 189.60093787703689827 184.80882389517788056 187.5129116724991718 185.96288249147931992 189.48067330422455257 188.98294221704128404 188.28597496454895577 203.48453993218936375 184.00773852471573377 188.71246117898743933 181.41216551110039745 194.31878892817036331 192.57879914360262319 187.68861297560565049 189.63152122948551437 182.5013053599542161 187.4312341068161345 186.59218317574837442 185.90378782784017631 180.90700262340371296 190.56703383268995822 186.49353181545845359 183.56019046975359288 192.52792390025445002 182.55638105869709875 197.98203839624738976 188.30268293505190513 179.44866106247988569 202.24688874956774498 194.00725455999847213 182.18597525397544246 184.33996289678481162 194.60784520603780834 187.83150575472799915 193.48671851132942834 188.89607988319824017 198.66670071899289951 184.24155975650870687 185.24763682544408994 180.3705938097070316 196.48367091280249497 181.50090922354152667 186.72900545615831902 199.46653530464411119 181.23894192130447323 180.69804608917252153 195.93597325911184726 185.6690527572220617 189.98649645921079809 193.52339531235492132 193.55301179008765189 194.0561557772505239
-1729.5031227415800004 -1747.6721038077384947 -1738.5134038033545494 -1746.0660880892105524 -1760.9608585868102182 -1729.9887121224412567 -1739.4545326936074616 -1738.6125191012995401 -1760.2912761659943044 -1724.9858050120349162 -1739.4820657742770891 -1720.4566575204974015 -1764.3220941193264935 -1757.4541793149398927 -1752.7588367925234252 -1758.0612918057170191 -1729.9812818582104228 -1722.7304291213756642 -1737.0451899429417608 -1718.4519046527432238 -1740.6633590271783305 -1766.2942700668820635 -1744.5133667683928707 -1756.6023525084312951 -1749.2238085857704846 -1749.7456747119310876 -1751.863323928179625 -1728.0204795683926022 -1721.1061694777017692 -1754.1652794671413176 -1751.6675539398945602 -1753.641703891412817 -1725.635176947292166 -1733.8067439286248828 -1726.4175879567567335 -1729.362967552811142 -1747.9028877796024517 -1747.0101650938395323 -1749.1399100247353999 -1732.7947430780927789 -1729.7954625407460298 -1741.9861695611871255 -1729.7536243275133074 -1752.8177459210346569 -1739.7805466142231126 -1746.1982177365659936 -1753.3929759961470154 -1735.9614887104849004 -1747.6693946330285598 -1770.2461158895760036 -1742.8608627353130487 -1754.0636517663676841 -1735.2903852488711891 -1764.4662956112165375 -1746.0266256727647942 -1751.6346410714641024 -1754.8875778564529355 -1731.0122082250911717 -1747.1052581708138405 -1743.5386271841687176 -1741.8986351314076728 -1734.9225670484411239 -1738.5588315544375746 -1738.5562201092579926 -1749.8050041668948325 -1722.1237134416380741 -1749.0154603315666009 -1762.2798756458980733 -1731.0754218924698762 -1760.7396712434142501 -1752.0113065249845477 -1760.4806290449237167 -1747.6105536769437094 -1737.0675070152515218 -1729.5962833277428672 -1742.1302459451162576 -1744.2512742413969136 -1744.7215241561427774 -1722.8058984553736082 -1737.1325890270529726 -1752.8492957267962993 -1726.6327488665492638 -1746.4624887983993631 -1739.2079739735456769 -1766.3460624686354095 -1772.1160524411930055 -1747.5119020804418142 -1728.6981208699771742 -1758.0924623344508291 -1752.8379035599396047 -1733.5905560137159682 -1743.5760915354785539 -1736.944167480124861 -1730.3611724493716792 -1755.9168035131990564 -1743.3979725704537032 -1747.2731610774574165 -1743.0306981046194323 -1736.1010972119040616 -1744.9734570590976546 -1736.5979845185568138 -1723.3373551975889768 -1727.9375652462108519 -1723.259657963585596 -1761.4577079724097075 -1725.9132171774956532 -1751.6045280840323812 -1722.1471825157427702 -1740.6238691514786296 -1734.5840619308216901 -1746.9658126552035355 -1752.1747209524330628 -1762.9769152170474626 -1747.3059113349529525 -1750.1109414318698327 -1724.288809216134041 -1739.0740546281440402 -1767.5783287382778326 -1730.0536852515679129 -1731.9194523024723367 -1733.7842586922340615 -1759.9101118763678642 -1742.4469870593734413 -1729.720758793606592 -1731.2091943401135268 -1770.6209081858673926 -1754.2811825406224671 -1768.6192469921181782 -1751.1752988999153331 -1748.1431655617823253 -1736.5159755442059577 -1739.131107771320103 -1749.6472118458952991 -1751.8201178136609997 -1761.0363796931251272 -1756.2650054138794076 -1715.76709382175477 -1751.38122702314854 -1745.6593761563042335 -1731.8050237680877217 -1740.4067826848547611 -1754.8380932181407843 -1746.8793930184697274 -1746.7103999682599351 -1739.4045696833520651 -1761.4037647994975941 -1739.1359723251803189 -1727.3304764803656326 -1756.8082276735408414 -1730.5052350657895204 -1738.2155611594298534 -1757.721785246629679 -1729.7532671106184807 -1747.5938322818142296 -1761.6463894319492738 -1751.3140301037171866 -1742.9701095719128716 -1756.7502887199593715 -1730.0379354007798156 -1745.6681314491038393 -1715.1608218054536792 -1746.0662934039339689 -1724.3980263402415858 -1727.9775924360842509 -1722.5136355834283677 -1749.2931511451811275 -1751.9938601575743178 -1723.9484732106957381 -1757.9264177745831148 -1746.7523213110719098 -1726.8154148660050851 -1749.9293884657013223 -1746.768833115217376 -1747.5779350001114381 -1753.1234449514297467 -1754.8489110883547255 -1742.9416775655852234 -1748.53909951075957 -1764.5318292198626295 -1733.9439664625028854 -1729.3575633394507349 -1756.7054288225049277 -1756.7494370437982525 -1761.5408137347169486 -1752.9966736676615255 -1733.2366488058846699 -1757.7928183397784778 -1736.192161945881935 -1746.9534785543576163 -1753.5049574892173041 -1731.1655097833752279 -1744.4896368893005274 -1759.6656814527977986 -1746.4450654565996501 -1736.5128460594951321 -1728.4347376174234796 -1746.1540591202422092 -1749.5979655066057603 -1717.3262036297408031 -1741.7354386140973475 -1740.7527100642564619 -1749.8649913173337609 -1744.4008986512660613 -1752.2716548385681108 -1753.9692145368969705 -1752.4776771028186886 -1774.4664913567717122 -1741.0129465977324799 -1747.5911238898438569 -1766.2729826527838668 -1737.3299590554324823 -1754.1929554792259296 -1758.7502188731964452 -1734.6125469499500014 -1731.2213801065795451 -1712.3352785269412379 -1743.9668046736251199 -1753.7577974304997497 -1741.4984118212091744 -1730.9802822175279289 -1743.1935457895283434 -1761.4392479824846305 -1720.9626393307673879 -1753.3488158298021062 -1729.4240704090232157 -1747.3466204117962661 -1735.529680818420502 -1735.7563959594760945 -1735.2578082836153044 -1741.1030033847141567 -1756.4234650218277238 -1743.6510663278779703 -1739.7657237469270513 -1759.2432554488805181 -1709.8146968732480673 -1756.2884537324291614 -1744.5798475943911399 -1723.5439860581418543 -1735.4335957136474917 -1741.4802091362596457 -1771.2301646502210133 -1737.8161112874536229 -1719.6823539052152228 -1725.8702232677894699 -1738.7217824285248753 -1739.9410368887163258 -1725.6032482657853961 -1775.0812704662785109 -1727.8495742626942047 -1747.0357267332012725 -1739.471960145333469 -1745.8035881788550796 -1732.7224140940643338 -1764.3060775319938784 -1763.2260327095732464 -1738.7681125695919491 -1735.4415832070415036 -1744.3644350589488567 -1739.3341789088517544 -1725.9943230952928843 -1745.045597126739267 -1765.6115506802943855 -1735.7873331825933292 -1736.0337575623295834 -1735.7018073192482461 -1742.3681768561521039 -1744.9296566876978432 -1749.8497002675196654 -1726.6278643645398461 -1716.7951380530648748 -1731.8574119228983363 -1738.6990064774481652 -1739.9037760268158763 -1752.5493178443223314 -1739.4902718036539682 -1729.939525450647352 -1733.6858714040929499 -1739.5073049356151387 -1762.4095911111323858 -1739.6907785247055926 -1744.1286906996806465 -1736.2369672526056092 -1746.7220636154236217 -1741.3772046963665616 -1739.0246345117186593 -1737.9703954439560221 -1751.4961402207438823 -1752.0426726760952079 -1736.0077132396488651 -1731.4714834492212958 -1736.7997587659151577 -1761.8074283983594341 -1709.7482579041857207 -1760.5224971236782494 -1735.29901833140093 -1739.8699454250561303 -1740.4110012819639906 -1760.9944860672994764 -1726.0670890866942955 -1751.7211169434178828 -1735.0546741070638745 -1739.1559979595936056 -1735.662384562618854 -1740.8906052252143581 -1726.2541514884219396 -1756.4698211192678627 -1751.1104792074202123 -1733.1227570152414046 -1726.8961792005343341 -1748.9461808570231369 -1745.2777092757883111 -1760.7586491793074401 -1758.5990379016141105 -1750.6620173464555137 -1742.0950772152482386 -1743.0110340273297425 -1744.8162668044567454 -1749.5372464596614464 -1744.1953954534103559 -1751.6289063836170499 -1735.6264080865603319 -1764.3190948145547736 -1744.361060838866706 -1751.0246451057828381 -1757.994996861145637 -1760.7575028497622043 -1773.758563098260538 -1737.3559349287872919 -1729.5972819734470249 -1721.568230292028602 -1746.4705043237804603 -1755.2542081834869805 -1747.9940969394203876 -1722.626173283824528 -1754.6988823046367543 -1742.1305463926189532 -1730.5772109913007171 -1733.0822763880480579 -1737.0131611364324726 -1738.0646675912901173 -1723.2265659294114357 -1743.6090623278787461 -1712.5976684365637084 -1729.3384771084581644 -1762.3676993623364524 -1754.370640915661852 -1756.0688916025883373 -1751.1237568445262696 -1740.9239346780825599 -1738.7076327360571213 -1752.1671646910103846 -1744.0688768392478778 -1735.4784464946881144 -1747.6580106837841413 -1747.3308104224429371 -1731.0936511680845342 -1740.3962338989620093 -1742.2110660649821057 -1736.0936039987054755 -1734.725035793592042 -1736.8488725523811809 -1747.7126942871070696 -1741.323849604641282 -1748.1913560899288314 -1755.5172376953105413 -1736.6000882298956185 -1739.0318756350732201 -1751.9639006377324222 -1732.2380564099132698 -1743.2556667917358482 -1720.139474670861091 -1736.0444843173381742 -1732.4527477179285597 -1742.6112457514495873 -1746.6340678820606627