-250.57518231839756595 -263.2930207504811051 -253.53421831561794875 -266.45493842266103002 -271.15172093644451934 -261.2198806427225577 -266.52838692772922968 -261.97288054859353679 -259.2127769430188664 -253.65859423855235377 -259.47768040413393464 -259.3043292877535464 -251.41975926022024623 -257.60228101126057254 -258.92716048108457016 -257.22311271279397715 -264.58858256915539187 -275.57789437282940526 -272.73704720474131591 -253.72057796693286491 -263.15118011027868761 -259.74531375184750459 -269.19479475778069855 -253.28990091251301919 -259.37713822436825239 -252.65538461568280582 -264.89660863881977093 -266.9576769637817506 -266.32956697911697574 -263.08102293802664917 -263.13292109517027484 -263.63800440035038264 -258.88140792618793284 -258.79052986121320146 -250.13198697068551724 -260.19615561321052155 -256.92135332740593867 -264.15223129544614267 -263.08628218271996957 -259.58091146573309516 -265.82236421292265049 -267.67768258622959365 -263.73520989378630475 -254.98157763594946346 -252.94364600147352462 -265.81883055799988824 -268.41871209662394904 -254.928265493792793 -268.47974387215492698 -248.21443842463000351 -255.05547116836970645 -260.19552941024682013 -259.9161793304193111 -259.13382498675770194 -257.99164545729462361 -263.3718042328536626 -259.55283724822254499 -258.44013963710273174 -255.64855141931428761 -262.84574938937782917 -263.36200240644188852 -261.31853786675253559 -257.46721573547290518 -270.2902401390626892 -262.49551296107824783 -250.74389586496351967 -270.59669807328941715 -268.68994346180079447 -255.03665049201663351 -271.52318300808292406 -252.21595093975469126 -259.73951428446031287 -256.3644846609004162 -265.39727680770795359 -260.33748808391243301 -253.89149263690015346 -272.59649224293571024 -270.83815951590213444 -255.29577570774893047 -266.07286367080922673 -264.60355156535132437 -251.00574620273008009 -258.73625758737853175 -263.75707012611690061 -265.85329810040065013 -263.30340946386093037 -274.0804588533804349 -255.65870098267859589 -265.3601127129188626 -279.80244251489642693 -273.82015667509216428 -279.84422810934029258 -259.4187312881877574 -265.24668152430473356 -255.19361334699803479 -269.70726409505380161 -254.60135371764187084 -261.01723241730121572 -257.37619228042336772 -268.74861618774514227 -263.56799364262718655 -261.37049932140899955 -268.48629802380355613 -252.92245143380938543 -263.68291245557497859 -260.92961702742707075 -258.27515375263698161 -260.19533855752405316 -265.46160122798630709 -260.00826827461713719 -265.83863450183054056 -261.32443236607377912 -263.20494174368025142 -248.87840866022500563 -252.95284600671729436 -263.20356711924205229 -261.0482213733273511 -252.02966581332765372 -252.59502544174901573 -275.93412793656256099 -270.49983049457654261 -244.17179139241420671 -268.71952867312728586 -257.26646855843779349 -266.19130736904429568 -260.65455598664681247 -266.90633248691381141 -263.81021870639369808 -262.03814121776872526 -265.48254396339962113 -261.48906000665562033 -263.20188973979725233 -262.87496434444108218 -256.29149369665475433 -262.562763431143253 -260.61445181755306066 -266.46769776920285722 -260.16865786132683525 -254.86742078637144004 -261.51318014711927162 -263.3650223876844052 -278.29952273542454577 -259.00899065100406915 -263.90692558935467105 -268.47695777393420258 -270.53780526706503906 -258.71026195809292858 -259.1544223374834246 -268.36412587625198967 -275.08189478045596843 -263.38058287699686844 -250.47739541587338863 -263.68039383362503258 -261.10736779111300621 -265.10291299676555354 -261.68594485997550692 -269.57937434000405119 -262.57002812202216546 -252.70583023858102933 -260.95320664878244088 -262.7601855463150855 -255.6475698336257949 -269.81109765166445413 -268.09567253676277687 -267.09025946881632763 -260.92662784809243703 -252.83000997121530418 -260.16396029139178836 -275.53262329973654232 -251.85290872450738675 -254.26363005100230907 -269.384575008201125 -255.79602179465726408 -268.50216403596186865 -258.25350307994699506 -260.80183336431554153 -251.65229407578112841 -258.79296286861608678 -259.56328397791821772 -262.6709492420752099 -281.83821554487434469 -268.55850072510673954 -251.48969439060527975 -262.73259952643365978 -259.95042547984985504 -266.33973161163817167 -263.43036033833891452 -265.73295538113939074 -270.14528441792157309 -265.34120475329956435 -263.44113009547737647 -276.38799028606200636 -265.27197440049087618 -266.56505059212116748 -260.89281541576440304 -274.0770910237328053 -273.28788813322756823 -262.40394378854654178 -267.45604574029420064 -268.10361824710128076 -265.86632785452093231 -257.09366609620178679 -265.51654335204943891 -256.25862112605022958 -271.04444459711504578 -252.73915281457567517 -253.48475851788072077 -267.23742292695641254 -258.92020807965997165 -268.30552021295005716 -257.77309600350230312 -260.27134609464854975 -262.90870234023236662 -256.00725101521391025 -262.22330863651785648 -277.32650525603219194 -267.64759112768649629 -269.50213303400607856 -255.14320599650326926 -269.3416882625974722 -263.01153983094843625 -261.46007762630841853 -261.54257282653560424 -270.73840230327778045 -265.81138858901266531 -259.14612247603258766 -259.78248888792381877 -262.9095657892842155 -263.23180493721577022 -279.86303472569204587 -253.21585252651951237 -264.2272075883256548 -262.57686096694538946 -261.97732808008919392 -259.92848372218105624 -257.79332193788752647 -258.16805101286092849 -264.37561029013653524 -249.15202106435353357 -282.580798862534607 -282.83464867198642878 -262.0840091134655836 -255.4549104673800457 -270.94030452715179536 -260.89840527739568188 -266.29864105515309802 -253.61170116954846776 -265.09128925381139652 -257.79929862361916548 -263.18435114468451275 -255.01574578953545824 -264.573690385889563 -257.75540189994023876 -268.28952195973306516 -266.70716263986923877 -260.62989214077759925 -256.87557763593207483 -259.15743465799613432 -259.22284497905775424 -267.00894525860877593 -264.50643724343638041 -262.88666717134913142 -263.00707544937210969 -258.18025916278384102 -275.16153941612782319 -265.27458738223401724 -270.41163432249391008 -256.32171205925618551 -264.269017469535072 -264.05403842925034041 -260.66995891395532681 -268.20044922056820269 -263.86529537967248871 -270.47318999677139573 -250.55266167969679714 -270.13953020581260489 -258.47989077284876203 -267.07261177929450469 -256.04668477515667746 -264.7192252246001658 -260.65556323382912751 -273.03021652972279298 -258.20073350568833348 -268.41651616167359862 -265.6899158882851566 -251.26085474499726047 -264.84990102275367008 -248.41494641936742482 -263.56383709896812206 -256.05740043074854384 -253.531949203598856 -269.23914339271436802 -247.34483381105286526 -261.30920947334868742 -262.29246903426729887 -264.79332727943244663 -266.53136923039107842 -260.69923818629558809 -253.82044205229351519 -264.627813230717436
-75.73762419510129007 -81.062763889608021373 -80.864506467041024962 -69.135045591060134029 -76.237190870992492364 -80.67917989528136502 -77.812234764273185306 -80.357431745862967887 -83.239071424872193461 -72.621565444250265386 -75.650507947332030767 -80.332908462316240161 -77.855089566322561723 -74.369235280725405346 -80.658427898892639973 -73.509340587116071219 -79.11859724305901409 -81.942979460783618606 -75.206328343722788077 -79.870541008307995412 -80.523204742388813315 -75.951671097544533495 -92.190011749724206425 -83.740894821578976348 -73.942315375542975175 -75.812482339656767749 -75.728897582063652294 -81.86202553755752831 -78.052363563379799416 -77.54308783885339551 -72.405623163256620956 -81.870044741411248879 -75.318741448805297978 -80.396375169058757137 -75.876705779997436707 -77.134203972532120019 -79.958186322811229729 -79.551507697655253537 -79.937791594285513952 -85.388730883189083443 -72.099610794963709282 -76.823981764799086136 -77.041374866953532319 -80.680500776896451498 -78.182911323032129758 -68.73856155739325402 -76.543048739759996124 -70.758207603438691535 -74.140051319113794648 -72.808448251126549167 -79.626227261572466887 -73.124089392280453126 -80.755864642632673167 -79.762956181136942746 -75.374755603042729035 -77.217433905344833533 -79.933071596474846388 -75.063041477036136939 -79.560361046259870932 -74.06449965962492854 -76.457836894755573098 -78.829962056880020782 -82.092575589977030859 -77.261296079311804874 -78.760112986005395896 -76.580411489657180368 -80.19079814619227875 -73.622674388862051842 -77.063636732838418197 -74.43241151103372033 -78.252521455247446625 -80.267417095623983414 -77.513806459438441721 -79.084188483092873412 -78.706862557500514299 -86.068393050901349284 -75.850001992236968817 -76.334116771344469043 -77.836246936718126221 -80.956257514686257082 -79.316440632641459274 -74.635983480447748661 -85.713117125919268346 -68.708751913064773476 -82.782164357964987289 -80.917979194241340224 -78.393776008823849111 -82.673425603859698185 -82.986548251013445565 -78.271004504676966462 -76.046692658338315596 -79.408432788238727085 -83.928340001079135391 -74.656440446991339854 -77.606498810335907024 -80.476642714980371807 -85.49429482295032301 -79.654380646456047543 -72.15470395181978347 -74.800076482731554961 -80.930217269264232982 -80.978049081430796718 -79.35858309228964913 -79.174788003259948255 -74.504514195813356991 -79.25822866554088364 -78.55946120887712425 -81.243039565527880086 -78.531736644737833331 -79.678851779459620275 -80.370793211525040078 -79.899705906790998711 -66.095290414954632752 -79.634664962034833025 -84.095342079138703184 -83.900842299976901018 -74.180493801285365407 -85.703427858912405668 -73.876733115266389973 -82.011771299274201397 -80.841358149000640765 -78.424320558441294793 -77.265449115458451956 -76.142334059222775977 -79.745830753781476119 -73.485496590229232083 -75.867939064457061704 -77.112744506754040685 -76.827161878643124737 -77.725319935875305077 -78.024248761291687515 -78.840617048038524217 -82.249573870803430964 -78.108852345298871001 -78.531614637098357434 -79.701218335378570146 -74.031252782096530041 -79.284390629576662946 -76.391371943151426649 -80.354001058366293364 -80.413081141539564101 -76.798585813847964232 -81.923510950810566555 -78.168796752998161992 -77.41629812880015038 -81.489014525449832149 -71.762766112086168846 -83.913496085317760276 -78.524151597416022241 -81.684990387162798697 -75.560471807118048559 -75.541894185793623251 -79.819290490867786048 -84.581433058959547111 -70.724169618807508186 -74.64095991687042897 -84.098790147051147414 -77.370999423253067562 -76.785108216633616962 -74.001592836641307827 -82.928983769562222506 -77.957745086983535998 -76.631354327982421637 -83.845140760427867122 -81.758354083011070657 -72.917079981544588918 -68.812199191343708549 -73.366475632815422614 -81.918184375229174066 -74.901242220634557611 -82.764860663601155011 -82.411985030362643556 -76.368414610100302298 -72.133240079775774234 -81.225696698245371863 -83.725032725319678661 -69.847450290532677286 -80.008850902299172958 -68.679255340092382198 -76.073562569821376655 -79.657986806413020986 -74.674947817470780365 -78.95258197654226251 -78.274786902815890244 -79.851859972394223064 -80.039600253227987992 -77.569565670626346332 -81.193084431894902764 -70.015826460005357035 -69.809587793371420616 -76.64072331941468974 -73.254962511215722998 -68.730211570782799413 -83.928603758086850917 -76.249806772966280732 -71.386888691468939783 -78.819221081263762585 -83.562916657338178084 -77.240181481016009002 -74.849994932171853179 -85.129425905641042505 -83.075104640580420323 -74.142021960410446013 -71.061532833021701094 -78.802756625612175867 -74.108765637950341443 -70.640347735653918448 -78.546271596522728942 -81.471920378494601778 -80.185929300348476545 -74.412418197436323908 -73.485315111258543652 -84.576704944588911417 -75.845407392806279745 -69.61605836606736375 -76.496102205389419737 -78.363028047035470536 -72.654161344881870832 -80.776594161813520145 -77.475339557700863224 -74.920772997354603717 -75.007270102615350993 -79.035169085203776262 -76.051776176156607789 -79.389079164897694341 -82.926251539359867593 -74.851133050658674506 -71.955469391617029373 -76.603982219071298232 -79.335418126913310743 -81.22521615342543555 -78.088593230380325849 -80.262738655235949636 -74.156660086425233658 -80.895431391303233681 -74.910413269597484032 -76.947385720164902523 -78.254834680719582707 -80.146416277512003035 -76.049486044086918923 -80.943650242105064763 -78.207492094999565779 -79.126445078815038414 -77.632912723272269773 -75.456282022499010509 -71.978048457700012364 -85.060173588763788644 -77.659228790266070064 -76.438981510132649078 -74.143107232235806237 -78.985731718896985853 -77.243875977756175644 -81.470910323316772406 -83.638357756512775154 -75.06241629581700181 -82.864733734948231358 -85.351286567431031926 -76.294198266209264148 -75.259930611294251435 -80.79164233481071733 -76.725598278292963528 -71.564073492156566658 -84.562582050763111852 -73.734134957502107 -70.810654048673569605 -76.415808518263077076 -83.929905042581779639 -77.439528470349785039 -78.722395786724121081 -77.200873962596318734 -77.961247196353909317 -81.951834967762451356 -75.90528674304938761 -70.800517465718911581 -78.255188510710780747 -79.858626995696454287 -74.104382866201717661 -80.243359787451026932 -76.723066398849468328 -74.431348366125249072 -76.256418741316082333 -74.722994501655861654 -81.65382989066888797 -86.069456911009339706 -77.795273616074211986 -77.743564837976663284 -78.918057621161580073 -75.132353283348436435 -70.786365330196659329 -80.063658341732804047 -75.407367482752292176 -79.058961087304226112 -71.52221329649664483 -80.369641030547271043 -78.755880537802795516 -77.752673757793914433 -79.59882363908060654 -71.40519156876813156 -80.581981426403473279 -76.304161936116003062
369.09618650147143626 365.00613570799248464 354.18187827061677808 362.42471012706630518 366.90870328619865859 370.33884994444656513 357.93817405161468059 356.09522643479476756 377.05157273668305606 376.22698644474894536 366.63388941310319069 362.46176007949685527 371.29516201313327883 367.27264088333600967 364.52366155711496276 377.55006085989185749 373.06367379207659951 373.57117840963621802 376.96850065464730051 363.58836215868961972 386.25876645162088607 368.11197792508670545 371.26891629856828558 365.89696599235134045 364.85135131393138863 367.68940166384663826 357.13118528412843489 385.15772957129661336 373.13202464960130555 375.20582441580603472 369.94652965633207486 376.37881748118866199 381.01016110824076577 368.67005832741250515 368.76657294209792326 366.9984420352504344 362.85515478593754324 354.43060181092505445 372.09942914530802227 366.00826287489940114 364.84877901932009081 356.60405926385209341 364.46115629789989043 365.17870679735113981 368.21079312937399663 360.47421161226208142 368.79409895289489896 354.67821213057061414 362.61868161258445298 369.28789090558569796 364.56456813234814263 356.55512041115201782 374.12778650445585527 358.81581504051672482 376.3991055720328518 377.41514336071435309 370.39623397327545717 366.11419237050682796 360.84227199384588403 371.81921876690239515 377.65982485317857709 357.38149952905666851 366.2730803985986654 355.05029590015635677 377.12880794285905495 382.05597099651413373 358.57036391552327359 371.92299715350100087 367.7216342663517139 373.53215490709573032 378.44442115948606897 367.64748632040823395 367.23207459479402814 367.81710996928097757 367.02250638385544335 365.58868659592781114 374.69411966337776221 363.91691243113780274 354.60749884853566982 353.29391163015588972 356.29050842728213411 375.21605113738411319 379.28395541439931549 363.70317564389756626 363.92329690713506807 355.6384895770236767 360.48464948721334622 372.98770631997018654 347.6652058205721687 361.12347226599229089 362.39102751741819475 358.28063888734698139 369.4974637364090313 368.65598236766635409 365.83338364606800042 356.62173249132109731 377.3054396170134055 365.95800906078113712 388.39140892216005341 368.37096554272307003 360.74438044633654954 371.11016465194336433 363.28333580037349293 373.3041551118454322 371.94403077617823783 363.65038342131231275 360.17615417688966772 378.96060758878462593 376.14363538716730773 363.11239755086143077 365.29456784510671241 374.42014979450715373 365.30144349471140686 379.64278554570114466 358.1408574908705873 373.15663699907014461 372.15882395447965791 363.53054923328045334 374.8994690187474248 369.72506485806422916 363.95690209117003633 357.34772728156758603 358.44382361930007619 373.62633634030134999 356.56057728696021059 376.05124163271386806 355.49012539085879325 383.46639900642458088 356.31711905301239085 376.76365373093187827 351.08095878331113227 365.69291806453912841 360.89174965965753472 354.60738571510523798 373.82528539373896592 372.65438919555396069 379.96156202976681016 365.09720786630725797 363.35458971023524555 373.36840699124491039 384.67901339241257119 370.37832307718093716 374.31206929216034496 353.85013231348767704 363.82399280770363248 363.78254734398240089 357.64359904309992544 367.46157870175159132 372.94676828040206829 366.03695943276466096 365.38987783400278886 369.55736402018845865 357.10716015080436136 348.85266940251244705 365.91734048770774734 373.63288633812152284 351.80121113435018287 368.38884028090677702 356.53280058767512628 360.83345302669636112 380.34458331777119611 375.63960009602033097 357.12314684574687362 363.68075192480512214 366.11093690582805493 369.57319124706731372 366.84980238911543893 357.00574203797276596 368.77193847222480372 342.17326161303299159 372.57148654601712678 364.27129908474529429 367.03550087059716134 372.2878601215770118 373.37114454804958541 358.31805238551771708 367.76766068738862714 355.71761736387372821 357.70182496881625411 386.8555202687413157 347.51062911668668676 355.42114721972797042 371.89971649677255527 362.52952081653234018 369.03025698505354057 365.50192959945394477 364.41661472411630029 373.40701044742223758 368.65878522603236433 344.1653382351489654 365.97892180944216989 370.26998008926466355 370.91486185603753256 353.75378101503855532 372.40272855623453552 368.92160056659423617 376.38366098245597868 351.35993674454982738 354.50138408613241836 352.89498529630174062 362.23650617222511983 366.43521952767883931 371.18031280461946153 362.77896310431430038 361.7232527857249238 390.81694999790471456 358.22747639347556969 366.98235774012943011 349.04475612995395295 362.69531239542158119 374.32650983208128537 372.11584407861334967 369.39965487311974357 354.47640513867543177 372.62550089287418587 363.00525701809795009 373.43901701200235266 373.47485595519395929 374.67030515395680368 382.57562967552712507 366.03524252841685893 365.19376757785209975 367.96134258538791073 352.19349131073300896 368.56253123050663589 382.69398485909113106 365.65976177208665376 357.89911613993768924 355.95166956689780591 359.18786575254904392 385.01145593637590991 366.61796861754862675 365.57332459251932733 362.0756437003552719 375.76615172651747798 360.70570142075462172 369.75158294630790579 369.54634198384508181 365.97484188968348917 380.22306038929121996 355.25892432778022112 367.0481117195099614 376.53055171548976432 364.39094790010938141 368.34369914330233087 352.48097675741769308 365.07187843074990496 377.72487435700304559 370.36003537683728837 360.39177629399313219 367.55880793106251758 379.4861528815172278 361.75818173245130538 372.72658145607573488 378.58176325310421362 378.90955697608870878 366.12374341737057648 374.98478342821965725 381.53651054426029532 372.75165522694516085 371.43104940575375394 356.86770790430949774 362.38687927389946708 351.76902847330580926 371.8009471144811755 366.72911121566278325 364.46378362602519019 382.57190980992362483 379.27500792080365954 366.00903690269205981 364.79965176611585775 372.32018725511397861 360.99974576250451719 366.12013142576324753 352.60563521642154683 369.11899099678555558 354.45513178720864289 358.57971700750852051 366.3306291062297646 371.4985981665951158 357.36213262685197378 352.83045750929943551 368.62021587083995655 389.59586168321482091 371.67038774097142095 380.22560407954665607 381.96301168080202615 376.39452427810556401 359.61920083739317988 374.86607024355095064 363.85450476657177887 378.22366932350735169 375.00167507381075893 367.93122746560260339 378.78298951427854036 378.31068137418424158 351.66572241262167609 355.16276927666120855 370.93952516880096937 357.26452448735687994
-285.64255904369440486 -296.39831329532773907 -288.72036225305072321 -302.00499142167274158 -289.43083751692057604 -290.56117686585855608 -285.68641099867852517 -296.43887562622359155 -298.15694822404782371 -288.89552214392602991 -285.6997842916935042 -287.95905649292939188 -296.68126628654516708 -290.68134574440284723 -288.45756422058673252 -283.57817188513394058 -288.75368843180405065 -289.3791230321469925 -286.51064961458826019 -290.89463664168073365 -281.86617153153207482 -282.7051818068813418 -286.72782747123051195 -279.13950550476391754 -299.42740948625362307 -284.16408942972191198 -283.56750197380097234 -293.62968625649665455 -298.86086283741030911 -275.65168269057170392 -282.51492502165552878 -292.56792581317392887 -296.47481561130996397 -304.48312694108739151 -305.47264536514342126 -294.10518558168143954 -284.45095751722334398 -304.78148377309634043 -281.55447240169399947 -289.94774124286340111 -287.9406039823439869 -308.74136654707393745 -298.06012783095758323 -293.36166538615987065 -294.5640896638092272 -296.10152961906823066 -290.67597021741511298 -290.10936664822037301 -295.49137328859654872 -286.11659833372948469 -284.58485444853573654 -270.60660962051554179 -293.85118920503225581 -281.09071931676078293 -293.40014467690315314 -279.11828514383216771 -293.63811375151556149 -296.2097763801233441 -291.9022872923079035 -288.90283515519115554 -292.33233137492561582 -299.12187876325725711 -295.83861022840000032 -277.78929826889702781 -283.63001427325042414 -290.80452789375857492 -287.01905228955274652 -289.19491414433804266 -294.80133677340649001 -289.82611003352280932 -282.79188586514027293 -282.34223330508058325 -296.79878485816482225 -281.14897609564889081 -279.60580525980986977 -278.70895452826601968 -291.26024363282874674 -287.97536830828187249 -292.49911011890242207 -297.09899799405468457 -287.66483097546353065 -292.75320598884900392 -288.06054478074236158 -293.59673894619595558 -287.3840303985886635 -297.61185511483557775 -293.03203956447708833 -294.84502600141820494 -279.41565604869828121 -288.08312032974362182 -300.99349578187946008 -273.68665194703629595 -283.86529419792708495 -302.04663633483664853 -298.42213529109562842 -287.94785600085856458 -290.37968202416078611 -291.89606031917679729 -294.59125118898651863 -286.6509066807869317 -302.03352195219332543 -280.30621417967921616 -299.72016697776319916 -294.10647276382161408 -288.38595290123441828 -292.42056582837540191 -287.97858997733101205 -283.7983940824013871 -299.41817579490049184 -280.37123977187235369 -277.26343959235509828 -292.18767820872329821 -293.59420939154097141 -286.86293263774666684 -288.36931534511091968 -283.18010001254276631 -290.08189209819295229 -295.20600451391050001 -297.29967304832234731 -287.92436328528492595 -273.41166191661909579 -299.35651273227301772 -286.29764829901648682 -289.99613072475119679 -280.87355188071796874 -275.60639068534050011 -290.56692478672778179 -287.50182763282248288 -288.51084223571029952 -291.03580738121229388 -288.70880850852125832 -285.64107831278812455 -283.26201761681511471 -291.71066396212358995 -294.11493968984217418 -280.78357378671375955 -297.31068748530123003 -285.52846559066563259 -297.38297427775415827 -294.51775708579958746 -286.74489974057320296 -291.8886895093864382 -286.37046059396925557 -287.46861179271490983 -296.0844857933192884 -300.61781211138583103 -292.40971045433070685 -297.67372823443679408 -289.42796153803266179 -287.26921418647452811 -311.09034269022322405 -297.89128062296646249 -295.64935570376360374 -286.41180886001268391 -288.2182803275567835 -281.13976030403722461 -288.81034881282346305 -290.96011641083964605 -298.07730128262443259 -299.34299583158775704 -290.54233626560227322 -292.78353713122436375 -289.90983836800728568 -284.05040275107438674 -291.1096681419851393 -282.5216328094313667 -283.28273578568087032 -291.54343634293292098 -293.78757721499573563 -293.40954820173192275 -285.17858156792749469 -280.1987257713172994 -290.21395758512289831 -298.36229055277817679 -303.23122230609669714 -283.98207503783055472 -303.16392776652838847 -300.88937505167092468 -281.40782693994532337 -296.00893501469090552 -296.14853695185792049 -302.04265409763314665 -290.50505387318418116 -289.09263227330666268 -290.1111320769934423 -287.24181929525514079 -291.39660765593765746 -299.86522073390403875 -281.78696035422223076 -296.72781135307894829 -291.6758844773146393 -287.3764747017394825 -303.53522792665154384 -290.42864327319585982 -286.94177614179784541 -293.82474602213017079 -295.45663536568213203 -285.73786797839784413 -296.74702240643540563 -291.55916920404354187 -295.88255252305430076 -284.26739225256648069 -289.60871166361329188 -290.1085546824440371 -297.77874164405085367 -286.24768952936119604 -296.30759482716092634 -298.26331634179865659 -274.35087854168438071 -289.46419603282669186 -279.78346721789313278 -290.92169899157767077 -276.52996028530134254 -296.1476570788798881 -301.8908710656323251 -294.80263570852935118 -279.79613460020834736 -278.49323901250568269 -280.95045852349994675 -302.16462397547223873 -292.85485179246086318 -280.853222126977073 -298.93744773998525943 -285.45115975247017559 -291.61007474147294261 -284.01866686472084211 -279.4891279675995861 -286.86302221733296847 -285.49383492946395791 -293.15056550421201109 -287.34577201161056337 -292.23223746086966912 -288.40441940047890057 -285.86551872233684435 -288.73113484578584576 -295.32227772013857248 -288.67957192164146818 -282.24193542952940561 -294.30483899982857565 -304.94320160621936111 -294.13134434776776516 -283.45849323392479846 -304.81130132473884942 -293.15311748000328862 -303.09408346773722087 -292.31190759242724653 -297.08434974942093731 -293.6434937679884456 -305.02757966858797545 -294.11779881838782558 -284.91535025846030749 -280.48825760889741332 -293.1739723952103418 -305.55220817429238878 -295.06148883617368028 -291.89997264518467546 -290.06712174649936742 -278.44522222988655358 -289.63745411927141049 -296.84956721875147423 -284.51238827108420537 -289.84433262469201509 -295.82864886750570577 -281.5368940420799504 -297.23169147700485837 -307.11003720856319887 -285.42422803441269252 -286.50681994865794877 -288.81239745044860001 -290.49952444122186535 -296.25096301294945533 -290.2220635386274239 -292.62723281657173402 -299.51654164353641363 -298.34498980903828169 -290.2572301106151258 -291.87965340004569725 -289.81386509029618992 -295.41337116167642307 -286.22866346064790832 -292.64307565250857124 -291.0342898626976762 -296.16682029696619338 -286.30689691545853748 -280.90183687634061016 -293.91216377755978328 -302.31481328814862763 -292.03630430263308426 -297.42232497427056614 -284.16360691858358223 -295.46997450295094723 -287.83845968231071311 -294.34075422894619578 -295.57953398797366162 -292.27020449218503018 -287.58513899238590739 -296.06618970544423064 -284.83291737972780311 -289.54725033938154866 -300.01898981270915101
-106.30944477664424141 -93.775335667298648445 -97.638057118584740124 -95.788967156895679977 -103.82986563918935019 -102.86262689639283963 -105.63551677054225308 -95.171446204142938541 -101.72243045471009282 -97.754265978735148224 -98.575284654286463137 -89.481174263685844039 -96.585235912985893947 -105.38327885852010013 -106.18930372581446875 -100.28064107635248092 -102.71765010271312235 -94.229236839214237875 -95.990808194944293064 -99.714705670319105479 -103.99228363071152614 -101.4829242951502124 -104.76119887058867164 -103.77274712429226611 -106.88322152212317917 -110.58444535984484958 -102.8347427836888528 -96.35659201698992149 -103.23137720647704896 -102.33143249006232622 -103.39060424566700647 -101.09273585019165864 -102.37630251948309024 -100.41540449596189433 -101.43868435594012567 -92.958338764711001545 -107.7395444817620529 -96.128777452124026581 -104.77554065261779215 -108.72319755606483227 -110.48916324512167364 -104.97413905181001326 -98.299950614737724663 -91.591019819498342258 -98.507259341960391907 -101.4712774313409227 -95.124685704072646786 -101.05415042098819356 -95.110852709744776234 -95.093320163015349067 -96.795197447571410976 -98.044832530799354231 -97.545736456489819943 -105.65883973897517478 -103.91427366662910003 -97.546244721383317255 -98.167753812413891978 -107.45665388252427874 -105.63634936914617413 -108.98270274917433653 -98.451544153057554354 -102.67782732162838499 -98.564314337197558302 -96.464597222028658052 -99.47592544379564572 -102.69460916362504577 -103.89647194524174267 -106.46806969969912871 -102.76728033169396781 -92.883084430852193236 -107.2892478483957035 -100.63204047349525183 -102.03667559849623103 -104.9255788786210104 -102.44111189003655227 -108.55972864532911615 -97.22741712739173181 -94.399675144210817734 -101.50897827525429307 -103.34643459371704921 -96.415317580626691552 -105.97688707880247705 -94.829480076364262686 -101.91460490611656553 -96.123087488624349817 -100.40355646962716207 -96.642678847479785986 -95.263596047409450307 -108.51906354028338342 -102.56010639723022848 -112.06421879429814226 -104.88309019721455684 -107.43119650735536652 -91.494689330437182662 -95.276255876630003172 -101.67468810886830966 -101.19502467010765656 -101.23228168702505059 -104.43563804690541019 -96.173632589412662242 -100.15987044372708681 -104.97856617530131018 -106.1155287557865563 -102.58278004100755254 -104.69537614469297182 -107.09749868706509801 -98.559620865239310206 -100.496595315842697 -103.96346861793279004 -99.633319417070509871 -106.97454294203059533 -93.88415781854899933 -97.634656531533011048 -97.07370113819125379 -100.05783245179070207 -100.29222638289110137 -103.29608051856142481 -92.414792507910505037 -101.97917172045583811 -102.66136649595814845 -104.64295101693677736 -103.11444548516396935 -103.03170667738376665 -94.078139665890176957 -101.17086216854886516 -106.30388223925268676 -103.72679954579359674 -109.86353657095045833 -104.67021352610179008 -102.53728142069262219 -109.59959739738729922 -105.63278165320021174 -100.70174723879442524 -103.1941713905617064 -105.56478466705428332 -103.56560384295137567 -101.38668974974804371 -103.25777970145526297 -102.50687840229551284 -101.9718480125864204 -108.54034749732258547 -104.31424931031533276 -107.18710896227192109 -95.132779407781171699 -102.24771757139956208 -104.41880560528881006 -107.15265608829736266 -99.44281471488727675 -99.109607051837230074 -103.40116415792560645 -101.44716336383407906 -103.92253620588444107 -89.629973121338622377 -101.84735283861343191 -107.26696518428619243 -103.20364509681579079 -106.05665205735735412 -100.07446429812105748 -102.86311644887977934 -96.423534405840115369 -101.56715757536389333 -100.54271594223706643 -104.88168008459230407 -104.49782429940778172 -113.92153543992857578 -104.20567264054341194 -105.09273868561086829 -106.65215389286466063 -101.07902072962605189 -103.37819864848530926 -90.702685707216403443 -105.19943183647161788 -101.39200849294785201 -110.28796834481580902 -108.0015355027901478 -99.093388694314413101 -100.69529198754261756 -100.36483108771335537 -104.80279655077116274 -104.23188327164997702 -103.53147598293438136 -104.95958185300403898 -103.58664724342223451 -101.9854272058280884 -105.73590704942648699 -110.63575875730896314 -110.38209344729285988 -108.60138853550452609 -107.52799548687963238 -104.9746876606137107 -104.29237903919538155 -96.291858782285032703 -106.97489124474240896 -106.06254432419881084 -102.91710408469542415 -99.369898915278511708 -106.84188075528965101 -98.886419323466668629 -111.66794184164417914 -107.55196819077723092 -101.43799143366774729 -95.075039992567340619 -98.995864818637400617 -99.591636380347665636 -105.39132267477219784 -100.52724137695750528 -100.25528589707050742 -99.144890924603345184 -100.69098484443932762 -106.21088290589440817 -101.97031198606629232 -102.09681279565634782 -102.31605927228039832 -104.47117549258470603 -104.65666650411101557 -101.65662850566756958 -96.807157214603108741 -97.390655346909639434 -105.73452200418134339 -95.407508450794935584 -107.45317055895100111 -96.798940132316360518 -107.79829684373255816 -102.24185946718341711 -102.88686467748317455 -106.23540848174999951 -107.81594581861942572 -106.28593846853814853 -106.99956861568225008 -102.02882881078645028 -97.675508520160519765 -106.79988427736773815 -97.1843638271787853 -97.393788083688235702 -99.961804804063930874 -102.50660029085207725 -102.69072931714470087 -106.34024837420622589 -100.6641535994497616 -104.42240226094313016 -98.028045524935990329 -99.748156260320214983 -101.15540193346168962 -101.47690020619086226 -99.112875848661019518 -98.897986143337448084 -101.07545654197021179 -106.43535949301983123 -106.30891631836523459 -107.01634136163849575 -96.543319678742633982 -99.404273133472884183 -99.70988028281824711 -100.26396227721448895 -96.757651925206658916 -95.367301516816510798 -94.547508111707500689 -103.30183298821728499 -107.06771772730846237 -106.04920414600081813 -92.323162225661533853 -97.651835628982354365 -100.05570293854330544 -97.132954761410815081 -108.37866389727994942 -96.530588304104796293 -103.73126787463105813 -102.40709659547468391 -94.491201825671623737 -91.849457841440369066 -104.87200677041703045 -96.813020728052137542 -103.19439186174132317 -100.95472933648098035 -93.83389963480908591 -110.7161957214124044 -109.51175286606851955 -96.73150550990676777 -97.196563807733923568 -101.03765344352967759 -99.974097045992152744 -99.292127270939516848 -99.012546201143962321 -104.72978738773325347 -103.11160282917259678 -109.27593206564100115 -106.39167776431857249 -102.12407261782774981 -109.35778782569863665 -99.779515435122860367 -100.04658766625928479 -106.86351378216119201 -100.08822139851125144 -105.03281781242586135 -99.387824948860739482 -98.260479149836044144 -99.116011672554918732 -99.187594904365255388 -99.766290533071043001 -95.430916989657774252