-163.13620887525831904 -160.69650371303720249 -173.43179751293226332 -176.98311003851662804 -177.69722777839473338 -163.65633513697918033 -169.4214693042097224 -167.02868100148577923 -156.01074749383238327 -174.03623685343248439 -168.15811302514993031 -174.84220277792644538 -177.58623881920993881 -157.19586021665946873 -177.55546601055394262 -159.47223539807680481 -162.49999635259166553 -168.3441697513943609 -164.41711962745415576 -160.73370672188727326 -168.24664711283426755 -164.03119339800696252 -175.38617205935469201 -152.39327887956960694 -172.26663698311003259 -170.56412488564836849 -172.27656264729063196 -162.12004030896642348 -155.27581743524339686 -167.80861067658887009 -176.3115148780269692 -159.44328124198250407 -170.98979542943274623 -167.79315756253558334 -166.79163142889987625 -170.68919131295879765 -163.03362742772222305 -169.64663704351843876 -162.80411031926260534 -173.93911665780146336 -170.77042578881349755 -162.36060983976287275 -167.74908189173666528 -179.91891717553016861 -162.55882754083046393 -156.11438056670303354 -177.13872017378562873 -171.02825897032420244 -169.79825264691092457 -179.19751471149598387 -178.711067462398006 -165.17075242325208251 -168.38207698695259751 -171.5039648244945738 -164.51897329280981808 -172.83518082368135538 -171.54464238052966607 -163.14368133820605067 -172.55292821967796613 -167.41316834389209589 -172.68657328779329418 -172.5209682018681292 -159.67896547198381541 -169.92985835663176886 -183.93716533793269718 -171.24851296419390678 -163.71214438615538711 -168.39513629546081575 -164.67950367223858166 -159.23399846362983112 -165.56483977689515541 -170.23556171134075043 -170.82007021137960123 -171.16676019736652847 -168.94216334987146411 -161.2606191166780718 -179.36447075108276294 -167.87769380763558047 -162.99102559172351334 -164.55350792388082937 -170.61640336741280066 -172.58385732934235079 -170.81618589847386147 -164.24994969637683084 -158.56511755298694766 -172.16760182622419961 -179.30790211070811324 -167.82434130839482123 -168.40639297166296728 -161.08331089149123727 -164.00701609471008169 -157.15172896282950887 -170.8557390781740537 -172.08885140279048187 -170.62256840623660992 -162.49308975819417356 -161.54481061298579903 -170.53338881552741668 -175.44641667864237888 -166.37211381099101004 -171.1686222859455313 -165.50122230887100727 -167.64019428911501564 -174.70256852051571173 -154.69024559428765997 -172.54199262860717567 -169.65669047216351828 -179.11124013871841498 -174.0096316058776722 -166.88996371184651935 -161.20465824506447916 -157.8361528207235267 -174.26284170483805269 -174.57617726498583011 -167.18999376805467705 -170.88559657895388 -176.62842456639802435 -161.93864953517552863 -175.97081148887298241 -176.13612509240911663 -167.0588715644993556 -164.29051024833282213 -170.57633852579979816 -169.13698288004079018 -174.48128770600743565 -165.12992501884625085 -164.90332622381191641 -169.05672888858197211 -181.99804259889680225 -177.85445433793250913 -159.21038884960935889 -169.95878379456937068 -164.98511563994449602 -164.16457844953143308 -173.62071423827433136 -164.68605449101664817 -170.32021892162561016 -170.42654335445070046 -164.39850722477248723 -157.8061828301834737 -156.91527086603096564 -170.60146258745047021 -157.01362297349047026 -163.67396323149480963 -168.31555536549944918 -173.26402747365116852 -157.02702551453481306 -165.43410647109894285 -164.90928023963863325 -153.74119090922496866 -163.18700479414923166 -165.09298499799120918 -177.94996907227260863 -161.47418449444273847 -167.33013461870265814 -166.7567337150432536 -164.35605475052867064 -163.53949610791497093 -162.81245290586045371 -172.39506579256357099 -163.10449025604484063 -166.77582380554602537 -167.28236349636796376 -146.85735408170265259 -165.86410392038024497 -167.35305857285206343 -171.0996002486724592 -178.40716606386266108 -172.04912567115121647 -159.09248250102456268 -151.9119390244711667 -153.42651923357959731 -155.84840551887893412 -170.72742653456012363 -173.07670898925371716 -167.3924173275197802 -170.3541142942302713 -168.09309865198039802 -172.96715577493500859 -158.46840581428577366 -166.16123477688978483 -172.90994476612337394 -158.57146787650691522 -169.00849940091481471 -175.48234413504309259 -166.54079754801784929 -178.99475827024062369 -156.16485011980336139 -169.3946489143275187 -170.0667362297427303 -164.21923307440172835 -162.19333012483599532 -168.28938891659478827 -166.72059325407502683 -166.09339196854139686 -161.52163850800033629 -166.94029097645750426 -176.6591522807743786 -163.44017286460041305 -158.24182030864275816 -167.80671454491846362 -165.49154708275699477 -165.38205576306881994 -171.30845182273247929 -173.66761631097048735 -167.39134504122094427 -175.55461297279654787 -164.56026838576619298 -170.17684742405302245 -155.95121950465144778 -179.11466168121521036 -169.1287977908158382 -185.03986522848512664 -166.92032745505608204 -166.11539956247159466 -172.61176554878485945 -163.89227162879350885 -166.08284901774945297 -180.7976977227370412 -164.39144709441239911 -174.87593771622206873 -155.26865404255522662 -162.25027212665921184 -167.50166601356417573 -165.94153788003322347 -169.33400446284991858 -168.09609432931401329 -161.66040920617763277 -162.63852090525318772 -177.41338077986677035 -165.58240232927406055 -171.34697275198081456 -167.61802081059812508 -169.1911398623815046 -161.31122812560630564 -168.94847682115599241 -176.40422120226548941 -169.2553379512544609 -169.16847400317632832 -164.85199724995976567 -177.85449153944267664 -168.56370444150996946 -166.37848819559624758 -174.8180619997095846 -158.25737508076798576 -172.98785240154438725 -187.62542531174295846 -174.00048228600297762 -172.99402628556595118 -171.40543390318245542 -172.00428936648134481 -152.17571832473996096 -161.80179943091550854 -165.87234802094027941 -172.66725644069552459 -158.69593798088271797 -171.78317405699866072 -175.40721447580477843 -171.62089523700876725 -162.59349010765930643 -162.42608858205372258 -169.44201702835388801 -168.94023585281112787 -176.87148492242661746 -178.06429547160769289 -164.8784497927643713 -164.76735483988750275 -176.54685875809576601 -171.42715870093550734 -161.51095215941421657 -171.37064278188302069 -166.22552824272116823 -164.90398796510231705 -159.7125796348306892 -174.53746048887973075 -164.69591540943130781 -168.00279318527319106 -174.44402782671821228 -174.45646507075605314 -166.86210278001397 -167.16515071200765874 -161.52687067526881037 -173.70876438279140075 -166.63289665027673436 -165.9636274869476722 -173.4389313222440876 -179.01158224235010152 -177.17950212130614318 -167.65167437108047466 -156.91678085402017473 -160.25740367634355721 -176.71651772767557986 -169.92434239154934517 -170.01590072345786098 -168.34312637388845246 -166.29111394260698376 -162.73956572888482697 -177.06072984986323604 -172.91797827329554593 -165.17293401031105304
-4.4132929604586959016 -11.006575941505802874 -5.6913160691969739702 -5.7312620155007243383 -8.923278546124912225 -10.146712086804386743 -7.8567014455899233383 -2.7366021162137963429 -12.246519071967853165 -6.2376950765780838637 -5.2411059560731896312 -5.6764011806702932006 -16.230333201784418407 -10.06043947186889298 -15.776149661120683731 -14.289938754581799074 -15.322226194465780935 -20.118991262441099366 -7.5010159878463600336 -14.339045205542383599 -11.638618433340369052 -10.60292849672035409 -15.825177793200381871 -7.2643497366119920144 -8.8429760412774705003 -12.144885354217736406 -5.6106312645921780913 -15.096463847944352921 -13.042508775610826888 -8.3991369534374982209 -5.0461343546945505167 -16.373880010730253787 -11.393580577880637605 -7.2760756792789322844 -12.513640587452185216 -11.386187292986413411 -14.847247331087606526 -10.430213954697762802 -7.4813860380107310988 -12.523581069478762373 -9.7999768751109002096 -9.7375932862060885498 -10.468771955947334007 -11.521418426248988709 -11.556330362129621392 -8.2253946852796104849 -5.7689373299494590697 -20.133261423038142368 -7.2167889811814545098 -5.7579312272990437194 -11.088569994279394493 -6.21559726005751223 -3.436230563234235369 -12.756654271974547044 -13.047493839727968279 -6.8544199470092461723 -7.9189992204595673897 -4.3156793011545744321 -14.640494483967259498 -16.499643688092049842 -2.4110902395781117491 -11.413687058292088849 -8.9112759662148519624 -12.169212168034635013 -10.56016828690380116 -12.392150999557109969 -5.271299696702108406 -9.9286312388244102323 -3.9308822792710262917 -13.655347721447839149 -12.705563245542865758 -3.5177923354323512584 -15.085736209777456551 -8.210222757315289499 -11.065678583502133847 -18.226773005744231426 -10.958744148272097974 -6.3878317974223683962 -5.8652526500890767025 -10.927416607641065482 -15.416445488934638064 -14.391859872233620621 -8.7552589147832939886 -12.525808757822082029 -7.9161687310873638523 -6.4726235165925070092 -8.0195180295802295234 -9.7325652870877501499 -7.7946820773038938412 -9.3819285097867997081 -15.481135810972713074 -14.9006775639779665 -6.9628849550600167007 -7.907381671132665879 -9.2760776657573771331 -6.7715790209765689411 -12.563689047039336089 -2.8363250885328015194 -6.1857272958555071796 -10.598147755003305193 -2.2577683484163966199 -9.4714820186358359422 -11.997397308806826643 -7.7846849406836060581 -7.2404866265648184509 -13.62615820794187016 -8.0464617475321880136 -19.27735295672770377 -3.6935410439923508363 -7.6045416285136919754 -23.916451237605595992 -15.575335767311463187 -6.4811153656981792537 -12.133642314326611 -13.772926988987794772 -8.2856286484942351933 -14.254660144661826848 -11.674307688774037572 -5.0811561305145485079 -12.122320184300512835 -16.142388769928313508 -11.903318352465856123 -15.871747049986117517 -12.233905056678073819 -10.129735347085068398 -13.31433028808564778 -10.697902173986545193 -13.19650173318584585 -7.103504719449208693 -12.505982489548760128 -2.9854361518409682219 -7.6710054453275891007 -17.869644011408077233 -6.62395909110785297 -8.7620485062813120436 -5.6946017769110337525 -3.0174236812761145998 -13.972171161993076183 -18.914695291173028835 -12.256223958238809502 -8.1713776006929759177 -14.337074300771719848 -11.484778231374404456 -3.323458773786808429 -12.38398600020936513 -10.537838290429473176 -15.692235139203560834 -15.026785159122953317 -8.3383319707446261759 -5.6837052551184381599 -14.340910497596906836 2.2357144311206962328 -17.713324302873381555 -10.313099894534360601 -12.223121888297821869 -15.64617920395025763 -11.79645358058964888 -14.069728147177144706 -14.965468051425965257 -13.034916344334559923 -17.162601595820394351 -2.1536709871294377194 -11.610245278693508197 -16.77302379356039097 -8.5254455154175197151 -13.223098603083020208 -10.375443086826987127 -9.1376586422106989005 -9.9931124877102206483 -11.026812972251955003 -10.07226750163427198 -13.061759634323360402 -12.314408014400314073 -6.4000234080678284343 -9.7546363900210213416 -11.778247574590936964 -8.0303499014166881409 -11.656545004378868313 -12.557816729587045756 -10.475924180460038926 -9.735703040207724257 -3.4835980902912249135 -15.154139691215348762 -9.0735716081183266368 -15.286338857229768706 -14.789428765379987851 -18.317110441880277705 -15.726008508430034283 -17.778293879535240762 -9.5481312088858238951 -11.162539260845367295 -13.938454859936207697 -6.3426893912256527841 -6.3339785409937601202 -8.6695820298327497255 -10.638281649856104139 -7.0555359074537857822 -17.032437985515826995 -11.032660332571222028 -12.39501494201564924 -11.722946659318109752 -6.9522729540008469939 -8.2796506651753496442 -7.4677676645588437765 -5.3285742970880169977 -12.05274807300855322 -10.207591030004774524 -15.084484143710579218 -15.114893591067744438 -7.3508727203424371055 -8.5829066024673412727 -17.880537342282522673 -6.5045906188646345214 -9.6440101067249983657 -14.479663797262883662 -15.517692837344554846 -5.5112876884170889369 -13.841308445955831985 3.1942970072889460553 -10.593707130670583894 -14.823512507751221534 -14.883300523603624654 -9.8536237465313298856 -11.643180531211218209 -3.9198313224754293138 -10.21233712635407187 -5.9716788423952325005 -7.4232088724851541528 -11.416148512766985945 1.5895801778414577754 -13.728635521353755422 -11.27937623774520226 -11.876414982580648427 -7.8556657202815607377 -0.88744177640926036332 -13.35985801158621733 -8.3452337387419746051 -6.113066925722474565 -8.7026271891224045163 -8.3714395044242593258 -8.2698805758501698904 -11.657597412318676078 -12.446802329417742783 -16.381239042305118403 -2.0807922183171818631 -15.811653650161797913 -12.601173559129131618 -6.4382295686533392853 -8.3652846604790838114 -3.6605631013398998164 -13.753126933815934763 -8.8528616057069147161 -3.6673064184972963275 -7.5852149810037463595 -10.176313628685248247 -9.3176810771654725585 -14.332149953279202492 -9.4278589544513025089 -4.5747146999924899191 -9.1891332794161950659 -11.138264562166153127 -3.9134684420824346063 -7.8665641252009796958 -14.054038752677133317 -4.251721845796314625 -4.166292152158513673 -10.086892283398658066 -7.9676255242674827173 -10.220119589700722429 -10.79862515589586458 -13.422378800062119808 -8.3364372245282218898 -17.728029450418507196 -4.8030570171500732712 -8.7391098467163672581 -14.1323021564973903 -7.6941292462311254852 -6.4283818242991053182 -13.655149082024880869 -12.80834017645215539 -10.886020598659770897 -4.513435995356059216 -3.5033586399882441498 0.75385262044492140632 -10.6667046933421652 -8.6016868807136770414 -7.0082132402462482546 -16.902759255155679341 -8.6568485207021339534 -15.158180213227474553 -0.38869540402118563094 -5.4916479564529216972 -8.9098744857412111031 -12.98380465999529676 -14.150609746947989009 -2.1589854053571619907 -14.854410505949964261 -7.150081639648565357 -6.0070970353956347765 -6.8257173257264946997
144.07528178510472117 124.25899300358655353 130.64019795308024641 140.94357001826926989 134.14556518747386349 117.42447347857438444 143.55416268938725466 119.66245754188541639 100.90906270382922116 137.54961668243100803 119.02220232029341673 130.64710968618581433 132.53860893434907098 144.84972288545193919 126.41106724816049223 128.3733130776642497 122.1220331909022434 134.98615580168075212 120.20849583790356974 129.31733487323992904 120.49109999931246762 138.10458445887456946 112.29439629912228327 135.63204501880184694 109.86552002118722271 134.00560881145807457 126.04468862548723962 134.8915381219581775 122.52936128301520569 143.88472257726891712 117.48104523868660465 136.84206387570142738 127.19956546004912923 131.24228981035773245 137.74359550936793539 117.66002923413152814 119.19249095820156015 131.78905195995864119 134.55072018671145884 123.06226076759385535 117.31634961914717508 134.9233065236560094 118.60428083161285429 146.81451847195481264 132.59358581663855148 135.31698002544518999 123.95635779826710632 121.28623881540323737 133.51766860493532363 124.97003353287959726 141.03360377050009333 140.22577757911588492 129.36869740884844759 129.16566157758146005 117.76014190947461202 129.66246826888573196 136.53272430001928228 124.95068189990986696 141.57703924486389724 127.60697729498431841 134.7397993727344101 121.42616991738439935 139.09194507768731341 141.47083344556301654 130.17346703969704436 128.5587581880572543 121.0536356397862221 121.38217199466613749 137.33037689860560704 113.4574366629564679 130.39527537863719431 133.72939804817929144 123.02932409279561909 118.54111839646334658 119.338229794991733 137.41030387849667704 116.69834646874264195 123.40967209559882178 131.02382840268046493 139.52351631290372325 116.41822006873617568 119.16750102774662423 128.60216651962093692 127.49886818614378114 122.78761999539851502 136.41134922006091301 132.02815821978367694 122.81355565268007979 112.73090010774443215 120.69807533711080794 132.20123230069245324 130.32037850266056012 124.76665316859184429 136.78758700702539386 132.85784707904008428 136.44000114283704761 142.97628541085634879 131.07893557020682351 129.48965349631555455 127.94826201052194392 127.75443258540256863 128.71590473078387618 130.72830911154366618 113.14735933118426203 140.16235742749228166 128.32828148895299591 116.14814979677936435 129.7214452630139192 130.77686055792040065 132.66958193459458926 121.63040813778596316 137.84889588329625099 115.40642363786287206 147.25040770940140078 127.53496560361500656 130.48772886271197535 142.79021996942304895 130.66518648883044307 138.25887012938270004 137.84731337097045412 134.88205619734156926 130.00171239123400824 127.79843049638078867 127.93068055406027383 126.69279086520258204 133.67212886023480678 138.44951118306479998 142.52821231627669363 124.65892394985488068 133.4421058315473374 122.47381695762186382 128.85491172301817642 118.65676917420205427 123.19935276872861607 119.04284850158863662 122.89037979479417118 127.08958526226010122 130.62968436459962618 149.20710207134737857 135.92484483677688445 120.95336601106951946 109.77289460474351301 121.64629410507882312 136.01662333649056791 125.59722822647792384 116.58217345842645329 140.01263377446483105 118.58364184427600208 121.45827175382189012 131.30156834525777754 126.75738217624368076 126.71006790761596505 132.5507077062255803 140.25054970519516928 125.97952398394889428 137.53951881907642019 128.68868715121547552 123.45241360523809249 134.89489327692547249 122.66717336053692122 126.51714901558736415 134.38800048115061259 134.05841976795417736 125.20385012433041538 124.35480803477263123 140.99465883055103177 125.21771258751762446 117.58135441724395776 113.28402735685752134 135.21220273125976519 148.44830684685251754 133.03718003034748563 135.39426744125719893 143.98121368818277688 143.20578451748980342 136.30263528555190078 137.48518388290136727 118.55040641313533456 123.35868992591390736 142.05985699474280182 135.80023304837243359 118.16138811747879345 128.08495038039419001 130.82668730298831861 124.17033579722912862 123.69415987348182284 112.28188819228593331 123.52608368164409569 138.4114395404082245 118.14657257399025525 136.73814848916373421 120.295156188093884 122.50951164079640421 126.64974739929752445 120.24740361125112997 121.70307176671582283 112.29407542048457458 134.21891483570908576 118.0595041682897488 133.28941820187156964 126.58641801680494154 113.41607107858196457 123.04276288872750911 130.29626391036026689 145.61323902393834828 118.8021777789002158 117.81679407002377502 124.98223605671989844 131.54494265860324731 118.99784113527041995 144.38615843768107538 126.49982763847745559 106.00768507776567162 121.84545625211711695 126.67098512469948446 125.81195696442739518 130.24553622791398766 137.19974700956061042 123.58920877933373106 121.07873297039209604 133.62135976854011687 125.39705918716512656 129.3757992281044551 129.52747366985144595 128.42552351669047539 122.79252939120652854 133.51329320597619699 116.67457315931403627 136.40271334215594834 118.75298416361029297 124.95305805575704028 128.50254031149512457 132.26137465724701769 113.14200096256416828 122.13973969756210636 124.5266846616765406 127.18295652652955141 130.1862660277157886 116.12513437985289499 114.66304453806898778 132.81861448558350958 129.36099804168068772 112.57824268215568964 117.62886524509161745 128.91589957862353799 130.41699965784508208 125.45845984178409083 126.74973172736355309 124.56796418471293464 125.4568683684878323 133.57021884153223823 121.00539990519101252 146.83249421033144699 131.77528703987536574 125.24057291839613981 128.34178077924136119 130.57271171915644459 129.50773061583677759 107.39581182806135473 129.94107734654852493 123.44373181054447741 135.23991367400748231 127.55934738793155248 137.3666347372795542 110.89364120676145831 129.8345250207862307 114.73858361749942958 113.85365068993613136 127.70624851921417076 130.16598044429312608 117.46745640867897009 131.17361224008357112 103.89662240951047067 128.08889782417219294 134.63695709660146349 128.56501110024595391 119.61716453690375772 135.61291998288089644 131.17677474408577609 142.78354623728696993 120.1632734543271539 130.84204467730987176 123.14863791808060967 126.38032240246749893 127.66801989367934311 128.09313342371552835 130.3950192598234139 119.98633709902026112 126.50972586000196429 111.73909643835456507 150.15584516035673346 118.90502613631170448 123.63819855371666279 129.3120549046592771 123.76760045451433712 137.40166651619369986 138.42256725917559379 133.4938806871752206 117.67050772979898454 132.49317553087055899
-170.95703485736197536 -171.57649260655043122 -164.81177355742886448 -175.78669633028536623 -168.34092001786513038 -165.42281936570708467 -162.43540754840884688 -155.55930002067279361 -170.93395585316332586 -170.68600556907009036 -167.3807623381271128 -167.72668854033571506 -175.18911477191710446 -164.84241515099688513 -153.34873632610791105 -168.24541677505530402 -171.28104895975593536 -168.75690955265309867 -168.1086087323953393 -157.14880215053455004 -181.01716388256795653 -149.00114452764344719 -152.71242206726023483 -161.73770144154815398 -168.05756824519161796 -151.6773838004798165 -164.19996954983614046 -188.3109149670098077 -163.69972646115814996 -177.50061249971574284 -173.94950343606078036 -173.17154599417418126 -170.98563330952902106 -167.4198995324455268 -175.1894262611075419 -168.38762789648441753 -167.16122379155987687 -161.3982596582282838 -166.04639363356250215 -151.9524876189304905 -163.95084788172235335 -161.34475601211502749 -166.72934233713962726 -167.39369248088567588 -164.43023480501386757 -165.99106658313550611 -164.96113575922382211 -167.04240490606787262 -167.38459719460982456 -185.80263578530951918 -160.92977958926982751 -173.84241270961021542 -161.8986388234684739 -162.15146144006874351 -162.61678072346205681 -168.67714379449549256 -163.32810304094041953 -165.75499984451158753 -157.13872317716240445 -155.22333968884913702 -155.98985852778616845 -174.42390339167479851 -167.56023098654674186 -163.71704656713598069 -176.41903162525971993 -168.80327786774327592 -165.97746776445876549 -156.27153019495278841 -163.07662716676975379 -169.89721861641862688 -168.15520712477820098 -168.73055207304551573 -177.17902855833528974 -168.59348552855112757 -176.00439757101250393 -160.2378458744586851 -166.44865690111939216 -154.15960339065313178 -163.55166586822647901 -167.79448936476498488 -168.4518781301243564 -173.57185480442328185 -164.22113047981892464 -171.5776534264116151 -164.14911449504555208 -170.96132522446117719 -173.10138488866644479 -174.53844679740802803 -169.14681569453415477 -171.1789570273098775 -170.77477869562747514 -166.38830662429447216 -172.94063748957808002 -162.24653521185069849 -169.98328479019585302 -187.162058383760467 -176.67161081223622432 -167.25722354100588518 -153.96063785231228849 -165.59375591492437252 -167.96471663855550105 -160.13291639748868533 -165.29937339221490333 -153.89562994776613891 -165.1514494452337658 -164.75659784374749961 -163.88208636872334978 -173.06894409423102843 -155.32721829037333805 -169.13393027119357725 -172.00836612545052162 -169.52690489160673337 -169.35422962899480126 -171.17973111424626609 -164.77220334700359672 -165.61255680768903176 -151.26194980304296678 -163.36662643412878992 -174.88276322639845262 -159.11208529967319691 -158.58232318653432458 -185.59531718029026592 -162.22287254665187106 -168.65710265790613676 -172.14213218211889966 -155.19947679588767642 -172.82753051234413988 -170.21955814977721388 -157.69359410178216763 -158.77814768945896162 -166.05443215405080082 -150.68400117117059267 -182.51510558311588284 -167.900862252738591 -167.83384579162157024 -164.3055340091172809 -162.56516139899775908 -184.30249737913422337 -177.48323346949641177 -168.30758956367034784 -171.91169716828716219 -163.57742547770200758 -165.51773158984582324 -168.07739677098649622 -155.22224934869203139 -172.85429297890468092 -164.42641817649581526 -168.19639231851701311 -161.6599153317662001 -171.15045475711508516 -160.18122741950278964 -165.03827902775697112 -171.76105009846284588 -168.62733683775678628 -161.04273744093438836 -159.99474293964377125 -178.5358120616655242 -183.62797916068191739 -176.19675589663305004 -163.11455222058458503 -166.79278232673388516 -164.94454932108183698 -171.13253407981119381 -174.56808220592964176 -155.30466737926855103 -156.43297495631773586 -155.05367492378493921 -165.00167454244581222 -171.05094855527232767 -163.5182242461131068 -172.46979115048083031 -156.02615163988659219 -166.121063314601912 -164.52751438556359176 -181.78909256992741916 -179.84783126606649262 -161.40032436751866385 -166.02444882389863778 -180.79493633457676083 -168.20959806415910975 -165.5930594628326844 -167.43534413300380947 -168.39029974985282934 -173.96807996963462983 -167.95453447131416169 -160.14091571810016035 -170.34738379209153436 -156.54164321665714965 -176.85226135139117787 -168.40359002477302397 -168.05787816668888013 -159.16773356676591789 -175.1030203869692059 -162.7037561164431736 -165.60463728317859022 -156.37946467189360078 -165.6611891812463 -169.12607194134110955 -165.22804860994332898 -168.9193775512591742 -172.32917839654578529 -166.47765438545218331 -171.56401564004897864 -167.16598428541416865 -166.90648576417618187 -169.6786852789126101 -165.84168689663130181 -176.33063398467791671 -175.35625683226299998 -169.50516089198254122 -164.24109989594782633 -158.23170021715117173 -169.97296970236948255 -152.16358099307004181 -159.7166481165498908 -186.32873651872310461 -155.51850545801033832 -173.98761200665029492 -168.83813954824842085 -162.2709090320260259 -171.49925933185932081 -167.37509380964539218 -158.385550181842234 -174.02473982960853505 -170.73531465540378349 -158.98172698789363722 -183.06361618673616931 -166.16113394743530307 -165.59282011003040225 -183.65141193132046737 -169.2977041253764412 -162.01413962298187244 -163.3023127885225847 -176.92447250991281749 -167.8679598910617301 -164.51260694444363253 -180.94563304731886433 -164.15055747703479483 -163.55451214971353124 -164.98330511545719901 -162.65019421545187583 -163.8294831271844032 -172.43364209308660406 -167.5269392844722347 -174.63607532321989879 -166.35773536241197235 -162.98232590982456713 -156.04468709060165565 -164.35357825579569635 -174.22655235994702139 -180.23019009711353533 -171.10629318487977457 -168.62894590833050756 -178.06939709179718534 -175.87028898011899969 -177.92009695668448899 -175.56152643461874163 -162.04779794320546671 -171.10542526165178856 -156.47009008375519556 -166.00543893400080719 -180.66007481766152409 -174.89417481906937724 -175.84852366734122597 -164.13492546441750619 -171.61869756175872226 -162.52925458227812783 -164.32393939920137882 -172.35613868981585028 -159.88252736283666877 -161.32696293130777576 -165.00674895723244617 -168.81455394574709317 -176.62093692424602409 -164.16397442644671401 -180.73975889875330836 -162.1890988008686918 -177.04583380004908122 -164.70804601848317361 -174.31142130534760781 -154.04184104891834295 -156.49830246621723973 -160.78646710940901698 -155.68131407642988506 -162.81739288490757644 -169.80162858412538185 -171.40420560672077954 -163.77347662093816894 -158.97842845213983765 -163.77867431814539145 -164.14707986433529641 -171.66375343396023823 -164.47533215176704857 -170.94954525692983793 -162.85333833849261964 -164.3669695657351042 -164.05414834129561541 -172.18628631511685967 -169.38738458507344831 -153.14178064767094156
-22.913112905490098825 -22.531217003993411652 -23.543662756636187794 -30.205230710280410733 -22.200351357160180044 -29.134458320561435585 -25.927923885272107896 -32.827846984055796042 -30.676020933884377229 -21.85498616146185924 -33.988276550481160143 -28.147493262095913735 -27.972335986967362231 -26.459960919464968754 -26.255612199948906493 -20.839284721948349244 -20.932652282541020838 -25.280109092621938061 -24.549560648222247039 -28.547151799341531131 -21.720790358936103104 -19.636839630461778938 -26.329189851620611762 -18.372084730180350931 -27.668307597705105394 -18.337820889004124325 -21.799066891973019722 -25.430256153907890848 -26.423550277818264931 -26.420447207803945844 -25.077128726693949545 -30.09219478383755586 -26.227421388505511857 -28.010544856799899804 -19.981418812791467587 -14.895821309032690749 -28.119196177315053831 -21.955405530332022579 -20.96737296255045635 -31.730304263729006919 -27.46056248387861487 -17.819573325157858079 -26.541702451872492219 -22.862890469872894528 -27.705113434794565563 -24.924388001132790293 -26.147371507633771159 -28.023061443452391472 -23.055256584599476355 -24.12888427616630338 -26.170424512246622584 -22.047391949125263011 -26.831068422006122631 -25.441168579314116016 -18.756688690397876229 -11.146024834703815998 -27.775857516862078711 -24.36933528684624406 -24.901471123252569839 -33.61103907581254191 -29.162566370789100745 -20.458617356855214098 -21.966493438623722056 -26.151221108521603753 -23.045737692759974635 -27.436115518082377918 -24.507323708591680855 -20.862456384564080025 -25.384655118271108876 -27.796582170756042984 -25.672934032223238887 -26.512947475487990801 -30.907726863693536501 -18.073234367861662264 -25.389126366441868043 -24.079953233265481316 -15.760154728287925963 -17.80478417127636348 -25.520472187587309065 -21.993214185003296279 -22.720279389510906753 -29.346043319875100508 -18.422289105305640788 -23.068090993336987538 -29.067972776801077828 -24.612018535432660826 -25.758950204156327857 -20.514680350691627098 -30.616375691890940658 -25.589497624403279019 -32.204566169597377723 -18.187765084878900979 -27.287087565064112482 -23.018067822438887049 -22.256291127561315335 -24.386835221485362979 -22.854212376777649496 -13.614382012698721169 -24.421680639173487748 -20.543401069947382354 -26.319244171265697929 -29.502630148501900464 -29.128867882310384374 -32.002008440812232948 -22.65616603328398071 -21.87534911649143865 -25.772517149405665293 -27.842497213610656104 -16.706109771367117389 -24.980577177230806285 -30.786675621189250052 -31.897599240025755307 -22.555417704660584377 -25.806822335245890088 -24.545170025647475853 -22.207462471406575588 -19.356897909748454367 -22.485151098056540775 -16.431813504133440773 -23.699377348360947337 -24.566444495370731715 -26.662313782047068145 -23.928471661866545617 -24.532788539511567905 -28.143469103428724765 -21.926284894074829168 -23.432234789087871718 -22.006837068621166509 -21.374054362099553117 -20.889383598521224172 -34.564836400843894637 -24.501425825642296985 -20.5503068078877007 -27.235590490021913013 -27.909496362909191447 -16.229164830015484711 -35.53027204378785342 -21.181366778430223974 -19.430490323446171885 -23.810130595276852716 -29.039302929584728474 -26.457039264520020083 -16.359433787241940195 -22.45986691852260364 -18.828668808489659625 -20.646331929430065344 -27.611019523202273263 -19.982635993683459219 -26.055504828112304949 -24.91736720947376682 -25.082719477885625281 -26.438630625581090783 -26.080662828839184186 -23.031641768746361265 -23.619754322244869371 -19.51019360292906768 -27.336287661350397116 -18.605724367312387102 -23.242958051598630931 -18.576431869171006639 -23.681644696439111186 -24.647423715591230575 -26.787561734631960775 -18.98367662327365224 -20.480691635282969543 -24.138562601220456827 -20.744455702820051357 -24.292813846717812964 -27.447067646896599058 -32.029203998010387977 -26.063101252730433544 -21.929465062416987564 -28.103909082820649701 -18.712171375742606472 -22.947260990148283355 -21.851239011627342279 -26.907439334245992768 -30.900166698002379917 -23.579575069294111955 -28.998305433178355628 -24.059223005149728891 -22.701923745069795046 -20.055079818648518852 -32.085500930605462599 -29.840732367926882773 -27.213510325783566657 -14.894135928990110074 -26.925869238404651185 -20.647613102725131284 -23.263830579629068751 -24.221579053342747301 -23.058201870287135193 -14.816261899705704508 -27.586042037551319339 -25.952709884674280971 -23.238133314811623364 -29.714738197846294554 -29.469933163047812741 -26.681607281970645573 -27.266305159927078705 -26.807737561621976852 -25.661339421818397 -22.934950668436400179 -23.867829475248100835 -29.933094721287311302 -28.347193843404788538 -27.049125128648274341 -32.44634107393032707 -28.0850103290630706 -29.382102259874365302 -21.744296466200509599 -33.067552205033194923 -23.472348331775613417 -32.539609600110267706 -19.365442303584419648 -20.489211232070111635 -23.822709068422010859 -27.26366265503092734 -27.687879668800501776 -21.67743603597759261 -29.498618943751488075 -28.011181428704826857 -17.758989296684990933 -21.488110461246389349 -24.22506242302897661 -23.799334657191415943 -24.346054574351338573 -22.383120112412605351 -26.17187080353716766 -19.868660743657251544 -28.217753022365354099 -28.215384564053398009 -23.866128734435260839 -26.047875841802714092 -23.298399635275934827 -25.457812718466080071 -23.972931159391173139 -28.131602323078400474 -32.208571603599800426 -33.402563832257158083 -31.984584762275090952 -28.126608403972447547 -29.941462754679722735 -24.388995283085982635 -25.015093677293734231 -24.033478203794839345 -29.293226362403942176 -34.059935172786467206 -30.564182258538732384 -24.765911310625817521 -34.258428043583698752 -25.722611595720771049 -29.869949017406543845 -26.612208099406327477 -20.680176283140706772 -22.322752369594546451 -26.744327509161301748 -24.849898661411998546 -15.510269079385787805 -17.381136676432824117 -30.57265309621650573 -30.820907295386376745 -29.401989903920565439 -27.55935307708123716 -27.592126528490723558 -28.772341711704708445 -24.111012971223988899 -24.568480942387445509 -26.935941487106205727 -25.338015741831192429 -24.896280651678544871 -24.363449993586343112 -24.599740767255223517 -26.227466472206266701 -16.167219764330781118 -27.078732005066580513 -28.809074076340010606 -23.848909506653978241 -21.757933007905634781 -21.636759517591745094 -27.24918706835946125 -23.557988999292554411 -38.483426454732665434 -27.147577238494186247 -27.854325344404379905 -28.786370154844856728 -29.866916055572190203 -21.976521992166961894 -27.00925495777435259 -25.430419614624163671 -25.484323521100758825 -18.746455449487203992 -23.491700722326637418 -25.837608475067700198 -30.1103938927767949 -22.874371310475531516 -20.160333947062948567 -27.576283945551018917 -26.89353071872711709 -20.080363271456043606