-122.98217256819869192 -130.34463210015249501 -118.99509090153826207 -120.66331758019590836 -122.50695715620891235 -132.67419352656253295 -123.89803290685897252 -122.59072334765764367 -124.81870331417098896 -119.71897881444166956 -123.06149100353664494 -127.14713220993185416 -135.80744845739707216 -134.73547084169410937 -118.64534422437003514 -114.0512924525831977 -108.69701043643243565 -129.34382739561274889 -123.07986280557058478 -125.15135169098601864 -115.66482582634317566 -126.28042295595815858 -102.2711179011130298 -117.30720148466423325 -123.32814129401047865 -130.89504223830778074 -121.30671985668546142 -122.73159435242702386 -118.05985896674485502 -126.96798675853722216 -117.43832180284410072 -129.23964690778254294 -125.95803500834577449 -122.04940636452589331 -133.79159283513857304 -122.17735635925308202 -122.92172572798106955 -116.55432602537268849 -130.86286847781218512 -128.1183088191621664 -125.16407936844169058 -128.61260092496129914 -119.02087654335042544 -127.47821225550576685 -114.00864646848322081 -132.97154725053354696 -132.19322808177003026 -111.28113746715634136 -114.55741658717325038 -122.40525669026358457 -117.78258359279503509 -121.90417820321509623 -109.85118028052418993 -116.02194518319444683 -117.46003835469205967 -117.078041081805722 -122.89774883602274258 -126.23200888020474508 -133.37718222051759653 -112.07385157004908649 -109.83934527023754413 -122.60528071140620909 -121.71516971432308196 -130.19209710479114506 -131.81035862219863475 -122.46269012989893099 -132.20149140577552771 -125.67892019598767206 -134.12435695718232864 -123.08573303058662418 -116.84628979976800167 -116.55724390227094034 -123.23531548514306166 -122.23553174875995353 -135.89028104181971912 -114.60026530275517587 -120.25168589606357727 -117.60232692833467638 -124.06379002909952192 -116.80413327920246047 -128.79343825584615502 -121.66239777039390901 -122.21337308935736132 -117.79263547987309835 -115.19382263671219846 -125.83956631579742691 -137.1321594713373031 -106.4963258652574325 -130.05779786337458859 -125.63531143325781159 -120.86877278862306184 -111.20340362642052412 -123.73947755327691311 -112.04756447382992235 -113.73210202801365654 -127.76691359292321692 -119.16802676628853419 -115.32769081328413563 -117.67439185028591453 -120.68769621850728413 -121.90523098701548577 -122.35037444367961257 -124.44187720985452472 -129.32322238684170657 -125.91510443714307144 -116.94512535916297225 -130.28888461298910784 -133.26618505015642313 -124.93499917884246031 -115.53611724772071057 -122.4356234182444183 -127.50543652123342042 -109.69049648249159645 -119.73106608519012184 -127.04976169119819929 -132.94080700923345262 -122.13053540737382718 -111.89701541068804147 -119.88432961111243458 -129.75716082577795873 -123.74796645051719679 -134.7495643598631716 -117.21839866484208414 -126.72715869007555511 -116.99825122212914152 -120.66812691386513734 -119.69512824183392752 -115.03494707980057399 -118.39207982993318069 -121.60158466236455865 -119.36753382575491855 -122.60252528447378495 -126.696567368252758 -126.61523734354601345 -114.46609406542189902 -128.44580469606395923 -103.60766896886737243 -130.74011334164740106 -109.32759346119638622 -136.13295285664688095 -107.1426735871009015 -119.15270463317227723 -132.31732574639039512 -110.62866674655754196 -115.8013740222068293 -117.72964668957641265 -126.80546754889388694 -114.65157365347425866 -125.35342499894302648 -131.58369747472383438 -125.53895128434258766 -126.41340029905569509 -126.50546132894616846 -114.84815393727679123 -115.39706969395982128 -118.66533535828921231 -120.59839834170450956 -129.84488981756453541 -126.23678934125217665 -135.58879601250779956 -123.75828504046982914 -114.91436734555887256 -132.47243113394810621 -120.60541408725380563 -126.54789454191222831 -136.60467196971941917 -124.27425265698823864 -132.91901398600015227 -116.60785017620627002 -123.8177226595631879 -115.6719610481103615 -121.47035200308232561 -118.62566761613342692 -114.29963141806312876 -127.31506287102517661 -133.48470243423858506 -125.66190474567353874 -110.13392719026758471 -127.0727834378286758 -130.62048816961396369 -123.76015360525568099 -126.28624067648703999 -128.80042023448541499 -132.7932599831434004 -111.67705935456773148 -118.43703946904473412 -124.35137237137905686 -128.27367766472633548 -114.54861623257099268 -111.22721416837229924 -136.89022515550493608 -125.34419815049336933 -117.36172789219746448 -121.78042218253574447 -118.86145443946338673 -122.39664143913887528 -121.10470900930860694 -123.3924155691054807 -123.77623635354922271 -124.64559162255270053 -119.30760565352701974 -120.65524883872920725 -126.80723892106365724 -135.37957911028451008 -122.62375206351715917 -130.22401371583586638 -132.85118630269130335 -115.5693970537860622 -123.49774314052687885 -118.13798182780509194 -121.11602500742976929 -119.93032333414140567 -121.355576799266629 -135.57902704677317729 -131.06901246981286135 -128.01759826797194819 -138.52530076421396643 -118.62116128369986257 -117.14662142894907504 -122.07438111670698788 -123.11491653906905697 -128.44734467272979828 -132.82797577880594986 -117.76243159233429481 -111.1114547834516344 -119.32160864705157621 -126.92116115952416067 -127.04527751998132601 -112.2337007405098035 -141.11360063931891773 -110.71651937841185998 -119.01888736690249004 -119.47769888664285531 -126.96080582679793736 -117.26167095879686997 -119.00903426520241624 -116.34326473499197618 -126.66506129733123487 -116.51036931278990494 -130.41750381130245273 -129.61372413833839801 -136.20856714643986152 -131.45042436182455958 -119.62123216607805887 -120.50865066598539954 -116.31391054745321867 -122.27486275044496722 -123.48094361898915849 -114.25065018282813867 -133.64848120944654397 -131.48626870042483006 -131.51421750832705015 -130.86857659820111621 -112.16263850328876117 -124.9159593486138391 -113.47938378565447692 -129.8245536792070709 -119.85209980167108768 -126.22269814021171896 -122.50241869427128449 -126.68547820059576736 -125.05363915474438841 -120.67183771906660184 -137.47346963983125079 -111.95045604367467718 -119.02375570030727658 -122.05610433111725399 -139.09590014671934455 -130.4294925873512625 -124.05795912272625969 -131.97555714421577022 -123.26753433562900852 -115.2137570188807274 -124.73798121825950602 -126.30009054198906426 -120.80689253087574286 -120.08164926772307979 -140.09638425555976937 -132.20382817745007742 -126.61227438323891192 -131.10743407076330413 -133.69710964957658916 -127.12280546354018895 -114.00303943700252773 -136.37745303096954785 -114.90171667493822838 -122.84593301688511247 -124.1180290197923739 -125.80357374933177539 -126.19238717379576542 -117.40930517983723291 -128.43601042214510244 -125.79584700711723144 -129.04866618248058785 -126.17771905844998059 -130.06119807889550088 -120.04440939050024895 -118.95726166042506122 -115.06247777516482245 -123.11837686830041605
-22.813537111562311566 -19.270610444626015578 -31.65195785330933731 -29.89406132167027863 -28.443880245901407733 -27.824126622781662377 -23.671591875719837361 -34.871376756521932805 -20.876356470380834196 -30.390830329951207034 -27.438650740566131958 -30.230423951977243746 -24.211257372999963167 -30.913880672799891158 -20.793105811514820402 -24.572057243655841319 -23.057532285097916969 -24.404299973879766128 -25.882407861569728169 -25.83190125178836638 -30.437262934048501251 -26.162680127405369745 -27.1531517371516955 -24.709814442847726212 -23.508953693510534322 -27.947784248616432734 -22.825743832944411338 -27.063840828953491524 -28.398353002646171461 -14.775932293627068503 -26.37707111903915802 -22.226772755001103832 -25.285060618514862085 -33.540245123578330322 -28.769682085142676442 -29.778062669198536838 -21.63097927200701065 -24.277265124002116892 -29.783405079333583387 -24.109619706237563008 -23.857065715815355844 -25.645748925381507632 -28.342840718684229273 -36.675665587748511598 -21.113993481141456243 -34.536442264196715257 -21.248032406124774951 -36.286822217302564297 -21.965296593728336205 -28.371429523089425118 -20.415216838412444389 -27.777628819680032279 -32.253193002403278911 -26.379540603834136903 -25.228137504462743834 -18.426343732629934635 -26.331674437944379008 -30.306882279482337594 -31.275105652498027098 -27.874234810357734204 -27.070638792916760451 -27.057156641770571781 -32.984996332873429026 -21.541407098038028778 -19.265005733259179976 -26.063588760371533937 -33.847032166501328732 -20.270315461601072116 -29.241720860378123348 -25.859958941646763009 -25.465653385372306161 -24.322646640322052036 -32.41202716713926435 -29.137210191620869892 -28.902577271640403467 -26.810944976447473209 -26.171637964841245605 -29.83204899392306686 -20.906636022467374403 -27.846346539672836684 -29.690667819031499874 -26.766112991647133867 -19.248816376918952642 -26.996147754642397132 -25.458018208806482363 -29.954986363070958078 -17.053969382399579047 -28.111999001178386237 -32.402293622245835536 -26.148386435323406118 -20.473850669693387516 -28.327266079133284649 -31.555559446339824348 -22.042766482470458556 -20.654179884771544096 -27.729211116059801157 -27.051459156840241604 -30.766109192001753314 -16.940501386956363206 -25.648470711322062243 -20.691274339574839303 -26.652529042265506121 -26.013834715954594401 -28.255249861599864403 -25.669226775653903871 -23.379681813540372559 -21.855905237627123228 -27.55380584290933399 -30.188724159662829294 -32.999285282699652555 -26.366917143270679702 -20.577895356504225077 -29.82189340022553381 -27.237314944839155828 -28.659004703306496964 -19.47874512298802685 -25.132312259301404112 -28.852058790403990685 -25.27875616124725866 -24.20567368681803444 -38.231995158116113487 -27.935491397243254141 -21.095359190482220413 -29.458662812055610658 -23.820590714888258077 -30.732833904395853608 -22.189542381315082054 -24.43095295452671678 -34.78304858240350228 -27.616748545527922687 -29.224732719584380902 -29.812698083475016375 -26.597937756771077744 -25.025879852555267036 -24.516103580200272916 -26.88603816830618598 -19.530487645729568413 -24.68033696204244265 -24.230551255236886021 -23.741924920899581508 -30.341195854086784323 -22.835337988599135883 -36.972885850528498963 -31.030955369137064537 -21.616219952143218563 -28.263120297126800295 -26.448459600049680773 -29.738368209691252275 -28.100352963427283726 -26.931316535111239574 -27.241823192090816264 -22.649733968939809614 -22.899542339058744034 -21.845181932636904776 -23.791874674165960357 -30.078103675330503108 -33.170346591119276525 -20.968659132828278757 -26.512620173519568567 -30.926841594295751747 -24.555550762285740518 -21.632720466577467278 -30.848029321559529592 -28.659060103763735583 -29.3382074847489136 -21.258552003833884214 -25.541254632334034369 -21.73184610834978514 -20.171620514634220456 -22.355446135342585734 -31.385372459449023097 -29.968579398819798598 -28.529581848492284735 -20.208625780989738274 -28.617000561283521876 -18.403990449021684128 -29.899012053679228984 -26.325471903993715728 -29.968453486274395203 -31.289178981066278595 -30.523672858650026996 -24.24062280927521229 -32.688021607610686203 -26.37688791369441077 -28.099599066339358444 -27.900005232902461927 -31.097038176501698103 -22.456909579053178305 -22.586992968412825888 -28.659308170168632302 -28.863211587599888475 -20.027498256298649437 -28.99865570473102494 -27.944838795771296702 -25.925683461443234989 -21.007093288292082889 -29.302309335804380908 -31.523371743643991749 -27.601399150208838051 -20.667363426974716845 -28.635356734004297152 -28.962914022293922756 -27.965137274986169302 -22.11289511990431933 -26.487304027788113103 -22.868609997813720724 -17.938613854296416861 -27.341512653069369065 -25.199679707272075291 -26.256451938340632069 -25.324243586313972543 -23.716328920205469899 -20.455339161988980834 -28.244504853481974038 -21.300888101278790288 -33.032064641602218558 -29.91202278732355424 -30.222932084727570867 -22.973867871024076237 -25.744930864576829777 -29.744794434603345934 -21.715093239769803546 -27.753159167886636283 -30.737206783720584014 -23.837359863247357339 -26.131856114764829613 -34.778208927815960294 -19.894896083040947588 -22.408919853578598946 -31.387516311494664478 -22.032918440849329045 -29.851737492506210003 -20.320465156989158118 -28.813413059498504509 -22.404228886198961135 -33.157966515940309193 -28.690149045267151706 -34.885529662285364338 -22.533550637976244246 -20.281217228861326163 -22.119790184790634413 -31.809655260361360263 -23.900137585443840038 -28.203579386625307279 -24.009084120582361521 -20.598200928276298782 -24.329918168503944287 -33.516509719319316218 -23.610907893208079145 -19.127531462174239607 -21.55039421215053963 -25.668970845965816352 -23.923698210078104154 -26.741838612275220299 -27.580946178643149125 -25.533368330339971664 -29.873139620513864401 -23.044648225849901024 -25.251275812998841275 -21.716837534270037935 -26.181339201705370101 -27.070950016262383286 -29.860493602592729445 -29.421882549821031461 -26.036400234987240765 -22.325916860954759358 -31.576674846655357953 -21.782625977802155148 -26.342810078068339408 -25.368141251837805328 -24.107375921803075869 -22.938768096901462457 -34.512669025755918994 -27.974633244618257066 -28.041298057951276945 -27.919160140131371151 -27.253968881600417973 -31.331190733894295875 -24.426845756828328149 -24.297575092705226751 -24.647388067314256688 -24.938670561774440415 -18.762317056228170031 -27.11210973870491614 -27.851048514170159365 -22.60226927041378886 -28.933780367532332178 -26.299501961077080381 -29.636546679078278999 -27.648639574230365668 -16.339520463922724502 -36.971324394473050745 -29.209608495057835853 -25.585816218899125829 -28.176793809675316993 -31.571138533717789443 -24.74312125590117617 -25.063182519137907178 -23.670647699311775369 -34.113877944403242282
154.57894532398918841 147.57535492381882136 142.98984763561904288 164.38006329729819299 157.82913519370316635 152.6131212252346927 149.34157140547367248 155.66278151347486869 151.57918200485190141 151.25722760144080326 138.98375648684708494 157.74650967677587232 135.23988994147674703 157.35567558408078526 157.92145599082317631 154.50577053159162233 150.15223368416650374 145.56185797042715535 158.10061839087700264 150.04464274255451528 137.99004433074884446 152.06324831244617712 146.83508364957586423 164.385900948152198 159.67169652112940526 162.79500380053775643 158.94930031640970469 150.00862507843618232 155.40664040632947263 152.09674998261911583 163.44491958322291225 153.11187945134179245 159.05551261991340084 150.95602758142851485 140.49286089071244987 146.79446267222579081 159.02787898550613477 162.97031592186255011 162.3506556492487789 159.60138697750147685 164.17109878639462295 165.12432003287318594 158.60441715060562728 143.52483900343520418 157.83766606632508456 161.55140438833518601 146.35823577553259156 157.48350129908462236 153.7830164961099797 164.14897971446225711 140.36230529057721128 141.12373217337943743 146.15160686659416456 167.99777192313689511 153.48709215551008356 157.0544167632201038 157.03658759637153253 158.29250144430781688 166.98362302797070811 151.36089133408353291 146.14312716890211163 156.23600580103993707 149.8877172891554892 160.40991682625514159 156.95498539381728165 160.53926244746156726 151.38408986324907346 153.90872853793601394 165.82617133468318116 155.32279139734689011 140.33033171133573092 157.97717416873547336 162.03190788838534786 164.52990085897556582 160.02403842564399383 142.62013364171551189 149.87239680528963959 153.40420942188444542 154.03291501218677695 139.35419744564308075 148.80027282243364084 146.0034829011223394 150.96505588836694756 146.07347058543953722 154.79158106673497741 163.34928921439396277 149.24975713762242435 157.85156877918151963 154.5268052152394489 165.41342614719766857 152.82252935745788136 158.73198997632084684 154.22385082198982786 154.49271281509848563 154.21527361846605686 155.24715540096875088 164.65864159957482116 152.45829775884840274 148.99273073726402572 154.1297429001633077 136.81565215317075968 157.26310475080751416 154.91630609499304683 168.68324796831302592 158.28395323968450725 159.45176195852238266 158.78272777176894692 146.16788275626532823 155.07914953489287768 158.70913819807583423 157.34526939576574023 148.17654726339014815 155.46764904880848235 159.66049169360053384 147.85465516124739338 159.65519581321331088 161.99756890843406154 154.48586761305762138 154.46091393254940272 162.53608668878703725 155.86042831412825649 149.92129762560671224 145.70212149219420894 157.19728338217339569 154.62800077754181416 147.55873506111336724 145.40664954375088769 147.94045280813767818 144.01753133640642091 148.83754842576169608 163.17556941558419226 147.73544473417933887 154.94976202764425466 148.14152025325586237 160.23747361601576245 149.45919547452533038 143.87382945815599555 161.34896998764844511 143.73728543376574862 143.86137894336081899 139.83484973835504661 162.38834798309795815 152.71121013558575896 145.46595119752458913 141.58239458879958761 152.67353142598568638 152.72682879596618477 150.88288167827235497 156.76636311790338141 156.1145998084729456 135.47773496965518802 163.51621342556330774 149.65764782934550681 146.7966267627639354 158.36061560002133319 149.48095028789626326 156.98458882228146649 151.79644374024690023 155.38439780991129169 149.16332261248783198 158.28229601716674324 162.34847153043779144 144.61303097050048905 160.99362019956748782 151.27646470752785035 159.15188285384519418 152.96330329645317647 150.03305932837929504 140.40038741711671832 153.7924517649853442 159.5924894211487981 151.22724438838517358 142.43091540417481156 159.61459436848173254 166.27059781579174569 165.08224182572135419 141.62212742118822462 158.33424112562875052 140.62986827254681543 166.64669817627355997 148.53855576703719521 148.40258644911310171 166.52151772273222718 165.95334118799155476 151.56999625330607273 149.33073722141546114 156.97120343591001301 155.18631320793045347 141.44919543137157802 155.76814161595228825 150.76700865782922278 158.77338808049771046 154.18967042758382036 148.51760416901194617 159.54514481133867321 161.99571787466518913 151.76729017283480516 141.12294894588069383 159.47484348658284148 152.88363309333675488 144.56539190787188431 162.29123379815504791 142.5480575857930603 163.98499122950818219 163.33005042584846933 149.21593646442713066 163.22962250307648446 153.77590816778780436 154.06379726492886562 151.36032691390943228 157.19044173716511636 155.72407255414711358 164.74226985281890734 159.38573330821418494 153.63514972473035414 147.83630798798262163 157.97252274966609775 151.8146067199317315 147.28064770587050702 159.62635630995404767 154.21454437636953116 155.19711044503952735 146.29549293441203872 139.29651183586514662 151.64378244977461918 156.0104189868113167 155.87263385821833594 148.75977771134108707 150.23940418565749155 159.24102731244585129 158.95852836493253335 152.57028928117614441 147.55794618450454436 167.55911665349603368 151.76406437242769698 147.6643298453794273 134.49592689277841373 165.21854123297637784 144.80207165496429411 154.79624005871724535 154.57662704098208906 142.24342045573462201 160.91193454662587214 170.99238924819798058 162.70609143592508872 134.95304446401632958 145.34927279101836461 151.12169689962919961 156.75840873665069353 151.64948978717288242 129.72228572240726407 159.29467167198194488 171.65865515795999841 155.80042064423318493 149.601446931518268 153.69849587383163225 143.66339557914577085 179.6061942979058017 161.21218373406321689 153.39272100467240989 156.20213653608635695 151.91029084494795143 162.5067162032395629 147.40454070426616795 150.35388468878900881 149.35556554304804422 148.29104390439511008 150.88974737103805523 147.08687492360684246 148.45498281171870758 141.22790373705061029 151.49452359179994687 151.72557500351342696 140.83880661598271899 170.66984477457185676 163.82015153939357788 153.39022987422814026 161.24469861703025231 165.164132650612828 150.83698809807532371 152.07176433167816754 149.57937716151758423 147.87958921882969321 160.51651828433836044 148.68132807973779563 152.9128747175599301 156.27468410139724142 146.77476774873736076 159.63685368331039172 152.54251495688586715 153.77977734452059622 171.85195132664225071 147.95044273587458861 161.52210851666612257 152.79830123761007599 158.75227249227424409 158.07514281274745827 160.63239994474406558 141.2012611143447316 143.18704480149747837
-107.71714278602229342 -113.59540998282729163 -115.46525956895415277 -116.81701978072214843 -124.38517395690250567 -122.77053883424629532 -112.69425030394269527 -113.57312805805622702 -122.61367403615938088 -117.63345294335059066 -128.39120398543559531 -124.31798625002312519 -124.85427468205205059 -116.61197812980597632 -127.65546012719909186 -130.49068119757254181 -127.15793517976852911 -121.99854366511189596 -123.61351123473940561 -122.67256691008375924 -116.97481152208682431 -120.07714154638703974 -135.229310472613804 -120.69344815259837844 -127.1194164833586342 -126.21841396981048433 -125.25896202110178024 -130.60144423637925115 -118.94599847634668777 -121.35570545627368233 -122.94470426380989636 -123.93942686872421177 -127.64386601260606824 -115.66115645502843279 -121.52612027324842359 -122.95422603217346591 -111.80764075696642124 -120.55765849395147882 -118.44246641142248677 -127.57524538986776008 -110.50462238043097329 -126.83787568774164356 -137.61336930310764615 -129.37790107285431418 -123.45758361432478978 -124.17507354823020194 -114.24123672483983682 -128.3296562752187242 -123.86750524177327293 -116.73201760557226692 -120.24873346999365253 -112.17407496099004049 -111.2733403312945768 -121.31153055777815553 -111.13961477684286194 -133.70356161458292377 -127.40876254621912267 -121.89634892133506128 -128.90347320452087843 -127.41807613962990331 -113.1882016930795487 -125.87986467969244586 -130.92263563135838922 -123.07423883348030813 -133.38116538656328203 -119.56474455009657731 -104.01244811375768506 -130.49286662647648427 -113.65009802012906448 -119.26759347037943826 -132.6070331258817987 -119.95109578645775628 -114.43137305201632614 -119.70287521551870213 -120.87046189436506438 -130.6183043282478593 -120.19211207847911282 -118.3148464368779571 -113.65362427981810356 -133.62559613521236201 -132.85362330198049108 -114.00541145348735483 -138.89326531741917847 -110.33931101533634944 -122.08108289614706621 -116.48309786194094784 -115.96410552551930095 -127.09866606739245753 -119.19707824309146815 -128.2466943564241717 -121.33277189115905514 -127.77231561446730268 -112.15463484922516102 -117.29020911556534656 -129.51660284019706637 -127.9956572375242132 -125.0091648082006941 -125.94446675172176242 -117.97453500097508083 -121.0635634727114649 -126.59265019806409214 -120.29393199035257567 -121.70582150742869487 -118.30394017853757305 -125.26243578592082883 -127.8448455656804299 -120.81869738054859909 -124.80083532783314126 -120.03328690140095603 -118.77513336352397744 -121.97570782263838396 -123.52318205049749622 -119.05429205898387579 -125.19880396265807576 -121.84018257170843924 -134.29636254416124075 -140.8191933195290062 -129.0571502913531674 -123.79772384372338934 -120.89101372815069624 -115.28243234819909446 -126.81560313005815033 -127.12728084896515668 -106.81470298944586261 -132.72613220656432986 -116.30826051905680174 -121.89977225968129915 -115.83400240521731916 -121.1737473739278812 -119.96727576459221609 -120.22969654714366072 -128.28125246437119245 -122.62350966591691304 -122.50733356225758541 -127.16648341711440651 -128.73667303850831445 -121.95900707351395909 -126.52730071196543804 -119.60695714760555575 -117.63694841629096288 -121.54436139788241178 -112.02592059271222524 -128.4518563652530645 -119.19647937834420759 -107.1355656783113659 -118.39618350485011433 -115.17637382469084173 -133.01913596650345539 -120.29041923761296573 -117.61464784945550832 -123.20988842368569749 -126.56009002539704511 -128.04243759027556848 -125.73055345184508269 -129.32105885492399011 -119.77318474631891831 -126.52000629522845543 -128.00921942880879101 -121.33013264562329425 -123.42774836248717918 -114.81485834090530318 -120.06073219116339601 -111.2791690682823571 -116.18652416684085438 -131.77125551945010784 -133.87918057279529194 -123.83241688517571788 -125.74409190227045485 -114.55907457190093623 -125.42867484378169252 -120.30126181945971098 -127.21249496288797332 -124.25460049110566274 -119.64956107147827424 -115.05272120958805715 -115.43446645834629294 -123.32783699092288998 -127.01665639268614427 -119.98551743061241837 -115.07113627862568705 -117.39612093729257936 -115.48375429534630143 -118.61629862964885262 -123.08615889859916592 -121.7257566941024578 -112.01247879897643145 -132.80291179578443916 -125.43242289038857962 -122.33454337560033309 -120.7232132387842114 -119.60801448201706876 -126.45141737014620276 -112.58274514174343039 -113.84826950841249982 -120.39885718501797385 -121.03713897613498318 -116.02544139425333469 -130.61595060804503987 -117.09212366586804421 -124.61597270522759118 -124.09521757286678678 -119.42359208336606002 -110.56584250517487078 -113.77261400646284528 -122.07701473000645365 -117.73162264825805323 -121.80256761251752096 -118.52736471673641461 -117.70337716730929856 -114.63469105465405562 -114.20628982546706709 -117.16317745231964409 -123.50673948834763394 -123.32636204581353923 -122.10946344505805428 -130.49000047816869596 -104.57768239863517579 -113.71191885366093288 -120.86798950426720012 -128.31026584305871552 -123.99034076908033342 -124.29287068300783403 -127.6680384459980786 -126.81239555935022167 -111.70187129534649273 -123.00878252541005509 -110.00414148344347609 -132.51756457727185534 -109.75109208451377185 -111.8736360957021958 -119.22002242160267826 -121.78935258006480069 -124.56208640757463968 -121.00938295199884465 -122.39443503255650114 -117.28021678480337187 -116.48458392517514426 -104.42258897519934635 -129.98796521810609761 -122.92678483137689227 -120.08459678439277241 -121.34113834088802264 -125.86338048758777575 -120.01133995510230079 -116.06413766632047668 -120.80647550639486099 -122.81035850442741264 -118.31571429830667341 -115.69972363900005519 -114.59520167453275974 -123.71602793718699331 -121.67609756951848965 -119.81156374024932632 -135.00182744650126665 -106.38952178840568763 -120.29250339250950219 -124.20170695819889772 -126.26723310240151932 -111.80221931739050945 -123.0523817177420085 -127.05610952531365854 -125.12984498925044363 -116.40914305299375542 -119.15851940432723666 -124.42581336994209096 -117.81013208960473548 -120.5928785232911622 -113.29593421840579026 -115.65284329673892216 -128.50087852767080676 -132.12430132973642571 -114.26213438253867594 -126.46278948548078347 -131.33437348286165047 -117.05210750966352862 -119.74901658363036461 -116.8233726036670248 -117.65958285298941632 -128.94694207165272815 -115.9762017585089211 -123.17627580208991844 -120.5728408535157854 -113.67852891224818279 -112.77742927729265432 -117.18384895384897959 -130.96873926502021845 -136.8185529469949131 -136.96605931755703978 -111.82253517781886387 -127.89847143498391802 -101.72153326338356294 -117.01752363129529044 -135.69938076920752223 -112.96153941719833824 -133.53673192659394431 -125.09809114043457612 -122.83177428949352361 -109.1442686955127499 -122.6182888382448084 -110.08749677725478477
-28.697053683306503302 -27.480948216186089184 -33.97698436337818606 -37.613635451790322861 -31.723250550459738406 -38.749917594885452843 -32.475701416826211698 -33.73463053060470429 -29.024786541785733363 -37.764380994207222386 -30.304029794542898912 -40.955489013366779716 -31.275158198172221091 -35.771466525964250138 -37.240855418196233018 -30.98835141499499457 -34.622911030467349747 -41.863277478115975327 -30.221633036909921088 -39.647769998342212716 -39.823863615649713665 -32.580297025607706018 -32.169551443150886882 -29.8437742823615757 -30.861135889930391585 -33.842954613099884398 -35.910673131603289221 -38.172018763553332121 -29.292908707816494029 -39.356789119288777101 -37.015514892505109401 -29.091894325178540015 -34.611440340341033561 -30.789422042124023449 -30.689587326615807683 -28.362504662689890012 -36.022327055172283394 -27.828420218772794925 -39.821591518387513986 -24.567269941914858578 -33.405768518966226566 -37.430684219356869846 -45.744509731705960576 -34.092714106357604464 -28.995323554534500943 -33.530489280826621723 -34.272713893680190722 -33.927879628108485122 -43.462619454741215463 -32.068141845915562271 -34.954271188625035904 -35.484200358000279607 -28.581317195871324799 -37.796780031962228463 -36.536859851759416529 -33.158268303462563154 -36.729069617366732814 -31.297849823391661772 -38.126834623347896525 -41.086256073915492948 -34.122699247961655544 -31.02523974857649236 -38.555952996433688895 -30.157432545552950387 -37.82945890083377094 -33.187389574453177943 -32.971439640435043827 -24.074731931048965805 -36.386788991604475996 -35.786742366261066195 -31.745850201240973121 -31.919207158097975707 -31.85950384197475671 -37.413532567411863283 -26.314774781867306785 -38.958314541231892747 -39.913965864600967848 -27.128562320508898154 -24.93189767371580956 -36.834598809431255972 -37.275080913579266451 -34.040046779676224276 -35.073512050271993701 -22.25513838733152383 -41.208188233077990503 -39.196233564363033963 -37.133278886457347312 -40.015020862988656347 -37.576462282604516929 -28.955052061520639484 -31.834978997065583428 -29.175432701939236324 -35.366319932205314558 -40.715264588190791528 -35.060873986979345318 -42.424836043353991499 -27.324865827495422366 -27.986722839292937692 -29.086491253492063436 -33.965890972397687619 -34.595864801804474098 -39.901356444676984836 -31.927353212693795115 -31.373389992195789944 -37.993936136612681764 -31.144321765460023954 -29.724942313463120769 -39.818462107802240268 -33.208504889630951595 -42.034228877822791048 -35.578711585514177784 -29.026584392604249274 -34.518157691591767389 -35.025491654104875749 -34.092414779315760143 -38.60456303729861105 -29.544487063201167132 -38.046018320173146776 -32.914393645060933125 -38.345596114722965808 -31.224205880958368908 -33.62596968194757352 -32.087976925726756861 -33.547127068056120436 -42.701996567391901749 -30.623974600352013908 -33.943607833019690645 -31.076158256914133915 -34.159646949870399624 -32.983541466232736639 -43.239332863240861116 -39.445362087924259242 -43.668427412219379846 -31.932636356128515587 -36.48330278655321024 -40.286890652362600918 -34.165161485824754095 -26.639238093385465334 -35.700589409939695429 -39.098117526590812076 -31.43719542657640531 -29.26101626303357861 -38.706950943549323085 -38.952545049837773661 -32.046443885284986663 -26.008350251669412501 -35.533273991295772021 -33.489885466519801582 -36.40661336007668325 -39.816281770390482109 -31.900680613283498133 -30.61545848648790269 -36.90928466148835696 -42.896560095635791754 -30.885824641425791981 -38.968391751109948018 -22.039087531966817579 -38.128922851413328488 -34.00070045695039056 -29.04414329950918372 -35.670789551577072984 -30.498029482701507931 -32.247687735653919106 -29.723222698462702596 -31.926618601878651305 -34.384977182077932412 -32.688231184699802157 -42.151278502939483417 -26.36146097278798095 -27.718234698556624807 -24.51890701552670393 -37.128116729343396685 -27.040396649676690544 -36.945465302714069367 -32.880880568699076605 -36.734605528505824168 -39.339369398176714299 -28.058601110165039216 -29.803522968437249574 -28.623399546384398207 -39.570292003687868032 -35.994727567473361773 -33.434834058108883426 -32.56055528264079868 -28.461490682186632029 -36.221887479141940958 -43.006796625661195321 -36.064102157267896587 -39.469180628464435756 -30.528032936449918111 -38.527526187959395543 -36.202023131703754188 -38.225525274236403561 -36.538710196177547118 -34.200756834367410875 -31.607290205362524205 -30.508238773937321753 -27.968394767517576582 -27.809644912407076589 -42.928880906393366956 -39.865972934219975343 -31.593385974350852052 -29.549776592464830571 -34.519065628918710331 -37.458020337467523575 -31.243804701456816986 -30.569907374542484746 -37.918879527741118807 -34.621161688728435024 -38.412921377536612511 -30.510450876013742061 -32.868569872925533559 -32.744060085116814207 -29.05913372612955925 -29.582049375649031475 -32.741656616057746021 -41.576792202540772792 -35.449340691483754995 -25.701223747707018674 -35.150137018334667971 -39.41724777393521606 -32.380575650611689298 -26.714799641776778572 -31.764238303232854577 -34.309078780485570803 -42.268147886952924352 -46.009811694373389912 -35.847373434814194582 -33.049192209708621704 -38.63294600118172184 -37.328077774608949824 -32.816455216445746146 -33.84110423673278234 -31.719593833608392686 -28.73951308563571061 -34.209275367104041266 -31.663914270160994135 -30.416409043370585152 -30.558781931092305229 -37.201061947093890581 -30.847747953811513355 -39.128162841105336156 -26.780523298351603501 -29.867366618559156421 -32.799522976758801462 -28.244650977836766259 -27.735281740451760868 -40.241309032683396651 -32.349048832988117397 -31.315497171211184479 -35.456374261017849392 -33.940166666379170124 -41.980723932033072288 -40.700330223292901621 -36.618558217845318836 -31.958448761438596364 -25.619797811479223526 -43.334957111495171489 -38.025272513966953625 -42.720709150490570494 -42.413731700814302883 -36.910894336141680583 -38.88456791626326492 -36.090744502569037877 -27.913879822130198249 -34.815946371893204514 -28.839533326159379811 -32.300443412151096823 -34.740397235661568232 -37.170457508461467455 -30.587402625758077335 -39.218057356769065791 -32.695611979373168765 -37.124414895960079264 -35.55094962390664648 -37.06964260832626934 -35.560357151155059796 -32.725014492959985546 -35.907668218679617667 -37.079028784606329339 -30.487490210516412503 -44.83562359379593687 -35.913757106675305408 -35.748118065969549662 -32.503895681373464299 -37.612359930199886549 -32.372229483192818122 -38.383056431758177496 -34.797240161687710724 -41.643435171237705106 -32.710643591298364186 -36.13310676818939271 -42.711578730557661743 -36.887546994322256921 -35.458365821746838265 -40.33525590918068815 -30.769979378857694741 -28.754510915080349065 -35.697182499208828688 -39.559808161700367179