-189.33157698233571864 -183.15381266125524462 -185.56820297230558481 -187.31870285714433066 -194.53647177485839848 -191.84591364124386814 -182.43358485416570147 -184.0507970655270924 -186.76408977553694513 -181.72694279850799148 -185.86439950999093185 -187.12481382322232548 -184.68920848722888195 -194.99349379490769252 -178.15551018270713257 -184.01661287535810629 -192.28264686092836655 -185.19164110570181947 -175.55271654055647446 -182.18633906535103506 -184.64065734084391579 -181.65941171931461895 -191.23141750039923181 -195.73156460414230651 -187.50942813804985576 -197.02628104820792032 -184.93249449671236562 -173.43540873947830505 -199.05527289236997035 -173.8899238398880982 -197.39505610934287461 -177.30908733922686338 -196.64667068888624613 -191.78214706770685893 -183.48772989814690959 -186.41684423718521657 -182.7083143421075988 -187.7972922471773245 -190.47968675459472365 -179.28656053124953473 -197.70247699783465123 -191.19661916585764061 -179.06907738374050609 -182.09741996220563465 -189.28086384041193924 -180.14932157838345006 -200.62019914371370533 -175.03680160367923691 -187.78943897694333032 -196.94585086122054918 -176.51289871079890759 -189.63004987717957306 -180.6033206916121685 -178.41354878516071381 -189.28128532075564294 -200.56663151443731863 -182.27184388586240971 -180.73800216711242683 -186.41918478280757654 -188.98192404962273372 -189.49450607494250676 -192.44858782661080454 -184.44187175742493423 -193.14223961302644739 -187.61108999630832272 -197.73418016815497822 -187.45120435098880307 -182.19296324762146355 -184.29979583467741122 -187.63087246409833142 -190.39199151272225663 -196.66343918543245195 -192.53072164230712815 -193.25266579761722596 -184.95388284767602727 -187.49307919651670318 -184.93853142417970048 -183.89903638024605925 -193.32158460278648704 -176.43098553867167766 -191.9551885874028585 -192.26440564805275812 -185.99848932088445963 -186.06577194977757017 -188.31986993954643594 -184.04466526920879232 -180.14416181232786585 -190.11154845419196135 -190.7303690185728442 -187.67110912672825407 -183.32760783509615976 -194.5456258711772648 -176.55806346283890207 -197.59056072501562085 -177.78420700440298674 -179.59715843197409413 -193.61073209415269503 -188.58789537095285027 -175.97379948762181812 -187.92838867862849384 -196.80669255246803573 -180.45288978831862892 -193.96026245657597542 -176.02944554009636136 -180.4754034027917271 -185.22029276721468705 -191.78422449146614781 -194.79377077043517374 -192.27063417636770737 -187.78966089801019734 -183.80966374591616841 -182.53119975513010331 -184.7443001667040221 -179.26828684923412993 -192.48506339715365243 -179.23000600986239306 -192.23887420785510471 -191.43333472954006425 -196.72144868011952212 -200.27296723247243904 -186.94803842527366555 -183.61506759762139041 -194.26301987601155474 -183.62196483358573573 -193.4996444762471981 -188.77778146462858899 -186.32246398032606294 -187.9950964181797417 -192.1118654559770107 -189.13404701120708751 -177.02239488249654187 -185.55579945502370265 -183.95345735247667562 -195.87273947158971055 -195.07149651012295521 -191.13296718061758384 -186.89491124742130523 -199.04438369453646374 -189.16712792832510104 -184.00865087035390388 -183.92017280364362364 -179.38422630127419666 -190.86656396299221683 -198.73302654316108828 -191.25849455979954428 -194.48844791090294848 -183.45589785954959439 -192.0674096386112808 -193.68301286013138451 -188.99286867607582963 -180.81328897202234884 -190.1904844795629117 -190.38254231126072114 -190.40120394850978869 -192.93623543711936463 -182.63707127354871318 -193.53150362322264755 -178.72604018537970205 -191.59323395702526227 -180.48233336034817853 -190.53182628811433119 -181.11617904036742743 -176.25407119194503025 -182.044380593232205 -176.96944488437367227 -178.07080084343590443 -185.44633034625894652 -186.75351242498803117 -186.75892430770684882 -183.13488923982316692 -200.92506397560200071 -186.57463698267747532 -182.09828978440680203 -183.38526737212316675 -189.23598220508617374 -190.60699312051747256 -195.05790600946377822 -196.23803483253149693 -181.88077221074556178 -185.30950998402562391 -189.44696046742623707 -196.51036710298359367 -187.79576669997638305 -193.38525167928810333 -189.27003138699450346 -185.71319279605222619 -186.59259829951011511 -185.36129111069536179 -194.02864541224894879 -182.4502086000895531 -184.19567279375547741 -180.7736318286403332 -192.61862273318473626 -179.01519275372754691 -190.56125910556841063 -186.49597156090229078 -199.85672630189708343 -180.86580502196284215 -199.74209086306922245 -184.75125574846154564 -181.45520445464072168 -183.74659382070404945 -196.24414081936697585 -175.02768310368634275 -189.60788184217111052 -186.52845295882826804 -184.27273600241014151 -176.61076751261583695 -193.57041802289865018 -194.54339889907569727 -188.42507123758241505 -182.95197681973985482 -189.28063194309137884 -182.00217694252904721 -182.83113503477906647 -173.43029289063832721 -187.50300591844828091 -189.3447092480099343 -183.54305019999415549 -184.48322965658613271 -187.3871068470539285 -191.40196497261183595 -187.2408598050133719 -185.91533653629545597 -178.1378587836051679 -181.57263153728638372 -198.71345519494511223 -192.98733990601996879 -193.63892324262982925 -183.25998331201500946 -201.12030567460146813 -190.63650992747409418 -185.10697198454661816 -189.93024187343317521 -185.53006146550387712 -184.1309542500437999 -183.40667503076886646 -188.66686197007038572 -180.38480889298230636 -182.39010487036017594 -186.56778083470993579 -189.07529669076953383 -178.83889229089345463 -188.92959530653777733 -184.60264674906858318 -187.74934524288269699 -183.60716781222757277 -190.25571116396019988 -183.20805803216467211 -183.17912940855794091 -187.099714024612922 -204.20457272021775452 -191.39358692246474902 -188.64702612926680558 -185.18831748147010785 -197.20986838068500901 -194.75485548535968405 -184.2367379207409499 -191.88543535161124964 -183.16804773200004774 -191.31179640276963028 -178.33571213367414998 -178.65290061300095203 -186.63858948579158437 -174.56678198579183459 -181.38989370417382929 -176.35027275111065137 -187.06035001405163598 -187.61200645004112175 -180.04005373461228601 -193.81180905395521563 -190.65421040513385265 -190.91486762238676533 -197.38686699702131477 -191.24076191117381995 -187.37531201078823528 -196.95470501917208139 -182.555524103601158 -178.53534716220565315 -187.06077104103079023 -182.8333768140463178 -194.05023068779945561 -192.02191787874005513 -188.09356822255637098 -205.80800935080318936 -187.06046577219490246 -185.05048446157726971 -183.62687974882163644 -195.14210898992450893 -186.44125789018042383 -188.73332719613858899 -187.65169536294072827 -194.92859912954531865 -191.78377440273669663 -187.19824612412696752 -194.17539779458059002 -193.49243214011744385 -179.04815071518908098 -198.68794181987811953 -185.65831655551872359
-14.056744881754202225 -16.727269254107135055 -13.965775548543511775 -18.150537162393135304 -8.25650673473642982 -15.106655652087420449 -12.914797954579158912 -4.4822565425031175579 -15.327273807550527707 -13.092494238933728212 -15.461100794429292193 -10.498096368002308054 -17.570813174791069855 -18.558257049558555707 -4.4281492118545351389 -10.969979441508051821 -15.188226584988875345 -13.153781617572363416 -6.5634962737625723861 -15.095333697092231162 -16.988739718029854942 -11.169392547763500545 -15.989844971376804494 -15.249721521162513227 -17.127937798541232439 -3.9501017082214513465 -9.3669952582756401682 -18.503239089597379063 -13.722628966376902326 -7.3742596553170782769 -11.621574228916953686 -16.03598970788463518 -14.225794782842804409 -19.134532828092233103 -11.977777022190004175 -18.257695733790416881 -15.652390927509197027 -14.062553559860697661 -12.40159233680802231 -13.826466484277162294 -16.967428780549123957 -18.298640429119245709 -5.5560927721592232587 -12.750132788604148004 -6.9815854087928919114 -9.4932692967166030229 -13.670382010797776928 -8.0258567025282836482 -15.609714399884346392 -17.218643952963411436 -15.632203841548021117 -13.777754794636877023 -9.1045094524190979257 -15.845471221453493627 -14.992998047641872716 -7.6469497396509256149 -16.482467131987196041 -5.1664925956883474001 -10.454388488002958724 -13.903718458965961702 -15.298529596562044475 -8.7494094764691148214 -8.0071433343030005148 -9.7582910624590297743 -10.614306491588131109 -16.080785416029755197 -13.084962327775556901 -16.466611926681601119 -13.844181329040246453 -8.0151503101053673817 -5.9239901348277701487 -14.485652162836901269 -10.787498742242398464 -12.442816976654968997 -16.558856260244908754 -17.406999451595428496 -6.9479386834589735855 -16.482553995297102745 -16.537318423786775412 -11.839585975752903835 -12.494287180177686025 -18.765885133193485501 -11.566980549620065943 -8.3799989821786819988 -12.350556037640586737 -20.575007525813912679 -16.909720020657104556 -16.978899894612450083 -8.2761412694825597924 -6.8778434991291268474 -11.286616028418261948 -17.586234007113031197 -13.01540876366136601 -11.867953256672716833 -13.182122171693993806 -16.179954798247372594 -21.849099839890662622 -13.256138575352629516 -9.6525008916170484952 -6.3143525006386376219 -8.7184224574692006371 -8.475853031648956204 -12.823493184516184584 -15.344786074405819321 -10.700659453192084669 -20.960880262890945858 -15.041743901514813331 -18.638440774244060094 -12.585450598020759827 -14.809348407166435635 -7.9360434739670546733 -13.507799162305325069 -10.950354629514073679 -12.158038531313803077 -11.498930194341230759 -13.080560434583677676 0.17631850680881466786 -8.8644438991892560153 -13.960398945971554951 -15.979061801290121991 -16.246678993587419626 -12.019040224170151276 -11.939669126444382385 -11.681063436979798098 -5.1109552786138898739 -7.051983812031196841 -17.04601159970043156 -12.060720276489856673 -19.521187020889328778 -17.130945700796296194 -10.092065807365097285 -17.935287573979639575 -12.001598099789848817 -13.57933317315014321 -7.6121302367927752286 -10.420321781905029113 -21.939506328965912019 -15.89469247229502713 -18.797468557520996768 -8.9293222153602087587 -8.5658363825973697914 -9.0683974722932596535 -17.616119737978458204 -14.847446311067868052 -14.471226406760379746 -14.263899139709222297 -17.403298703363290656 -12.5723692495414614 -15.605437472025181833 -13.570602864042042413 -12.146458414388860092 -16.460066806599883193 -21.071285176681911366 -20.317708549104114724 -11.549637400027201295 -11.223861166276332568 -19.965791452096240732 -11.053739836094077731 -11.589965555535425068 -9.5481335657292376595 -9.475995157895464871 -17.71986158787747101 -13.259666787816486888 -14.816927669519847299 -9.9573091048173605344 -12.020711326978187117 -13.826236847869372681 -19.752439113979463059 -18.692183354805113282 -10.951188839965205091 -20.394881993350455929 -17.20679940266007435 -10.439137648855568941 -9.9393000633785195674 -3.688341000139914172 -14.073562201038464892 -16.004957997104000356 -11.414759938292478481 -15.977657175445347804 -13.923351671664839557 -19.140984218891400559 -15.834924761936509441 -14.922791765450224233 -12.355778587522905809 -14.870606151933616346 -15.819243005901363119 -11.628320970229282239 -17.405259112381635589 -16.843178032268092181 -11.143007155564712107 -16.711375491165647134 -13.991545138555041561 -12.366931235429007074 -13.438855318612578316 -10.744223564350294353 -9.8963340860609996241 -17.427896408330077804 -25.790218896522748793 -15.513502816053778233 -15.077451275126643182 -5.4642433533451795213 -8.3499612319548646155 -13.545971669961922146 -11.829996787901675859 -11.20673249069541022 -10.505676032979357259 -10.741134066073339426 -12.728057833155247636 -20.206879721965222529 -13.099105917029319812 -17.666430695449189869 -17.580879670953983407 -14.790835438587269124 -16.708299900929901582 -13.273075820408823944 -11.008048546386822508 -17.699723758490687686 -17.522469453433576092 -18.284230928668137039 -15.176640515283562394 -17.121041802454477931 -9.5629635857849137892 -17.290860864963214283 -5.3408469137743157518 -17.238670506972159302 -20.523669997246479113 -12.477356131622618918 -10.568050704548575425 -19.993208191091049741 -14.627619713497162834 -11.561035229674239133 -13.284128723462295341 -9.893967237669222925 -15.511735446404214755 -12.0560040452850874 -6.2226410317222402568 -16.13633123790232915 -14.358293232011142493 -11.715477749669108931 -11.131502266935591194 -13.0812675725078158 -13.345803337693471491 -11.537550671712274664 -16.986309934234657959 -14.275407745069056631 -25.09709412514080995 -10.632344573239670638 -25.886522901491353821 -14.263639113431819894 -3.7943018436077124989 -9.0247111850162653468 -16.233275314433768699 -17.202629580370874862 -21.900754250252091992 -13.770199068024421507 -17.884149759135500091 -22.771286203464228493 -10.598956919285559053 -11.67183340396222313 -18.57900962515029164 -18.926450157897718896 -7.5942702050862056495 -13.081272309115789199 -12.595850849632064694 -11.932950300245293462 -17.666707665417192175 -18.418508371194747042 -9.6879441244390029908 -18.081626639684763802 -17.09839846257423801 -14.266084856351056942 -14.030677809042007453 -12.177338838942773691 -8.0866574085969116226 -20.587076358176005897 -14.6899012658708088 -16.186655166906348313 -12.224659037562908281 -5.603754488164150338 -11.442411730323376773 -13.538088215706292061 -12.44399235413048288 -18.170333726158062859 -17.836949476414385884 -15.680499531786853851 -15.842630882034180573 -6.7271531450453920797 -17.522700225153798215 -10.427789798975378943 -15.492323019347649549 -16.344031624960422278 -7.4081874924564541374 -16.715029323236265668 -10.737960260907900789 -12.226196428908680858 -21.054460210032068801 -13.832381749453162456 -7.4251727791881769747 -12.255982884256855669 -13.804255123425519969
92.18058316861193191 95.015539672050664421 96.438468139404491808 90.743255029576943116 98.056561115825175534 85.640416227044156017 90.53595760622204125 92.4969131858531739 95.230230347050905948 87.947648244580150845 100.31701224599112265 91.504525477168499492 99.905094644026078754 100.53043411057380752 106.7164426603663685 96.620716174637621521 88.635482060798523207 97.80868151028035129 95.77262027528456656 103.79517056283603438 98.339692382606529009 90.306476168309060881 83.759206578493291317 85.84212667323039625 105.43690836704931257 81.80711214009915011 103.57468609938501913 97.526800338329820761 92.538356907745338731 103.75480221629591426 97.275472052907375087 106.90652363542051262 97.331736369845728518 98.114600983303859039 95.01667464463794488 99.354872675908623592 90.368800287815034267 93.693113142863978737 84.616509570366019943 110.47823694992409571 106.23538209745242966 85.84217471279032452 81.264218388534800397 101.57672464324598138 94.625000130291766709 89.550753120180303313 100.68316675571085739 104.30166801631980888 92.960488302676992589 101.70951641878694716 91.703769399381712901 101.44137909528745922 102.56842824684417792 93.832304382961353895 109.35924265110520537 92.190204503711669304 74.627148711331713571 86.317863594461897492 92.029542291610852089 98.072283931175462612 101.10799479887462837 98.562556067568124263 79.471927822993919222 95.679438952578280464 101.61873408647750239 98.615427134976044954 81.056453751072126579 99.755751301652026086 104.73425031916748651 83.399905725724096328 82.565799449705096436 99.060343656400164036 97.916867051790148935 82.578473221030506579 93.603525010964716557 94.305411125533211703 75.603672405972105253 103.83914004708337586 101.71732050002705705 90.504708339506919401 102.26880033015196148 91.706657475592450623 90.098703516498488852 92.854286510489686179 90.283629224960861848 98.019135564360396984 81.024269765490970485 105.49753390458093349 88.667987977642354736 105.8089306237893652 84.298674359228826347 90.955400096075521787 105.22299942451337529 94.584469057517310375 93.578620917737055152 78.626020944228628196 101.50183353009535381 104.24017676330652193 80.943627988126223727 95.290374229684474017 88.001443666499184815 108.30981096172496336 114.72094628255376847 78.275951803922581007 103.26085161597080742 81.214594716034412158 88.05898633652152796 102.0863109579541117 96.745523655118532247 87.889478036746368161 90.488618762851331212 97.817980755173437046 97.228476474523830575 80.521235825801724673 99.079380718547298557 100.38928548155988096 94.156634309505690794 101.9345549196979448 92.930053233165338611 110.99566827091112486 85.333086424198626219 109.07677455544012446 100.88773845943930496 99.72748481240472529 102.41226476550774294 95.836533803908892537 97.097973808543471819 95.160194219704180796 103.51894018283188359 95.539099711544622551 96.922886206056460878 93.918896568241095224 94.923630264222651931 100.49466584446274453 105.53406300468955692 91.204409021530722157 98.628663708149957756 87.117389417480097791 101.30507207624700072 94.00376916575207531 89.624995749442334159 99.516693612858219353 101.79939776217915437 94.804106980115065539 102.01826203836408524 91.969186994078427233 98.670560319106726865 92.828820873994828844 114.34729816785254286 102.68131618187652521 86.288313517139400233 85.932380147551924665 114.9113653470994052 99.336341453245736943 92.766508488758930184 107.64943706961278735 85.30151034721248493 101.44519467505560328 90.915164892822588172 82.716462886957643263 86.319560404522164276 100.3660891675849598 102.02308013862239022 95.7404222255929227 94.778884607889523295 102.14481353977264178 85.922270149921530447 89.864232139701726965 104.591593422318752 90.489118952683185171 112.75188043681636429 102.33680811303977976 103.2127819652733649 88.295587544896747545 90.654699604654013001 94.210195314169155267 97.017330427976773422 96.624291464916566952 89.901451084085479692 96.153349151082380786 100.01590143053593351 97.562616639731814416 101.83198286930715426 85.599132602006818615 107.9652818880200158 74.165601609712240361 91.414104272680390295 92.824696026046822794 102.25530826998257794 111.99740102260636831 103.10603176038955553 109.90859282789128315 87.319998084010208572 94.305808451522779023 100.15577896854539119 84.515570953313712721 91.172364652492831283 91.783501849444718346 101.54845137051995607 101.32754339345441963 101.14772502511449659 97.757865187689844788 99.104324127788657961 90.276740486975754152 104.69717183863532739 108.06585535922886265 103.32263571689280468 88.673430244457421168 91.039694750076876062 99.809867691315190541 97.378452726393859962 97.138949103946501396 91.087724424837674064 105.64969515917483989 98.108146498359019461 106.40256124202574028 106.80899700270904873 86.187871022644259256 80.457667768860119395 97.227620266018618622 88.167304318681203767 97.851115786000761432 106.57330534519297771 93.652955084728105817 97.831164920261073803 108.69035837838367797 89.235173522545267133 96.138589643125115458 91.466133442750759741 96.885097696674762346 88.245470022730714277 103.33518876388467334 103.17163456401097221 96.022897108979734071 86.002992451597037871 99.248378725907940634 104.30790274488762748 117.30280420288904963 87.367460770926399505 100.11328822026456464 80.169631563411741126 106.10804820387953384 92.889135322636789738 104.94569047730320221 101.10856596827832732 96.383299810633374705 104.20569492922132326 92.868007285386354965 106.86688979971071944 104.92879087013130857 89.554004659984059344 85.172592264207452217 95.789860640111839984 102.07060126701577474 104.18187048429706465 94.88894916639475241 95.97748504573692685 89.305147341357013602 108.96977348621878434 102.36915357588716802 93.339904471723841084 100.23110131827715463 100.31855061271437535 89.635972985327143192 88.751506157499363781 87.818474245314831705 96.993401055444323333 102.27108077053387092 88.671965135788695989 98.649569185035417718 94.646177503040689771 80.536847292720764813 98.255155511554661985 92.419551664931404389 100.50732488674533727 99.726573121475283301 94.565488801480341863 99.068736253777657907 98.863874733520219706 93.547822023628853572 103.84759008173534767 94.852413711213870329 105.08149940212784657 98.083695799322981657 88.255767947340302726 92.29734538781916342 97.258656835550667097 105.06852098286245223 99.695631754228259069 96.179509651280000071 114.12628376202252412 91.546910724112223079 104.16354463474561953 96.892255463673805593 97.369944402394821736 78.686136302529376962 97.657777246021396422 103.3890934481383681 96.943524930667393846 88.687098007865557747
-240.57306727926734879 -223.82937269653061207 -240.31733080578817408 -228.12170782835585214 -227.96634919179592771 -225.14028042989104961 -232.73101714799281581 -229.20612214822378405 -234.07146485327243113 -243.8481588597751113 -220.30684532180208635 -229.18887050170371822 -235.61604513784067194 -234.22696332704603606 -232.79363637301545964 -231.44044685209371437 -246.95477115523439693 -227.0319815301149049 -225.32412363162461588 -222.96637552362412293 -230.91218307816885158 -227.33627005395530318 -222.25472635777012442 -233.09467591942822651 -226.7968950701194899 -228.00959392619162713 -233.37498484530141241 -229.10445198401822609 -242.6775919546595901 -223.68710973894252447 -223.53947530656398612 -230.22251587934195527 -236.47282457431685998 -224.82971770147435109 -234.44918311838333125 -226.70513858490252801 -227.35132731447842502 -229.47439921705301913 -225.3792538785304771 -231.7649612729077262 -221.82834424201911361 -236.10120648927906473 -237.7967852407353746 -217.04882823292319927 -223.08884851617546019 -224.7565440115554054 -207.15055040525535901 -230.14397637733790702 -220.98160687770837285 -213.38251878719478327 -229.64351361510532001 -228.57149687234877433 -231.57749597710841272 -216.43771261491860969 -235.25573628827581274 -222.14760855124211503 -224.68793230130927441 -227.67903562962547426 -227.61087088523342459 -229.03006722676914819 -232.19581178781879771 -217.18045270282959791 -223.60483782883497383 -235.4960012435236365 -225.94031016090181652 -230.88842984313032503 -232.95696505956675537 -233.90315972266998301 -225.87257970430724185 -228.68951953824384304 -241.92646348217729724 -212.53536606513338825 -226.03194055151053021 -228.06777438734434327 -223.96806769384912172 -229.36732062484827566 -235.77392189744503526 -232.293017252868367 -222.54057955193454177 -226.94931213842249917 -231.23656040255210087 -238.80737344465154592 -239.54938313008770479 -242.33009033230888463 -214.50709636891181731 -225.32644603642435754 -237.17514495520501328 -224.36151909702468288 -222.99152975463206872 -236.47582543080844175 -229.32244159908810843 -234.42870452071466048 -225.65949887398841156 -233.52665075971376041 -238.85500599476279149 -234.51431342083091636 -223.61901537318252053 -231.22945992102580703 -232.14899677466829075 -228.00044888863294545 -233.34197482218363007 -230.65323580566953865 -221.39352744353828939 -241.85477359249676965 -226.88387491208627011 -234.58764403396816078 -231.50262481479711596 -227.73702621193632467 -229.6263659500681058 -234.7947052133868624 -216.88405500519019142 -229.89138987320353635 -224.78983720247100564 -227.94396123262390574 -230.46260566742515152 -230.22948068322662607 -235.30766131181684386 -231.8069918564822558 -237.6433107461440386 -229.78800493151740625 -227.70475343041152883 -230.89152190304724854 -223.38523830244326973 -224.51526062767717917 -222.78267908448506773 -233.79831631841722128 -227.98158663170389104 -230.29651070059989593 -232.45543212757991114 -230.23390192976182789 -225.25405758991556127 -238.28153777685906789 -232.9695454226901461 -227.83192749816848277 -234.86641055757399954 -217.02980430344808838 -232.5925993460822383 -222.70196603526559898 -243.95757054689144638 -226.94801673357321192 -216.01631607289951376 -229.63591647618537195 -230.17512030747820972 -230.04706183057683688 -232.75236168838046069 -235.01243475667985194 -216.9003256380540563 -233.36876766130535543 -232.24212364320536039 -238.31786918960236221 -234.37243739350668648 -231.26523511714268011 -222.90269156806704132 -236.66471913537262139 -232.3646772158800502 -234.41370169796635992 -218.3787214080183503 -220.91892027748605187 -239.88727974730304027 -239.44957074126904217 -232.56463059059029774 -231.56453190896075967 -230.08805076853076343 -216.40573241871700816 -215.2617290309420639 -231.125201660155426 -230.02836141986503549 -236.8208339508470317 -223.22053596503562289 -242.43198767361556634 -232.24934583745698546 -221.22062433136119353 -224.55548594214275226 -238.14591433226661366 -227.40516718514734862 -227.90462004638015969 -226.49119697445684096 -231.60983528899731709 -230.40189658796026606 -225.03494441626850175 -232.63815510202479686 -243.14079918190770968 -240.2048284526899522 -238.98114344875881443 -225.49634198738118585 -210.87957434934816092 -222.54893071186265274 -228.52292415526892455 -216.54599870039439224 -229.15054285063789052 -232.5483014155053354 -222.58069483147187384 -226.87500406689778742 -235.91735684429133357 -234.95582334056831542 -233.46115690496711181 -234.06609316993154835 -227.24904014414067888 -243.39301138010173986 -231.61911013413018168 -231.25910582434966045 -230.06510344457137762 -227.29986150232602427 -224.69667543923242192 -225.28135885093837487 -235.37573644481693691 -228.38922763587268605 -222.63774125494890654 -245.42376107508061978 -221.09359714233556815 -241.46390031343980809 -226.01866483764842997 -233.16817160229516048 -223.86729968465482443 -235.65891959342656037 -231.42037861438075197 -229.41813693381126882 -231.11398191557057658 -234.18596251357035953 -232.82798299173023793 -231.43434606345280713 -228.29065961989761036 -232.45317273175143669 -216.53226567058294449 -225.46228819817676481 -216.59938433586648898 -230.13631158186498737 -236.13182151811489007 -233.28418197772558074 -234.55073025543040899 -228.3806449596282846 -233.40149112571259593 -230.2922197557819004 -228.49569260518057945 -234.05026359917073364 -226.54353596596024545 -228.47366685943291031 -234.648428439044892 -235.56012571683828583 -231.54987250344527183 -236.49130258411867089 -227.59718910746806841 -239.19220253655925035 -225.17885436274821132 -229.0840593959417788 -239.43707733501668145 -232.46838092551726618 -224.61623759288980295 -228.07284928950099356 -228.86675579111300749 -221.05429768163804738 -230.30894773031741352 -236.73023497629696976 -229.44291040730158215 -215.90159346088142911 -234.99972191238165919 -226.7739825683775905 -239.68087974704269527 -232.08610302285649141 -229.34534296833376743 -235.37515537435072588 -224.62996808095368806 -231.94519145018526274 -232.94705208886918513 -246.80163532100783641 -231.12351023296017161 -232.81892852097038826 -238.29828286656521641 -227.28652237425509952 -235.33244640567247075 -234.97691598980082972 -234.09418744362557163 -248.62728161472441002 -229.9339067650951165 -235.22615134168003692 -223.54701409840799897 -218.27497123838989523 -237.05096749689349167 -230.34759018124188401 -227.23008706873355322 -228.58354852962878567 -220.65055672215692084 -236.97530235424363809 -218.42257081451134582 -239.29889508464970049 -216.49267570431828744 -232.48565177072666188 -235.63537477728800695 -236.17020312189694664 -231.51661520180823572 -239.00068672917615231 -235.70652243121773495 -212.91953515851699308 -241.00326438610287028 -233.39085965183997473 -220.48781152787211113 -222.90269907445741637 -226.95781758887022761 -236.63429780424110049 -225.90646859018536929
2.5793131985858570587 3.4913898917012260448 2.9538019660509853281 -1.868640456010629336 6.9713562799466775033 0.021663591121354741631 -11.184122804341463109 3.0705446105835370041 -2.4454960329946517916 -2.948919039322619895 7.7119283457061609255 0.37070257588039545738 -3.2832179623329578178 6.3455881959571840412 -2.6324178516720078136 -1.0258407651730836463 4.6755112072087658959 6.094039847505425378 -1.7453882920523833278 0.2680906311217413629 -1.3540147941728637448 -1.7269133907086260393 -2.3561566960773454582 1.9719173512361107825 2.8858156142981741255 2.7352073922537787354 -2.5095590684206223742 1.2178822281146963746 0.27427207484716120689 8.3217643809781058906 -3.402516100156313783 -7.9146684102000177674 2.8266996419360150838 6.4438459384867554647 2.994216624853924813 3.9957459479665420332 -0.74275502455477937502 7.8519928415338915428 -5.3187824277814410578 -0.4113205619281661285 2.9609407596051937617 3.5483293087244742736 2.5600372862473479429 6.7130099372268876579 3.8444184806931853693 5.3850992229708980474 -8.2429542026081090711 6.8550364260768450464 7.2347783281929185506 7.4446173328346043618 6.7561420433241758943 5.446989156081611938 5.3186016524058077337 2.3884518613243201912 0.37008140284432577971 -0.71762340746758290777 -6.056543460812918056 0.29908736264039248454 6.4660109958926064166 -3.4733565250195876928 2.7377340128979579248 1.8198366569222999001 -0.083913688861162682997 4.0343333131296210681 3.6034436927988728883 -5.6165133188350555571 2.9297341026665626451 4.9067480652164290333 2.146426990763118603 7.1849388945582859378 -2.3701820751929449926 2.1283920449494413418 6.1001494800365163584 10.406633797848742873 1.889844105249512296 3.205855607060674739 -1.6624893673746283795 -0.25155728257993370534 2.8016638134735596388 6.1454548172880736345 7.9548855570657046599 2.8529852947173863775 -0.65173697962272392203 -0.59864693844063054939 4.3509187277581435893 -2.3114187826594729813 -2.6048703360236924453 2.8534503981985133159 -3.3826184391268925289 6.560870360660503664 1.7445329260649753422 13.850765946696721898 -2.9729928388312094611 3.4205817881836106942 8.2209264783142934618 0.96275117646401575655 -5.2174153851532274473 -0.482194047819530347 6.2447329939882054717 3.9592658555353956729 1.7023661395417999387 2.626688131760868572 2.8071404957429058058 5.1635711773590289297 9.1796407468866654256 1.2091184528239384832 -1.3793039119761365541 3.1795536345017971769 6.1220512353583105281 -0.67886054561151176756 0.74202604626883417183 0.089495272086663080202 -6.7283439179097603855 0.48612558712209974487 1.0417863560610216567 3.404258474278748281 9.2233227306031047021 7.1861695631944764173 1.0408787946802189328 2.1067183036554819608 1.4700534116686725383 5.6245529464526295982 11.309767837451897066 -5.8447486178693663916 5.2660713053391754457 0.36234013313776980425 -2.5547041852269938289 3.0289497472499515851 7.0722797369197003547 5.0306803050566006874 3.3785222314003657829 -0.71047021339396110307 -3.7563806149448373262 0.48243300900660734953 9.3452223438588699622 -1.3318114222646002531 8.0019466010962663205 5.874286556733552267 1.2471520089287713162 -5.4378878326846553648 2.3819930690243475979 -5.7893018675621323865 -4.4472185266388359892 5.5703080264397382138 -0.18851896273450741148 5.8614680683821092089 2.3105458125865290242 10.818487856762134314 6.4390225836624859213 0.70888980930384315471 2.1866992796663353715 7.9285058761944986472 5.1137177027621021352 -2.78242959217330732 -0.99831518392970763909 7.5778075961122564053 -2.2144151139763188496 -2.0720394125176788691 -8.1682564771858316988 -4.4924595807493155064 -5.1726772316539397778 1.0073381169568627058 6.5596455424939801304 -2.8785298081060055608 7.8010941243084701568 4.3886572845259275155 0.79493213391498507292 -3.1305977347937936628 -0.42819315952560277339 -1.4062345150744341993 6.6639276126872282191 0.61970648602662770088 -2.602888122258828929 -4.2939867634955861675 -3.43971349935499493 3.0538784478845037995 3.5771465763679626271 -9.825135528851969724 2.6629090161206514509 -1.5928804040248785157 -2.0849376454435102346 4.1730900132346580023 -5.812365010121195219 12.26175912365941123 7.0749499353544518243 2.3660462679717504386 4.638961436151905815 2.2504244221288338679 -0.42218918764428003954 3.0017985058053104908 -1.1599728279110470552 -1.488272569594639716 1.9847377442128522063 -4.6182697766088676161 2.7152758949287925105 8.6288512448411118783 4.6420609436470083864 -2.4511027071985722614 6.5594330455984311001 0.77994947030729466775 3.1480209679942525725 -3.1215350277415083724 -1.9075533056852038705 6.0466000444899039579 -4.6717750911671860337 -1.5816631956294084915 12.268799433587215475 2.9962285901090908169 -1.2845203196229890708 11.520007219342382143 6.8759206713686076284 -5.1805000943356009913 -5.9385397030200515189 5.6545364804038085182 1.6568263093716573131 -0.11500827308959760131 -6.8054726123003206339 6.0697640246551829435 4.9722930323766307836 4.6011479458344020088 4.1064254193232532231 2.2330942096999293334 3.5303085084238947644 5.3150506456843498171 6.9357406632862605989 3.944327540606556326 2.7514930019894197066 6.6220730735355495256 -7.101973100291703922 -0.16591181995825188267 8.3077559059974781519 5.7753845090962521169 -5.1351840783754569841 -2.5904726260957460227 -5.4312362555062900782 -4.329281786828126144 2.3729051435195440689 1.0664820262096483816 -1.1274809419291984547 4.7588785707640743894 1.1577999767161717415 2.9389607099367882626 8.8042325667612360007 2.1255116862809320111 7.4854303902984753449 7.0878831722789623626 6.3667355880343530217 -5.345495260376474711 7.0834293314829848143 -0.17744060680197115687 -0.86850347313240128244 7.4930109075799888885 -0.37472878766959993868 9.5897494168484733734 0.20236463345836774863 3.6332402595828106051 4.2591780436345558769 1.1620775128341582771 4.310104356825277705 -3.1967072573051580342 3.960579365888982295 3.0528765985409118677 1.7428706530820505805 1.8874296223279038998 -0.51222034557066820071 2.7310996679687455924 -8.77541854906013441 6.8491831784182783949 1.3268479556168824018 2.7957760853236250931 2.4393544419855244243 4.486770987710233527 5.5403439174689959046 1.1335996846725553411 -3.4647104207747929649 1.3738403539410506404 8.720665509883458455 4.0319251713991066666 8.9385361641527438792 0.81148061514126901272 1.6395242003074264048 -3.70997105563192342 3.1402410968230318744 1.8865460793728994204 2.0550583068810039933 9.329399107771301658 4.9092019081189262053 4.0270724191848454865 9.411166537773958396 5.3523392354124368353 8.4820062909381519489 -2.7065947058905139855 7.7181288044704183804 8.1074499881774606536 -1.2387202304045521473 0.32716123508404315601 0.29918633958588713995 -1.6066166004896649255 5.1658506770401340091 2.7133586686627069184